{"Descriptions":[{"width":28,"height":28,"channels":1,"filters":0,"kernelSize":0,"stride":0,"padding":0,"activation":0,"layers":0,"neurons":null,"fc_activations":null,"layerType":0},{"width":0,"height":0,"channels":0,"filters":6,"kernelSize":5,"stride":1,"padding":0,"activation":1,"layers":0,"neurons":null,"fc_activations":null,"layerType":1},{"width":0,"height":0,"channels":0,"filters":0,"kernelSize":2,"stride":2,"padding":0,"activation":0,"layers":0,"neurons":null,"fc_activations":null,"layerType":2},{"width":0,"height":0,"channels":0,"filters":16,"kernelSize":5,"stride":1,"padding":0,"activation":1,"layers":0,"neurons":null,"fc_activations":null,"layerType":1},{"width":0,"height":0,"channels":0,"filters":0,"kernelSize":2,"stride":2,"padding":0,"activation":0,"layers":0,"neurons":null,"fc_activations":null,"layerType":2},{"width":0,"height":0,"channels":0,"filters":0,"kernelSize":0,"stride":0,"padding":0,"activation":0,"layers":3,"neurons":[120,84,10],"fc_activations":[2,2,2],"layerType":3}],"Kernels":[[[{"rows":5,"cols":5,"data":[[0.36597669429483631,0.34753117109480008,0.435572096046506,-0.957457545603285,0.56609681786340849],[0.15213477532813738,0.15668129788426757,0.76122112894178462,0.28279689658366791,0.86149286842523476],[-0.6362788171246857,0.53256277911122585,-0.66426104745445325,-0.56996144653255876,-0.064773527151562579],[0.29894594911652889,-0.6620798440468969,-0.8061348114927992,0.39451419522652026,-0.5665717123463232],[0.14031078588845031,-0.97050674734547793,0.57337101208836361,0.83400967759102806,-0.80732845021763433]]}],[{"rows":5,"cols":5,"data":[[-0.031289040636652145,-0.80456171125636888,0.122589836664925,0.66782893413424316,-0.90089298036157839],[-0.8696792153854237,0.2562978170421939,-0.0701181933434593,0.78076507338973722,-0.13666871873338152],[0.58236567458011845,0.49558034146502483,0.20954892496514482,-0.23853853399603217,-0.82764508334746933],[0.12416332807415377,0.78882177871376624,0.29428061534958044,-0.85741153102237511,0.035099089251451887],[0.075254581699675818,-0.707938398501996,-0.72229167480470213,-0.27156623612587955,0.14223215077463766]]}],[{"rows":5,"cols":5,"data":[[0.74874497467871148,0.684102832722088,0.94047354530729022,0.1129454213383693,-0.364195699217008],[0.29651567161179687,0.72930496327088346,0.57989246571399866,0.85819559392521727,-0.43928080143014997],[-0.061918088972146249,-0.96848716518650968,-0.92140098656200586,0.17138933167984383,0.67127516255737318],[0.078228149936829833,-0.40807260054760514,-0.47263527741365563,0.522421489084674,0.26047258532075312],[0.77369840091467346,0.10334874017331525,0.39611510537362116,0.19369606666179237,0.24030487981026028]]}],[{"rows":5,"cols":5,"data":[[0.26352239798690286,-0.33658152579609557,0.41229337624430146,-0.21068234786343437,0.083590578195123166],[-0.36195951307899138,0.87863441008524756,-0.57725712952990449,-0.45441111701125031,-0.63857654365168093],[-0.57065806143082887,0.36218531832958,0.86323422427399477,0.18016168164942081,0.59722509332778084],[0.88877565087679555,0.97890226229825472,0.36866652163794117,-0.79283577509486713,0.26933362643102277],[0.14627096544072338,0.75032553940883662,-0.86362144981368549,-0.54445879313562606,0.9900720026101677]]}],[{"rows":5,"cols":5,"data":[[-0.48295723071680174,0.78031635655815068,-0.24887168574946539,0.42926167993158021,0.38673502558975503],[-0.328985077789663,-0.71239345557745848,-0.29291919658829019,0.84809441295336463,0.34767859419872443],[-0.38063867375093252,-0.67790093495101633,-0.21838014006556519,-0.20991885745355957,0.93031347945964493],[0.033583088455686555,0.60377695888604688,0.5275852257463518,-0.15064055322684627,0.26978653804631697],[0.72418425253579788,-0.25618498372076232,0.37590126564601667,1.0082364604128884,0.43416611621783474]]}],[{"rows":5,"cols":5,"data":[[0.80238590108295871,0.73782943044394178,0.20675354705137392,0.96036977547618185,-0.89279804814026476],[0.56067381454525145,-0.4557043512543455,-0.059362993837993705,-0.20689443841186969,-0.45451139583218109],[-0.10625206489797007,0.13505097961260015,-0.033887417544056476,0.13640597706696275,0.65585939178669372],[-0.84837185276609139,-0.38214072641076058,-1.0054361625584749,0.82389305967561377,-0.070548334562653137],[0.54311762598550506,0.15288937455819265,-0.39462127468725638,-0.705366201640047,-0.79728215391411172]]}]],[[{"rows":5,"cols":5,"data":[[0.51734359810409092,-0.78657358653250542,0.29103030940376967,0.18988329403211327,-0.7767580874512765],[0.76396167278757687,-0.60557643435038866,-0.26769707669257276,-1.02266621091105,0.5502755199882654],[-0.031051729201887986,0.081043441448535938,-0.24742131018533217,0.69788680309866935,0.76856869603131839],[-0.931693147723095,0.37291944475454725,0.971493766932825,-0.8126309581879233,0.040257804433419288],[0.85095322917178817,-0.35715208471914611,-0.63252503017008266,0.17806896853133322,0.10988287186490751]]},{"rows":5,"cols":5,"data":[[0.067660256670446089,-0.24883107001381016,0.52392810577594329,0.0159414257034438,0.82188065644508024],[-0.39103727770496111,0.088476691128167223,-0.093445521248198313,0.74160033668176029,-0.40551833555716144],[0.31385801378044059,0.24502028343677415,0.7166073071097947,-0.48625840577209134,-0.21537912132365258],[-0.52619204481319493,-0.61397175937964876,-0.0953546236467854,0.54578828929922563,-0.32492260897843128],[0.049428067256646356,0.87120480290645708,-0.70348811764488917,-0.97230916543722778,-0.18166258667128726]]},{"rows":5,"cols":5,"data":[[-0.85555155804134808,0.22443902207295274,-0.64005489830110351,0.19995933705761104,-0.77747614999141834],[-0.10122943943633057,0.85465704833825773,-0.89013507534077663,-0.97515016442333968,0.059301338914053321],[0.055509556674083194,-0.13572765291383759,0.74241377234285977,-0.88527738860988381,-0.039668933015777313],[0.82385037080176393,-0.75841092972072288,0.0098445772811251737,0.10380312316943997,-0.48011731854090317],[-0.16162027210575874,0.61291306673688239,0.44479535683502547,0.44298597397838141,-0.41909696523030487]]},{"rows":5,"cols":5,"data":[[0.4525573806622743,0.64879408365853641,-0.16575342720616812,-0.58204980528743555,-1.0634188791207697],[0.17418295065338491,-0.53942525655013829,0.59514079883263971,-0.75841962980271693,0.685627806620766],[0.3826652223375957,-0.23833340676731604,0.67108311714848823,0.45867421810262438,0.72897191327482869],[0.47401472984737864,0.10946254710494227,0.61978090163141275,0.41719992221045332,0.73226621622069865],[0.57263908192805024,-0.31896956854810388,-0.17245438240022321,-0.39308516692577022,-0.15452482351236258]]},{"rows":5,"cols":5,"data":[[-0.085226612031252869,-0.020131525562839668,0.12001356846609705,0.49909228573735143,-1.0404293937484039],[-0.38084549233632842,0.83071740499382429,-0.027175309080175441,-0.35899448202687767,-0.19726085121422771],[0.26476822304605863,0.020542231972467018,0.60546433092989882,-0.99570307010549619,0.95948663105852994],[-0.34634126643101759,0.36328995058527142,0.482564138775235,-0.55932915950619233,0.6034023132952997],[0.1052727161480984,-0.48771091462600624,0.53063617895164128,0.37089815852499519,-0.0020616997906535658]]},{"rows":5,"cols":5,"data":[[0.71929423065701392,0.9677887665877527,-0.96102967590773714,0.6992291145433569,-0.054430220123836588],[-0.24715052994784587,-0.17176817734123134,-0.7157407333725061,0.60825985106384661,0.10557053982353672],[-0.7863558318588062,0.21911866763438925,0.95608676507107737,-0.78135870542793662,0.0853641538895405],[0.60783399835172558,0.75352064472588409,-0.0053078108621181638,-0.38234192876023021,-0.512868569122972],[-0.52572927862162,0.46655197992594183,0.5929285946815106,0.37284530537658794,0.11525151420719923]]}],[{"rows":5,"cols":5,"data":[[-0.77024635808708342,0.256374469178527,-0.64582490740884047,-0.026931127337636248,0.6999121635479606],[-0.60326451250182167,0.46755583176676935,0.81793160442659063,-0.4194859072663466,-0.73875443402147045],[-0.37844394828707612,0.75935654324498181,0.27446230423115653,0.69405420626647274,-0.94129373944493988],[-0.61877322616858943,-0.29751003338366938,1.0019240717566753,-0.10141250758083806,0.77537778147532654],[0.37526263447000158,0.398795448570644,0.22224518673843927,0.36069102716999724,0.96550830454113412]]},{"rows":5,"cols":5,"data":[[0.38673832170380418,0.50831199147401451,-0.14048534130326298,-0.097480482922155845,-0.50092438752455737],[-0.73669600399248281,-0.63698976310797317,-0.33609464490719865,-0.40682059402703363,-0.2486073859729416],[0.50920207601513823,-0.51006968896756122,0.31901426474587929,0.9249717994054919,-0.23456107803407297],[-0.24652057176455575,0.42673006982020262,0.37332954910105465,0.97245697108680551,-0.48451449975745342],[0.874085561838828,-0.54214622449039973,0.29813189408576718,-0.40888322135557531,-0.88942727476305594]]},{"rows":5,"cols":5,"data":[[0.81891353518974408,0.471371175701146,-0.31305623949651318,0.58101624268404306,0.746786503472273],[-0.14193960318468035,-0.94679426390265342,0.029328723206714868,0.030601033446643437,-0.67370544316063041],[-0.09154845461919367,-0.3613003651581938,-0.068946716644903552,-0.91124235867848069,0.99162515904631421],[-0.72048085409111129,0.11941910511329733,-0.30229807539420511,-0.04249076015184463,-0.45049993420211587],[0.9166888638429348,0.39779685961964667,-0.94132766721598959,-0.84559010373984578,0.063088816014775354]]},{"rows":5,"cols":5,"data":[[0.9696507774312253,-0.97605881981662734,0.25698905339549633,-0.16665629844671695,-0.90934436595071722],[-0.039587772868171681,-0.75616772699087709,-0.70542240761842578,-0.20905306867672702,-0.29987319461504408],[-0.19759013676395959,0.6655930325414019,0.064047228027758044,-0.13869747920812611,0.90261060929879988],[0.47942660190440978,0.47088651448102997,-0.71560101397446374,0.643310824055911,0.88689731544145356],[-0.85530991257521172,-0.48490244698419438,0.30434552058345371,0.99284635162514923,-0.75498570297387624]]},{"rows":5,"cols":5,"data":[[-0.22674731710860768,0.78279067814874581,-0.64105186446211093,-0.96250812831001586,-0.76953922560067234],[-0.55349284355491735,0.42748487209963637,-0.42451505339797224,-0.42509604635668818,0.8015069032524641],[-0.15633583955589475,-0.2017184834699749,-0.80019953273094524,-0.04033818449401802,0.3988194641788177],[-0.32089487872435019,-0.65683994795604539,-0.85822793230566408,0.41337697374602111,0.22071376566354306],[-0.37172967190090511,-0.93221348706322338,0.839045792538587,0.054387087845115395,0.081751398618338481]]},{"rows":5,"cols":5,"data":[[-0.5548475987569943,0.076773865342147821,-0.56067831074760388,-0.741975753302638,-0.086389622503663555],[0.43859053865810821,-0.28930672699581989,0.26899406408670457,-0.41565831462189679,0.319666442460376],[0.16112684164979577,0.86830713513153657,-0.74697072328476966,-0.42271660198347039,-0.73055954524988],[0.37573814708854153,0.084861564933365982,-0.512844982056138,0.0681346413144207,0.086990202069368416],[-0.34245679905508175,0.27189268944091949,0.33929095930266534,-0.76814538279454347,0.21903679238362336]]}],[{"rows":5,"cols":5,"data":[[0.81130381230295323,-0.57457744617813289,0.950916740903887,-0.21563520357677696,0.64283387505022449],[-0.26291862685397382,0.985337965071996,0.33055893783971024,-0.056843783419643433,0.77408764921159257],[0.35769858302006563,-0.024528057212679595,-0.6913962925803907,0.659415652388015,-0.65828334635701691],[-0.8769737872740252,0.53627998561399193,0.60931291597000958,0.63796218819522732,-0.77054686608655842],[-0.17511320576494852,-0.89321103961425563,0.55035640438377686,0.11632336180807952,0.844103505822955]]},{"rows":5,"cols":5,"data":[[0.594941031311263,0.57456588865740432,-0.25168519864223493,0.94824044097510929,-0.55610402276251814],[0.19415991804350369,0.74080936371072936,-0.788818508791334,0.059091259591402774,0.13780920647030917],[0.081321171786869956,-0.19568686043389735,-0.49540233296587743,-0.041636632931449744,-0.39197044891153021],[0.20898007049915485,-0.4758778460352277,0.29685776945876163,-0.19225928296779191,-0.053287896172662268],[-0.60209898363486791,-0.24202406499101634,-0.1784231621979159,-0.26684086078280556,-0.020290252079324476]]},{"rows":5,"cols":5,"data":[[0.1897955433732495,0.75496081685628158,0.77866262450556145,-0.94875367896811025,-0.54895323284104436],[0.73585725241450684,-0.1104282561273212,-0.20009117615055488,-0.081459309888431378,-0.88761073690517223],[0.16813582785042688,0.22113686309521008,0.37205998288639969,-0.50128555127170893,-0.40105018784175245],[0.61848275859261648,-0.24713306071475832,0.24393944887041902,-0.47654336945962222,0.27753849004680514],[0.31613860240653174,0.0052038686886213747,-0.37683161177065544,0.014378920351909951,0.0042361891684224058]]},{"rows":5,"cols":5,"data":[[-0.6691808529271982,-0.16939808382294952,-0.25798656302540018,-0.81341634499477122,0.46323130168738275],[-0.18143160728669777,-0.24151240648891939,-0.97352373403301484,-0.0089455258016231942,0.32733899013359308],[0.55870010652398672,-0.980233127435436,-0.80048764751425283,-0.32379133617886341,0.47117449827549412],[-0.73141997473056963,-1.0195701945316129,0.57694282897642257,-0.13983718298839584,0.43676457426184473],[1.0149655750624578,0.12947311018517788,-0.22862136441131925,-0.80858924079574646,0.31670964372148497]]},{"rows":5,"cols":5,"data":[[0.68856825841271341,0.49207336934698137,-0.7058126790321696,0.46653572657110048,0.69364275130609054],[-0.90280408979249926,0.0037481321601834077,-0.323819048419032,0.015634447137266725,-0.8694908423621952],[-0.13679715343517507,-0.9176419935918444,-0.39253394599569458,0.46238706157798137,0.30332278434800641],[-0.6100966228358774,0.164584646431607,-0.60964316298597865,0.16816371015572634,0.053260025791142432],[0.55518378830104886,-0.45442137243470748,-0.42827419936413508,0.02463076646698004,0.00827496306010982]]},{"rows":5,"cols":5,"data":[[0.31289251035133425,0.49197113510824658,0.82191658368811715,0.61839528024844514,0.049735624533209531],[0.18097509412599178,-0.9501080074860736,-0.45143544809524705,-0.13377972033914265,0.83888777611265208],[0.29230027823774557,-0.54123372087017851,-0.42356209363500463,0.31924862252542924,0.22960016240537032],[-0.47751687154750244,0.36894943381332329,0.20277500230336451,-0.43264874132569386,-0.40464911089211641],[-0.84807747571192127,0.40025996648514894,-0.87432191477039312,0.582059201066979,0.036611593271681127]]}],[{"rows":5,"cols":5,"data":[[-0.20312190234172339,-0.27513665442065832,0.5820373456843233,0.13062121766492371,0.755250264748767],[0.057657568968927861,-0.076148154301783774,0.22204632639265973,-0.58276250765970283,-0.618936094390221],[-0.3580484879314299,0.23862512230198157,0.059586873345506469,0.95750936156002009,-0.05522372832554294],[-0.14128817839310548,0.54341835331894428,0.72750610107225866,0.5962146188438151,-1.0016508915290185],[0.96103397649461286,-0.42103086013515273,0.0463928779891988,0.93352919754613339,-0.43824201656153094]]},{"rows":5,"cols":5,"data":[[-0.78370104322532164,0.33541431593926707,-0.98187887932140516,-0.50646872635546836,-0.089013475294665537],[0.88177950727066079,0.31279784208461681,-0.80536705451656221,-0.41517195367162613,-0.775364317061007],[-0.61405947745679368,-0.59879823531707477,0.40335049466042822,0.13116269976224423,-0.24180475072765392],[-0.66097833303429621,0.21148870380596035,-0.82403431025524254,-0.044478942497890493,-0.43118082067879016],[0.25368549674275731,-0.72763975675093617,0.23427354715601206,0.60502450628601356,0.7043138324981687]]},{"rows":5,"cols":5,"data":[[-0.43051832586125388,0.59212030510837377,-0.55324372457696613,0.50539256948127032,0.068716801063114563],[-0.82045345833082928,0.606747717497515,0.57826001896440082,-0.4949021155599071,0.48847256637663145],[0.71029727076487759,-0.11567879953744564,-0.2939229483416278,0.3988020667235046,-0.57250617782284863],[0.34211559862508639,0.012604224256210021,-0.54992360440913124,0.63428672745615822,-0.5030880856207951],[-0.560677946440847,-0.88166962476701216,-0.43749903848466504,-0.19124905808989351,0.65761344149707435]]},{"rows":5,"cols":5,"data":[[-0.28541386971826938,-0.60741611782217064,-0.91599511907768982,0.36029419989925371,0.27611300391193638],[0.94009524767215114,-0.90796542197648822,-0.63149489945686466,-0.31482915481866697,-0.741792222185026],[-0.77562097561981369,-0.21659400866149456,-0.38679049326518,0.47587125355071846,-1.0461739612414349],[-0.29240239337006724,-0.24631196546404621,-0.16500694552787742,0.59139296641427352,-0.00659470193814637],[0.4123410060867394,-0.533600244015122,-0.33595383277432772,-0.53639448724931382,0.17329050821922334]]},{"rows":5,"cols":5,"data":[[-0.80280731705394948,0.73505788512256642,0.43937443746748234,0.017807557673746848,0.29669562262807586],[-0.59523175775500192,-0.00034177115621314208,0.54154510784798549,0.81416925731826928,-0.67285860227068528],[0.76221166724529343,0.50993405157037719,-0.7961466358195064,0.19332957517918864,0.54118577646778809],[0.59085331143549347,-0.51151542682155882,-1.0469569470652465,0.057662789944113946,-0.80221291566365083],[-0.48129259129419882,-0.60961465414991589,-0.065217589322844507,0.66226733649144309,0.85322105273871351]]},{"rows":5,"cols":5,"data":[[0.67414045528180488,0.28774308080590133,-0.017810759824621054,0.81967276921837706,-0.75388854510026948],[-0.74959080625364216,0.7125678445972532,0.625029338897628,-0.82825649012439229,0.0816438693396666],[-0.81452123480764949,-0.388218874922586,0.36253837192632293,0.44094756193124135,0.88367429454515856],[0.19611717408142751,0.170899945271958,-0.23404536647616298,0.17786187576821685,-0.80037375365593844],[0.11883667424449951,-0.51153186515411642,0.56199042490062112,-0.949151435048849,0.43720415464228723]]}],[{"rows":5,"cols":5,"data":[[-0.084126036230844775,-0.541397903125447,0.497187937947846,-0.768797201210239,-0.30441011894844483],[0.807695579162809,-0.22039976815860188,0.75520282653475912,0.16460551077452587,0.61989207608967156],[0.10729961627760258,-0.972917620018903,0.78570448326487086,0.62053084776634593,-0.95548095502011621],[-0.95384135245845458,0.93804252606334471,-0.91137074783663041,-0.82191520169830634,0.37506078684112237],[-0.022638554399245416,0.14302635750237119,-0.46428316044555173,0.27358663014660217,0.041529278978905938]]},{"rows":5,"cols":5,"data":[[0.32180228547101236,0.606604837479047,0.74303753466185807,0.49665411788625824,-0.29681518737911278],[0.14984452579086846,0.69153673726139331,-0.080043722608518234,-0.62966143577584632,0.30790830613184533],[0.78715023670254,-0.82911056983744713,0.343497802725386,0.40964177907543725,0.21302183648150189],[0.3651633237716147,-0.1643349833053169,-0.82628921606567818,0.81439935453828649,-0.20380918538153267],[0.10312533204857509,0.3789114044502952,0.14896236801944715,0.16699601793193883,-0.8215087708083666]]},{"rows":5,"cols":5,"data":[[0.15001938284722943,-0.63470146211999079,0.32397968879536321,-0.42696275885814178,-0.59344579162486222],[0.69731333086919223,0.90042971753867707,-0.78395821123535891,0.17705495872178817,0.31220524687677237],[-0.84944206617148921,-0.039047959434354941,-0.79247907933530415,-0.550686427257927,-0.57347308360182858],[0.37370918842308981,0.064590049842285613,0.412369475853663,-0.75332953258349022,-0.78319098436898382],[0.80504764589935041,-0.42103486522132821,-0.32756361834533004,-0.08039233153844122,0.96568875730950787]]},{"rows":5,"cols":5,"data":[[-0.90114359953939116,-0.05409634479536192,-0.32836846026697269,-0.54321843370940914,0.85381537774028782],[0.93371413655900526,-0.54429576236920774,-0.39756515545695137,0.352318944940326,0.487123661285946],[-0.27506801063904651,-0.72999444038232741,-0.74228687787263736,0.91518595871710207,0.551097730773443],[0.81990054266130552,0.91155135120420527,-0.85029394784503454,-0.9032164952987215,0.068302774048400183],[-0.65115873297902893,-0.40549784131801486,0.71882030273932152,0.37949875124317528,0.37581695120523995]]},{"rows":5,"cols":5,"data":[[-0.99232178267478111,0.91720839348777761,-0.20790034730605533,-0.16266214681129909,-0.67527987164010339],[-0.4616257030131361,0.71492058607833153,-0.60248121243116659,-0.3617475801947469,-0.66189122679305834],[-0.25309636868228463,0.19581557016438814,0.74944745346537833,0.3415727205196154,0.43054608629892177],[0.68872080737011676,-0.61392476288810727,-0.13203916441743474,-0.075862422034674082,0.71445535487517842],[0.094606859238711233,-0.16521585300438393,0.48758440168591,-0.30400779524068056,-0.655805123811089]]},{"rows":5,"cols":5,"data":[[0.90780784524671343,-0.51995918414287823,-0.447425998514027,0.86182322646194964,0.55049621486019085],[0.49621078539278379,0.22888935087399029,0.3138277372522742,0.08639153007616765,0.81995470653125913],[-1.003802239214953,0.61938134539853718,0.7069597802871409,0.057502921995362048,-0.048242636040953468],[0.024460739251809534,0.8376172494960159,0.5351276807909302,0.596257004031708,-0.24315008402661947],[-0.33300275815819735,-0.88707957356863176,-0.23784557864675804,-0.29930187520541224,0.34780850128923552]]}],[{"rows":5,"cols":5,"data":[[-0.98242297230416231,0.75120782620246607,-0.2127051496658674,0.68468938431821325,-0.68390990899029835],[0.21262147155243097,-0.49384001376956171,-0.88101113895242822,-0.41319341464123421,-0.58943898978279419],[-0.93401662257659324,0.13113039374734625,-0.44351945841802409,0.13522123748563419,-0.21509593944110031],[0.54262274829998758,0.84911907830052846,-0.30578637059954883,0.49672347838093872,0.39116025804914234],[-0.918792475175152,-0.32509691997843937,0.85324093866710249,0.969459510332567,-0.30982086655943264]]},{"rows":5,"cols":5,"data":[[0.226876620135445,0.25437745665305206,0.87095074199135647,0.95653062811633194,0.66141573879098925],[0.72184120487946513,0.70124030568191509,0.89613875490533879,-0.45306227502847046,0.49869911988096971],[0.76490421042896062,-0.55801549631017289,0.62008037416872785,-0.22943652724147806,-0.36131314656781643],[0.49320870751452467,0.50606891155669742,0.16593487349953212,-0.36649966172670245,-0.095649844712791962],[0.85593808217763367,0.281678706032346,-0.60849753751510327,-0.17097336488081441,0.26657077774863558]]},{"rows":5,"cols":5,"data":[[-0.20299562396609527,0.47815430514011747,0.21651898972080819,0.35368354607591967,0.31334764911657492],[0.42126260518516867,0.9195121841302295,-0.16870201334171098,0.11340895501606831,0.1310320989271874],[0.90955069836043256,-0.40606825757594867,-0.77637422307147708,-0.076304508620556322,-0.34689393793433076],[-0.68331261617080352,0.27605506869525731,-0.97709348115105266,0.65377779412975889,0.068318591608106438],[0.05993243971005683,-0.74391508825505182,0.87085435608529527,-0.058577492638199731,0.93915701134347318]]},{"rows":5,"cols":5,"data":[[-0.38845031728077828,0.44336074636323664,0.14307098637420251,0.13278057301065144,-0.20519180301985271],[0.89918786937549056,-0.22847461182023249,0.074111696708863237,-0.34600026446721149,-0.14775599305073911],[-0.75420886136879839,-0.57685751432381016,-0.44776337801041194,0.26111931127405053,-0.78713137036442016],[0.86782249277820267,0.61478788498735526,-0.41211014270695062,0.73085475086931218,-0.219363157261151],[-0.095492158929424656,0.23154795365354816,-0.73610129856850981,-0.97857733322182194,-0.46396083988498754]]},{"rows":5,"cols":5,"data":[[-0.5054850193891115,0.28947363593449138,-0.13254925915795146,0.82315726627433172,-0.847240263134042],[-0.50918843319016871,0.654195184016617,-0.65240623560350963,0.50377348760016238,-0.23283144982967957],[0.91877747014115629,-0.20763752325646959,0.76714909976983736,-0.66330302168913657,0.29449149155521054],[0.043012463084764939,0.5528492274769029,0.54323108734590242,-0.88406462008279874,-0.55064643066964825],[0.83959152552846839,-0.26584041557528482,-0.23820313139796731,0.51411389402518159,0.14902624541408735]]},{"rows":5,"cols":5,"data":[[0.48020759860641243,0.68290934991698837,-0.87171148573981483,-0.79094294625508132,-0.054377564833316815],[0.3141718854943093,0.17671080962534824,0.15536228360240953,-0.40189171912847571,-0.76393191817684614],[-0.35699868722485789,-0.96873755594887678,0.22556156122742069,-0.48130828830057376,-0.69962250083397748],[-0.35053942629783752,-0.8696827520000413,0.00045943736170236639,-0.467320305792187,-0.78932546221142552],[0.16335667675451157,0.8754801450537365,-0.68139440829868536,-0.43992458396811845,0.6423316795334173]]}],[{"rows":5,"cols":5,"data":[[0.37038398316523208,0.76672710087583373,-0.69984164885926137,0.63859859296479071,-0.38663035592973205],[0.78361254175334172,-0.45326756601509621,0.37514531000995238,-0.27704476936567007,-0.29790914472967678],[-0.16630174378540805,0.48527543383616017,-0.84740635863599434,-0.409453596429421,0.43100839254230577],[-0.26307090443521741,0.58966413742016077,0.17750619414259258,-0.94857802644636713,-0.44396562435769682],[0.056112468849810991,-0.65395539461468,0.031477781970529063,0.69150120138165649,0.73293578986034114]]},{"rows":5,"cols":5,"data":[[0.7670376426087262,0.76923364009875572,-0.80336898341877327,0.21835584930405894,0.95476853783524351],[0.61845526761653113,0.406963734322933,0.60945875954691531,-0.40692933341691512,0.56369330352048164],[0.557372842862043,-0.090614739133181549,0.52302274567573537,0.9411740210163958,-0.55700004640634981],[-0.84586654565122532,-0.30116601839408325,-0.45734364049744541,0.81573190631365111,0.45903221830932239],[0.20558466365017264,1.0170402938623808,-0.531593052805443,0.11610040068539677,0.49088878716148759]]},{"rows":5,"cols":5,"data":[[0.57445741238765524,-0.25412700200129595,-0.66461724165676173,-0.97094775572121073,-0.4186792251675393],[0.0055977641855490829,-0.27069733328133555,-0.390137297568646,0.94996114281008448,-0.085848876708033],[-0.984866523116047,-0.66210627359817464,-0.81612537618766967,-0.20559822558828597,0.15116702703355525],[0.52349206449228547,0.8710061356131471,0.50727770621057233,0.031028811547337228,0.92088372399706708],[0.9753216663550095,-0.913397650991338,0.19919240496190604,0.54745113605906026,-0.53710156271416887]]},{"rows":5,"cols":5,"data":[[-0.66480117031339847,0.84523729000911541,0.24057928472661272,-0.73076820628179207,-0.4218417869644302],[0.78550497314878376,0.35529934429761917,0.1057792586165494,0.74586981299192046,-0.56664914150277612],[-0.0070262866235714589,0.13661069075364468,0.60044497135705022,-0.97093289118520476,-0.43210380068092835],[-0.067866254676748519,-0.66790841148861591,0.60601699818564991,0.039809813508492435,-0.52914720291420314],[0.86803455819742725,-0.45006544108401536,0.76758630113129611,-0.30591687662365991,1.0067560845484365]]},{"rows":5,"cols":5,"data":[[0.35156947870316718,-0.49378453066511857,0.44607799775840229,0.31460284975122249,0.70999230747495579],[0.57375192081108251,0.464014001277567,-0.25498408934963773,0.61384988946290919,-0.71656526180993929],[0.27568353992241307,0.50743087955646893,-0.63590704385993291,0.41020891934042319,0.12980811055435002],[-0.26406217569403106,0.19217950055288019,-0.59320356496127924,-0.55593060584603915,-0.81199753639006778],[-0.6013110172705286,-0.77046868449350525,0.48786304557096311,-0.47217588839964114,0.08569261810589214]]},{"rows":5,"cols":5,"data":[[0.57154829726434664,-0.52925084574340231,-0.8109647428207214,0.13768813342865832,-0.35999957421383905],[0.83484540694163745,-0.941038224779701,-0.513024931208435,-0.73335639062506075,0.2531534527338592],[0.29033083324697367,0.89320815362464512,0.88272185290820715,-0.86435341719720238,-0.14735878482620374],[0.47427224420186109,-0.6102471756277178,-0.97505157685325738,0.8094926536097039,0.29448476619829467],[0.34489177171011137,1.0052355618062712,-0.74207614990626769,0.9766788676662852,0.74110018877781869]]}],[{"rows":5,"cols":5,"data":[[-0.46141922874280561,-0.90238864195593471,0.39432484833603426,-0.42887023005643043,0.602056061886786],[-0.0064622291366672538,-0.063753862659558222,-0.061125829398864247,-0.83010086689625606,-0.92509506419444953],[0.095264115720541789,0.29544572575686562,0.57849006148057824,-0.11648564211616796,-0.62937959231186857],[0.1700303891440112,0.016829340980619067,-0.960222206082053,-0.89449343728745978,0.8049922157359487],[-0.17504301036216857,0.38163528888295373,-0.73775004856941528,0.51148293106354614,-0.344508434278769]]},{"rows":5,"cols":5,"data":[[0.98028208672404993,-0.74956721085752109,0.70070437402897134,0.18389756520194275,0.75393414727414287],[0.58040291517493336,-0.79063813943968686,-0.84449079642739044,0.39610310466112891,-0.879939234765245],[0.73632926619887684,-0.35523847411083054,0.88667866057961353,-0.32280902099101522,-0.72225370846372861],[-0.64356501603283855,-0.07909926509817676,0.66980621957296471,-0.91698013142368706,0.75494054483466144],[-0.81215023908155426,-0.2124602333405633,0.15579864802907842,0.43330831494794469,-0.86695651289203546]]},{"rows":5,"cols":5,"data":[[-0.70061466987362686,0.89544469716742459,-0.89686195342979969,-0.8349072003113589,-0.12725348371612708],[0.11847960311835037,0.78024325470397748,0.85530100749442572,0.88974994891935266,0.62247915963575473],[-0.25940903378408914,0.24803646401121221,0.75148751358799548,-0.56002366201653775,-0.53258826488180344],[-0.083890024906899188,0.14277831021250023,-0.84245827634912085,-0.17986485604278096,-0.35412066255914842],[-0.49376989230476331,0.13070240340389652,0.4055384692949997,0.89981361369349555,0.39576526843720194]]},{"rows":5,"cols":5,"data":[[0.85246686151580864,0.64770963403688953,-0.76502519285977655,0.78447322867337776,-0.51563038980572118],[0.1862941867199803,0.12017779464327347,-0.78489190855508417,0.027636006192763,0.45125546430441532],[0.70562009937892423,-0.92289510300873634,0.96830290462631852,-0.48718352976241586,-0.049780743186100061],[0.89853536068358819,-0.22653738754193056,-0.97651374836423943,0.0987097621147287,0.48336400099591376],[0.0886038098275773,0.17229680179723,0.28846257875986092,0.638623614751085,-0.15194934398331239]]},{"rows":5,"cols":5,"data":[[0.058503738578913868,-0.38200135616256142,-0.69484370011239249,-0.22629889436200495,0.6093962127225161],[0.17049628770260591,-0.54058871446608214,-0.74010727919020813,-0.25315860249289845,0.047877369685525015],[0.4259255270072817,0.55809983466952828,-0.88555612338047973,0.40908835154850587,-0.60987543019921786],[0.58432773664627313,0.043057584579505134,-0.265833857247215,-0.0015108634404733192,-0.32444299732865722],[-0.18365871645074686,0.2221775500364708,0.72376558136626346,0.82012312262511555,-0.31345642967239129]]},{"rows":5,"cols":5,"data":[[0.73805474228120049,0.079010064408658515,-0.67305690896627046,-0.63912719261824646,-0.69017332187932778],[-0.362535910417692,-0.56405011656304826,-0.3653283755352259,-0.053585641634866739,0.40473712488561564],[-0.44071856946369975,-0.21867597484977971,0.4471945224771825,0.45596471100628588,-0.76642546601619987],[0.21960775952286141,0.793880303469248,0.21704228159668018,0.43140913192776775,0.49094543298076787],[-0.70546089674731449,-0.297703569839352,-0.42809734664527122,-0.35334169482798022,0.86490894143144514]]}],[{"rows":5,"cols":5,"data":[[-0.89517443549191322,-0.46686499707087703,-0.75586778321102277,-0.15299708394496267,-0.99301266762507145],[0.94581843304770574,-0.068144651035272175,-0.51098088996686231,-0.94273630919363638,0.888778178697177],[-0.89950906530430563,-0.81299090126771234,0.90305013830979042,-0.55875755635809743,-0.58885371993171087],[0.028386386033925952,-0.0033099541326113945,0.14953378454322419,-0.95530789140829941,0.8605192636403004],[-0.11877329506552375,0.54907494183217842,0.2486549079705766,-0.23712503656413428,0.575634142878217]]},{"rows":5,"cols":5,"data":[[0.03054089665132495,0.87320033506353079,-0.76275105426434087,-0.63363907070602488,-0.580795837487019],[0.028313115277453615,-0.49585146241572331,0.6959649186626703,-0.47271924348033206,-0.756333786820339],[-0.86255306843933888,-0.78579355105753779,0.79780005957557643,-0.040640965689066021,0.42559948603558712],[0.65063807817227315,-0.72141688505913126,0.41684923825763109,0.5890332149783214,-0.87606867229508767],[0.033193346954929537,0.92197113299197819,-0.13578077456024124,0.063521656308613561,-0.558421680789216]]},{"rows":5,"cols":5,"data":[[0.34198241598913665,0.55766638418816739,-0.41706153708621774,-0.18519705299653552,0.072701927911195369],[-0.42996641268332331,0.3020739507393701,0.4850684743100801,0.27515138389615179,0.036086479855960966],[-0.88558125382504482,-0.27413991263896215,-0.87274018953565735,0.71825100268079112,-0.10112232155157278],[0.63685192761197085,-0.47864720911940656,0.42152087496631008,-0.76742779434964492,-0.71195386031376029],[-0.12664798766180491,0.22774683160401729,-0.76123603561570841,-0.3807734825411126,-0.74605152700164368]]},{"rows":5,"cols":5,"data":[[-0.44054003152336019,-0.84603334629802673,0.62683939463672456,-0.36795784271276144,-0.42310377906319174],[0.13469607894660726,0.072916673748144561,0.18504731267272281,0.96250563386673949,0.10742336668181519],[0.50560948550940488,0.98612797676329611,-0.052953118415877604,0.52026198293649684,0.64621065357510843],[-0.14156428605679011,-0.26872041664505181,-0.45898533628716826,0.95477509206135935,0.34470986688708188],[-0.090684215259399528,-0.83357453112301283,0.77562692162493674,-0.25353647454224165,-0.47246388185251109]]},{"rows":5,"cols":5,"data":[[-0.42662816811539167,-0.47519175993818968,-0.31647672366412516,-0.13657518396645463,0.69560463541885553],[-0.83331435900543926,0.39216368788446987,1.0006343038608068,-0.40865535167490519,-0.50840334585214153],[-0.55900505290657232,0.69415123389463484,-0.13188594277893467,-0.26555579981621086,0.89322253915551708],[0.081126119570975,0.55089725736071649,-0.80901407027169925,-0.4107645085126837,0.46122101729615178],[0.65601501858455513,0.60838784449308,0.88361064499089215,-0.42523826163237,0.53243772214990059]]},{"rows":5,"cols":5,"data":[[-0.91409345717339074,-0.306733088409005,-0.72832864300544409,0.23548204701292677,0.32035306659777235],[-0.60689098866871016,-0.58730480643325211,-0.10906273191441523,-0.9064250238695325,0.96320651236922006],[-0.39758054359597578,-0.61382933868126655,-0.63905124116676348,-0.68916462562079583,-0.0797752937521279],[-0.88296538995989793,0.99099932366957055,-0.62403387990630976,0.061757064188180333,0.24799281934586526],[0.17043079199896286,0.875254626546611,0.75469408113580949,-0.89585995882726643,-0.71765565660752706]]}],[{"rows":5,"cols":5,"data":[[0.3892745235374952,0.94154149256759023,0.12936669334250062,0.37324895595599206,-0.093132143042081145],[0.0020114455134265783,-0.40723413673585729,-0.91858030385940237,0.38783703255439433,0.54580060637950767],[0.43861115079678775,0.0761000056635881,-0.28153731273766663,0.27796682115360594,-0.96472553822637364],[0.99586639698824186,-0.21135426228453122,-0.26714905987065685,-0.19180473699940456,0.23233603887631271],[-0.32008283098769952,0.20454824473410269,0.94069489371157566,0.68217817601031161,0.22325576870050237]]},{"rows":5,"cols":5,"data":[[0.68587418694657609,0.192093667218729,-0.12425797613953078,0.34775544907126632,-0.71604828576642654],[-0.8030036732872079,-0.0602682715891579,-0.78090694222952239,-0.028427198698213061,0.91469098109146318],[-0.57825008369902775,0.29117407200104106,0.59309684802459683,0.22418798814160276,-0.077536838782734],[1.00803654525449,-0.66869128769096775,0.0011764411675714418,-0.30909486489945748,0.42074395388179564],[0.049976898529538925,0.25847855652597695,0.076053390446846628,-0.045566151835883924,0.21259561597165849]]},{"rows":5,"cols":5,"data":[[-0.61787091724133425,0.14536671312808611,-0.062509263835327886,-0.18906964785585018,0.57705225705512642],[-0.73456207038434151,-0.95491549602470094,0.45791292798151639,-0.92307549048912985,0.10767243845678269],[0.85176377836459549,0.77205781429524167,-0.15119953433331634,0.138564982000691,0.26934535005364674],[-0.4453257557689369,-0.029402711918639184,0.86838493315789034,0.36028527445289926,0.54700133183970168],[-0.19373517295395515,0.38291706096315187,0.60511448015877778,0.87934516656121309,0.24440840089148677]]},{"rows":5,"cols":5,"data":[[-0.62186636227575109,-0.80754995716726219,0.18592531532339129,-0.702579265507502,-0.8116482794123433],[-0.59592281832581528,-0.88785058797689509,0.91924553518642282,-0.84168274437722723,0.860494335628988],[0.096458441272787854,-0.90664829865969288,0.46314799978295329,0.34964517759586933,0.61933652503786529],[-0.48443093077849964,0.8827661982588052,0.48261248600452489,-0.95533795986686232,0.099454016562171649],[-0.69198396303922693,0.53462579113650643,0.92081969038166911,0.37482127572268942,-0.056937487171957436]]},{"rows":5,"cols":5,"data":[[-0.92275822793599072,0.52521468361170831,0.84995418030192582,0.36579739430722763,-0.55713801335871982],[0.18985485970017502,0.74003731856135146,0.14895550698718596,0.49978044461988558,0.16671539375631933],[-0.78283144031695684,-0.022730270747264344,0.25936366446816733,0.73434777635511028,-0.37713665816428626],[0.8369882256361777,0.91971614777215971,-0.3692575234913763,0.148971714337884,-0.79445628912378452],[-0.40893177257786267,0.573548822737957,-0.5947920731786257,0.65491683109135967,0.14284979008133839]]},{"rows":5,"cols":5,"data":[[-0.096230745851722532,0.777059674311469,0.45367741401827644,-0.28514117463421546,0.051345537004528437],[-0.14792523664962318,-0.71247670208655978,0.78431304032538,0.29026571788422106,-0.8516016182763132],[-0.039425749673346222,-0.68918672676066572,-0.52223142266587641,0.59096959117477932,-0.27370236955898841],[0.42167772516682139,-0.041437063039123728,0.843195587567795,-0.96164049756505654,0.61017863592829391],[0.62777303201283641,-0.40105798569634693,0.65724188549641294,0.27399147630693954,0.37347185150915929]]}],[{"rows":5,"cols":5,"data":[[-0.64546401982361445,-0.21730179452071469,-0.35548643231645982,0.10152290208484287,-0.52950185748444056],[-0.42936543218586815,-0.054197736536740967,-0.9132588559623529,-0.7497177217183032,0.54689587435018061],[0.36449982226193905,-0.84306984738990531,-0.64259401445943609,-0.46902952448689933,-0.62395145543671338],[0.72324024154525857,0.0057886599889514874,0.98104149718591183,0.69770065040924123,0.78881529560600316],[0.3795825960227463,0.42641379044038874,0.18433078680889056,-0.50886171510858513,-0.12586476558147328]]},{"rows":5,"cols":5,"data":[[0.52182229607228925,0.72372359496610683,-0.57613727399003534,-0.97424489144322257,0.45004022030423857],[-0.67213136302386545,-0.832761799410436,-0.85211652002871774,0.23670763341716378,-0.34242059168509043],[-0.9674033013226343,0.65689301101081965,-0.31197010163775846,-0.23746215371217147,0.56743201357890349],[0.99211662796383349,-0.78405744572711267,-0.80622124122780126,0.96520540339536542,0.402278656056484],[0.271389057730963,-0.42519132985421254,0.24114215289107871,0.67483209184118575,0.888444260119382]]},{"rows":5,"cols":5,"data":[[-0.44735518297497023,-0.48267637455996648,0.7907225683832263,0.52114845515513275,-0.94253093851635961],[-0.12996139715187205,0.57860511177626339,-0.85695180683507943,-0.72194122092659607,-0.22280676368048061],[-0.2279611084331642,-0.50882226417993082,-0.89067060657690433,-0.23889690103666794,0.23862998174382744],[0.18593477123105143,-1.0032243603434559,0.123158917968299,0.85730438521283325,-0.61136965695046042],[-0.93490579491778991,-0.67749082357919832,0.17174817946985141,-0.79357103968038634,0.84964728219536545]]},{"rows":5,"cols":5,"data":[[0.12657490331102,0.14463432053155917,0.19895542090179058,0.034375112978438184,0.45812082966303946],[-0.079495663051372942,-0.55003679498444225,-0.17449846875102623,-0.94276541908738787,-0.0949942934877013],[0.72812592676403054,-0.74295359596425836,-0.35162772113480417,0.12445579813675403,0.79897393720435961],[-0.64716000433902909,0.47276273627957738,-0.599988299560486,0.851090519500706,-0.2006934040634171],[0.43097101551907452,-0.86863701067951848,0.40441086862467418,-0.35410829222780538,-0.80743501524658057]]},{"rows":5,"cols":5,"data":[[0.16569268758924594,0.42825945756330452,0.34298032054586597,0.24511039859931724,0.80972678376626939],[-0.74539645297799362,0.39370639009981367,0.67734006929993207,0.75954966836298532,-0.11292448674265257],[0.71672925693749479,-0.58910371848885423,0.12823003613156175,-0.20549638532701381,0.93265125111328517],[-0.6801936555025887,0.71698057216976652,0.98908393680443318,0.88295835695859393,0.443649706709284],[-0.037426583372552689,0.39824546674375266,0.916337012155474,-0.89424760585249485,0.93430594726301619]]},{"rows":5,"cols":5,"data":[[-0.37634629936618053,0.88798420451885141,0.26277671925047957,0.4297885681815572,-0.67025990972803484],[0.013304536897721072,0.724130157555581,-0.48189107381059992,-0.07624568615878409,-0.72363595300736216],[0.48721590557788885,0.072436647050234559,0.51750839443852992,-0.71567001168993094,-0.3927750632825765],[-0.686979358994159,-0.47783725848923014,-0.151351626623564,-0.69544748463085582,-0.97418335530484323],[0.94249639742959646,-0.63235158903820621,0.694164511615695,0.93246045134713651,-0.570247205237315]]}],[{"rows":5,"cols":5,"data":[[0.71048538360905078,-0.81805891806274766,0.67385749386998461,0.20230754610394797,0.27675153086661486],[0.806837480911272,0.54605240959706425,0.26840543639938086,0.28887039629560379,0.19854225636244322],[-0.61720729680718633,-0.86558488758355345,-0.70739669277507955,0.45490214919848182,0.86457709727069],[1.0289586853760708,0.94450714050803553,-0.809335924817966,-0.55415441233512863,-0.52328487502411869],[0.25211183453406533,-0.76128357821872916,0.71291855695799611,0.27455517960320064,0.24315689205127181]]},{"rows":5,"cols":5,"data":[[-0.57974835063351393,-0.41641712520341539,0.59346183023520183,-0.91837801363910643,-1.0028477729277616],[-0.69495193515608178,-0.78645353591416545,0.39647934901791032,0.028319390928169989,-0.36883479463097346],[-0.11480283391818073,-0.85663692612235554,0.39601413560142673,0.69605522222610772,-0.45907480667907552],[0.96630902148707465,0.79951535522022743,-0.75047561622549208,0.15820414122536,-0.70039943739409272],[-0.81613138938695551,-0.77786038780786326,0.43720010805391352,-0.52733629440129681,-0.95410197337919378]]},{"rows":5,"cols":5,"data":[[-0.94457059691477918,-0.76868361367881355,0.37406216644664447,0.59890929436694751,0.3258345830452542],[0.53870891375297725,-0.39894593022659075,-0.51789190381638561,1.1193007913028268,-0.051705239328093164],[0.3198449062436447,1.0351162727527745,0.26328115027992255,0.39949542925899628,0.065838675019058573],[-0.76454636269006737,-0.14111983245303145,0.41044469437609338,-0.019413033316489477,0.14032965569777309],[0.87927302150422615,-0.45926384327251979,-0.46365011988772492,1.0524639157372857,-0.25229819396632153]]},{"rows":5,"cols":5,"data":[[0.45194370849355719,0.9906255069222667,-0.44839992331877493,0.049263080898976561,0.034813855357557009],[-0.78488830661651054,0.20886872439905388,0.21003784997094174,-0.83315821699195636,1.0561292777608693],[-0.84784033746307685,-0.019365340310860773,1.0673170062060065,1.004176239803543,0.27016339350468566],[-0.63029962804185258,0.69302914985893493,0.48119237264441661,-0.010473289509032185,0.43122239931290329],[0.95316229462943214,-0.37605277851752539,0.053520825066778854,-0.72838226879848822,-0.86237937752697624]]},{"rows":5,"cols":5,"data":[[0.52054370212696144,0.049406045502983845,-0.32511171148731416,0.54838372142214686,-0.69544945889407039],[0.59611060548119077,0.83920005667682673,0.53974188023335923,0.08585549599541617,0.908597776220374],[0.5765281444022512,1.0792703007496693,0.57135781870768043,0.23153275029096485,-0.18191560415316796],[-0.84416383899121472,-0.10447060740055796,0.26677740190863158,0.45522838784824871,-0.069529837646493564],[0.22418251844764056,-0.20385334632924862,0.41960637317452537,0.7976478303209743,-0.3065324884239527]]},{"rows":5,"cols":5,"data":[[-0.840162616634203,0.16688994776925015,0.58769548277983485,-0.35138074599763575,-0.43457687636303705],[-0.23457185598230651,-0.0039594653752270661,-0.67876475662890579,-0.095289906886439679,0.50488498915587732],[0.19420317037738821,-0.44896439772741786,0.6855679773826987,0.85646854168252218,-0.54473349735485821],[-0.64583302646023755,0.537900325372389,0.0963862009103761,-0.76596437524714067,0.64587698308381536],[-0.57658041736221533,-0.71546205487201131,-0.62165966450419841,-0.7027925417410773,0.2698548384400265]]}],[{"rows":5,"cols":5,"data":[[0.18566635138000878,0.57556628313707114,0.73370966697606954,0.43965208682596751,-0.10006193331388039],[-0.26707709310723732,0.6768264000436045,-0.072344837221684138,-0.17645241407985443,-0.94958013880252723],[-0.61464060382147223,-0.83534026908106684,-0.18388982934351916,-0.58332837097269141,-0.021186605683923564],[-0.41359898491099523,0.68352554337117133,-0.44519650232146146,0.54757350422453355,0.48654291197170135],[0.55579675954734786,0.12007773896681614,0.23126587081879485,-0.18342286245819858,-0.51494316984731781]]},{"rows":5,"cols":5,"data":[[0.73805215706019756,0.70755648353139156,0.18817521373021887,-0.90341586961404963,-0.74120601175320666],[0.92077505667068915,-0.20478878645894796,0.34332598055287578,0.4544796262404015,0.33509745232455956],[0.20453474558661569,0.26500995245785908,-0.043124118080815628,-0.94890003055721261,-0.26088960091155405],[0.51023419782934942,0.69145430273849684,-0.094656516593038628,0.859630873588842,-0.8897127774644864],[-0.81173491438476975,-0.27091048227082326,-0.32653942092408994,0.25096919193696871,0.0646127739621292]]},{"rows":5,"cols":5,"data":[[-0.23823763085900437,0.729560969056885,-0.12051454996461754,-0.12923603944293441,0.77692988758637638],[-0.88111112621537568,-0.56417269210385557,-0.031410984534242563,-0.048831123220870895,0.15030176885000721],[0.10842142022358736,-0.44496565654959136,-0.17727320919906053,-0.36048275358733878,-0.87926607090667108],[0.69156625354139234,-0.097380058582936607,0.43420236648822819,0.061349776986922212,0.70163867495623011],[0.397235950205856,-0.15231759044387755,-0.476054551855972,-0.28230744338889691,0.96211943386427812]]},{"rows":5,"cols":5,"data":[[0.93241347665893026,-0.75190346961215282,0.32332252633199166,-0.2652255943967407,-0.62006375381141576],[0.080750903563466564,0.0371044333782459,0.93933407180817241,0.091550494894931916,0.50804899520487112],[-0.73621179548476423,1.0701758191550863,-0.36741026922678283,0.80227348301392043,0.22267320825069892],[-0.092399394709938076,-0.550598238244735,-0.92200956911342846,-0.09287094657904725,0.72295495556376754],[0.063128561431706351,-0.12055828974016386,-0.72371240841444584,0.753620263523821,-0.4991881268421654]]},{"rows":5,"cols":5,"data":[[0.31692196922853438,0.34228731149806058,0.74023397454560413,0.5120625683016693,0.72984022865326037],[1.0248554569285564,0.33467230563281514,-0.87137950096797279,-0.23061518147394164,0.70157671233184027],[0.98056088008497388,0.10800415498117126,-0.8285854884602939,-0.44053415280667446,-0.967791122826077],[-0.84685548165234381,-0.39114942603095454,0.80016192053531854,0.014863870713383028,0.91020997192128528],[0.72268608603161211,-0.76690432190254,0.50053213236910366,0.73276835202257651,-0.12914816428860437]]},{"rows":5,"cols":5,"data":[[-0.029167305370425473,-0.26206753417092632,0.56781414023809818,0.088026768563559551,0.040160547615101967],[0.096179311756109789,0.94933491028728978,0.581016635799447,-0.77806498775165667,0.019531770159526691],[0.67643049260865,0.38056467149047868,-0.54832317434415634,0.28493861930042835,0.55894826263921493],[-0.038482462518468576,0.90175255928050624,0.80100236081958476,-0.92076675879726577,0.37675423575020617],[0.826637177150624,-0.77011238605902066,0.45156909356039365,-0.19303352288337336,0.65259482703264726]]}],[{"rows":5,"cols":5,"data":[[-0.567821440132466,-0.036333328958963296,0.21576664989036859,0.83848587859996526,-0.084208703422435763],[0.053123885491206821,0.76940433968131861,0.85021449704183427,-0.41649168403680842,-0.18751528403299847],[0.25081237034427956,0.68214712205776917,0.012110457938302368,0.84744560621456111,-0.32957908952163095],[0.9469339400927822,0.47247630851566674,0.96969698962249129,0.60246607067352109,-0.57398675847066194],[-0.35149803982068606,-0.89324649519380672,-0.42349088505975346,0.53710485833356636,-0.0250602181297267]]},{"rows":5,"cols":5,"data":[[0.6998684860916583,-0.51191162868897033,0.52832046046936942,-0.58991679392652829,0.073535127074399548],[-0.20923684020574038,0.31492939836716038,-0.26050392578447362,0.37288796233864779,-0.48123456254910579],[-0.88000163049345415,-0.29174997990082646,0.72521968874971932,0.30093053384236751,0.94485026350793822],[0.912030048090945,0.52815723021529337,0.88233063534141276,-0.54719785761285522,-0.71407756003214884],[0.26847668907246663,-0.10489087957910223,0.93907380845977373,0.37544031220772145,0.42382099456656719]]},{"rows":5,"cols":5,"data":[[-0.65525277944599269,-0.808471682601015,0.81296313086923833,-0.60529228271546309,0.043947767476558548],[-0.6762894295240649,-0.61152656937451144,0.67834465024189172,-0.1304959521017536,0.2228744128843442],[-0.43958197290073681,-0.7560919179249036,0.4459910862367244,0.51636321523522233,-0.98649839505281933],[0.91731930533484929,-0.057278786248424682,0.63850666462999683,0.32347128263604163,-0.4539684167641897],[0.21851966591637484,0.74378800136672507,-0.33277532479871319,0.67021547993822339,-0.4858184818632123]]},{"rows":5,"cols":5,"data":[[0.12191483982207721,-0.77004827830502109,-0.87661830227521476,0.25578102731377622,0.706050043209736],[-0.20568028020002693,-0.448957465256129,-0.84928662109150332,-0.014953379796955005,-0.27983377549815819],[-0.42261452052868337,0.49610581338760945,-0.65545824367946692,-0.65485684052651871,-0.79803563580930892],[0.71804511620182188,0.027354731853384658,-0.13712139863987394,-0.90595839729240024,0.38008095585854429],[0.66289674752608274,-0.91468552207306819,-0.62951043766059067,-0.5567994604812383,-0.64106780921962636]]},{"rows":5,"cols":5,"data":[[-0.67716508159527777,0.25136923727578137,-0.37530636206830875,-0.15849228504835089,-0.8086747635774818],[-0.40653078161824063,0.52295485158225463,-0.84578554825361207,0.89166097304369885,0.91166867542143137],[-0.90195627558330993,-0.7368887325540413,-0.56777195873103981,0.16655933976683085,-0.589893053687612],[-0.98051762698275324,-0.90782477776381587,-0.53718400983016024,-0.20325420934315236,0.41924522661074004],[-0.56467157632145626,-0.40242702174024159,0.30076106462694341,0.14225246268218897,-0.18894824104519464]]},{"rows":5,"cols":5,"data":[[-0.78717754527567863,-0.11346525997186877,-0.4242978519772479,-0.70850054293909,-0.160190912546363],[0.036947872000113617,0.85530360475232614,0.68348057981266441,-0.095099796710824386,0.37872169846087411],[0.55010826597308882,0.93335893082839427,0.31861603348183026,-0.20254366096237758,-0.87716712951878373],[0.062387029754023375,0.34542935213208054,-0.54077804283634834,-0.56349056085315008,-0.91317565962645364],[0.463344204418671,-0.40552652415250473,0.69988313534761093,0.68958981960190957,0.35323795433818111]]}],[{"rows":5,"cols":5,"data":[[0.584074485394217,0.61593328030472,0.563059357236532,0.0016825682509071878,0.90547271325405554],[0.72621107803729013,0.97322241322873348,0.48268363709169027,-0.96000898304533555,0.98243351847908311],[0.71704988481307974,-0.026249928365385412,0.86525235544953916,0.066710240107264632,-0.17140155690021963],[-0.73701788928161083,-0.42462015160470484,0.53473151811595909,0.752479353727132,-0.18026011759088331],[-0.899917482581154,-0.23265734794934903,0.6786015299637177,-0.33139237284573864,-0.67500791869749055]]},{"rows":5,"cols":5,"data":[[0.08100169316982786,-0.85903210378985229,-0.13350617233319137,0.0726651075156432,0.33724877300465012],[0.62730043804833591,0.19191030610658105,-0.058025007756094406,-0.009628196745357448,0.24287212781545803],[0.42435408808766856,-0.71510180562548009,-0.26780717706148877,0.013723806772545557,0.62248752214412306],[0.58903495479648094,-0.50648055910641254,0.31265522946383073,-0.20629344459899782,-0.60334743057755125],[-0.86414221822689841,0.52784790469027687,0.38043271245921767,0.53695356939895678,0.80806147306872567]]},{"rows":5,"cols":5,"data":[[-0.10840805213336104,0.089448721954485638,0.88246275951168118,-0.24403672950447378,0.1790468522730333],[-0.17017257857367077,1.0046169699746457,-0.075427613173183541,-0.35049931902109005,-0.27961237543947287],[0.6287346001283749,0.12196586519809813,-0.58472868167542136,-0.29424267278680905,-0.7056244503022393],[-0.43114651632781564,-0.90443249603424292,-0.091648471888313016,0.70334986345006423,0.33135341456970863],[0.92522945153994474,0.90663385583451939,-0.53347668933190551,-0.96218071454514587,0.23292205473619082]]},{"rows":5,"cols":5,"data":[[0.65936890367912171,0.52506353753833779,-0.15218458780851496,-0.7085925101309053,-0.83600558482656684],[0.660012129285009,-0.24045524168203136,0.34127448732935473,0.25946789485939692,-0.63954855207383154],[-0.41840637085199517,0.26402496270594927,-0.91822959442542484,0.63436654011008231,-0.64794227789957859],[0.46546404518845497,0.36008711027836465,0.95216633028303854,-0.87988563806979525,-0.98764061821917659],[-0.48424224192643911,1.0085457557888271,-0.50304998571351656,-0.61420037935152449,0.82815615586991875]]},{"rows":5,"cols":5,"data":[[-0.93463318122221006,-0.40111789758515803,0.61825464821376352,-0.959469315390921,0.73892195076965528],[0.012352376940231011,-0.39827324781690537,0.75114314905145685,0.44913311908211617,0.49473466304665126],[0.36696656723092819,0.11610931500437685,-0.45725621362510538,-0.61365441648760455,0.15144860265776861],[-0.10421087636360658,0.77971702011329558,0.10530104595402363,-0.78807822520033444,0.80189441707991094],[0.25354380496514206,-1.0689474625915305,0.1440911641719696,0.32662708528536383,0.961914225776472]]},{"rows":5,"cols":5,"data":[[-0.39852759333444082,0.92532423226383109,-0.67658569613242125,-0.9510584710864507,-0.23645385387105261],[0.625061238624027,-0.11838332272075323,-0.61605240899068936,-0.59023261953678419,-0.82249346568092951],[0.052507570806518827,0.15199516773581542,0.20890371042011108,0.37808590472978215,0.466608778499849],[-0.966720699701971,0.54586516598582924,-0.46738999223090877,-0.92409344775289082,0.062045948823353271],[-0.66872840157110469,-0.25570664984096986,0.51954567029335785,-0.046311422394133848,0.16034280899373937]]}],[{"rows":5,"cols":5,"data":[[-0.3016921687593595,-0.23747216481519018,-0.67165850088767365,-0.34834110980275179,-0.38265592110737429],[-0.91564250716028517,0.30008131962399726,-0.76369988179941739,-0.88978660049337344,0.25685069203859112],[0.042722672380867445,-0.81474088117920807,0.69117423892879082,-0.185650179477163,0.97362088858119245],[-0.56261193189739112,-0.25141504567680628,-0.72264961653977766,-0.70087761225180378,-0.85657284205834772],[0.70611277783041149,-0.37057000470476992,0.89839822963111737,-0.19920762616084822,0.811957907361207]]},{"rows":5,"cols":5,"data":[[0.77005848152060963,0.514920402940872,0.18703891419242091,-0.74851151708330532,0.66472092601056609],[0.91112009061214583,-0.58129433460930036,0.3666616246371181,-0.11608636275753018,-0.918317618489947],[-0.11272294899264498,-0.45006064670783213,0.71338851612238086,0.76458383923549766,-0.89238645105839132],[0.73561225656511708,-0.098138248969843481,0.070460433807289113,-0.90127419394922292,-0.54400719754459459],[0.82596552475076035,0.81843686832363616,0.6753326090027435,-0.91051860389637462,-0.29927027474367962]]},{"rows":5,"cols":5,"data":[[0.56812128556131281,-0.5667677832164858,0.22611263722988897,-0.15393083399874566,0.44663598518149883],[-0.94939540469940142,-0.12849830337297061,0.55141953622607176,-0.13498273736655617,-0.14188293777957811],[-0.453908664336293,-0.90280283493645686,0.99410701316768135,-0.51561235707766784,0.37720311456980932],[-0.42405039711264381,-0.20803704178162036,-0.17972158868959326,-0.23596743960969652,0.1391057567422577],[0.826277040626231,0.024504992834540704,-0.45348957713432503,-0.78794683889837891,-0.55807734298164235]]},{"rows":5,"cols":5,"data":[[-0.16491316177115697,0.57397805466327367,0.789139303216395,-0.665160222511639,0.94638384186731961],[0.95446437987183819,0.84617413805021524,0.13748049264506382,0.58272924432532014,-0.93557712356656419],[0.45241163347875651,0.18575679236301063,-0.4524133733142523,0.43234993217834117,-0.96591037214029118],[-1.0402342845781492,0.0071294716185378131,-0.16289480880458962,-0.079437626094137653,0.62123612519517957],[0.608000079404356,-0.080256891910927192,-0.39407337696962774,-0.22071443544945935,0.91138278490036684]]},{"rows":5,"cols":5,"data":[[0.022713277527825048,-0.0026680955087222779,-0.088999109433336013,0.00094572780983937822,-0.18314581331000757],[-0.46310449790639724,0.94107461356304467,0.040598533379807719,-0.53545279280189984,-0.35198731904551478],[-0.543672421521341,0.084736619278023534,0.22981437498992458,-0.045968451210020127,-0.079388819794751861],[-0.3077819800017641,0.0022048273089574034,-0.571041820212655,-0.5690307717567088,0.9464871736298085],[0.41866415912479604,-0.71592267494888173,0.42993996747754343,-0.21836092198619791,0.17071770086525884]]},{"rows":5,"cols":5,"data":[[-0.13117128599733829,-0.79516859390153238,0.59822624550780445,-0.38827386199061659,-0.28400729867152641],[0.92868399575938065,-0.01251214620961974,0.039459952237819139,-0.52512040573812091,-0.1046037875308537],[-0.046103290701226984,-0.08594402174705805,-0.8840833183710356,-0.22633596904187642,0.51677538033009107],[0.53512745755681035,-0.86867528098322455,-0.92292855218510672,-0.2240677329100062,0.54381410456704493],[-0.069213395244256876,0.76603164207062557,0.89551670999823907,-0.9921060326528981,-0.10286897800603653]]}]]],"Weights":[{"rows":120,"cols":256,"data":[[-0.33464847222262079,-0.5216325656653289,-0.83123420265891912,-0.1246973285182516,-0.560040046135546,-0.22929376659228912,0.60134141209879388,-0.82028489603091459,0.92934721363588335,0.93038322690630071,-0.66812405765154781,-0.68143288594347851,-0.57170577852230287,0.73446219262551926,-0.28785107257814646,0.47372203087160397,-0.97405021095135735,-0.2746818066352294,-0.96015175624036619,0.94955251857440215,0.75747780596965841,-0.13038690458652796,0.64702715885586526,-0.11881159682001889,-0.67003131266312677,0.262024190726136,-0.79841837555642414,-0.38082604822177096,0.18458079693973759,-0.876357375512298,0.10057056265376616,-0.67115070195849147,0.5941023218269893,0.72853704256989638,-0.93358410503251421,0.43173320042677288,-0.21238149281489302,-0.839598620549307,-0.9521764475539,-0.87608603368944338,0.33349072841523408,-0.2780804802507596,-0.79936569068409413,-0.15762460822562416,0.17287777752099309,0.21575027517823833,0.71957744250286615,-0.66850688823079962,-0.95111185179390667,-0.95578690006579137,-0.075072769344257273,0.050847841609185596,0.834414372046767,-0.95489140758973434,0.12129779449418388,0.79503889022089447,-0.16351629561282466,0.30840837610284194,-0.45626278552771277,0.17454397028506322,-0.43809334762846347,0.0024238825971773788,0.01455223817112843,0.79795826136086034,-0.18068911474701538,-1.0003017676741259,-0.27440762986497136,-0.31705228393174972,0.6673581292666908,0.2872669418690656,-0.29046449434069066,0.85601479049670293,-0.32663820949657363,0.89994408502948464,-0.39284842365007139,0.0393605719855407,-0.33323739628554361,-0.19556544622134919,0.69866066312769093,0.11943810069990886,0.54099279366079234,0.85146400988707049,-0.45333876221686537,0.13253606042150756,0.20590178715603219,-0.9526668517296154,-0.52060113563104515,0.52165551357489381,-0.39779622041379903,-0.74392658646736709,-0.43269190406582625,0.46472034427361858,0.62250040837511389,-0.12335185085628822,0.55745941535288368,-0.685586601623177,0.70630828874004814,-0.60116328433934185,-0.996295657042574,0.15522361076426514,-0.50551530482879226,0.024509262823212585,-0.3420530485031939,-0.23592351079645563,0.34771856608670315,0.055720831971209368,-0.62206723700308886,0.91988159610158271,0.43654285116111019,-0.919586373475699,0.12537534502363737,-0.96932243858875233,0.6128468797522888,0.41387956584831642,0.61224885970219289,-0.30859778428500734,-0.55276508406049629,0.86902783354055591,-0.42711957271405326,-0.23273352210221104,0.51675934949839775,0.173685707077949,-0.91065530573824027,0.38289474274065355,-0.29608370084283969,0.23212527380539974,-0.74531768838396806,0.78674426149171073,-0.66180356370183391,-0.7181051487771124,0.32283136922431027,-0.73940671409141223,-0.21927459668852836,-0.4602451700304207,-0.38037967492821834,-0.47901463617278262,0.19010005862199525,0.80053856407757285,0.77802022194619,-0.84767041953572542,0.67328902895550835,-0.45530117902020623,-0.90177299306485736,-0.47429889782095813,0.13035280990555562,-0.50577899425285122,0.8189570860359725,-0.82044498281610012,0.22636941563814225,-0.18661994020138045,0.88101185143812744,0.8195415528798039,0.79636331921781556,0.21870253015096006,0.61958775122386023,0.3099511998441305,-0.091812221815231757,0.23535580741575357,-0.978703037775143,-0.90483725905005519,-0.234418854848418,-0.43790073254767592,0.59102124930659272,0.14665223586615,-0.26559687035437463,-0.17289883310373452,0.25186725952225714,0.058911326939035807,-0.20213917712300791,0.086445749337070221,0.4957969662286707,-0.36125168981101258,-0.92614408008742921,-0.59459566228668836,0.084445646460347232,-0.029633660313380793,0.072083961484644049,0.54267813246716645,-0.76850853010051789,-0.84950112915514286,0.35632323380315484,-0.95431136902714875,-0.46269048842768512,0.48279570726604148,-0.60465130887177987,0.47564902133042747,-0.56178921730615283,0.50671940912479563,-0.11248850985347571,0.28874722816373943,0.57617211508571742,0.91263129055216385,0.72742740602533162,0.6338306641181144,0.34587770621218328,0.090217189492058841,-0.064216903418307908,-0.077770388599841284,0.747582667635645,-0.71793575725949754,0.26432238389636176,-0.22363144749411507,0.35291064384793952,-0.87749433144106725,0.33246246832377613,0.23515673443929291,0.72017219597049564,0.35241230559937248,-0.84839645277267084,-0.32440108343940044,-0.76278191167440923,0.35140394176375078,0.020557145668890549,0.88995118434073,-0.24700192792667164,-0.27377773820261464,-0.97354299871838057,-0.88319850755877294,-0.23477074654529373,0.2427730126943084,-0.60405784079881575,0.734637978363148,-0.81801603973396808,0.50236161309404381,0.49769451623883659,0.5799684006344672,-0.12123126232170453,-0.57955992226227782,0.0675336942934247,-1.0001489444333593,-0.97251174452009614,-0.89065741660562314,0.78912136221918838,0.944737936306615,-0.10711646231179284,-0.44376249381556493,-0.31106667384409686,-0.59217086407088915,-0.87223185894636146,0.10668026914678684,0.7595021084319451,0.088638044687818732,0.37800444891014345,-0.79043356027426537,0.066202015943372342,-0.755180560885523,-0.10300397262105747,0.849608321748078,-0.0914304308408913,-0.36534808703896121,0.068179600004808008,-0.16457900083180144,-0.81997327322963509,-0.4601949553701678,0.89402757534489419,0.54178708796748776],[-0.39732101397082764,0.869692045452781,-0.39600471941197712,0.74589771230329027,-0.63967692669928589,0.31542982044575135,-0.70584004316148963,-0.8597160800425363,-0.35054014872269407,-0.892366746466943,0.56077693230095549,0.048903717850174923,-0.0076584536318032338,-0.82524631885356581,-0.9742692398888706,0.59374973849227186,0.98004678249525479,0.63837424510773921,0.47997126478233659,0.30427619674160039,-0.6485736468655825,0.967985601589152,-0.56537776439299026,0.26545984450185067,-0.30771506121957704,0.044306938496951782,0.51628692676516086,-0.56239659084123139,-0.0716065759486402,0.19204147937732563,0.94656708137264367,0.24782779667708488,-0.92654139999624274,0.35807824480752037,0.97188504170965839,-0.19103522967934145,0.79998285489993248,-0.62285647240357056,-0.24133651868654155,-0.55840462007360925,-0.20479550902927723,0.23044475563080147,0.56274285246777611,-0.047073668322275872,-0.32220771720848512,0.84023608463576516,-0.14130887254585572,-0.26730446980658462,-0.40034396801459021,0.45570447414831394,-0.15200871951459635,-0.45573527964220994,0.053702251794734895,-0.41883876604671544,0.18346836545821169,-0.36022230375424791,0.43154352257522449,0.34210202521636995,0.057450529213915455,0.32362031008613179,0.78543688164002123,0.842881263345579,0.21197750554763833,0.46067322718080161,-0.84165462373956168,-0.68799822717440451,-0.018739117847013924,0.63467433978729126,-0.79952848286447609,0.22415627566839494,0.80290889807915977,0.60046701264690161,-0.12143881863793322,0.032526330020840016,-0.49372661054742295,0.12161216260564446,-0.596558205945665,0.47063793028250095,-0.413602081048342,-0.15154708561030686,-0.812834459831871,-0.2210274248938873,0.83729751172891775,0.46822014805861784,-0.65617154697541091,0.40442396803598835,-0.81138509731643316,0.4794062076738182,-0.82359139928229153,0.331898113882779,0.362068439819595,-0.5509201295049706,0.31893765347751629,0.43500831653305438,-0.35516986863346228,-0.061268339779517685,-0.98309439554468847,-0.89919256628727406,-0.21036376046593425,-0.64298915246428556,-0.14005821184576456,0.22145776501654921,-0.46788103092144051,0.36224109126706155,0.65908699418799233,0.23703346426483674,0.66459898842156717,-0.98138586268529748,-0.92128500422148274,-0.94411843356434533,-0.76523747065450742,0.95810938387145772,-0.2380604537378124,-0.79417977871450907,0.12725540252106296,0.011261666337975035,-0.993103468235886,0.73287859132419841,0.10747960036581127,-0.26202675070832154,-0.87603883716923414,0.48997143826243245,0.45422319430190916,-0.14459412752303588,0.85538960308937739,0.34517827400723194,-0.71776303108665562,0.43029655641562131,-0.619849321022449,0.56221265347321658,0.096521490098327153,-0.70231344673515694,-0.331728836803829,-0.782114023948077,0.9827388877383908,-0.0336701623998352,-0.75971533890504306,-0.53339319019010711,0.80621215400658741,0.1047939049703796,0.73336104674570168,-0.83719809459434891,0.4085146540265665,-0.88017495271212209,0.084311089076026885,0.36818596884691424,0.665422943010508,0.10541147951532968,-0.710510739170011,0.60656062285918033,-0.083329031411847387,-0.71302494849883591,-0.01205882814677583,-0.97390293676822559,-0.77775437488275156,0.37202703518265057,0.75988131809534964,0.6450357629577872,0.49259830167844432,-0.69095862325008872,-0.066733663787046232,-0.78949353290296909,0.63955905739259222,-0.48427037405748213,-0.06232373328547465,0.92947497524938816,0.29869034734115441,-0.45193743753520277,-0.79606673692586294,-0.84430960489511808,-0.22793440218425598,0.54165993091549158,0.9151426507095618,-1.0068283010372043,0.019673145420852581,0.95596252034406148,-0.92710332980489774,0.316465180129014,0.74517071511339061,-0.55458624832175552,0.64938330435658909,0.14803711361034502,0.12551865460440509,-0.25372253026561842,-0.38079257398089139,-0.19936851388878016,0.2922630959368368,-0.37140453899746373,0.97147462042005761,-0.40225383043336133,0.18524114249397741,-0.42059560251694283,-0.063028634127710342,0.48997395412423156,-0.85457285583619891,0.511243516323148,-0.4952151672068329,-0.12677264673619748,0.15516276775106355,0.15273932818881625,-0.91258245926172377,0.11580969359452457,-0.1177237383617578,-0.884268023183907,-0.16161046903783075,0.37638451475739909,-0.65840144934678235,-0.020705877009182267,0.025685949566186774,-0.7084665390236613,0.28772752512606203,-0.58102689560614362,0.894176838810249,0.066758788687530268,-0.35010819106833457,0.77232357063266233,0.074862584376493915,-0.11069920067230211,0.88658034796201646,-0.87520941737620039,-0.37834492562751965,-0.33295302527628512,-0.42283466618037197,0.59632702974355334,-0.039573314331344769,-0.81288704252114208,-0.41281653857580408,-0.58612221685583088,0.84443567763444993,0.50024870373821406,0.42153747485280557,0.17030232777659865,-0.84398983936616367,-0.39561548989278106,-0.65945886442352808,-0.49260593828802207,-0.73650545537873,0.017739694800759116,0.88996732964064562,0.22122462160708536,-0.532181284981495,-0.66873327823144535,0.60315136833174376,0.67548496911873468,0.32894591732690792,-0.21829480378377084,-0.31538573704059114,0.88045307088066949,-0.15120129371672286,-0.62051065111347747,-0.55647761590645284,0.63070177824744933,0.0044103139486072274,0.046144907508416488,-0.45739640524748093,0.43752819697874773],[-0.44144318802802063,0.30670467554470648,0.16416286855020618,-0.33516480098560547,-0.19436621755071068,0.91994479669300666,0.13202328686441039,0.52569181545128307,-0.14919987918705982,-0.91722157912054947,-0.745464387777395,0.2781628358286205,-0.27452181348840493,-0.87671200951569384,0.50446112631639517,-0.92263166656876283,-0.010798791938513056,-0.34515527243759864,0.65374224434200168,-0.70978853744955239,0.073483603009021889,-0.10117744703869055,-0.73627739130575653,-0.81323783394847571,0.51751063634989047,-0.28854051830559158,0.57239750854657123,0.47592803289866747,0.066141247063318059,0.80037267544641111,-0.82044106136221373,0.1294164998451417,-0.93489386964175936,-0.091745855943694207,0.95520930340852339,-0.023697375467070032,0.86057205927935931,0.23974091106256362,-0.57035418220835665,-0.45111480629704381,0.20932365342736162,-0.9301456378817109,-0.184952326578654,0.23771307648841722,-0.46360318828907815,0.39545223511113103,0.16390714303647488,-0.2779985055827684,-0.10350546971437039,-0.60043937776378342,-0.3602929522358424,-0.64401083069498966,0.40849774742855011,-0.72254024365638225,-0.62628820398320617,0.664200373398646,0.055206642446436763,-0.0031141049494339186,0.14932157486756287,-0.90809474694744807,-0.63234084152575853,0.65017791659321345,-0.52754280646407892,0.054128875588737607,0.91915411343953679,0.12220697487798782,0.21602022858678135,0.817434842510817,-0.8236473858951423,-0.47743811147059806,-0.807239216282346,0.76693926569297566,-0.78041771560418716,0.11347072873183085,0.088946736369021548,-0.010973834645948682,-0.91709650980470325,0.035963189746996922,0.66662570884453476,-0.88640573486303009,0.55053448352346424,-0.15589640336269275,-0.4058821539846561,-0.3134600504191577,0.15747686356424118,0.82317796697065748,0.74760292960705521,0.82374562322578171,-0.47274343932924517,-0.70960881140875076,0.94368311649141345,-0.11817745474254612,-0.91554204769565006,-0.66487458041588288,-0.80109480128054644,0.57682413396633347,0.61175910988498361,0.76553032204988625,0.318183443420627,0.40779747967006524,-0.826811835898447,0.34497365763004623,-0.44939721490754181,-0.63136290507827764,-0.817365236028667,-0.11514477346369337,-0.87329703663916,-0.7184986278115677,0.16875452112421535,0.37565137967682855,0.57329856032987114,-0.980539024123801,0.31153840722698384,0.0407530481010735,-0.42919394990434467,0.51291850122774374,0.048806384831599388,0.80881121789180632,0.91823886597213222,-0.88615389174819692,0.398569812841715,0.41124877678682942,0.29026930895792596,0.90648141533172522,-0.40953316648589405,0.31780442061088027,0.66244582818356945,0.89770136091427033,-0.067644698851797316,0.51677958944665936,0.378596388699613,-0.68217614103848323,0.7127596577766393,-0.76210839774228767,0.9412796241789545,-0.81008929746991,-0.70413589853599656,-0.77309884472514623,-0.50772603827622087,-0.73474707181992727,0.68837573894789572,0.46480742067745034,-0.35929811199679218,0.14309264367370586,-0.27757730184817447,0.965172377397667,0.58054703437796906,0.067714610691208571,0.78348096663964706,-0.29567269500144233,-0.47753112669966791,0.79408577459205787,0.852839239193411,0.23478350220086369,-0.97800550494203853,-0.24188735022550403,-0.91232728025905907,-0.30943314618012863,0.80115729973138183,-0.14319804659876634,0.23414972331306863,-0.74197790079540427,0.34729320795738639,0.6413719659574405,-0.9956633351854538,0.299626016392877,-0.71123975648392546,0.063896263495968386,0.094755262601787224,-0.623663386602937,0.20420866445361202,-0.16953013142028031,0.32668331067389716,0.65468186621803359,-0.57295507781952626,0.92756195576509115,-0.21072004911131373,-0.84909156888722792,0.19875381622505317,-0.34601987738521622,0.76797348669078991,-0.37674039983917318,-0.89335013617554448,-0.73654610737868142,0.00060427427859175429,0.58154404108839619,-0.51889639658797426,-0.49363264710285509,-0.77940810811888994,0.17966574016702089,-0.86078182521597357,0.63890234906270882,-0.54398113618628163,0.6728505234015536,0.062346878973377068,0.42545114500763431,-0.858278100010485,0.019677118497585046,0.14133681005592624,0.44396960957470433,0.66558921528416592,-0.49742018350298739,0.98518929646380571,0.45333241463386753,0.48341145705607014,0.68279647994680115,-0.48838007264645539,-0.75675942000949292,-0.19410580690050872,-0.91438488127557516,0.99282674763051337,0.94285093475309889,0.48239053207648142,0.14623265073651179,0.090227539227450082,-0.37542017343658179,-0.8240499170155946,0.074968945735585324,-0.38554315799174044,-0.55891053405178626,-0.1851551331163776,0.77510589816379638,-0.17341750888938312,0.91634203203091436,-0.76236409066929012,0.5827734703499402,-0.60108002312371056,0.696850640408345,-0.39444646871860367,-0.003373242858482541,0.80645852104126392,0.79825410731768653,0.017476883422080012,0.749401806209223,-0.025933650692851321,0.29340003481490268,-0.35158390219250935,-0.36587930159866955,-0.18869342259935118,0.38646471513193692,0.0734131164328336,-0.77582098300986579,0.70066545612276543,-0.83592269252386076,0.18750539452425907,-0.81511125573385157,-0.84094053778571642,0.30071685136207421,-0.45806927361908945,-0.581652799194707,0.25403531755103409,0.049207296912777754,-0.61914328126403706,-0.30678189685273233,-0.37447767833755291,0.880568000942445],[0.68257065342452838,-0.92551092312489935,0.260222542631498,0.9236825251885773,0.27053268059711055,-0.16366564531542602,0.66968311574135908,0.85172593766769045,-0.7141374190745412,-0.778466002319094,-0.046091980782247362,0.76366487891655777,-0.82871180677789735,0.8179186503207253,1.0029047187402498,0.56340137820334657,-0.71780110823913079,0.2483119280113073,0.37495329022101337,-0.41069053493356006,-0.92346297970297242,-0.32893334365447652,-0.26763450005078648,-0.96045470386925647,0.4042732702900721,0.099362706798869979,0.13544464641488835,-0.82431925884967971,0.73231563236769048,-0.24541264956754758,0.38981257839012573,-0.6969919626766895,0.1271661553719014,0.1021806635715965,0.61293486811488851,-0.40717410614723371,0.40682439996104092,-0.11558580684873177,-0.90139445915579686,-0.75808248855674965,-0.40862510909056515,0.87421414412968967,0.87887978680059575,-0.035471834689780511,0.24716689828491473,-0.5724569708610876,0.13206308981988343,-0.26560835778939468,-0.5624810907936254,0.71075100170356853,-0.23132530194909654,0.13356430232973143,0.33163339026451466,-0.94924714776740582,0.81026079923014682,-0.0088497335308050668,0.32698297008521082,0.20561925576501644,-0.48546377972765115,-0.83094421865679646,0.69666195960225086,0.47351129036577722,-0.88700385485556332,0.53517551822737641,-0.16995974445429077,-0.36045885527817773,-0.38385176647791325,0.070876237239156939,-0.7881073195829803,0.40042399360410269,-0.85892506967087623,0.40204125842725552,0.15313763953768367,0.13996977742739603,-0.99609970632728106,-0.79122151998782486,-0.19490317351442671,0.7736623052397944,-0.20248543515278761,-0.016092767121939803,0.96870799017738918,-0.58566031461204016,0.75492418172032794,-0.978004400207593,0.98020472428906535,-0.729159836852134,-0.0016598902300254115,0.10599847525503167,0.29655401409846172,-0.37893217895610382,0.28043602023634695,-0.77572779972940775,-0.61644461958287733,0.92559571371311933,-0.44205887422783269,0.13881225555996213,0.77856107905006378,-0.64495874921555563,-0.84337151133343624,-0.38133646850896485,0.81518487338150447,-0.91859530752570684,-0.44993467798807629,0.05074921577573413,0.5753143571689906,0.37324486888389974,0.98431315330030833,-0.79477994023609966,-0.97227103047250929,0.61037762303104037,-0.80744849648100558,0.55657533688556715,-0.60413787597959889,0.53926569505206046,-0.77092420743346646,0.29794599001549821,0.72619295307011533,-0.89862828343026591,0.59247730119594966,-0.39789924131516463,0.65898456416387763,0.51512968394768566,0.78519716695733177,0.604846036077985,-0.8731889749463756,0.93264616888983,0.010994349089182219,0.25541178755320665,-0.41596789968721548,-0.11306413519015755,-0.5666216760488566,-0.53219010549040491,0.6341440266711792,-0.80855108573604828,0.16778380313418384,0.89798041568114861,0.879697141657316,-0.28398499564286278,-0.55309504176804569,-0.39259947420356966,-0.72199458047383669,-0.20144928129734968,0.072439996731434933,0.69029703519508878,-0.532525948253886,0.77904248597882864,0.86644696830374246,-0.12884685060441242,0.74672664377412468,0.30803468676546436,0.43896967813080645,0.71815073971248422,-0.199182612775387,0.58465510654951158,-0.029792673457206785,-0.66895839523722789,-0.67771364712648763,-0.01525890290487804,-0.049285963794980216,0.68697689236657944,-0.61755072379509435,-0.22748961727044137,0.60717487913688706,0.14736436440400372,0.20183124250244916,0.746642882085304,0.91542646228409552,-0.79685009198258117,-0.63272755714608642,-0.689683752866258,0.41260918130538277,0.0013239077705939665,0.64924795655052459,-0.037338350935856232,-0.67803326152711352,-0.12510667146035681,-0.52538452815793835,-0.88224779319735058,0.18136689997977998,-0.59092350415479045,-0.86286859385544212,-0.797749054655713,0.55677688462993757,0.31989988075082437,0.48642697698988907,-0.23135764021357408,0.72987953314767773,-0.88839941380919785,0.259885336777492,-0.11718362603746826,0.62585989107043216,-0.035342934482321155,0.86014229250608909,-0.15709552241579167,-0.7173149126903019,0.541303410422982,0.22803676612605905,0.97075410273297513,-0.43626933255851885,-0.27851911020209646,0.8267932141725125,0.65045894548463168,-0.44676379706986624,0.45273566267201465,0.89239152565689084,-0.556425292059239,-0.91353671229255151,0.87086846949271457,0.26232760073231604,-0.91351960315998626,0.86265277677278784,-0.76500050605069192,0.79753406047346886,-0.493040066670185,0.54825036858592657,-0.78834596359591758,0.24905967423011996,-0.69989277873876532,0.67222574524219425,-0.55483949719150316,-0.9556068799749784,0.84062444038718209,-0.044313919764285219,0.48944942219770693,-0.27009690067581477,-0.50857024732625589,0.21809529033346675,-0.14384030387738428,-0.27870010865166345,-0.20005826471023805,0.68395238660069679,-0.4598409832793352,0.57710551284813438,-0.54407328696369528,-0.39121824325403026,-0.4982471108334588,0.64687693239807054,-0.90352610967089342,0.45291750727850938,0.097133400967362352,-0.31655161913457491,0.84501200431801116,-0.18983736995533734,0.16355261999159562,0.0018828872171660963,0.36320814030405707,0.13368137132111624,0.30294632873637262,0.24908404167925477,-0.96444019576144846,-0.72673523381630456,-0.10774569131040941,-0.74549443512986147,-0.93596498777391168,-0.3399823297023199,0.97025630334293911],[-0.3483880378729628,-0.0033652350353209908,-0.30623123985547246,0.38388909788092745,0.21305580243262512,0.20020634457276643,0.12132445951868945,-0.54040655361452539,-0.58180585492927273,0.34412901154046821,-0.34260215934661836,0.33346431075334654,0.91552800249811062,0.062938456721763458,-0.43636914943158239,0.15363122590094069,-0.1447834904514167,-0.39528123417933175,0.76265034163673939,-0.80244699877718606,0.03082635895637682,0.7971091781764994,-0.51187081218257446,0.3435888536779319,0.33489591478253966,0.89169968017011758,0.592607518468335,-0.337891639792201,-0.503364698038722,-0.22522667344679537,-0.73547117149588292,0.4985640813841552,0.7890190257287657,-0.381400962567791,0.81581238286069657,-0.38389948466622903,0.36782594667698154,-0.96316042189119078,0.8570276468708472,0.46704554130031067,-0.29842176743413829,-0.67571051252103131,-0.26083710731923654,0.64936950989096631,-0.30074493480591385,0.78191325512598364,0.37916593493797374,-0.82569067403878871,0.45421330624912942,0.10413348380048201,-0.967663591759284,0.64931138335889516,-0.71755820740594667,-0.55378465464016691,-0.060682358001639625,-0.1340843283057547,-0.48539946135139844,0.35894052506593704,-0.94031497644475925,0.32031680423278941,0.61827373985190859,-0.5368487636387882,0.97942242733606966,0.63844682215340964,0.07979783744286488,0.15648831249565942,0.55122563611494491,0.28821042294755439,0.24659856380238937,0.94709770036897856,0.79795911642819806,-0.17984900086298197,-0.25628614516301307,-0.71072224985232035,0.48949285808615783,-0.3069939484418896,0.05211012260090226,-0.1701347723979478,-0.35936877247367033,0.54695934425003456,-0.4936493383888213,0.402149263834845,0.19129357517429782,0.389422206495259,-0.256327861394389,-0.39236697505911866,0.19347451915808833,0.31398346511869013,0.67733489585524242,-0.057805020587640976,-0.92108406278396338,-1.0119041314155188,0.96986768678203894,-0.47093837270745292,0.83858494731976985,-0.77897092784313648,-0.66403178610017066,0.090187351252105363,-0.44298801675911403,0.5230420116028377,-0.7756495803027097,-0.92439433136720983,-0.0886934687126999,0.50354506572223212,0.30553966606928379,0.20913919491679472,-0.10185215035429165,-1.0087550546832154,-0.035064060942329237,-0.76750766615797794,0.80853170055499468,0.69338183181191126,-0.28177843388745039,-0.49940622879055241,-0.21142044988579054,-0.81023589095382564,0.27158912560530918,-0.424038115116804,-0.13766741826084539,-0.55707664182902217,0.95586782830292871,-0.77849670539016069,0.60621192830928028,-0.71574378171033182,0.85657192851438047,0.79342818239799484,-0.15209385001604073,-0.8081757205860497,-0.55472285948497713,0.25341293701892115,-0.63919572301071348,0.94468144492443229,-0.74219101693535916,0.10244329945780813,0.32747185653857275,-0.57662527565535615,-0.51848152675396819,0.68698326703368118,-0.91056697978409151,0.53489615279792724,0.70601753270757162,0.20018168847497211,-0.635723763634007,0.44137217219851704,0.0923167902646646,-0.66599769443703094,0.23834495894787902,0.44414065839263289,0.69616328835509689,0.60424008357828951,-0.0730187005151539,0.71679683515732684,-0.81549464942096128,-0.9313103336265236,0.55687396632651054,0.97787142721285669,-0.5570834995675118,-0.4184535728060903,0.61814202936152041,0.48766446540941821,-0.67178428142230551,-0.32505148130945338,0.556154442378941,0.70400824646198379,0.84744961995695023,0.8472485588228712,0.43355695921964443,0.61863266597438882,0.17038596736789832,-0.62739096641972392,0.71665310241763192,0.58798427088397709,-0.51800955573036656,0.34682704064830311,-0.25333594974339557,-0.25529693407317111,0.83731744712219691,-0.85550925081203932,0.13934424324968253,0.46270892683771553,-0.50502573741137036,0.34857942555847893,-0.5508339603265372,-0.20529409551758909,-0.70684511736484312,-0.41739883588208876,0.71323019763332574,-0.87196245377406922,0.50736004339249885,0.30723127447941628,0.928598900630103,0.83853395523674279,-1.0074357612994878,-0.44159208594189137,0.15008559115321704,0.0081302237060524949,0.61400891178441408,-0.37359101277155771,0.53367235841563121,0.25453555982908493,-0.072024158484281731,0.63448015077664133,-0.75850350868137273,0.315946623005083,0.89929507020970634,0.33793535953828124,0.22043235398198796,-0.18617881687489865,0.35112797441031685,-0.17211517373664076,-0.87274982308631288,-0.721332275686654,0.45241424300351585,-0.81218001610235313,-0.014633156831671101,-0.038211401697064169,-0.787626487959458,-0.25073679591032022,0.40332801332852242,0.25165949456785253,-0.885213376396649,0.286357384774069,-0.90208767349928976,0.85187885087623383,-0.59452872925252531,0.85302063556028274,0.53686025077416877,0.90083686706662414,-0.83621292580084494,0.73106737870351446,0.1028196510388545,0.18333091660501491,-0.40666626613509754,0.88991973454951712,-0.50020872814637285,-0.15215422166595988,0.11726674029173645,0.13865397011202543,-0.1128282789522575,-0.082863645548673454,0.36892204689626468,-0.09558772439762267,-0.19828237053837508,-0.31265809246789139,0.20491531619836398,0.67793420426249817,-0.59560472372261242,0.838468012558989,0.59492172466135462,-0.78403289516298824,-0.20142875052943374,-0.10897799306506752,0.25296726051711477,-0.68054073844304508,0.15361635420672229,0.665448528483742],[0.55351538476304651,-0.58072016628155432,-0.10995123975870375,-0.96491454837326385,0.80381741229356329,0.30937819718931647,-0.34728675767220862,0.58900506437883382,0.70778074232991361,-0.0853758625309056,0.66196124894684527,0.52578308760682491,0.6678464738244847,-0.88234682520648677,0.82013655610059522,0.045440457759647085,0.85363368004021867,-0.53305111866005228,0.88245383673509392,0.20985227060733461,-0.52060073574112375,0.40540297211643767,-0.35539103413305551,-0.24829980802047832,0.4607707401773653,0.71814235737609355,-0.67651716139005358,0.968967106505571,-0.057217054739246515,-0.78000076376032057,0.95511672341153553,-0.7186276658826054,-0.258231176905642,-0.15298110897911663,0.30167852657205779,-0.29924956973022954,-0.75571746155061048,-0.16153384475521646,0.12983210203741261,-0.96109102894845422,-0.75282632802409688,0.20867748307805278,-0.022613298534099137,-0.7195179292569317,-0.997927109188546,-0.13876040710989679,-0.83181730927206066,0.46163027063638612,-0.64647905107945558,0.73805004712735345,0.030175405467587121,-0.21321157174281757,-0.58166950733408251,0.93576348417084443,0.1790819079645157,-0.8456346098411236,0.75143936328148675,-0.85300352255952183,-0.40649458989876985,-0.91271786508826569,-0.0079106646011446562,-0.31131701964163644,-0.34209722905916923,0.49332015393295603,-0.038698813169809276,0.39311113458618768,-0.19657615027361572,-0.17842118934205645,-0.17592685995599244,0.13111557395233933,-0.1953163060784654,0.010147059595538455,0.33989472603756671,0.84207347193894366,-0.03687002830739463,0.2843139754547378,-0.57405702300395256,-0.64918777712197728,-0.25783424199894411,-0.41163728777201936,0.55070135494610573,-0.14440810973328033,0.58136227606151847,0.18350569339092784,0.18536517264171179,0.16278154331041944,0.83774989800029631,-0.2221949029006878,0.66683561826952309,0.14377695398857576,-0.082905420574347743,-0.92617197664510642,-0.75712309842169156,0.032819805221308347,0.012608901791133062,0.53495560005855225,-0.4765924624911676,0.47699671661983772,0.32404611665078259,-0.41320197503948558,-0.94881847660064,0.34629787106337906,-0.34893338388258577,0.23894185379116265,-0.075680420500256765,-0.99394132871716145,0.44057247192455851,-0.41483409701417467,-0.021724113187728194,0.885312154844314,0.71411744717733372,0.40311228345644479,0.39508619209144258,0.97888626161994463,-0.481707381816776,-0.87322069790026746,0.0980129767675965,0.45616005666534276,-0.7158347426296463,0.77403198982870969,0.54273579096043856,-1.0026940127528845,0.13579904035005422,0.65933360861935764,-0.80639969521139632,-0.28662193525564411,-0.23825976671568583,-0.720164869774111,-0.19725241637200131,0.41040408726357469,-0.23114336618482229,-0.060737160777597866,0.02919339561924025,-0.8591580611909948,-0.44876447196458447,-0.7924788077426369,-0.80711119892667271,-0.65493287200471728,-0.7244722505145097,0.17498815024741313,0.71819179596324623,0.25179168681037045,0.82509235072349363,0.77626463465412432,0.39283453906303262,0.45488479093460948,-0.34993833315216433,-0.76755226283773914,-0.53351819428656133,-0.17871517695923939,-0.6130078288892733,0.035366913655675521,0.12705704286184572,0.47061460767043434,0.01163402996768498,-0.9782391185318241,-0.89058170737171194,-0.09274410412189335,0.018245195203345523,-0.79533503818825524,0.20686339810690102,0.13185706490938395,0.78599111827545487,0.5626208500281733,0.076621951303455338,-0.24419437641188058,-0.61823009286253938,0.25781705940051586,0.40469023564705003,-0.69705097793807091,0.93532132343575847,-0.24307833528325673,0.16285374218722734,0.11107985323856588,-0.92697505194281482,-0.69801637974193753,-0.82388614254648029,0.35631617241082458,-0.78959114176166878,-0.33525693848852139,-0.98790821292185038,-0.5289843579531639,0.72867553011359065,0.89780666390605612,-0.068888050795041872,0.66545817684266084,0.72671442580396,0.47554858542012313,0.050086926334453531,-0.54690045422809974,-1.0154236711263081,0.19571381409651995,0.2735956752874808,-0.94243249607355151,0.916285311291802,-0.46394659485198148,0.4228380193438685,-0.78458730154029532,-0.37086227451592291,-0.38606251159525856,0.087847264185538412,0.37795368034503013,-0.22390433091370493,-0.8536439834551075,-0.11588312179595038,0.65172717951273351,0.8291590486190461,-0.99825587326883769,0.45343678325806869,-0.24596149897015,0.853503593655882,-0.20424522117722366,-0.27890379029905404,-0.65059993213536216,-0.82638224019966189,-0.29118394203496456,0.36502336188612233,0.86622714896976349,-0.40209718020730523,0.40317501266888112,0.0075994286923306842,-0.11097128275361434,-0.82808155558677377,-0.074804863031323263,-0.72299651711672863,-0.28015904522469604,0.41749771115040429,0.10219357921668665,0.18159655491913981,0.49554841705391073,-0.17678490405147987,0.89550479125103055,-0.29647365614383642,0.60204056624433822,0.54707662956991776,-0.42862490273017384,0.6977841499652957,0.58194751721267435,-0.017672953099409285,0.26106825139324025,0.8526927935561216,0.73560835657927126,-0.95472199749033115,-0.67256295069926841,-0.34052211064289112,0.23284532132951985,-0.50611455870150013,-0.047495546871733914,0.89313863324971765,0.23013772346855169,0.19592097542749937,0.57751958289001992,0.65790574557267856,0.25175872668751814,0.63377144800387,-0.76820416379454459],[0.27090798478863071,0.89074253845977935,0.8784664519144888,-0.81016784754288584,-0.76262080485500638,-0.2529817209907822,-0.1474748093308402,0.94577341824138672,0.90722647492880737,0.92626084773241846,-0.92952972689003466,0.1045852992560552,-0.21544898838682863,0.5826677147071978,0.0065618553088296694,0.75090250640547529,-0.1337934932737283,0.31429450271133,0.54950325423031443,0.27193918196707179,-0.15867334653490375,0.83917907734958219,-0.73069970636472237,0.069389232154504932,-0.76275005521376316,-0.50058229671413423,0.22691868760873507,0.96337900974705393,-0.68441063866606455,0.26035819314271008,-0.71826898834106057,0.47241058571051303,0.989751839586477,0.33338892421779659,0.33921372284276907,0.827069211274528,0.747070766184432,-0.18100559100433866,0.047871310795322884,0.11339047976297355,-0.10785804234807167,-0.88482348925184429,-0.56383355646841726,-0.26752008158549734,0.16881474580594807,0.40194790704162053,-0.83284106636914224,-0.68569665712614625,-0.77460240077611686,0.45280645733328462,-0.27247502294407794,-0.66339941256052082,0.70113652261372283,-0.64855348697071669,0.38995934818238231,0.42330401671992918,0.61397212048779815,-0.20384755895330525,0.94874269793992116,0.73636170590055716,0.51696084788094865,-0.11229281909210558,0.62490951849536791,-0.34921446272864226,0.64166492757515492,-0.41030719326811865,0.1096464886025223,0.44621457319796676,-0.76390164438798114,0.17976422765525169,1.0041164333238974,-0.958859477837288,-0.72352778943532037,-0.56927459871142494,-0.62735948021637333,-0.266792670658349,0.41022872749000344,0.529301085312199,0.89508247272845087,-0.15807078012147469,-0.67426547705971518,-0.093089923545997835,0.73852402051391375,-0.14804014495221368,-0.4645421867468667,0.94458842494286688,0.76816139752114942,0.62530011461248414,0.9443516313316469,0.92077416780473231,-0.80221612803528308,-0.062743811764629245,-0.12059730804334463,0.3121883490095016,0.59789785678962049,-0.99430319299257242,-0.51351167876862491,0.78422484671438741,0.10548569431926566,-0.42404216568151532,-0.71420125007246071,-0.2678307951510584,-0.91419887810164213,0.042640837273855738,0.45663871827028685,-0.32022386553412197,-0.93387758367066964,0.2661015930647444,0.97420917496744275,-0.34522606894235969,-0.98980613185139033,-0.91673791777815872,-0.086982140879361278,0.10397281882187308,0.40717722574955878,-0.3779027664501482,0.15359927615628638,-0.22866286907498434,-0.88593553082745014,0.7128204279859166,-0.1831538281412449,0.49088944516388977,0.5213574630119634,-0.6801223480664158,-0.030010427084705932,0.066737452952608162,0.17774813960010905,-0.035230640581431091,-0.16495437444858574,-0.62428301911763406,-0.74715558917324065,0.62379310506699692,-0.56344126288453744,0.32499561133559074,-0.44372108102681657,0.60780147649240523,-0.17881058928405363,-0.3167590801045177,0.40235941950887866,0.85865032897668991,0.88128944084746819,-0.50387494686832324,0.6582086336302676,0.28941738585722743,0.93366945265639512,-0.85741619432571792,-0.9472902393504552,0.77383063478292158,0.93612686178637849,0.01333138415612928,-0.1576664108346261,0.73219333420114086,0.69240474340547831,0.39231766749583591,0.75858241927910419,-0.16437569885582909,0.23354334494649148,0.7727608257991031,-0.89709822445652,-0.57351145948896254,0.52405553494568768,0.09535605006104178,-0.55665451554661927,0.611534636037904,-0.57645866616931984,-0.63092804588466522,0.64843821313113015,0.584719125320324,-0.451411775270971,0.79464292762609712,0.78467776815416057,-0.52609987490571553,0.35361298144758974,-0.74325594534137451,0.82104869222692312,-0.67146158706926939,0.83301470120351018,-0.76199659852545087,-0.57611386915253116,-0.12927474460727784,0.0491208137146999,0.41572023755247062,0.081306929695112856,0.84689260670206234,0.53986944522012814,-0.45433589247350653,0.96548859595873271,0.057464189838845943,0.59949718983263256,0.76297456401006591,-0.60581875485580683,0.090174667536953412,-0.37682183307051104,0.012328648265547169,-0.6345907849701643,-0.18447729888202258,-0.93315805254366524,-0.9345594149291373,-0.0940577778830383,0.53876559272401547,-0.52327262234279326,-0.5177394876798771,0.25029526555084347,-0.90301300990466837,0.22958614771893759,-0.58234209015002669,-0.62155218716506355,0.42639924972830684,0.57551091943610089,0.43643541939730723,-0.0076685690291095066,0.00070791444975910694,0.35576416126108207,0.21331532169753475,0.38991752238474664,-0.88126944357149206,-0.97580804782502306,-0.3739848360424069,-0.90083947121204788,0.87323568724177236,-0.58423227616219719,-0.38546779257499975,-0.98931216038876346,-0.20153578254941906,0.42821542122844913,-0.26411980965440612,0.85332136264534053,-0.6513482004335388,0.91510095586283058,0.030929151182438969,-0.726641387888119,0.76150488217714152,0.32971990888659974,-0.10375231004288416,-0.584871880398125,-0.45033063131667961,-0.84187406310890744,-0.0027462410791770833,-0.38710346519879668,0.096863884780460055,-0.83468925716794939,-0.44859888097630352,0.46320288596902542,-0.87067928761380076,-0.24796425156252575,0.37794092283509051,0.69706953050883291,0.39926040861575079,0.61224945949366438,-0.77704496886617991,-0.23740329768774945,0.42701723387711515,0.95345527066805025,0.01105824927072554,0.11432060653731119,0.848682781231488],[-0.54829537024241781,-0.55966881236610311,-0.34484957855098169,-0.5084478038605158,-0.43851960529292883,-0.99729284147163777,0.50260203495424072,-0.4522992527267779,0.17106114307597195,0.22193342424624185,0.67000067101318173,-0.5238067637728967,-0.1892055662331299,-0.15808875498309236,0.9549680228169739,0.044342155156169849,-0.97420334001582654,0.0031500358740380236,0.7050055828602767,0.86456694724520544,0.16138270596446802,0.87937220486579049,-0.95449883721214168,-0.94980686273018433,0.043938353645333335,-0.54969479097953278,-0.25413234003397417,0.69428435533719879,-0.730117651058692,-0.15702151656697561,0.81284240161894661,-0.67110816680457164,0.76622194085014672,-0.45024471919295606,-0.900622333519566,0.727402300552101,-0.67835574054286574,-0.88352659964918467,-0.45358615070601721,-0.8322870350809557,0.0564862170232043,-0.08401243334967963,-0.03862362800976437,0.53605289589008953,0.71302229304389186,0.21870088973577909,-0.40709540247830006,-0.2184307967983378,-0.73195622884008893,0.728345491921347,0.40238534596021924,-0.043441481186045378,0.31300511056834329,0.25600351829977064,-0.30762556032111588,-0.43058311854312287,-0.60239395250449745,-0.38589114303536931,0.44530747730608361,-0.90034361185793665,0.26059284669177707,0.80370886329654323,-0.72634847898902588,-0.6781630011614258,0.41156925113957654,0.341059103366829,-0.28540717911116303,-0.72492079896926442,-0.26094343095291034,-0.77231088300332673,-0.27598365358570925,0.90795683992235232,-0.55606073854493832,0.5400873671029639,-0.18467875172118634,-0.76145376178895041,-0.086208187263638367,-0.48213333416551585,-0.65024955119298589,0.81626910392069563,0.86675421769720884,0.9712644942108799,0.42485796246877022,-0.43562938462097195,0.43353552889094732,-0.14643705492905951,0.027981079866860162,-0.47787956777029916,0.84877494919327989,0.53062314466837313,0.35389587616460344,0.71348378925758338,-0.33014248803270863,-0.54655936394795479,-0.088001098143292072,0.26099527617563911,-0.35400974547950226,-0.36337963441850113,-0.88465989292890723,-0.62738341022959088,-0.49539913899678328,-0.68480031732398638,-0.96601053132503545,-0.9527429894550643,-0.0098354281671051511,0.507852856442598,-0.48712588862261796,0.77131328080405981,-0.55999755125371786,-0.53071094793862372,0.66100536352714356,0.87564323030829838,-0.73444775072847435,0.63759963870797742,-0.7525875877784286,0.27887266260057375,-0.63040335134355452,0.73226700334163908,-0.11481490408864717,-0.44613670677945411,-0.66922058137384521,-0.800674917197612,-0.59145561965144833,0.22229005505058447,-0.10579421093062556,0.014051078448154132,0.23141206188961766,1.0102093823855067,-0.36050735734925887,0.55338787367460285,0.59396505731470994,-0.71945042695036621,-0.596935331977277,0.97070695237407079,0.31384701751837052,0.55282738638700479,0.944101197316741,0.39786899375130996,0.55960170400090858,0.93069575996135212,-0.65446945124148881,0.26159774656095508,-0.93092862854026015,0.38498355655531008,0.85675560068961965,0.47993206663455329,0.46577362633812452,0.062971977619234842,-0.80000118018669875,0.65026736464707835,-0.083686375271518662,-0.080931954987644758,0.76005437610514581,0.59521515533655345,-0.93542973498421012,-0.71479413800227054,0.92244055479561238,-0.16073106819518102,0.13378492314865584,0.95269571301885136,-0.72134736948350842,-0.47164502815180331,0.14914160841462665,-0.1130394361642592,-0.11170231729623925,0.40804789298232952,0.47808720182360942,-0.70220487285121125,-0.65771707062495477,-0.29074200140253748,0.33606610492491096,-0.022885568228825093,-0.81603902556969188,-0.039249741294460315,-0.79329481541573488,0.065413911311010042,-0.87786706630860434,0.024426138945851533,0.35308960379054588,0.42588765004238938,0.57341086211911019,-0.80105392003193476,0.80589192946635768,0.031864899407836565,-0.33598262647559451,-0.32052609767551155,-0.452758699554694,-0.17041058535214357,0.92761229912315812,0.013168220319173021,0.66565928761533766,0.10191256735425892,-0.7518765650371031,0.5986037618351564,0.65275275571960578,0.835882548247043,-0.86601174065378761,0.1881003169625465,-0.49885833754141456,-0.49273987294507449,-0.98929252747352669,0.14479374613978691,-0.27598685981631654,0.54556245879672416,-0.71107560094394107,0.89815005785002822,-0.2250540609658894,-0.19803002400722888,0.35405838552809055,-0.022181362389657528,-0.82740922916190551,-0.13122006371057363,0.47794910809457442,0.72889191734128189,-0.61248909757122827,-0.91110671293508172,-0.27340140430169968,-0.89854309051229764,-0.78304312088668493,-0.78295131875007251,-0.14536416030198612,-0.37012647156143863,-0.62117846758159745,0.32340302825745237,0.030800710751955531,-0.77058555513832983,-0.26600526730457286,-0.41413310829807315,0.31104439547618595,-0.61591563190540632,-0.057895700464677506,-0.045315547741452168,-0.46113961580351176,-0.15532653662917165,0.41399162534974204,-0.539065095307241,0.48919730424311547,-0.74606218757546094,-0.2484916956492485,-0.21808839400651287,0.90444593105917792,0.72528172079095621,0.48339403111632634,-0.050247460953117995,-0.16671333049438764,-0.21529340521480073,0.644814798282281,-0.4813757995205869,0.2024198365924389,0.56442668979338351,0.10525893521972257,-0.96244582518662847,-0.037032829346965633,-0.71035751018936033,0.6393884867894063,0.37388450268439788],[-0.24672419092889414,0.38153859797483453,-0.50952767826061607,-0.95695044396587747,0.15763402492099984,-0.808985034484869,0.4946136586465979,-0.024574773449845204,-0.95474147009604815,0.22673867343956494,-0.66178739554985311,-0.38217519280638768,-0.68832400606399036,0.93207953169538471,-0.3930995119650974,-0.53585032110776265,0.34466276543745789,0.437001699402209,-0.68606161238067953,0.127604974958862,0.13593631096224887,0.4333172635031568,-0.5071154020294153,-0.75903940655457081,-0.43081635486186892,-0.77440118947865533,0.37133112095046433,0.73282854628760963,0.27208415119923268,-0.096354000587368274,0.988967668820385,-0.77107520623962045,0.20963228699637548,-0.95679958087403671,0.69350624745041156,-0.90912982953380184,0.75240800542624908,-0.3057640779811312,0.61169329582570875,0.706833501056496,-0.77042429659717893,-0.49239151831175321,-0.09720293154592928,0.59434687253139207,-0.55504292252374643,0.017212544535404255,-0.81152493364953537,0.24542706825669847,-0.052283074692288233,-0.37526001075960608,-0.32006950980881921,0.51910960490911806,0.96592468520991748,-0.49868561299462782,-0.77373922839664822,0.32143429735299878,-0.11512137283448697,-0.73838156457965065,0.48616465670953107,-0.058327223895787782,-0.18600449752666168,0.75065577253995652,0.70180052540421778,0.14033418591355509,