{"Descriptions":[{"width":28,"height":28,"channels":1,"filters":0,"kernelSize":0,"stride":0,"padding":0,"activation":0,"layers":0,"neurons":null,"fc_activations":null,"layerType":0},{"width":0,"height":0,"channels":0,"filters":6,"kernelSize":5,"stride":1,"padding":0,"activation":1,"layers":0,"neurons":null,"fc_activations":null,"layerType":1},{"width":0,"height":0,"channels":0,"filters":0,"kernelSize":2,"stride":2,"padding":0,"activation":0,"layers":0,"neurons":null,"fc_activations":null,"layerType":2},{"width":0,"height":0,"channels":0,"filters":16,"kernelSize":5,"stride":1,"padding":0,"activation":1,"layers":0,"neurons":null,"fc_activations":null,"layerType":1},{"width":0,"height":0,"channels":0,"filters":0,"kernelSize":2,"stride":2,"padding":0,"activation":0,"layers":0,"neurons":null,"fc_activations":null,"layerType":2},{"width":0,"height":0,"channels":0,"filters":0,"kernelSize":0,"stride":0,"padding":0,"activation":0,"layers":3,"neurons":[120,84,10],"fc_activations":[2,2,3],"layerType":3}],"Kernels":[[[{"rows":5,"cols":5,"data":[[-0.29001515955409735,-0.018830687677654848,-0.70025135606413624,-0.43078351632433792,-0.14270586902779758],[0.55861179710591591,-0.26886549862734244,-0.91085447146702669,-0.31686655657047286,-0.85639970322873871],[-0.90586404587184621,-0.76753802242110969,0.48612416398408353,-0.97755290434883779,0.46135850164031378],[0.2836517650469807,-0.25476754855048789,0.53916246758788244,0.25821898822365569,-0.55609324581731656],[-0.28936240576529931,-0.85886446196323363,-0.72865398550177585,-0.98154072241262436,-0.11210133171478243]]}],[{"rows":5,"cols":5,"data":[[1.132623465056499,1.7877274617995702,0.86394638221113873,0.28113649919402767,-0.22270730013100534],[0.90259614121783216,0.35887532081167645,-1.3593111307014389,-0.80022455904219492,-0.93857793710059012],[1.411767310208411,-0.24692390906970441,-1.6125297344883933,-1.0013020529596235,-0.82139519169364],[1.6254266891837825,-0.70327041646815835,-0.614689984118554,-0.33677152164072927,0.43524104885641551],[0.85524452800783934,-0.43984920950497425,-0.95048772936831116,-0.51846536507485563,-0.10230240298334936]]}],[{"rows":5,"cols":5,"data":[[-1.7167325954693951,-0.70150568583826123,0.85245938314616287,1.6606111218372153,-0.1446008262314222],[-1.5833100069689075,-1.025380516836824,0.013758366031830956,1.2800516196672587,-0.41553481784847346],[-1.9242804413394112,-0.9857462436659411,-0.4662976471495664,1.6371269301869549,-0.91533599903396456],[-1.1300674476484691,-0.31870965161189424,-0.69992772774221745,1.4082935526146103,0.907932358742378],[-1.3878060748124115,-1.5568115203088764,-1.0492043224010461,0.55096728041692011,2.0722695142816994]]}],[{"rows":5,"cols":5,"data":[[-1.203729271958677,-0.79490537766646241,0.4690686431197546,1.327145346963978,1.0790398127755712],[-0.96016836309228493,-1.2767545311191744,0.0098583120527042118,1.8738730880435845,1.351448501719045],[-1.7152853672939494,-0.8564641940915888,-0.99615256398318686,0.2255905996060793,1.4334955456384777],[-0.71647773249877456,-1.3850961536142532,-1.6408022537224014,-0.40679025599881885,1.7234793898974981],[-1.311693178135126,-0.31455175956064607,-0.84183969736140651,-2.3299208097279616,1.1564844168214781]]}],[{"rows":5,"cols":5,"data":[[-0.96965730644407622,0.22208530917074829,0.74418865835172765,0.34853589328110568,0.4190301891809281],[1.4144703609141518,1.8915757230955776,1.7675960132849597,1.5128606970945542,0.88014790188676129],[2.2852861223760046,1.3905337241573683,1.6098049035379507,0.67468896008598556,-1.2889254958213823],[0.1466925113445974,-2.3068011832864577,-1.4522141348654096,-2.0203461910216234,-2.087896256510287],[-3.2797007026377356,-2.6925005585777049,-2.5648805738034981,-2.4738239249026344,-1.2108719220905531]]}],[{"rows":5,"cols":5,"data":[[-2.03940673397781,-2.1039016011710623,-2.2070285455617862,-1.0815527665286473,-0.94000003369444785],[-1.2793122315803134,-1.0059650671013163,-0.44358440838301444,-0.74781559517833185,0.82979558968146194],[-0.22608860121507363,-0.8818184269427376,0.1081182969781268,-0.58795472921704228,1.7669170237802869],[-0.75763891275567941,-0.17122325799191027,-0.35810604477244956,0.69620443071944027,2.6753896674180697],[-0.63627245009218714,-0.739901770214529,0.62251534803726039,0.48742088956654084,2.6197252638747277]]}]],[[{"rows":5,"cols":5,"data":[[0.84602022838789515,-0.13223901173139424,0.26074196326967047,0.63227621434620518,0.86873228634875366],[0.59815705839929523,0.14715736087246503,-0.58801245206816766,0.49649606585557626,0.45415957709998872],[0.53483888174477834,0.33126986438319389,-0.087754613723070724,0.41479600347386114,-0.012818135830186149],[-0.098242523640293136,-0.63818133218746,-0.15472702368872357,0.75243926941736583,-0.317497337097959],[0.3528806381846239,0.18216677296376818,-0.20482157872435514,0.33049839344954163,0.43887337831352113]]},{"rows":5,"cols":5,"data":[[-0.089314217437953869,-0.65137192478796424,0.42943411965899236,-0.84252225079437937,1.9852595305975049],[0.37579133261904252,-0.95443804314104308,0.62936740141537351,1.1518674165693326,3.5955307216113268],[-1.2748246574428535,-1.2603471942770388,0.53860848229885383,1.6014289110331426,2.9585415363913197],[-1.5596636076811223,-0.0060622311323978682,1.7883926419086365,1.1108742509528855,0.92944297293827538],[0.13038498882447197,-0.19932311350252249,1.0912911971084469,-0.18523212882330542,-1.5158035424789722]]},{"rows":5,"cols":5,"data":[[0.35614118524434896,1.6440904451626381,2.0458097518176861,1.54281156559711,-1.5552785854195426],[-0.48987063854797619,0.75759204132547775,2.5065086965978445,0.26582601337402489,-1.5201636635505218],[-0.78481218587945012,1.7754882772127856,-0.464090804855791,0.13953478840892358,-1.9508375190670488],[-1.0629550394122358,-0.05394951639808173,-0.738964375674283,-0.39194258685382433,-0.97841811240776988],[-0.96624723454008132,-1.1191303204671714,-1.7338905161604581,0.39106802302385496,-1.5918688697857226]]},{"rows":5,"cols":5,"data":[[0.87455871537873009,1.0621457381986179,0.72665457366258523,0.542595092526503,0.86983276999763381],[0.1843611745908296,-0.45619003614368586,1.7573923758803463,0.31423679300273216,-1.3073976433432968],[0.2234344449671517,0.14223100331401459,-1.0406314729345669,-0.53418537342915506,-1.3620897956603395],[0.57944502922573582,-0.60065986525031478,-0.58389505277779541,-0.93862273444322752,0.079558627629042186],[-1.0183337324136288,-0.31775292602819655,-0.28611710698425741,-0.82445278380294329,-0.071965104835442675]]},{"rows":5,"cols":5,"data":[[-1.2714623345887286,-0.64773690451476751,-1.8774019587228732,-1.7017280329765394,-0.66248919098664694],[-0.87086949451809081,-1.2926513174432148,-2.5867480560653897,-2.17558545462977,-1.6664678886969304],[-0.491880439957031,-1.6136900350587524,-1.8522533082941102,-2.1906322982087394,-1.4066405535443223],[-1.5432156588782362,-1.5941282859657064,-1.1677049616610669,-2.0766472484460454,-1.9795150797524146],[-0.690962028401862,-0.47562179895270917,-1.0472559120233618,-1.96187574328973,-2.1274985801039383]]},{"rows":5,"cols":5,"data":[[0.374759649735918,-0.063674420646664912,1.5846916377205389,-1.6019116759399805,-2.3111099775471704],[0.16662768903258549,-0.06262475510617127,1.656856958595881,-1.5529000058452855,-1.4382830507516657],[0.9239660875074911,2.7074247336778758,0.7443392669793587,0.25810583815885574,-0.910582360705581],[3.5082922054837509,1.5892812435063286,-0.59309064738804529,0.35855349030926525,-0.063663311830862532],[2.3410519696762844,-0.57324408122162707,0.6643804370152615,0.10692186532577902,1.2910948396022188]]}],[{"rows":5,"cols":5,"data":[[0.43428288200572124,0.14334220861307084,0.10991353438125025,0.41313516409291468,-0.81994530656064868],[-0.093261238237376379,-0.7014192265848066,0.12140523623162672,0.684412664543623,-0.90453066115820158],[0.10408155279620317,-0.91824644650166609,0.55132955730269317,-0.27584931396175832,0.60013905635519482],[-0.32143846289507971,-0.94836243234450979,-0.99484260078861086,-0.46975685651500376,0.087777178816607571],[-0.9393978313979463,-0.57144483568368143,-0.159674015460305,-0.39246173294135905,0.58303735434717474]]},{"rows":5,"cols":5,"data":[[0.10938656481628803,-0.70048024904014117,-1.7952562022076497,-0.12928299849918273,0.24687591868695155],[-1.4864476078638225,-1.8319435411899725,-1.3728964812825646,-1.8495374731114529,1.6007373286559643],[-1.2395438238091514,-0.47244314863470743,-1.3388936416786641,-0.96441664620292944,1.9389461816735452],[-1.241514138562515,-0.6259796104969092,-0.13574707705874356,1.3548941871075397,1.5838165985835446],[-0.38855791656158745,-1.2095722215517757,0.20446216137248519,-0.85429328378460123,0.38326654538754706]]},{"rows":5,"cols":5,"data":[[1.9588315491174535,1.7666531963822807,0.068070177217644176,-0.30467147797607763,-0.63505722241924156],[-0.34009192102246955,-1.2682647538839129,0.16802771527214638,1.2569284039647681,-0.45102826693547204],[-1.3493068221798983,-0.21414127371599012,0.55501054805634675,0.059745378527969191,0.69880736410712341],[-0.31889586291907668,-1.2709041352880004,-0.54934596090881249,-0.78657473084358076,-0.87857768168654771],[0.34143701087646416,0.057075862386121307,0.47566012493615156,-0.27084060542351973,-1.494712815340008]]},{"rows":5,"cols":5,"data":[[0.4865781648539369,-0.20128374320240738,-0.41622147336654131,-1.1621136760427302,-0.85868803423944362],[-0.43978086927125987,-0.15163720012130613,0.17235803496211063,-0.39158374320579675,-0.10195943250138104],[-1.0324462409318427,-0.16511647150051642,0.45349997878920956,-0.53202650524043515,-0.73454717379201506],[-1.1180029751478977,-0.86060292720848708,-0.88238887682141343,-0.76503288132542679,-0.83607283182251668],[-0.14007496594521779,0.937090927390186,-0.27034957865351611,-0.11359780956877554,0.12881171231436461]]},{"rows":5,"cols":5,"data":[[-1.1647729965646558,0.43943982596047582,-0.083157320764535275,-0.73402035982894653,-0.66923522481241615],[-1.0218824384175056,1.5093349393019178,1.4384438323688449,-0.53505689451546867,-0.90086905269816786],[0.45340232434642153,0.7534742447815308,-1.1317016971534357,-0.43633924207894526,0.92477737178405139],[-0.50731397484695206,-0.14227478451621742,-1.0989577009443794,-0.11804231542221695,-0.089996569922429381],[1.133214290131086,1.3858397878263291,0.72697150946789391,-0.73770576294698986,-0.73524941801802679]]},{"rows":5,"cols":5,"data":[[0.84082064029626569,1.0962146762071185,-1.9356010162858519,-1.6048478035194258,-1.2144773777864522],[-0.27759207583713696,-1.7683841808051408,-0.733320286603357,-2.2370310371031166,-1.897787974098756],[0.12447416947058106,-0.62915644795775671,0.6328850773225575,-0.51936618183046979,-0.73547871239379514],[0.83413218256253041,1.1484801189701015,-0.12966115112284085,-0.47304524864527286,-0.993185388073669],[-0.17070263737208477,-0.89472636556872565,-0.40058086851900288,-0.632868511918496,-0.24676099942406421]]}],[{"rows":5,"cols":5,"data":[[0.22539651923955809,-0.0692611557606971,0.27092472706875342,-0.3504897249151615,-0.8411619964823227],[-0.16026156274349859,0.55516937248376519,0.93724277743349049,0.92710853187628639,-0.23772545785098487],[0.33541168279624811,-0.023663504046943055,-0.99695348951573093,-0.548095796817399,-0.61346754179168106],[0.90190602434764,0.80504529234395106,0.82794638201913073,0.50696738800537167,-0.85630311214222787],[-0.52403932510061857,0.78409426953062067,0.1950733942356061,-0.2339209609532987,0.87987001556830036]]},{"rows":5,"cols":5,"data":[[-0.47293484101756866,-1.7718070105686976,-1.9795179814108979,-2.202113889218837,-1.5440294082127644],[-0.52318516741562737,0.20827527645835875,-1.3913687625261995,-1.2340838374786654,0.2319341909650946],[0.36750786374254057,0.0485324423270283,-1.6140393295573092,-1.6330769830234329,0.98418012398931676],[-0.95884534858821968,-0.6982988086211056,-0.63814202375757356,-1.1394866652821605,1.2641204882975548],[-0.74033574948405689,-1.1683828488083696,-1.3123580800068828,-0.083715307270871578,1.4278106909346797]]},{"rows":5,"cols":5,"data":[[-0.95257219520122272,-1.4001280991082761,0.015863119487103793,-0.45351964877517142,-0.63728446443476006],[-0.0043199823219273589,0.33702108137567205,-0.89862496925268531,-1.326270496549923,-0.3331106359369016],[0.34114276664442977,-0.89457629818459983,0.0071384752018074952,0.32968870620466389,-1.1313953740407423],[0.46694485351637166,0.60465984181697463,-0.034410147245707574,0.41792979930301144,0.094383363716591187],[0.886155159772747,0.39079483949661037,0.77426418197993119,-1.0442428642691051,-1.0931879158435041]]},{"rows":5,"cols":5,"data":[[-0.092115353486968851,-1.7675065306531357,-0.79407058877898284,-0.22988988728253695,-0.2481016154251092],[-1.1428368162737295,-0.733353532734373,-1.0067624309291596,0.06902571773804507,-0.288968434768942],[-1.6561647595261564,-0.82953518721731234,0.91064522429835992,0.88924667373080668,0.452396885599188],[-0.30848561284145753,-0.67185835988103459,1.0509073396178252,0.049250023558581366,-0.1081816561976911],[0.54000245911022993,-0.035142248249500976,0.78801493788428145,-0.9162607939037597,-1.2494772918507295]]},{"rows":5,"cols":5,"data":[[-0.42510039655770387,0.35007523936833107,-0.89432944362874134,-0.16269391255858964,0.84491348933699839],[2.0685363334356688,0.899575732722741,1.6940017363818216,1.2835754208405428,0.28777132996959015],[-0.21174870362527357,-0.91556982600074022,0.47666750474914671,-0.18553977558289603,-0.82529889949275737],[0.12987771912069893,-1.2063847590296162,-1.5718466227272669,-0.71020979979328047,-1.1027202359861157],[0.43475394285600477,0.36576349647419315,0.74247072135903525,0.72315945423777928,-1.4752606059411573]]},{"rows":5,"cols":5,"data":[[-0.450638088398977,0.41319624735717214,0.34522910969492393,0.12268961059214871,-0.99189364276285663],[-0.046830899124951565,-0.93072346043191068,-0.867556288501887,-0.83181898721874037,-0.60879557195375811],[-0.96907521936804564,0.050111155773474643,-0.964831945852767,-1.7944166576485681,-0.44732054373322305],[-0.097130421740549866,-0.085509943313586981,-0.46955989368999457,-0.72078995721244954,-0.60385452100063286],[-0.45598809112919381,0.59404501871796134,-0.025620447319286591,0.20660413610638118,0.47647196548019821]]}],[{"rows":5,"cols":5,"data":[[0.085923932431595809,-0.51559245325930858,-0.045017056820245982,0.859261914772865,-0.026917022523540494],[-0.73481081051558006,-0.055546030396714005,0.11626047822402211,-0.23612386963345222,-0.2694965383466098],[-0.26822409375167833,-0.61594466547592419,-0.75142956185387177,-0.35922522937976137,-0.83907318966258848],[-0.24005251103984243,-0.529139154183612,0.89348210854763077,-1.0161330258995023,-0.2535575357489922],[0.34665921985637049,0.021550014769821151,-0.72330259535463548,0.76197043478860027,0.22298519072754683]]},{"rows":5,"cols":5,"data":[[-0.36511471318900274,-0.41739642671393956,-1.3978144476374486,-1.0968721611828116,-1.3134420267950531],[0.046625291717640675,-0.89026006462618379,-1.2736189712372366,-1.1785067115522454,-0.550431281737482],[-0.29010732635403996,0.43667258959534855,-0.44191378851296714,-1.0940586293964079,-0.91903752290757945],[0.62498623640714113,-0.41286401794101,-1.7669262263553021,-1.2797109427587763,-0.974139301677214],[0.6725858724332423,0.30309672212171224,0.25243215237331162,-1.314550527041102,0.84758681078472953]]},{"rows":5,"cols":5,"data":[[1.0660928077621534,1.0000419897970014,0.091442873862805182,-0.072963039866736773,-1.2959294682934475],[-1.1003677254862807,-0.20914916054883534,0.10065693993170045,-0.52777751688050512,-1.0961304561077567],[-1.4449943652215405,-0.28443803834526787,0.58855852156406385,0.25991191211759906,-0.033103432965467909],[-1.714709951035543,-0.31920389581992764,-0.70402765343740925,0.250586999199985,0.96465787584523843],[0.31806646238070835,0.56484233749940416,-0.13193417350771527,-0.75784356466062741,-0.30056571266586413]]},{"rows":5,"cols":5,"data":[[-0.60885145343090941,-1.2214040887308115,-1.2916517522285449,-0.5601701438121035,-1.3788869138065458],[0.50723760826417752,1.5130566765143285,0.92179444997872584,0.055158766306361059,-1.2164615006657589],[-0.61006003210088933,1.437854647428743,0.93871252793832016,0.78250821481523658,0.60374906746724522],[-0.56527492898004406,-0.96283500355899909,-1.0700200561908961,1.8048673389988892,0.049255352530983738],[0.080018971894438809,-0.45736943909891775,-1.2785468388844037,-0.87928833448083621,-0.98376576119623171]]},{"rows":5,"cols":5,"data":[[1.2054890059476675,1.429703016273367,-0.47080312168611022,-1.0704466603727922,-1.3515549586004076],[1.5349919569746535,2.8582286461827859,4.1766030750733076,4.5895674077026163,0.55377548714603919],[-0.31552624478357921,0.3725117457978101,2.271314699607879,-0.091300143850645679,0.80580349947863306],[-0.86540629075457431,-1.1157746059594278,-1.2491287524601598,-0.79670766510374913,0.67787863296342887],[-1.9762288586830137,-1.0501121533180595,-2.2574944461868172,-0.70608295933998622,-0.63415356194770656]]},{"rows":5,"cols":5,"data":[[0.56380074202582731,1.6797124577617875,0.74188201562463174,0.87383052842394682,-0.16123573259469146],[0.30210687433141081,-0.24939786997180788,-0.65642277642608482,0.268223440686809,-0.059424223794313322],[-0.76810210363115661,-1.405073068296345,-1.5311584140644057,-0.58575412445014252,-1.5883731622947059],[0.0085987933951769454,-1.1408547393148338,0.68221185855338085,0.3044954368525965,0.27849852500678718],[2.1304623550799904,0.91512982844607382,-0.48494178100923085,0.539867354848052,-0.22963102650104797]]}],[{"rows":5,"cols":5,"data":[[0.78987380977100852,-0.6673671932515014,1.0226033173687632,0.92069221153894076,1.0179722279039933],[0.18602776446592717,0.22620378437075323,0.17240520792811379,-0.95315496600388572,0.88311315477937413],[-0.58989037528918087,0.46742182166775254,-0.042921309535534018,0.3788479905328026,-0.58800647973223652],[0.46125506648556924,-0.398725898781752,-0.6682426410138268,-0.33472304650468609,-0.49810389876315248],[-1.0050808921714647,-0.75193921981019307,0.73163976832816624,0.65544642155835109,0.4669657330271289]]},{"rows":5,"cols":5,"data":[[-0.68387714734998784,0.46124103454350512,-0.59413593043451862,1.3778128956456093,0.29099710955119912],[1.1593758863829879,0.89896725795220356,0.085473558173422753,1.7359710630442635,-0.90962929244381174],[0.4971733710053427,-1.5747567362570119,0.010512808135385229,0.99371516057890785,-1.9117120191881434],[-1.799964466463077,-1.504265984689777,-1.1649385371379708,-0.90458086384735825,-2.5650463358320486],[-0.62734192985766524,-1.1531948086438963,-1.2259971672522754,-1.6258886679692106,-1.642950471801401]]},{"rows":5,"cols":5,"data":[[-0.56735717120772511,-0.1935913445596201,-0.27989209201125304,-0.26555159606552869,0.33242638112525219],[-0.79673578528945932,-0.54515070992296222,-1.7952198185520827,-1.4081286637273069,-1.8068549329927379],[-1.075024133264723,-0.79099634525547979,-1.06185257787409,-2.1308372410240337,-0.3106315502296817],[-0.37115261032139912,-0.9521889273198193,0.18046700113111377,-1.3737401975108656,-0.56776937892111756],[0.93483211470794092,1.2893005046676402,0.019727744335160419,-0.637438498710035,-0.82098298247379153]]},{"rows":5,"cols":5,"data":[[-0.50709533730547329,0.61619302866624015,-0.69082695497867241,0.27901154746542217,1.0377341258320354],[-1.0627773355591708,-0.011877426180710228,-2.307368958662785,-0.27456794338309548,-0.2773327922879899],[-0.45839414623448377,-1.2466781322741329,-0.44132876946812238,-0.39388737328749279,-0.63430669097781522],[-0.92051653182103033,0.21368039788491103,-1.128034110134174,-0.70716558116318418,-0.53805102115054182],[-0.12419835990584266,-0.91939669011228209,-0.56369153227020918,-0.17190275224310031,0.096404997528693082]]},{"rows":5,"cols":5,"data":[[-1.3039487705127459,0.61844064912044217,0.23899344881688761,-0.8891796289087478,-0.93643871405132029],[-0.035185372691609589,0.11969130135374871,0.16652268973904011,-0.015929724913249489,0.67149526316055241],[0.33752513044412319,-0.6267998703481602,-0.98527371583824486,-1.0179497028220343,-0.80799777776999893],[-0.33355207998334707,-0.78206830768188684,-0.59805414263307766,-1.132039550059184,-2.461028844227295],[-0.0041731230030877435,1.417988564520871,1.7374402796935913,1.6163132699548548,-0.33099960689733349]]},{"rows":5,"cols":5,"data":[[0.77369756521173949,0.60772681069567613,0.21464464788862969,-0.32667046181559695,0.719538286003539],[0.45717382289911934,0.23050278160017218,-0.074844064644616459,-0.98986902200490168,0.033084047698222284],[-0.92713623952691593,0.41127638680811013,-0.051275947930578027,-0.97879520338364367,-1.502366508936495],[-1.4461723272342295,0.25286056550746272,0.34607283086627255,-0.48405791112255486,0.45588247018679029],[0.10586959052192366,0.38893500805129544,0.57367132036582125,0.32265197344184537,0.22206345185686696]]}],[{"rows":5,"cols":5,"data":[[-0.90958676051604215,-0.068503063699076272,-0.15060145813355785,-0.39245302077874028,-0.55186536205840642],[0.44281398804373384,0.79915747696971218,-0.730940823883052,-0.41654110757507573,0.63302542397252226],[0.30994821397883593,0.47387572193683986,0.53010294689802617,0.34192138997264093,0.39238660534162917],[-0.33376804029025459,0.85614528700166426,-0.920277852738828,0.16500505722870285,-0.20634115962998711],[-0.74838194750994069,0.7672652137988254,-0.10374623375595281,0.36610635472648656,-0.8368479106444443]]},{"rows":5,"cols":5,"data":[[2.2300860903851816,0.1904908803835095,0.31015623311386592,-1.0398956267930888,-0.17004788404705337],[1.915374031780096,1.0839620077661085,-0.62880656897076526,-0.28285653453302051,0.44219454843574285],[0.5176826162108098,-0.70160154853011747,0.40559820354360049,-0.1311386402288473,0.72423961531606684],[0.24449805139345213,-0.18794423708376618,0.16480591153093763,0.5695218770369066,-1.1204763982106742],[-0.44306243835632553,0.38631760116394886,1.0604758886207439,0.059780610106761313,-1.0132606905033572]]},{"rows":5,"cols":5,"data":[[-0.24413157262196747,-0.53054421328769119,-0.96122306334157182,-0.30318123455099871,0.63423681563164735],[-0.69037976074499818,-1.1546897779994418,-0.30035675435878711,-1.4800415443497448,1.5980667333111946],[0.41996521982683721,0.029413514773209033,-0.15260527791093728,-0.42716447040815453,1.8626653114035636],[0.71683250725448677,0.24656559134569081,-0.24819746258921541,-1.596629909659457,0.8872311255200328],[-0.51677149367359843,-0.41046688262434494,-1.3327716106841285,-0.25487354011758639,1.5872164325321156]]},{"rows":5,"cols":5,"data":[[-0.55583299782805473,-0.18967536093335796,1.0419969741115684,0.270263969189337,1.513944844419477],[0.98047168102099369,-0.64538156623067844,0.26890703382870867,0.67486501380468533,0.63351515948814552],[0.10045195654818087,-0.013971649171001568,-0.43879176471026654,-0.12558006131795393,0.81793779097465547],[0.3838775975414459,-0.16934968580357468,-0.81851575324924331,-0.53191740953986444,0.41039571634846922],[-0.93326675877660437,-0.14150400997619433,-0.09840909323262155,0.12500788999248269,0.58669295887985951]]},{"rows":5,"cols":5,"data":[[0.86208263948088026,-1.2838229505861374,-0.34284896385988078,-0.46916663877285114,-0.8404901215741426],[0.0759075129119956,-0.4292529007503661,-0.90443218626277233,-1.4305143695795823,-0.71175983334319881],[0.29484275519899689,-1.0826158324600961,-0.75977475540233419,-0.73917345955808333,-0.9638377175082572],[-0.75244992743856876,-0.620898433499186,-1.1393314115415087,-0.41909390246577977,-1.8500092620479485],[-0.89840661742758166,0.29135388433925669,-0.86998540862644691,-0.51258497022213123,0.22769559819370111]]},{"rows":5,"cols":5,"data":[[-0.40709093496320609,-0.18346242035212534,-0.78707367331259415,-1.5937100624951526,0.11801124799596147],[0.53669193315340236,0.85891468218378131,-1.0245888286253757,-0.67814652943525811,2.4451217755312187],[0.81028375643032624,0.44540474551521014,-1.2837233089194922,0.4885362324105979,2.6337487949660594],[0.76898208898966935,0.015635373642689916,-1.2801543026179694,0.43793452886524392,2.8058653005693825],[-0.42404177405914484,-1.2398790481082698,0.31648271800716571,1.0934485526410405,0.12191353622294041]]}],[{"rows":5,"cols":5,"data":[[0.45696611210123539,0.30485870224612649,1.0123228576025447,-0.55605298048073837,-0.19383817956248292],[0.96040643370240641,-0.69175293087801681,-0.71678642344159738,0.11302324391679507,0.012870110240338885],[-0.2230928335760573,-0.63262448057260934,-0.050232918937915989,0.69971926209377688,-0.69221743884196463],[0.1878935994362545,0.71346737893710366,0.49486566358861839,-0.068913163889484777,0.8108666323266831],[-0.061553546476043393,0.93288620486313389,-0.459389567253255,0.80114998003916527,0.56436054575357186]]},{"rows":5,"cols":5,"data":[[-0.64835486211116178,0.10135700562870334,2.2772359887828526,2.872005955112185,0.40743756823846144],[0.42739353132293884,1.7095780006596579,1.53010663630523,1.8090904294208945,-0.16071005318464809],[-0.59974551284709809,0.60056373839150512,-1.2848415992312536,-0.74143772809666908,-2.2411373661799638],[-0.8881369246713462,-1.6825223812303365,-0.54283106321191943,-1.5523380768521349,-1.3219921623996027],[-0.8650260034619931,-1.4588421059943297,-0.68524853801105,-0.5496790685889279,-0.30776501422237307]]},{"rows":5,"cols":5,"data":[[0.17631030745310095,-0.54041453252490412,-0.3419108778873442,-1.5654311850547271,-0.55107393294425666],[0.24657936157154134,-0.64012435867365891,-1.8253131779146965,-1.6267739001384796,-0.41377586790801996],[-0.015188964525044349,-0.070659036312089765,-0.67110620352436656,0.40588195396879057,-3.1863949524650756E-05],[0.33173127543610731,0.11476818450298428,0.11018782898384236,0.32408096311107709,0.53264831520823552],[0.78278033707279016,1.5485648640571583,0.32924699058679857,-0.73345781466941107,-1.0501057178874824]]},{"rows":5,"cols":5,"data":[[0.57986098160697142,-0.758722644815721,0.6788737869403797,-0.28107598664327488,-0.40724060802212475],[-1.1026087612915103,-1.0397560919010875,-0.067582750605333849,-0.96109403034697161,-0.95855890918200815],[-0.11412774707396829,0.00043102455919132797,-0.73428363701969712,-1.1350845859825274,-0.90389163141161843],[1.0020533377377425,1.1987831365232586,0.53237771415230384,-0.14280219975518224,0.24307097574594291],[1.0066043890787082,0.10127933534896444,1.2617199925726201,0.26293107166711621,1.008224151945619]]},{"rows":5,"cols":5,"data":[[0.47558282828668691,2.0030625415580396,2.5555323707262785,1.2650535648474937,0.359034921926037],[0.92461253802841592,1.6638545824586042,-0.19453453247564978,0.34362819183465132,0.21143075566226016],[0.063216974670074241,-0.90989488203438729,-0.80355133054799188,-1.8958442678076333,-0.16349613847051656],[-2.0503708133191503,-0.54180834599733951,-1.0147397840656762,0.31923387997265235,-0.67590124671012342],[-0.083343416415846028,-0.72690115993973148,-0.5813791461888812,-0.036008846589574581,-0.287013174182807]]},{"rows":5,"cols":5,"data":[[0.97259126158749887,0.0043468614591046393,-1.2310410103672886,0.043204658604365086,-0.17761434401772466],[0.181535920289969,-0.767331956203886,-0.45189636278056333,-0.47830855642182352,-0.40469641902127323],[-1.1898512560400523,-0.22020492735878408,-0.47672286350834142,0.53273376517458393,0.57931725245593657],[0.030859674066229782,-0.0554989741227326,0.17778111031840188,-0.16741977932614655,0.82301413815074742],[0.11343955196554131,-0.066343336867053515,0.022389434933605689,-0.45123949481894737,-1.3228251490187837]]}],[{"rows":5,"cols":5,"data":[[0.83759928522958926,0.98108857993811338,-0.77280793766038758,0.83295019225895317,-0.89925472368164583],[0.49207835167091057,-0.028723861606674259,0.68872267500750028,-0.35346891037467704,1.0216528151786382],[-0.06183999336174803,0.505658884656234,-0.69379761901626857,-0.6915886002157311,0.80272330661775482],[0.033568394223080632,0.63240509952356827,0.83116349960076674,0.47942565162679063,0.36032248091377206],[0.64416522433555956,-0.026705297859642832,-0.21892493050818379,-0.40192679898750083,0.92403048250612085]]},{"rows":5,"cols":5,"data":[[-0.83509643473861406,-1.6941406188478967,0.034298577787992522,-1.6958544710875272,0.86650805711663148],[-1.1166484569275212,-0.55779762241171083,-0.29549258979040272,0.13228793720394552,0.056533094280690616],[0.70704777795151508,-0.6146520804164517,0.57558416371381949,0.24026263786324864,0.32889015512600395],[0.44439754607093629,0.97577600944717957,-0.92477661168688408,0.011955506450758156,-0.45597787719580685],[-0.59329171534930969,-1.2533019474035738,-0.621421833203793,-0.79291705037810845,-1.8096560568840177]]},{"rows":5,"cols":5,"data":[[-0.13808217566837061,-1.3327792104087759,-0.18164756554847961,0.98825584452156845,-0.686522039420034],[-0.94565193273024817,0.53005794745746682,1.0394768432121342,2.0581315971091505,0.41049908836104709],[-0.92793210677111992,0.052827957540081023,1.005148197218813,0.63892754711859956,0.096683804064388687],[-0.89061224627663282,-1.883164348908781,-1.1060469361045204,-1.0255319283589348,-0.84032735878378706],[-0.84447168317491439,-1.2597199115618072,-1.4053144832229858,-2.0779763145336161,-1.6330701325835872]]},{"rows":5,"cols":5,"data":[[-0.83831406540313014,-1.1937248208586224,0.060965123822938623,-0.58336981653410269,-1.2218724068323883],[-1.5592508081877139,0.55266148365770507,0.55539360093798151,-0.13321844770167141,-0.481723017190541],[0.045449130941667,1.4612041937140823,1.6954463615707096,0.61855555967392672,-0.42094277851307477],[-0.69769289132834256,-0.38254602037670271,0.68825436582743416,0.64151581579542283,-1.2872890726423343],[-0.94781875634347656,-1.3055339992285777,-0.79557568393343348,-2.1908687991316125,-2.5747875858371558]]},{"rows":5,"cols":5,"data":[[0.40779981627264411,0.47175726376519189,-1.8232596004041231,-0.415691975226914,0.017560291127874376],[-0.85068539527963138,-1.5741610570162976,-0.44998863408329531,0.65094184936472377,0.17068392560590046],[1.3321273573388437,2.8543129325864456,2.5738413065644523,3.7258114715250912,4.5260094095564671],[-0.37455910189876812,-1.4380226410366077,0.69689582257222149,1.5038300338886619,3.603829237228326],[-1.540166613535193,-1.514250318077973,-1.8851507709423869,-1.7258456931183484,-2.5308869800774523]]},{"rows":5,"cols":5,"data":[[-0.85972997677786256,-0.84385143247525851,0.87547001165694038,1.5670939889963933,-0.0632705282844752],[-2.4369604715424913,0.47382197280179994,1.1298490051700563,0.048504697801381294,-0.23692751803472795],[-2.45471421245375,-1.3899112332360757,0.47296800245754805,-0.18359346265286722,-0.537354812749736],[-1.572264037025312,-2.4212334622483107,-1.1420519830900784,-2.4223197862561161,-1.8892004546827714],[-1.6192459747850094,-0.96776370114498034,-0.05205328766623,-0.51763943711120619,-1.1693967991432841]]}],[{"rows":5,"cols":5,"data":[[-0.6820321645775973,-0.11857048919867733,-0.53658012296563551,-0.51803238281456132,-0.8235210535183769],[-0.37618803081504054,0.77979810947837647,0.92720911250556137,0.67060565457905008,-0.55880914120213754],[-0.98052442057178268,0.50701224449660243,0.49117423532344218,-0.63241391842063566,-0.73407367271283008],[-0.6354735765700833,-0.65007544649952786,-0.097823280064110008,-0.47297044081369566,-0.32404573782494134],[0.10458745631521876,-0.845117640355678,0.98227707219379257,0.14762441052443751,-0.84987868188283477]]},{"rows":5,"cols":5,"data":[[0.9554356347630153,-0.28787484457450851,0.57681316905951774,-1.2099319619728917,-0.68229715138942015],[0.26464827897698684,-0.13431323166915726,0.74190346413595909,-0.24538288985872303,0.084909935805694142],[0.1970650312191406,-0.0075326365014422442,-0.22847169533427417,-0.87922549623176149,0.017437248918091564],[-0.6384111802201361,-0.42189323556915392,-0.49832441011149675,0.156213276277247,1.0853484083153684],[0.820186712421487,-0.5398005421454759,0.22447399515383368,-0.80517100381063889,1.2617292787792334]]},{"rows":5,"cols":5,"data":[[-1.3460387339907185,-1.1954246291790598,0.4633092608660388,-0.55189186568377235,-0.50110389017065915],[-1.4969283152969808,-0.65087539673887607,0.21648007088951504,-0.11909731425743225,-1.149347837658985],[0.085032111707581279,-0.88055129748322281,0.050955879094238016,0.14831629857580111,-0.056334331406887983],[0.054800154139233739,0.90450809949116162,-1.391144574644904,-0.15030788353489494,-0.30685193049802856],[-0.22128323382740189,-0.23912802038413974,-0.49972478707880974,-1.3699467880689149,-1.2709323734324676]]},{"rows":5,"cols":5,"data":[[-0.84594561936746737,0.59262090222738117,0.97031812161922859,0.75948616052968965,-1.295166015523757],[0.0479714091212086,-0.18082701520766767,0.92774482408544812,-0.85879511393141383,0.68091907989120948],[-0.14518567754687667,0.26854851703560717,-0.080172292173454562,0.13562025070549888,-0.10632185082570206],[-0.36580495223667364,0.96942382632286717,-0.78989720409415376,0.43008700468930972,-0.55115401818865728],[-0.87611028108217159,-0.12799714601996307,-0.12343384110820677,0.18729351046211812,-1.1812052462255751]]},{"rows":5,"cols":5,"data":[[-1.0450102933658598,-1.0725819763501456,-1.3987991488893463,-0.49184761793180087,-0.950303959268028],[-0.4950628048643359,-0.389796213967501,-0.88963562952475617,-1.8974169967233294,-0.00859450507278467],[-1.4177959669987754,-0.023627666810326884,-0.15234432497135822,-1.6238388519224793,-0.091322127089074639],[-1.2174644987790964,-0.96004213924830983,-0.356814683605172,-0.083575645960204281,-1.1525336517601379],[-0.37973163038621821,-1.130274502992958,-0.89431324887933583,-0.94334916122683654,-1.0757925028937698]]},{"rows":5,"cols":5,"data":[[-0.30116159867926978,-0.71201443355506278,0.69427734107648531,0.098865334414859271,0.20842631640352383],[-0.18932787144419094,-1.2967628653404166,0.64105979655426426,-0.28129675005002192,-1.5914214833695253],[-0.58173995847498194,-0.00060801985838297332,-0.613749383059612,-0.02039537096933379,-0.70915046867134324],[0.28608071810516877,-0.29671077356268366,0.48774732099451662,-0.33395661435563384,-0.93136815590401978],[0.071323469850965091,-0.3573765948998765,-0.91472541286978526,-0.379511740452721,-1.4072314550811078]]}],[{"rows":5,"cols":5,"data":[[0.99005068439414534,0.6390059101380704,0.667973214625299,0.18538848803134667,-0.0076599015910552527],[0.96349219566877686,0.947134354158248,0.79090996805277813,-0.42387499914454368,0.562350334082989],[-0.86170736714809781,-0.58837084559397734,0.89188276574236069,-0.58346921485098235,0.81147516652508689],[0.36147936733256314,0.98754350687275694,-0.58595096458716522,-0.84189074960684218,-1.0072563750275529],[-0.14189784562245916,0.97450415903696075,0.8637091773757456,-0.49431855427945376,0.04763749545946621]]},{"rows":5,"cols":5,"data":[[0.142138713308719,-1.1680652778779326,0.5589716189598356,0.839451428077776,0.67627120064083246],[-0.71652792430703338,-1.1028371981220997,-1.0696635107208277,-0.03218489462307219,0.51756955502745794],[-0.50238429537328133,0.1568718063010035,0.084240246431067881,-0.94336588584475289,-1.6025702879922978],[0.39759268897492539,0.95357829113224013,1.0682638891164238,0.69584236166642921,-1.0604468224408119],[1.585846569083005,0.13514741142767875,0.025523745950058345,-0.6215802305496958,-0.61307704229981153]]},{"rows":5,"cols":5,"data":[[-0.46052238976414378,1.4559872400127476,-0.83576949198348327,-0.445005329369722,-0.18230380390366913],[-0.54985577666062213,1.7639707379591185,0.31098865427558059,-1.1374564363056776,0.47549316996398616],[-0.29497278704723007,-0.74702633019773723,-1.3466725819661909,-0.67415267391036415,-1.0688516384991367],[-0.81038953230298738,-1.2894909984576137,-0.25416483050103678,-0.85974905433221049,-1.43945854488583],[-2.3768931741804855,-0.49159059674684374,-1.3439531973371877,-1.7077102011142162,-0.32363517092044353]]},{"rows":5,"cols":5,"data":[[1.2661588109156958,-0.57687160852411545,0.78719988830852317,0.511493103078392,-1.1775480246828278],[0.26164568412935213,1.0955749960756638,-0.03300664647994022,-0.9507670449342901,-0.187433519313],[-0.5182992347857488,-1.0094140260589817,-0.047629865795788096,-0.36811986574519678,0.22519950764761759],[-0.33186916216901025,-1.2441174099246686,-0.85904733395771848,-1.2459088800910751,-0.36962119626456819],[-1.6378658035962506,0.076831167067362371,-0.0030648417608588685,-0.36708406034216395,-0.21508363720000004]]},{"rows":5,"cols":5,"data":[[0.3022992598674164,0.26266728189444166,-1.0312386206909836,-1.1667578966047585,-0.76261347280315184],[-0.92983713323558082,-0.28879861044333133,-2.0148202618505575,-0.50953900564494836,-1.325576731293588],[-2.0064283689936961,0.82628978389493257,-0.088350674131919785,0.21921668432589275,-0.542796770251231],[1.1626033847037982,1.325601008939673,0.297110827375569,0.57598440534101747,0.4251316417575034],[0.15604668071015476,-0.79382508485226311,0.33077354022449079,-0.54510565128296062,-1.6416332985450461]]},{"rows":5,"cols":5,"data":[[-1.7123401430447556,-0.28956541495456473,0.3584401841205907,-0.30891914280659305,-0.84669096787290277],[1.4662349905515246,0.91550069848975479,-0.22578249693930255,-0.56403781289947441,0.22958834569485173],[0.58523511439489451,1.0717098274077166,-0.60201505972232816,0.15550709403312166,0.68600690422337229],[-0.24708427080651543,-1.2348604883021699,0.26918056906474125,-0.8127011890609851,0.056793651158708727],[-1.2311950780432808,-0.54214466596869149,-1.1149021351814248,-0.87229391480180085,0.33248606566520206]]}],[{"rows":5,"cols":5,"data":[[0.70149956200873065,0.55867002388391429,0.46546041008113193,0.86817663188939709,0.77472575013508072],[0.83111162908304592,0.43868323920331975,0.25843364695595916,-0.48713262911095195,0.030470172590641203],[-0.86254283150426692,0.69635785415059648,-0.0060849699566961329,0.4139803128550551,-0.4143244905825908],[0.10757521179892693,0.2722408553475068,-0.39915072764746423,-0.45005570057113176,-0.8349332374599715],[0.87623229318664153,-0.19459895309456371,-0.37415518884913884,0.77777890397285021,-0.95497789696688762]]},{"rows":5,"cols":5,"data":[[1.1327119505795811,0.47064919324731536,0.214816588506775,-0.23460076633964078,-1.5690758681029164],[0.84565352634878077,-0.54161900482962444,-0.45017247658559778,0.18043215711102123,-0.49492473140903381],[-0.18686289190463173,0.41199575209900596,-1.2025177362300241,0.61152683345507042,2.1200774675495833],[0.65287943770948553,-1.1695032685703681,0.595681167003962,1.0106880298551513,2.1511717696787729],[1.0029887469488608,0.7886654096389788,0.12501395892743936,0.029079021573928408,-2.1530680101896134]]},{"rows":5,"cols":5,"data":[[-0.5693672982109691,-1.6621111574643277,0.40223377699961044,0.091279812992750176,1.0899801780060336],[-1.3666470083405162,-0.941695658279593,1.0458760810417336,1.3630866439443239,-1.2390511068232155],[-0.80158427396471421,-0.60924564434484074,0.59633759562694177,-0.90133064167831323,-0.8499295194832821],[-0.32495561984170979,-0.15087457752891695,0.10793830406537575,0.20483069903323228,-1.9227117466434935],[0.15601202066035719,0.23966019343493952,0.8362020359434158,0.2991323330557773,-1.2364651132837572]]},{"rows":5,"cols":5,"data":[[0.54423419797141126,0.083325487299998488,-0.74927006372217186,-0.93776276694417537,-1.016868590167892],[-0.99342710800903433,-0.56833822441297355,-0.027139473058989734,-0.64018083790667668,-0.92966030050043269],[-0.48612114119693822,-1.1634591169530242,-1.6810943088916086,-2.221533015962879,-0.38322372946545474],[-0.22143682443733193,-0.9385875442385363,-1.492773288825721,-1.1413866885345467,-0.90839389234045342],[0.69503880433015064,-0.84166194877107414,0.43391311667528604,-0.022885188290439205,-1.4873031014065445]]},{"rows":5,"cols":5,"data":[[-0.60803787294139411,-0.60664802159774522,-1.1675123491322903,-0.50265102755862745,-1.6087128342548644],[-1.3969298741648555,-1.1623233043932659,-1.1458012379717126,-2.3753921084386009,0.17277087243095984],[-0.69696039643898255,-2.17273526461267,-1.6347419921543169,-0.3330869068868646,0.95666277385044973],[-0.53156828207058682,-0.89894014007846668,-0.48093047828890789,0.038124394350848405,-0.7032165303591994],[0.21976067918803291,0.17160659251400409,-0.28727730545536478,-1.4333136791468111,-0.33225390243709035]]},{"rows":5,"cols":5,"data":[[-0.19446024600377382,-1.2378899012352809,-0.49450174666650021,1.6870199959293353,0.46174159115341296],[-1.0025152835875433,0.13904027417040354,3.2890878003926249,2.9443592847129647,0.26674273977143959],[-0.18271725099003749,2.22279000551728,3.0077165257964005,-0.13848253427015059,-1.3967475163679473],[1.1786186464016994,2.7951181114141672,0.48659501739392158,-1.6790490077420821,-0.673530886076484],[0.47179902146316149,-0.65368046632623245,-1.0243855232027228,-2.6554023530268123,0.19894993402082331]]}],[{"rows":5,"cols":5,"data":[[-0.49141918285073555,0.28021806440187536,-0.9100949208802267,-0.89871802528407985,0.71402119124830732],[-0.37493744467604628,-0.4312153426792093,-0.67069648300127627,-0.012858122450162279,-0.19057804630481057],[-0.44832720992487191,0.26721043643010917,0.044114248661008416,0.35518365548458292,-0.64828917425299282],[0.99083434851223762,-0.55061279736469781,0.64917417453725967,-0.97838339484879888,0.85648739507927363],[0.72150949311949819,0.68948714978534409,-0.084825499716997654,-0.80649662970653058,0.64010241707829119]]},{"rows":5,"cols":5,"data":[[-0.562034710777393,-0.81792136517094394,-0.37863040640069123,-0.032233874042647485,0.3646872795220617],[0.59442829367470207,-1.2965791566238583,-0.37594987297392435,-0.903249358810398,-0.77062419957122941],[-0.82400210967789744,0.10148611964823689,0.24276531838163623,-1.2772181311030006,-0.49798885173630458],[0.94033764206115356,0.18452792251969605,-0.87249857621167759,-0.37085925528046654,-0.93338185722792433],[0.49194645587064884,-0.042391178244225322,-0.49037794355145048,0.544586399665108,-0.011722214334240073]]},{"rows":5,"cols":5,"data":[[-0.24067114368284875,-0.046380139256794885,0.0766645856022721,-0.96598163999084119,0.64430500162032922],[0.137464779586482,0.436021810891575,0.44919227199125189,-1.1870470039896628,-0.46155482145970306],[-0.69844777385281365,1.2159955560587918,0.1105302755984789,-0.086615228516055812,-0.63729682852200986],[-0.83602580541692739,-1.1080086100114535,-0.70210760884974988,1.0033599174774843,-1.3365237269742489],[-0.82085189634096145,-1.0166196031932397,-1.1168187870182464,1.4123757174864224,1.2777727732649138]]},{"rows":5,"cols":5,"data":[[-0.408326885913168,0.70671596783608481,0.00630755736448799,0.43011129796188563,-0.7302998786302527],[0.69511448382147289,0.8872302505934383,-0.91317237437691057,-0.23945851071549376,0.65175073144673068],[-0.014736914738986849,-0.088767912886585476,-0.66256413174434559,-0.807096114770625,0.51228114258332469],[0.60382462428516537,0.49151223596850058,0.15806640310791334,0.77222605152562385,-0.91630219971969507],[-0.87141625793115707,-1.0490893071921161,-0.4752658194541583,0.64376881732872937,-0.744842552916453]]},{"rows":5,"cols":5,"data":[[-0.23935755590673497,-1.4165338300434758,0.11169399877535435,0.12861101616510895,0.46614806298496109],[0.24307829295805059,-0.83166295646633681,-1.7488065294241098,-1.2782032895724025,0.45269938623018363],[0.25760262722088839,-0.872919335975372,-0.63999739459613858,-0.8217678098741289,-0.22796214492320063],[-0.78708855391140564,-0.88764473760878149,-1.0147870048194736,-0.4076512666718608,-0.31980264713158213],[-0.28215262462636481,-0.64556968904354461,-0.80335372587239184,-0.034415163816731723,-0.522540137284838]]},{"rows":5,"cols":5,"data":[[-0.29668737040922505,0.0686202147329479,-1.2384949631917215,-0.21711329186085085,0.64038292389233331],[-0.834219366807245,-1.0735295724142826,-0.64057839749766843,0.43100910760913025,-0.71286792447321534],[0.11735692703450576,0.17104158634149533,-0.46201541093594417,0.48591663599197082,-0.20658828146747305],[-1.1836384698862266,-1.1320161182285424,-0.75716967959942438,0.41997010346759128,-1.6261038512591113],[0.13642811554267625,0.13289322932831479,-0.64069781859068964,1.3224650682029391,-0.42148596092161994]]}],[{"rows":5,"cols":5,"data":[[0.34782036215364359,-0.98844140755534615,0.68433202667313586,-0.5920157759930198,-0.37967337796087897],[0.83456361964102521,0.68145554979402689,-0.64483341895890578,0.35584071681591856,0.1214837061833428],[-0.36532514365852087,-0.51311626702777435,0.45090900017326996,-0.51335606703498593,0.26978985975390635],[0.26140641567371475,0.41469108729568932,-0.441387202914805,0.35898479354092833,-0.9893484418048929],[-0.31347418007774891,0.74610754173037064,-0.32416724044224027,0.91900038127497941,0.691389988278061]]},{"rows":5,"cols":5,"data":[[-0.98523408348993335,-0.68237303434780217,-0.88441972144614844,-0.39817110034161418,-0.19170589390798137],[-1.4224556797496879,-2.6443727731853546,-1.8730324852335714,-1.2683015378311793,-0.16427848017479424],[-2.3587565308909992,-1.9022074904201582,-1.3107337997692883,-0.40500918535348568,1.7106380415438047],[-0.10388307639202217,-0.22571949988998577,0.017386868711603228,-0.441094607675003,3.2238392767217383],[-0.5879742453621033,-0.775356742224276,1.7699499194032693,2.4899161857663397,3.6381719750211015]]},{"rows":5,"cols":5,"data":[[0.850888235506536,-0.18404037739768359,-0.64780260090974007,-0.6214750720113732,-0.98062220850614168],[1.8239124197025591,-0.11086055679011521,-0.25525566399168953,-1.5126705736673172,0.03447983700705768],[0.040200702650990371,-1.1745743174992958,0.80982714734396954,-0.50533433997982069,-0.48162018007143692],[-0.81990657472376438,0.36355154057746319,1.0855813905127147,0.34923264744710425,-0.14238506573683607],[0.18120371653857345,-0.49076863615837135,0.12170063795924646,-0.4278416270880489,-0.80012359664711108]]},{"rows":5,"cols":5,"data":[[-1.1852575724765315,-0.076006700492419338,-1.2846944028683025,-0.50899821306718129,-1.6177995696530909],[0.69471413895420819,-0.0037207151223670873,-1.113413721875784,-1.1716091129614794,0.50286317807409175],[1.4825613085051606,0.35019475833962493,2.0758093347610451,0.57153212441016188,-0.26843967108537364],[-0.20519545266396419,-0.48798055510026367,0.399736710090589,1.0141670665520397,-0.95302233378027645],[0.437786355920405,-0.72411610167671747,0.66382078449766724,0.98043396304516606,-0.65009674008416962]]},{"rows":5,"cols":5,"data":[[-0.65686573159406569,-0.7975167536112876,-1.1354785575423252,-2.3883918123059549,-2.536832561849292],[1.1985395895606399,0.34686758900848758,-0.038952250972183938,-1.0296607350099016,-2.4184757561247303],[3.5110538478631361,3.7606726631522331,1.05089568671918,-1.50662115948998,-1.3629451966598525],[1.5185816017011204,-1.2479580133132882,-1.451004055353039,-0.59263676705974855,0.34008647010591919],[-1.9429850006274123,-0.13938881077353352,1.8913239384988529,2.06995450581429,0.68688720250252511]]},{"rows":5,"cols":5,"data":[[0.56609894053673138,0.32065335970346004,0.20182548581108478,0.23710211810242021,-0.9111340613507275],[0.97828796500695048,0.59428078330253775,-0.49351761074204908,-1.1299594184639172,-0.11110550278581627],[-0.81920431081456135,-2.6981688477423624,-2.4809844540527242,-2.521907047950565,-1.423213199785343],[-2.1299989622992608,-0.99142323934174414,-1.2375376849534308,-0.40490221060398723,-0.70354168671635642],[2.7384758430197871,1.724216674692352,0.81797250503525409,-0.32936191627144396,-1.2066450117135157]]}],[{"rows":5,"cols":5,"data":[[0.55794998540358431,0.23527760027468733,0.37946788676846066,0.33092097308399687,-0.52879193199687136],[-0.43842501482664958,0.46548154830331323,-0.541619000669261,-0.845743900964014,-0.95738642298715482],[-0.07147266613800321,0.33006747933008729,0.30377924115866395,-0.3705181174850084,0.42559517158509214],[0.34668737036012881,-0.54597165789993385,-0.52978540107829186,-0.11529706447306791,-0.16788126165526932],[-0.27961750197757507,-0.51065824324836206,0.071406569743801121,0.76411724371660916,-0.48308546019649062]]},{"rows":5,"cols":5,"data":[[-0.25293156076138984,0.27418785222385361,1.31540629396227,-1.3493037619262638,-1.895757288119853],[-0.33476138185855997,-1.2832170202310036,0.29996753367466555,0.3373884127264401,-1.4810010704524206],[0.1507225639303241,-1.6949622436128895,0.11464539043052052,0.063759285211146932,-1.4103597831556178],[0.13604834099262286,-1.7660946532220487,0.57840620342881544,0.87502703067521326,0.18323322455322738],[-0.61323876074045014,-0.7156536526773587,1.4579545440241373,0.76914290353693082,0.26278887864838818]]},{"rows":5,"cols":5,"data":[[-0.35303490740793075,-0.24139838729676358,-0.96623733186113858,-1.1852717091599128,-0.2617937378368575],[-0.61825022775315386,-0.933604589759399,-0.00394864195787922,-0.43185000379166122,0.032730128114711078],[-0.71366181650440286,1.0581824665592576,-0.40506956991344123,1.3353680942690964,0.2798552755843996],[-2.2036003486335449,-0.4517641045290377,0.40909157738177354,0.46941407039205135,-0.25559615045419887],[-1.355541339093375,-0.41800382177126472,-0.9671082114170183,0.087846455688641592,-0.62641078681571394]]},{"rows":5,"cols":5,"data":[[1.0758407576148863,-0.14093858565287637,-0.24666417066677648,-0.64571757797310536,0.84052307101783985],[0.21469574717279635,-0.17514968614896376,0.25846155893656858,-0.59814566515461332,-0.2309580609173518],[-0.33566060748899812,1.2628340233463054,-0.22178465666424407,-0.70525040987345433,0.10249553603519947],[-0.087432448621141787,0.550802968256656,0.17039386178924057,-0.50695765904571077,0.43626076168692024],[-0.70543138368939562,-0.85527370843858685,0.44985661480113154,-1.2101062208314539,-0.19515611761249602]]},{"rows":5,"cols":5,"data":[[-0.94287368060032362,-0.44570440167010095,-0.86100484398658439,0.97050329436950566,-0.54752255630498958],[-0.744164994183445,-1.4520505645677793,-1.70596110998122,-1.372237861975087,-1.7402638231852712],[-1.5282286656094608,-1.757615355038225,-1.0468800815079886,-1.07536595772713,-2.2357420866878668],[0.19410550250544978,1.2504178616720707,1.6271818965226519,2.0090064998150989,-0.0414834555014633],[1.5388035522664252,1.6864389984518793,1.170327216142071,1.2005577845311419,-0.16753933293152182]]},{"rows":5,"cols":5,"data":[[-0.479527583581946,-1.3882034575519155,-1.7218983242399764,-0.27070033523293308,-0.72528778289015616],[1.1493224308593277,0.50351881835544077,0.02905182526706478,-0.15609723937558695,0.23428842435979366],[-0.11597694749456997,0.19513703018111825,1.375970190099538,0.11158526161864574,-0.79904954164258313],[-2.436131191203776,-1.4469758653977862,-0.49073579657170663,-0.83495244029938154,-0.274216158473257],[-2.619594876157143,-1.3978352954847242,-1.2375275795887406,-1.2290694340794792,-0.13762897428138596]]}],[{"rows":5,"cols":5,"data":[[-0.70137319335863357,-0.28699614587536632,-0.47320478841245345,0.44568772892556219,0.03094627660412181],[-0.35364491150970673,-0.11868594054059956,-0.65386342306802081,0.35062924643878729,-0.72871591501588873],[0.14279804397008214,-0.54975264011853242,0.44134441187926382,-0.7637458148336691,-0.80477412531632175],[-0.25635205856869236,-0.76766001292393549,-0.28296214105357587,-0.84294344890921524,0.0043957385232356551],[0.25396844161210713,0.77799686134121393,-0.21216970106560265,-0.48612107966070728,-0.56499187616135893]]},{"rows":5,"cols":5,"data":[[0.9691875535987976,-0.38798244701403617,-0.56496554204948612,-1.0174520450926456,-0.97748504096423794],[0.95490067793726652,-0.0026148598748594906,1.0011066189703355,-0.95505601251589878,-0.57996089266497008],[0.75857046925276861,1.3842213356860322,0.28438223101937432,-0.01713596705484904,-1.1665945940347298],[0.11365260885639827,0.7105831123954518,-0.84291488037597162,-0.78998502480951993,0.13250491246162449],[1.26409269078299,1.0142361188570999,-0.39609988097712789,-0.70316247325355374,-0.14433957446227244]]},{"rows":5,"cols":5,"data":[[-1.5370660085718735,-0.045461668580604776,-0.89941604675982079,-0.6976054214284596,-1.4149944138551496],[-1.1266810317344755,0.64494614993071608,-1.5590709077396365,-0.46516955866394971,0.1478173205110761],[0.55208237766603041,-1.1543662780069344,-1.0150138968261564,0.1838269252632849,-0.1069801346458179],[0.34355936469927034,-0.74052556722506035,0.15845897079135696,0.267707594299618,0.18005890924856929],[1.3722722724186252,-0.36148726821234511,-0.20133417042531898,0.36005256957686066,-0.38790971652337547]]},{"rows":5,"cols":5,"data":[[-0.49441864218522868,0.15925032330910119,0.47774035448849983,-0.51049693870512391,-0.96336361046457464],[-0.90839706232232975,0.44872206974320977,-1.057610094126916,-0.092615696826717039,-0.96644357495885314],[-0.89647846924473951,0.00055742461789270688,-0.43976518720687685,0.77315256570219448,-0.88751781075910585],[-0.30282468867544649,-0.37224211128588652,-0.76304761089560336,-0.833569030668748,-0.73645064716938613],[-0.524390875928416,-0.8069586599325711,0.29127388780558133,0.50486729411755782,-0.61901727221110747]]},{"rows":5,"cols":5,"data":[[0.29458236525458681,-1.0134171652462278,0.49591948582569823,-0.32696508783871797,-0.54650862683333779],[0.70230854114349184,0.16273840731357384,0.99810601999642323,-0.30379901563173978,-0.33699357110893036],[0.58377135472205632,-0.9484565905619341,-0.58686129425670608,-1.4775068499177471,-0.82477353930438735],[-1.2880928109079985,-0.37170542239430565,-1.4340684049205417,-0.744505477562137,0.032784231022539523],[2.0641110299808125,1.4738934718858769,0.93934314827212662,0.32482840722169087,-0.21940491414582591]]},{"rows":5,"cols":5,"data":[[0.065560342778335529,-0.40752716926446719,-0.74023654062774236,-0.42632836493245568,-0.76687063649354081],[-1.0157002961720065,0.14721548061691672,-1.4514746041034921,-0.46428617695896945,0.2667041900642772],[-1.5505024637636324,-1.5099793966978521,0.59517734455297233,-0.26876540827930862,-0.12685478963146357],[-1.2018553974190942,-0.68855108258743025,-0.36022625503131778,-0.63835924091557572,-0.83271268189699021],[0.16235994696995482,0.90384523012086593,0.871708837771719,-0.19461469126930864,-0.96929080022185166]]}],[{"rows":5,"cols":5,"data":[[-0.70682067319473474,0.53949597745804134,-0.169657243032634,0.04242060283449256,-0.23286093858046517],[0.52699110374400659,-0.48978912821519077,-0.87028361643620622,-0.83551095774080608,1.0024691706046485],[-0.33183132419918993,0.41648977761501405,0.80863200389923851,0.7055524386937928,0.54841206434089562],[0.91664556592179447,0.8721099266741893,-0.71316189046386025,0.20884658133895534,-0.016109691887268573],[0.9773434407062489,-0.74269697701787585,-0.3318844057232137,0.56186009403351989,-0.3185720311471586]]},{"rows":5,"cols":5,"data":[[-0.091300526265186865,-0.32294174666330733,0.463779744819187,-0.13858248122553379,-1.0285170864371345],[0.015835436464310446,-0.81380993524099687,1.6063776875683287,2.4646813753455379,0.66408550275631506],[-0.33302841366245522,-0.65100618101528662,0.61467873818962226,2.4618921532795741,0.58303401643434327],[0.86473449181332251,-1.3010094777737224,-0.58368250311749181,-1.3679163949741964,-0.75595401959269515],[-0.63336595809669394,-1.438165566429352,-1.4697643909282037,-0.98819198501826355,-0.10114513741286996]]},{"rows":5,"cols":5,"data":[[0.66312991896650986,1.5113059104198838,-0.79462079385430739,-1.4957864276191564,-1.0958083171485549],[0.34890922119366335,1.2898620743469798,-1.0337259166008541,-1.7056003896082292,0.17188869652747471],[-0.34806006125982786,2.57008776935853,0.81539656851589548,-1.75111848960417,-0.43347025213897539],[-1.8232715793299357,3.0349232655521963,1.5867815380078603,-0.51469583644476191,-0.96102675920849778],[-1.4557561527435314,-0.64674689495813487,0.24274205426206683,0.03794149413168673,-0.89328537398332863]]},{"rows":5,"cols":5,"data":[[1.7013296591760831,-0.86541034928127047,-1.7911455686092905,-1.0392372193510719,-1.4503105873647246],[1.5801301979874636,0.0470185986264114,-1.2473971715459489,0.41357455111907815,0.28153210344841456],[1.6074491658244476,2.5032703599048833,0.27477020995673096,-0.076470370917029379,-0.63706290417516942],[0.837558259001304,2.4356850786900073,0.66255250987590331,-1.1901302073100257,0.049526652598653777],[-1.5925149059814683,-0.14719553114723602,1.1116018893696762,0.017931470740592474,-1.6885977657953097]]},{"rows":5,"cols":5,"data":[[-1.2236494670103029,-1.4609061427904981,-1.6839164112275706,0.60864173801416144,3.0918485704050362],[-2.2590579402079864,-2.1817974265820776,-2.4788125609565075,0.046284719880935035,1.1407399252988675],[-1.2634911688011841,-2.4107052476566442,-2.6625084232415444,-2.01815028033413,-0.747447789046828],[-0.72565648485169254,-1.5532267558150976,-1.2749233502268451,-0.89826688328931448,0.42755516392477311],[-1.0694958634721004,-0.8480981968229373,1.1936195257196065,1.2131366080752521,0.66189369983903823]]},{"rows":5,"cols":5,"data":[[1.5074589734254895,0.32334190138780106,2.066439606104522,1.16569770508581,-0.34715376184833646],[1.2910562309746987,1.6518433129607795,-0.36144390955017081,-1.5533934377067684,-1.0977928536790234],[0.41877268134709117,1.7017390836992388,-1.5081566221359706,-2.2204487343773689,-0.37129009108435945],[-1.773575588722911,0.52317620651457941,-1.552242475787734,-1.7138622347098067,-0.29616365970947495],[-0.93866837253779312,-0.013962754339597448,-1.8755911507718521,-2.5593834480043851,-1.9814056426928777]]}]]],"Weights":[{"rows":120,"cols":256,"data":[[-1.4032204263533941,-1.2994724978371262,-1.0842405842713043,-1.8239802488486023,-0.37780206863738375,-1.5618366444106817,0.79496719325985676,-0.99903062451019364,-1.1617084838027676,-0.12876015105875382,0.33500029445862139,0.25832601557937573,0.18513578863253022,-2.474882244176392,-1.1149847498198688,-0.98222102102373265,0.11158672964123266,-0.17037824566109627,-0.009894401516345519,-0.283992621210375,-0.159151183835502,-0.43358447700856534,0.0026019938134015379,1.0317468808553236,-0.38234959004747676,0.52286991857567255,-0.13607756364087892,-0.34694555623803408,-0.067900302771058726,-0.051184480447198123,-1.5873393747344964,-0.3249337247969995,0.67600044597797926,-0.024561285890951093,-0.79015014136161454,-0.8574894483586587,0.73471192152041476,-0.317867954822948,-0.26212630777057155,-0.5030120042984807,0.5882084856559302,0.19973857227609254,-0.88474316496348848,-1.0977200818921089,0.48527845191933477,-0.71951218649085658,-0.39279267080054131,-0.23180094087206205,0.26398310593879792,-0.97924982030476582,1.2162139273437524,0.76653176767443543,0.092855657688853344,-0.51026423231691331,-0.051793932968576033,0.14639359508357436,-0.64158546072029288,-1.7333379471002086,-1.0677385267496533,-1.38582854886021,-0.14186244231450418,-0.078418901242535574,0.20864350781731433,-0.52410697106127691,0.16825653597333456,-1.0173051769341808,-0.11905523417972573,0.13321426387772659,1.270139057581912,-0.5159681683358377,0.68827393573217366,-0.9611435298129517,-0.57795399883622489,-0.40390076409700054,1.6824474477208482,1.3660641081304374,-1.0881343471845317,-0.43795719611609296,-0.28118962630348021,-1.2446258183595513,-1.1081510466824482,-0.39568219016892614,0.51177087146838574,0.53449991752739057,-1.940900143422561,-0.501035825234615,-0.316505578840935,0.097907261328245357,0.193415906617876,0.095537528688878853,-0.025958042089828312,0.4262805189832829,0.52529451045509,0.02891740274241468,0.371390404761973,-0.26908729022603817,-0.31042145866812965,-0.56522968853931033,0.096275495154835536,0.077099365822700439,0.18943441542903844,0.21337460970231081,-0.34654529300613879,-0.69764698274442483,-0.38314737862271253,0.36570381723627704,0.5725253306026572,-0.8810928251467921,0.20478038129414852,0.94639751036240027,-0.00570170540177298,-0.826406633741676,0.72103499827570383,-0.12147732531247038,0.41984076577279883,-1.6346500696119812,-0.3644460799402045,-0.31714802315949508,-0.5259510157646623,-0.92148702846209041,-0.68711250246654632,-1.0419951163553376,0.60106831645954173,-0.2457195090079104,1.4865042861795357,-0.068580733987242043,1.0383780436008923,1.3617726172425664,-0.044146425795900855,-0.48923363455490365,-0.203175904209989,0.6675143843759066,0.4659911570029624,0.2022171754861449,-0.11525016891023079,-0.44217223791274757,0.88360633884093975,-0.21554087081728729,0.24657103379590661,-0.39741390731904813,0.30951718683958823,-1.2331540886765249,0.83645516512137452,-0.84050208082235267,-0.910732300568041,-0.66358615850998548,-0.048878547578760034,-0.59587105775080851,-0.55080441686179882,-0.430014378747972,-0.081934806293344833,0.255664765997303,0.3974090042697685,-0.091720960357344963,-0.3373271011945192,-1.1826013279511332,0.76277772299575031,-0.48151994225597078,-0.79992988380686969,-2.3192048867290578,-0.79145097925234431,-0.056927462483769294,0.05236784124807297,-1.0654088033341802,-1.452501982269309,0.012138366172191047,-0.50539166977802741,-0.72909016734483334,-0.33054042583650073,0.25436207543592454,-0.32561091805023834,0.5683436785591619,-0.88518717026719307,0.70854946614820624,0.2139830591080944,0.50535143190001741,-0.16040596788452149,0.40615600908032323,-0.20302699833364285,-0.11211072603944695,-0.83679801053517244,0.1500406607109098,-0.12140008507983434,-0.79234557683330031,-1.0940769499777641,0.10827264878301252,0.84344165932293469,-0.0586973964614538,-0.98123850411202584,-0.9170796159600545,-0.25244592699845453,0.57788129987450476,0.76495660499426454,-0.64692420054446964,0.685322017123639,0.15151657630167859,-0.28547058454942881,0.51395387850808982,0.20489276460599717,-0.51749384667106191,-1.2920485911230519,-0.5042865576949388,-0.8619004269254702,-1.1719445424857251,-0.34951648745567065,-0.51993169962273023,-0.06260867733269504,-0.76088153874491748,0.932402306840756,0.68752179935782687,0.4182294723477108,-1.5070311058554111,0.45995948970731032,-0.56837710807599118,0.49026522749164247,0.74720420127269382,-0.06596449459862111,0.23208961993000404,-1.0471196450982416,-0.52894128527628792,0.10715548809766369,-0.70624483823306994,-2.7504452956822645,-1.2968422968619313,-0.29469048930312253,-0.33199169140938545,0.42430390785023031,0.44635115246160523,-0.4078533796875089,0.35453144404217446,-0.27888633291635068,0.54236874312999273,-0.75190225119986043,0.59581397376109713,-0.12229081683004814,0.3593822930908056,-0.38767267188247984,0.15135343830613318,0.44174935446606256,-0.2379110278323458,-1.8376376109793733,0.21978197960423232,0.29584047833633192,-0.72561886759871475,-1.9633233261316747,-1.3265460307522785,0.0047544848172242108,0.93030162694253893,-1.1630262142300876,0.064279069383496368,-0.84627005703718994,1.0837108198988112,-0.21541198123899552,-1.6633627254490262,0.58844474562538018,0.013245914346372675],[0.14959107439671066,-0.90627128667132217,0.048073442376059733,0.90081765886575371,0.63982631565853709,0.13820851935698789,1.1199496646023819,-0.26388660440907519,-0.073262677820085317,0.4924807384153661,1.6186088983680205,-0.47171130706165704,0.943053928769325,0.21735320541603456,0.54044924905086222,0.23226420903380612,0.54636072095989885,0.11254615059823983,0.25911779664945611,0.36361230448893267,-0.59990737480425649,-0.94065856598650177,1.1092808142989528,-0.75454804962440936,0.15929738181273009,1.0308029952091686,-0.28795760084129696,-0.40893300587039044,-0.45791592985708374,-0.1152824198591175,-0.32191783791491474,-0.97110697792452461,-0.97788989109255964,-0.89545601346250026,-0.65164191290925766,-1.0315563464499939,-0.24162598337084512,0.93156926108355065,0.36120342289551016,-0.80649151532674357,-0.54375425829484769,-0.28611279201000989,-0.93929519749042711,-0.81470780627080674,-0.26969932314340778,0.575621499499798,0.95130661716627141,0.0951883080465256,-0.25424141884307627,1.1628256718902623,-0.21630925826722197,-1.0691839830352148,-0.37203585288120861,-0.53943659690627221,-0.63009908869319065,-0.75398658719988554,0.22410408442559682,-0.0033652067575180591,-0.32223731791603505,1.179500968366626,0.011564593358158612,-0.54991182585936715,0.26297456200983849,-0.48478544974024462,0.42068354545367709,0.454902358237667,-1.3275771556025267,0.12199520267827015,0.72386799622068543,-0.052031099973441478,-0.28981786251752351,0.72746884109465837,0.36633193994669344,-0.42666340358011978,-0.5138167715615839,0.28124697118178044,-0.17831482973180932,-0.18011588782453539,0.79180361586552017,0.56147866489117859,0.58690431799983733,0.49823456968495539,0.79712821292638147,-0.12582776533970561,-0.78914403158972235,-0.22661545208126288,0.72732132537889538,1.192588625923914,-0.88270773539953218,0.84134883757857593,0.003653203294941842,-1.0373850107973015,1.1294868390013477,1.1293055479798657,0.26238632492039649,0.91034648005505248,0.26617691118854908,-0.535714171439241,-0.34188465354998404,-0.29135481098562094,0.11956204912045486,-0.974941884383188,0.1138477698338744,-0.805463680725355,-0.11216931717459927,-0.45101104288620314,-1.1348892851994847,0.83925478508135176,-0.066151098538246619,-0.64154551451052222,0.89895470391356647,1.2623647166728793,0.042108400011743673,0.01193058558897802,0.92866163493265552,-0.026547483201320676,-0.36191218602254355,-0.90563290726885126,0.68423477659072363,-0.54438131100535914,-0.19184678715000966,-1.155992315148026,1.5464457540512986,0.061390572450259917,-0.020322195354535579,-2.0441077591286083,-2.292544928129626,-1.2599419005195782,0.76500833059552675,0.30412282509973471,-0.21796237661016654,-0.34944806209394946,-0.75402808533150145,-0.057729608292936906,-0.18884019480673997,0.62715611916778968,-0.71155759265909857,0.75278604474062594,-0.84897132334961645,0.76016730355106155,-0.96727240366313461,0.61037491379351,0.1138851171483188,0.62520968789545062,0.772718713927772,0.5030838628079598,0.288362288701434,-0.74152197255506691,0.71731079036211765,0.22508001835475824,-0.22636644262013941,-0.139393555694464,0.056174273902896733,-0.3118436207158497,-0.010136780966396756,-0.12917782465054623,-0.31038043208722488,-0.40042208257363621,-1.2442524054850663,-2.2524300987432615,0.0088172611859947871,-0.29645544680664987,-1.0520316172480653,0.61225599810166487,0.9350211188778228,-0.90544270104703539,0.123590951344088,0.65538929334033114,-1.4907591856356135,-0.58470225163005662,0.74254040259680421,0.29931196555299622,-0.12454711005248564,-0.09147733643803091,-0.396910109060428,-0.013887054663207759,0.49116094473961641,-0.748953547740364,-0.34936882332260283,-0.61353855826711023,0.50755143231011757,-0.833750741668227,-0.50559225425853271,-0.62401352719764691,-0.35152064890601353,-0.36600828899129739,1.012004992700452,-0.85607353855991519,0.23402020308727486,-0.571335312780582,0.12979808519784097,0.055784772498418907,-0.040361631858529728,-1.4091209314873254,1.3200161745561183,1.1119614410161884,0.39833471876854054,0.61276339321156148,0.48581907447725059,-0.59802057940112863,0.73081262712764583,1.321535003455653,-0.383813499346919,0.56057780003151259,0.58425163863361507,0.39246988772193619,-0.2372495993312069,-0.59847778807027574,-0.044609209232121444,0.43224542367847607,0.14008574002502963,-1.2391375645657474,0.1302631645175116,-0.23969087671747566,-0.17187641440487922,1.9121409224894417,1.2315452867568,1.2019496419036877,-0.79143165873547461,0.5911873873131176,-0.70975971476368671,-1.2340648206520768,-2.2812864628397374,-1.9428072188903049,0.28517098269634017,-0.33249043534383971,-0.85026575599412713,-0.88537177087807362,-0.57115162579646372,0.021654320009152381,0.73090557539778311,0.88751922979230213,-0.52498831128868828,0.80242713470950888,-0.29070624629631886,0.569994453363071,-0.97971698744499325,-0.19794095585016214,-0.65167451950348887,0.051243879035579538,0.76351277314512811,-0.16840899918721253,0.1683159934594354,0.95838695654762074,0.928513371904398,0.24640363656145023,-4.7545216091371982E-05,0.69032815042121842,0.5187953748935118,-0.9213321673646413,-1.5013847502894051,1.0646297645286535,-1.2002631606335963,-1.4161104757361895,1.3747389070787739,1.9340927974317195],[-0.21355008378376297,-1.5762561125456747,-1.5303133500754611,-0.65081331827166089,-0.21781398717984235,-0.77260798257039653,-0.76400226889277223,-1.2608549706825609,-0.39140998216948458,1.035988539417928,-0.33810662144278053,-0.3642790078856572,-0.3023987896657197,0.73151373671047526,0.4924335835724114,-0.013273114210512912,0.51462012411517655,0.70836847556955718,-0.73379162683266541,0.88136612296436279,-0.0886408097651421,0.50075948756283484,0.51912336345243748,-0.11463597560872545,-0.94978388909806277,0.5639613263326082,0.27916453174885725,0.3034832764210853,-0.41226744322913839,-0.26419236241336652,0.180916457775646,-0.5899038654327,-0.70435461254361931,0.46802043730203863,-0.015032158491738565,1.4160541752964393,-0.073049550642471123,0.29825732473220845,0.94822853728791523,-0.40707714983333348,0.38395188591758894,-0.21814965270700876,-0.63163159969465121,0.30880706931693686,-0.73345105656699072,0.0044017446404000715,0.34507685081353412,-0.59665953417215689,1.4536765548082336,0.58481808208972841,1.2921273193848597,0.30520568848482593,1.0182694328437563,1.7047648762182708,1.0349049241690596,1.0098263930945723,-0.47130876975293662,0.32330344146258838,-0.4523901405970383,1.751177903045507,0.79194536012057393,0.39238439105945322,0.417532370064342,0.38733302151586374,-0.2352931113580983,1.1635803069841959,0.55537181308940464,-0.48087371575915616,0.964855957624865,0.46772227112240772,-1.0350229571566303,-1.14638598503061,0.72360999725573694,0.78820818955343375,-0.25646998355814327,-0.88758517391832681,-0.27670436055754638,-0.72633932500787646,-0.39444180041941335,0.37793096246315167,-1.2970437701609234,-0.65664735273145147,-0.24408904979568671,0.762941174338759,0.12699607271044322,-0.96707414953490811,-0.80452353716789049,-0.56859839668260825,-0.40371757823119031,0.33659286583957759,0.57453470988183752,0.18079270417577231,-0.28038846796562367,-0.72118828864729534,-0.4213925798622648,1.30162194582432,0.39758326773629521,0.4402245829954104,-0.16743088197841194,-0.35363471416004733,-0.90061076449504929,-0.076820513079346037,-0.50574365404284016,0.455928939208577,0.029998053600819446,0.822592632886051,0.23552791814522606,-1.0260344765865834,-0.052996204716215439,-0.60926576640985064,0.42172471956533863,0.24841002087217734,1.3230180840495192,0.97369869263273157,0.76895894442994894,0.53841371770473645,-0.82119449004218192,0.98644559399611131,-0.50363729371353616,-0.75047510470700574,0.28161205886022128,-0.28097439739395319,0.51487013447981655,-0.46795095576045859,-0.54411007814209345,-0.0018963988322298175,0.01928726953420962,0.74577585395155055,0.26782692625466892,-0.41935712474705061,-0.33401442118981406,0.18737369709964688,0.32487924435677334,0.77988570769745369,0.096101874211242111,-0.1151339264244637,0.50972118461738447,0.26070344702166276,-0.19446467510500207,0.00083182514925308267,-0.49266666056126868,-0.74783497944581867,0.72645698429528927,0.7587054046824584,-0.22812083176015507,-0.37951920545039186,-1.1753191232259563,0.18742375389571861,0.027051155197361735,0.15878444285179261,1.0468316386892029,-0.93649988922747385,0.22643573394149075,-0.61202695137047458,0.58774383266557284,0.82835055005726355,0.082044053498530861,-0.31625983049368223,0.13348780205502411,0.1742057100016377,-0.92390611006699064,-1.7769867493215268,0.12109123810945956,-1.0948823206565579,0.18199987600842593,0.61198029548555877,0.11384826303103612,-0.45370585393943458,-1.1786841051419663,1.0543755110965472,0.72629767860402017,-0.53047231646167625,0.52838013844598541,1.576305488897678,0.45599410289274,0.43640286051162447,-0.3191174748511118,-0.71654223476150247,0.95156302255744241,0.97597436487387434,-0.046024895858119697,-1.061485274086746,-0.39785229779705816,-0.83551067907923848,-0.49701627218106614,-0.11837004018984097,0.88394569015784286,-0.136978816986431,-0.53274189569757169,0.59942084655058192,0.75093071326744909,0.23988399517171388,-0.787336131148506,0.1551746287894076,-0.227313437495279,-0.31827286382558451,0.63621122896268945,0.40096349253161961,1.7993225856001738,1.2555958380499863,0.654157847314915,-0.32500794769745645,-0.51243156896788411,-1.1214572486311938,0.39741497428680461,0.10808665600880767,0.33965727770653531,-1.2283725240826211,0.89371153474966558,1.8022530481470205,0.72994203124763468,0.048108418472488292,-0.047004192387564328,0.57252796608580525,0.94169186508125469,0.48707560859498022,0.48940094537120732,-0.075722453714431009,0.2407891639771878,-0.2487406964814039,0.30403454266674623,-1.5243563973341454,-0.92853665332314372,-0.85506887837896284,0.057001917675039586,-0.020023896372159046,-0.39288102190769292,1.1022629751913378,-0.26056507505160842,-0.024549876486470574,0.718584346023879,0.66392339430401137,-0.66779421579135478,0.089765475386936092,-0.6317454926995798,-0.69471145903088694,-0.13691471124113777,-0.2710255685369839,0.11568936270758419,0.69582808822231446,-0.42961532460645324,0.15951433017012279,0.69600897053324062,-0.16892429279038884,-2.3552380927891758,-1.014165082768945,0.21123067067722637,-0.3747155210488341,-0.48349645521979723,0.089737754956466992,0.234198126382602,-0.79153038768960693,-1.5343074254169538,-2.0142166640686567,0.5512244269967157,0.3445383853702218],[-1.6823250160300809,-0.75262073342678681,-0.28496672915009946,-1.118970532052286,-0.3659242015684222,-1.0576646000246894,0.021707044607232266,-1.064367531763776,1.0325870394928827,1.2242186427671449,0.615352229150559,0.84740597831027165,0.39652469098504683,-0.22991940597757271,1.2390782016001007,0.093691898165420534,-1.2348047426324151,1.2170230307455163,0.70373175992788373,0.811545078018273,-0.61586671348554967,0.74608478366234521,-0.50382099292871763,-0.61641974593951543,1.608315947995931,0.09380004592826327,0.62181964189514383,0.00824888271860366,1.3661810969318793,-0.29128110291375148,0.94719043015359339,0.30242036833097286,0.15781320354955972,0.15454050592837093,1.144836649474263,-0.21618631936464977,1.0303341990275861,1.3456144109954462,0.51864611237457725,0.48302457930434195,-0.72956175365207565,0.026762805816817996,0.46659544226110383,-0.187405556416213,-0.54556004367436084,0.36091904748986653,-0.64220923866408075,-0.12740154778741158,-0.46860716323119322,-0.042337068360324658,0.53750149813498882,0.0026351133396238687,0.64816116572929217,1.3298315189941743,1.0330510183138748,1.0284550909048631,-1.0672714660188916,-0.44076947389222448,-0.061060933212763957,0.36463136262102164,0.43995898834970737,0.14411725883966653,-1.2837244910287067,-1.0245196718056104,0.00038791334759517832,0.22961838091980261,-0.28474342170134959,-0.62426022465204878,0.34349014549811835,0.26386390157944645,-0.43594871248233924,-1.2538842196013358,0.31689812408311924,0.34742141538221094,0.97619494705798493,0.33822361862501654,0.89411339731088313,0.53579835366023343,0.63309545964127079,-0.77445244393219026,-0.11335830047654734,-1.4522997849206907,-1.5474105279736152,0.12392448423602585,-0.47369603080197537,-1.4507236032699746,-1.0352884514686169,0.5453730913541589,1.4852896112174436,0.79821827791069644,-0.707120701161093,-0.15547284726612673,-0.70131092508840975,0.461899006516382,0.14439044517296315,0.89236892938942747,0.58157761053407064,-0.38953403577625617,0.86291007999721636,0.11815293557832966,0.56820643567242213,0.221247370490446,1.1055416368488114,0.38936451969177027,1.1915191820377515,-0.26538424078535028,0.76331885187427939,0.81191951458977729,-0.13875200251272662,-0.21866213291914816,0.79737129483292846,-0.43226531902904608,0.067159095623024537,0.43783569719021093,-0.766751821980485,0.821208159076288,-1.0340414288592521,0.79913792456758082,-0.98194477869881436,-0.16865082596203326,-0.193160687333961,0.0987515853211579,-1.3045752505835735,0.17672816670932459,1.150424987391206,0.96436983327164527,0.83699052650901662,0.95004954330132219,0.58903761079889816,0.41186738052597854,0.30017675746167838,0.051877215332596836,0.7231672671593401,-0.22476686379230326,-0.1195972122093904,-0.62236127518666817,-0.43131741036400534,0.30857440704534805,0.19963488117825168,0.802482426457659,0.3170329335401284,0.40913649456159751,-0.27746140181370271,0.40739757019874079,-0.46020219710608384,0.93502341224529639,0.42443243256249552,0.4775337097588539,-0.38607350063524282,-0.37976575623562875,0.663800338786483,0.70213072565830936,-1.0540137599790609,0.19332092552788549,0.558963187271209,0.37419200518276213,0.91162994156107535,-0.80585196025578254,1.0904735941660586,0.34688592130409462,0.40001784785307182,1.9099067139968122,-0.93047207370156448,-0.91017782251140544,0.82908255332301051,-0.47569708889672596,-0.74321585498273357,-0.72786169574612636,0.75844789672214008,1.3862748730541221,-0.079551253071125649,0.0658747183443438,-0.85909425531376149,-0.26744697749103624,0.526307780723379,0.72808373402550253,-0.62259367214748262,-0.10860632381376668,-0.14758915121564029,0.64366850340189974,0.829470899679689,-0.42421838986868637,-0.20453949574899813,-0.23175142886876896,-0.44226705573523462,0.044486133890479514,0.19145595368216026,-0.58621318987366045,0.1470346634651549,0.0795139397148232,-0.25578646355733564,-0.47123978115678461,-0.030371861381983205,0.2175344238255357,2.2518286071576892,1.4344705068811015,-0.20148110318950793,0.84341377896025693,0.78407410984245818,1.1119981128588221,0.56592861253629689,-1.5260035378267212,0.43074231740512836,-0.010609035476493209,-0.5882540212307068,-0.37249089376565842,1.321327742076237,0.16808080990323696,-0.62233957988051125,0.26883168288714421,1.4382184977950256,0.60018189735548377,0.747032137775491,-0.7302454055281058,0.31710981882978118,-1.4077184737171684,0.66877306415697413,1.3093006370452534,-0.081489160904110833,-0.29361130240855027,0.82628437110580855,0.63924796956112362,2.7064790012322284,0.33957391816250659,0.20845279442602266,-0.505185466079493,0.62555919014781924,0.74771732220567111,0.2347110695636013,-0.492706825133368,-0.022919644910482723,-0.19785112073227348,-0.77932195252866676,0.29332844873719316,-0.058996664455255018,0.27453464363994934,0.43663653211592462,-0.59301497538408077,-0.20089151650107306,0.79882266620476572,-1.4690307128976592,-0.23355645622564064,-1.2383318911980348,-1.7750913247786162,2.5638400309373024,-0.653426479439584,0.22845370467722978,-1.3204101015435026,2.290829134891208,-0.2522389992867719,-0.020618908974470763,-0.41326355962993472,-0.12368470202653439,0.13484349422179662,0.31351075523121941,-0.20403084423853005],[-0.44869533182591886,-0.027062228509662941,1.3928271248283359,0.8993851796295772,0.81763942033732628,0.29359794844563686,-0.57013823681078157,1.420453382954217,1.9644776614781241,0.099680170599611179,0.020364166981736573,2.1762785735631303,1.3451811166980863,-1.6402810550589173,-0.26972101194059894,0.24750748523500965,0.34394520603031226,0.86010317376930068,0.64833438278552435,1.0180135520333824,-0.82077175153419346,0.36670135422396621,0.62681692765252228,0.82593522991412682,0.45879886304297685,-0.32326424402846138,1.2249314749266715,-0.4920466225370258,-0.27182404555472817,-0.88623290605897775,-0.12360076468160523,-0.11807866573229121,-0.50459606522504408,-0.9726098955186131,-1.0594930629598256,-0.22919163539660151,-0.3671719116197793,-0.2618983373594872,-0.81929677540858326,0.69527052336449258,0.78981636056458959,-0.17071239204657818,-0.42842603301537607,0.40724481177422117,-0.2729266369460146,0.48840272012825003,0.1570249121974559,0.375279151232015,-1.0217283189547115,-0.015936807111999084,0.047270452291095992,-0.13734490583854592,-0.83743056580167363,0.10614261488413632,-0.91497955220623384,0.037511270761854468,-1.2653418744222595,0.82086978924061527,-0.12340661991991671,-0.62427439291122733,0.067401838600472982,-0.472781332733108,0.84554378145428521,0.8363544152298299,-0.79636598757754473,-0.96348477601335736,0.41799607653475918,0.26015775240467437,0.86122882759178387,0.93217287146187633,1.1995232951718462,-0.81282621799779786,0.40332938958961517,0.66632735505437513,0.860814213099134,0.1900489675183826,-0.23477599882186404,0.53042023214240031,0.63220351507265127,1.1148271182410972,1.3291384465156593,0.10535037020274006,0.74513732870802474,-0.37327272808066647,-0.57440282472984516,0.37301290194325615,-0.51443707186478393,0.409501925063756,0.56144278070680664,0.0054979107302669614,-0.071323700737322,0.11097372768193599,-0.76770309808689829,-0.63457440561209244,0.43222529981569874,0.324010563431986,0.29186518198768641,0.082101783023767513,0.1514193400843239,-0.63997943837456461,0.6041254050108934,-0.84468310698176352,0.75258656736805063,-0.22289663961602865,1.0879854687586277,0.98305417937367978,0.56233576378562211,-0.38117185812252014,0.59260117139369339,0.52817355901045182,0.54026799073751952,0.37650984932069803,-0.76883948852068351,-0.34956325218476553,-0.0963647965217333,0.40353574642678147,-0.603637192139243,0.77517026584691051,0.018396726575908604,-0.64340591844724748,-0.75398239344538054,-0.50773236397309851,1.0748768062457845,0.97378752124378476,1.054539175958116,0.74612567616017034,1.7702928964821856,1.0110453191433781,-0.89788155642515988,-0.54131084187355893,-0.47150992085220611,0.41551597110673555,1.2457599012859417,-0.14738592820592153,-0.7401346954644602,0.50726802192193143,0.31163885395179169,-0.16825696088950573,-0.17427329289636478,0.357489975179832,0.54592038459814962,0.17954165706097511,0.95647526956447471,0.00619416528464655,0.6009690276173254,0.94474537861195118,1.1164133921669577,-1.1788425706177852,0.086325720035083875,0.76919775758030506,0.43563503909404105,-0.886868551690788,-0.44109543486098884,-0.38143498897421418,-0.44875517887061794,0.76001070416875838,-0.17152461008521203,-0.46081409964698855,0.84567802865207642,0.12149190329310897,0.74301956954723236,0.40198261861830842,0.776014645731228,0.080180122915720548,0.69218877316196492,1.0798248224879816,0.19839395932960358,1.1371541576463811,0.39609452314364646,0.40114883043702948,-0.62442944730582661,0.60015306045603989,-0.45223812670050373,0.31997938783419944,0.61469403696910008,-0.23082833800946553,-0.45347502402579193,-0.79316740530114582,0.66615847838469666,0.262695683902158,0.12511441821361113,0.25173678330663074,-0.67499165850228338,-0.31000235355544409,0.63008150768390958,-0.92026320390026717,0.019931497247901518,0.90238347625708,0.19000246490477585,-0.45424806884040791,-0.47531207171227741,0.10527469370185352,0.3750704567143377,0.83972623354034925,-0.099506047309454115,0.50222591783326631,-0.50723236518855075,0.094317714921107784,-0.16769773766581717,1.4668241052548305,2.1902858184540423E-06,-1.1112179441776278,0.68946364169212437,0.8600276376751177,0.15139543130341496,1.0768810130154609,0.65620329911238051,-0.52905669910282049,-0.33666815148547441,0.79059195091880563,0.20373135817358437,-0.61949723621134245,-0.35527547960723133,0.18711147804573372,1.5897130451560131,-0.31306057646558522,0.26034205426124324,0.4664592915516142,0.8141407489011997,0.028998643989666457,0.5278093295324604,1.187531351954058,0.55987856563821914,-0.2241350023376095,0.087676769704083543,0.50870106830230832,0.88128617176423318,-0.733887834185944,-0.28570211684481966,-0.44666668063188053,-0.664483062272265,0.30865222361745037,0.82109156802286132,0.38725438522397559,-0.89230663656830689,-0.34413825349221572,-0.98420631969762162,-0.32807072798779058,0.56931498349735288,0.54481633658952455,-0.83482347427672665,-0.33805099655977722,0.160273625722749,0.64086625790604879,0.1027171191682173,-1.0696847381759032,-0.50797409281370343,0.79718874913538906,0.17241156531347512,0.11636755382716167,-1.1731673352075325,1.9020965888771073,1.6933913651544703,-0.36592041513031504,0.21806920245240127,1.1758863234082086],[-0.83908617715407885,0.55543946975226144,0.43226359814620918,1.5419355641803254,-1.5763274610506795,1.626834307918851,2.3184979885477768,0.69006757666698681,0.49916763299007993,1.9742676807664221,0.76329301971050734,0.31490711534413268,-0.35925495291530757,0.040355580391224992,-0.5074069450771,-1.8474354713335552,0.12954174550534553,1.2718678115431987,1.5789086962136119,-0.6547140437544835,0.083387439435895869,1.6442045715917009,0.49732767445639359,0.10154751808045939,0.3558297437219593,0.39757696626269473,-0.19385317949895647,0.19873421183144313,-1.0752851863061794,-0.29729367590961103,1.5501672680262078,0.77749112068469806,-0.42822345845096454,-0.1942204341487617,0.8306450764290022,-0.49589696710176728,-0.23212823688085563,0.10032677248318404,0.81153050468546506,-0.35065217159969231,0.11117137294941636,-0.42832306123886615,0.61877128064030285,0.2933265917337447,0.87026308909797889,0.84212906213015115,0.538325873016148,0.74433375722639117,-0.45734643155188814,-0.3840301037100618,-0.11009464107490109,0.463040601664149,-0.45740602651756718,-0.062786223964564486,-0.33840274331932596,-0.6684363920929709,0.15802361532043591,-0.24448364600477862,-1.3630469215533676,-0.25380731737975293,-0.37716900509373236,0.76963872206549333,0.91756331109245892,-0.39813078032305271,0.79428040602174321,-0.652316873861847,-0.75359868463223767,-1.0655213525404783,0.6658521247050726,1.0094641842909125,0.53266465461502233,0.12285132793289839,-0.35946411574509468,-1.3178477673755782,-0.34209383481028294,1.2078581362964294,1.2463718918257245,0.30588270493637365,1.1329851303710399,-0.062494948235917475,-0.86237405165896586,0.12831743916663863,0.4199324439845486,-0.86194167222001639,-0.12850406145034471,-0.74828595074791648,0.72250080765958979,0.5779190571695757,-0.4206841826937725,-0.89576697638632508,0.22410701010582665,0.083310472823258666,1.1610220009333512,-0.73465090831222613,-0.55158320482545453,0.35855030742698912,-0.23807425996358042,-0.15022030353822533,0.12664411088923458,-0.84929641643864273,1.0146320035775809,-0.21524605835157273,-0.83946559029992052,-0.037563134460985893,-0.9347951562270701,-1.0880378580518573,-0.10747180762080945,0.92877031464582993,0.55126863134217141,1.1768616455363512,0.79733565139376039,1.1544775443075657,1.5959000899081564,0.90842087778990122,-0.47475074159430486,-0.18629888112218809,-0.78202641185232924,-0.67765779539452053,0.52529823205413084,0.88909959451692944,0.85105836730269424,1.0039182199435011,0.37773677571583969,-0.58205989910383138,0.52033859724639853,-1.0782239109999887,-1.0027615509760206,-1.3640782459904797,-1.0295663802386197,-1.0144207113165391,-0.064729269645639548,-0.1062759789542701,0.35726777118096292,0.043980562072426746,-0.17828859854828272,0.86857622167256876,0.89325849439873839,-0.1808885574003726,0.78625819936940977,-0.10367617193663628,0.26068415400165057,-0.64685879893901677,0.78362000251169917,-0.2626462203560806,0.066577424842166111,-1.1467517359055923,0.28949808158461393,-0.4856194884675169,0.12203274223102122,-0.043623654601220273,-0.39795271789665648,0.97703638657655056,-0.0023494146224196004,-0.68776344581810367,0.35544211141091364,-0.96479498201424252,0.25410280378481909,0.74553496676255571,-0.19848647132298136,-0.9344475089147497,0.077091334717398208,-0.19474065920258007,0.25094576211235387,0.51024207836447821,-0.53918280991693879,-0.68133720640950013,-0.14792852894048494,-0.15433543826320426,1.2368202184964514,0.24479152014034489,1.4634124630479206,0.73761872326377231,1.5243936239831695,-0.020147384832620092,-0.80509976441160047,-0.49398646826333176,0.85686064948601526,-0.02752923670976596,0.69650164207741216,0.72770498513798543,-0.22841889212881242,-0.080575415134571643,-0.30105296777948859,-0.313405557570287,-0.14214520734733441,0.65806758736136084,1.0242505512435087,0.071327676176099558,0.66190865371359509,-0.41915819869404874,-0.19230538360675439,-0.88564695761901,1.3884231190151464,1.8155619108240562,1.7055737633432719,-0.44791272935433674,0.804046888659473,-0.040883452764141424,0.34655086336531038,-2.3422460771511351,0.50692731459554841,1.0899751916191747,1.2607421250737043,-0.78670297449021953,-0.08229006076265695,0.1372323976498411,0.88527734986177176,-0.84491074273279509,0.98131674939264968,-0.87698724103277526,-1.1330139047197858,-0.88367579748838909,0.69472961034390213,0.0937199330455414,0.036323128166129384,-0.60882715807437271,0.52635763609584674,-0.16134947524679522,-0.69488357942260492,0.39492540033429657,0.077195279510771236,0.66573186472939938,-0.027469282526733967,0.53962480019251546,-0.62591971370532751,0.54021961673484586,0.47021172010627005,-0.90972156133572435,0.12443043350371838,-1.0512195810240617,0.5069011079952882,0.016278981853493933,0.29944486194312864,0.53619571417763445,-0.9404516355994611,0.37338344866816425,0.873773397020486,-0.32900322048192521,0.86096041417022318,-0.428257074680812,-0.25385494111830464,1.5037375991760669,0.94752137067194442,0.31065754259478473,1.1187215481819752,1.048879264942014,0.34503993478262396,-0.22142772790342938,-2.3826800912549109,1.0835986226699388,-0.24827183849971829,-0.24033105053179987,-0.70916121079486794,0.7153499425412625,1.0279192312252758,0.96889496122249275],[-0.43540487924326826,-0.5909146517975874,0.650369413926386,0.77673944562765806,0.1389324921054092,-0.31311047480558585,0.2355370692492138,0.67429867215545825,-0.34155392490819547,0.28436574280736926,0.69602128388488094,1.015680633640039,0.14510924805228517,0.8207456047498155,-0.24245892171694414,-0.011405409640472371,-0.18454442583575467,0.9545419303697732,0.6628460259919623,0.03204173548429861,0.83373413468125546,0.47084633045920204,-0.23339968050131688,-0.84133576891835271,0.36949100510624383,0.386545060505672,-0.73808552564994889,0.3045392753709999,0.62510471852753513,-0.14522687314949331,0.30694414920034968,0.66156069517265559,-0.6068801976932382,-0.61958842178623685,0.58785986515583222,0.39387138037363606,0.24550085652904613,1.0565455658420129,0.30598228870090122,0.3405938861140162,-0.037036121174425264,-0.717648187732207,-0.282853097011323,-0.0838859873800181,0.36210806111947968,-0.64128285727871859,0.546005436497225,-0.19888658913865154,0.46141309277520332,0.54772209319887022,-1.1192784831222367,-1.1598189811693853,-1.0515535376704372,-0.42406941256916514,-0.69031275518567969,-0.053609343520614354,0.66448754609316618,0.497474017886824,-1.0714695935166583,0.88016763813310939,-0.44142516415793143,0.52584271192133025,0.8650288824271356,0.92524164468481274,0.79307544206648672,0.4858631141234635,0.72846995846357265,-0.26911107082375635,-0.87212399570638466,-0.01683496125149378,0.83183018566331923,-0.16200044460263482,-0.26167151647589121,-0.66538516147071047,-0.86610829266030653,0.72527838229821273,-0.16327834692673976,0.9131618834209031,-0.21274517574093313,0.11730995007443844,0.91513881712690748,0.53429904723621813,0.91857353949923026,-0.88549243604945915,-0.14088525033230884,0.32283034788708587,0.55361101968109794,-1.0328801539809669,-0.62318810163991,-0.33381102278046049,0.57288752204068694,0.54380869637021112,1.123563307686158,0.7944524315922985,-0.23466614056982477,0.50802256269746471,-0.56524993723486938,-0.29260244939882,-0.1145594179303159,0.7815979786985765,-0.20545195018845064,-0.22270549221392083,-0.54296249884011938,-0.72578201589664859,0.66501299622890886,0.21692198138598412,0.42552556451802287,1.015035199927085,-0.74065811937589676,-0.47719777621782405,-0.70182885263020511,1.2255970641757517,-0.050077784035268712,0.20631202084978306,0.60659754399337817,0.060454948169694774,0.634827080297596,0.73358030224284609,0.2377606147252076,-0.1706785569279069,0.87593515388129972,0.5913529617199017,-0.34245402257917579,0.86194360220210464,0.56402386127884419,-0.34903292713022205,0.090835139305186816,0.17231301568300572,0.65854896359994219,-0.38434960357075315,0.2080477477516739,-0.79926210797877861,-0.079768625050659681,-0.14241556428970784,-0.67708319027193931,0.17608155635113168,-0.31770590497430862,0.56890577395915887,-0.33932723032230611,0.544765029066982,0.703018617960002,0.95623266939629081,0.78914567814934333,0.58849464123422457,-0.633327556646638,0.72406230099067381,-0.5157878393648081,-0.26816229961511279,0.81937196349628194,0.42818874818343794,0.65135328974988393,0.024820818424799662,0.45396132443273113,-0.611395961922523,-0.92146159674598349,0.17095836227412375,-0.94452859751361962,0.20827625668251368,0.078723703930536737,-0.075727599597820966,-0.99357576954205229,-0.76791181611395343,-0.64760051887742609,0.65529817798181522,0.30078512581396133,0.93966210035776265,0.20680848298740007,-0.98381156745449472,-0.24385612779699881,-0.27417407501143842,-0.24789160549824899,-0.79594984249144562,0.27926358052740313,0.81643353171993738,-0.14239921423560714,1.0116718963843869,0.90113747630476249,0.1250103984689635,0.3485695858375526,0.80806029046862216,0.76700284820907261,-0.70264068034662064,0.31878453222519487,-0.83370601976178782,0.022192432731575742,-0.43876948609769661,-0.24851450405403686,-0.42973855562075719,-0.19109495112000591,0.16038504198351991,0.17378472203458856,0.58296980153696409,-0.50491732224806873,0.46926921829015045,0.6854784699618478,0.52276554343486759,0.78932433171508631,-0.923590890789773,-0.56672901821728172,-0.47302917328088867,-0.33360754502547268,-0.42689315658922566,0.64754021785636373,-0.16525754839636561,-0.11297785512339231,0.29447409599374363,0.68427903613825281,0.89340241306628543,0.47798548495298532,-0.78182651888295107,0.30473196285838328,-0.0091897812431533128,0.74899608036741561,0.2396337475540124,0.4481286851915664,1.0038981151544026,0.078369297988809844,0.99882396604438606,-0.458346812409458,-0.017635813108757118,0.20679739226246688,-0.48629318159304308,0.14964511473626185,0.83091942078491332,0.43383102745316215,-0.024013952458999947,0.81519347772770367,0.61243911091454084,-0.74281130172063947,0.62154087245896583,-0.99423237866404024,0.70495159438612354,-0.0730032436130798,0.020443848092258021,0.10100473834585468,0.16947410305172331,-0.66691784117327257,-1.0291955926845415,0.14461117063877221,0.70866525774097755,-0.24724863253864243,0.034103726845643126,0.18412635735902522,-0.058161746373768683,1.0810545319103617,-0.37289743843993478,1.0260231246653508,0.28066028118063907,1.0331312010289571,0.56735868138319911,-0.14611938917693781,0.91884213914413015,0.5579354790116714,0.286935202441744,0.90230051866274119,-0.50146923678492394],[0.787991409510353,-0.21945739800604255,0.63590927795312735,1.0053077877445817,1.6109657051600081,-0.44240594683959561,0.60579714172397836,1.0369355254378665,1.5414829158953884,0.64616747190797386,1.2386749667266612,0.075679054177251445,-0.54200364186789363,-0.053014661418831974,0.62272229949136293,0.22392448918805058,-0.33267320980464982,-0.0867716973464471,-0.91188866692017,-0.77655915935365039,0.24165108193733845,-0.55573391043454823,0.73676489938773493,0.19369586619003243,0.1912917503510119,-0.33907751842846323,0.76475742029886284,-0.2026440809183207,0.50282945393867884,-0.533339016635392,-0.866071058397085,0.60266896706102857,0.73243944346973788,-0.092400858876206929,0.69426272058630822,1.0436042403123349,-0.62235814648949417,0.76115436822907123,-0.62215537152142086,-0.11119663080013817,0.50391629102863567,0.67322961215831167,0.1771169920572962,-0.391026312598822,-0.47438051350272592,0.35018997293330523,0.37654562234902261,0.66182605037787867,0.94119541500861414,0.47724715852215233,0.16174337275350353,-0.29034847214460857,0.047663276233677394,0.049959623843080753,0.32310452222823705,0.33422580819531006,-0.30324997697173234,-0.69429654374168626,-0.41891946691438686,0.07949241040871953,-0.2198799749554339,0.31675359210573373,-0.20890903947223527,0.82215216718562489,0.49533257557586341,-0.44183916663067,0.2189726392374366,0.36931936017329586,-0.11285304984583255,0.67275976753126809,-0.20213200287145366,0.27295680640581577,-0.062988247966490662,0.58085940505395617,-0.11215091406724553,0.88875631656462428,0.54410185627490859,0.23455817257214309,-0.052892133941173466,-0.71424140526114988,0.59583614972096377,-0.77020577623456588,-0.273802518184436,0.83547903225774012,0.15176534562892244,0.65648486343166157,-0.60489657940253538,-0.44273506669148049,0.88143500921609752,-0.33430915198762373,0.4957975586631988,0.598794227320355,-0.21320915347174638,0.06798159438688503,-0.63641463174871216,-0.49231803874570346,0.017933446516550249,0.30726317340866061,-0.0084555575647479123,0.693896513130704,1.1105394120648717,1.1943491417549021,-0.22623516705045083,-0.647674033013047,0.01985777809554921,-0.56038295674146921,1.013689286655332,0.79160395422977,-0.633600339961942,0.32540780661313923,0.75172794652991548,0.68467153934543368,0.65712026858860761,-0.49120130291235226,0.39434794245382326,-0.63991105112425728,-1.0726674504721434,-0.24186041685855547,-0.26298038400515183,-0.631881196263781,-0.37145564360699035,-0.38731810430738328,0.37297800657234825,-0.59206836992886014,-0.32017418274003112,0.55312762472290888,-0.019638058805820594,0.79556705456309718,0.27227224488806667,-0.65493840401583958,-0.13886652057245982,-0.74568078399460869,-0.76573776569701668,0.19221962023082281,-0.77102014293708965,0.6786443045615197,0.37488596146429221,-0.70000577805948638,0.19657239300655485,-0.056823353413924312,0.51443170166282348,-0.52180635302966893,-0.48075521189790238,-0.50068994436908743,0.020485956276700974,0.98450472269137124,1.1347185704961991,-0.78071621694585713,0.66734555222304759,0.96383251651791524,-0.48115114268064479,-0.52180845865591052,-0.06681447013144208,-0.10905180956010099,0.74360662990328208,0.74489030660186784,-0.5207211108116695,-0.39319419551609536,-0.66310251559410227,0.6182262785617052,0.94580088507184268,-1.1033121462256816,-0.752591986108234,1.1561188079271647,-0.31292496207538972,0.18676574838777016,0.513626835006183,-0.21643980502874743,-1.2767519522261634,0.90858995826960731,0.095833238724887332,0.79726684488485966,0.364231366990724,0.641529866514851,-0.26029186506273361,0.84210667210114942,1.0020595662355842,0.13007334846667182,0.2606718810270241,-0.53413969466738886,0.040635579330563547,-0.78415954449508052,-0.74387202250627193,0.33368149421237236,0.83282402022346214,-0.54102097427242524,0.52756406741917827,0.37680506576452305,0.66911866040433232,-0.20865504640117397,0.47231916089500864,-0.08085175288590643,-0.85263908685933931,0.39788497706419279,0.335011669936917,0.2475837846913363,0.95370086449606983,-0.60280334981529349,1.0378290924502105,0.8632700861270638,-0.46723446091788762,0.472796151663714,0.68256476904965269,1.1362809722966292,0.011511553831882878,-0.11487156555696446,-0.011450618109025056,0.098556960275541838,-0.802189572038843,0.82111846310001957,0.70633356002958736,0.32993427835658273,0.188327325457379,0.82087995898949817,0.021529869571428793,0.69473072305207006,1.1382829565333603,0.55627780656262893,-0.38245842401074753,-0.7837722063683179,0.78982061793650349,0.97934173276452074,0.014862150336643665,0.62382142193394285,-0.68665789397088683,-0.84271125676491976,0.90357550604512016,0.88112403850785614,-0.57115901941655078,0.43115887699603256,0.89025047876291,0.32489960197563028,0.10006442230129956,0.74507890404412525,-1.0039553883853951,0.4021232877881607,-0.83852714716632148,-1.0113083208517422,-0.51748103742385343,-0.038335153428471325,0.16560127556092513,-0.84896916767093045,0.2738727127620964,0.7175869028087809,0.94944009846890631,-0.55820869451633415,0.66522239934167415,-0.89245846423002462,0.512015863446036,1.0396662170808886,0.36196045809440069,-0.21433624466587548,-1.0462312375168175,0.95363186688312385,0.99941646459157751,-0.69494258762180716],[-0.57306292834830319,0.28946996627085009,0.30150999115427851,-0.24886986171159831,0.24981844624443128,0.805193769216353,0.16101833867700874,-0.43348310102373888,1.2506746736324284,-0.3896710699509755,0.934593006441334,0.7622029490175416,0.73921550628658006,1.9529060647082497,1.1309530699366028,0.73130524174260858,-0.65422515262813252,-0.18490160263479968,-0.61837028363475266,0.0050113709551798825,-0.52829993169136025,-0.045483103583432168,-0.40797212579098746,-0.88944030172998589,-0.49513880935154914,0.71902824027979118,0.57029804071570744,0.10985169491815031,-0.38258813332235148,0.34863586697701726,-0.93047557582188334,0.04549055913450481,0.62083066899534067,0.10429008613421678,-0.45132538160829727,1.0076451337042769,-0.054807845307901969,1.2507233614720179,-0.59349297613330843,-0.72705173761369868,0.76161433803094492,-0.046189983123181261,-0.91602592608468736,0.17122765914815524,-0.6741236173580768,-0.71369446539128778,-0.86627946297275737,0.50947599888381578,-0.82171302190150142,0.49550407997269863,-1.115770854558527,0.032584332971372282,0.48730812757381248,-0.16931120680287751,1.0934509986448913,0.16452067946004406,1.1512216538196034,0.51881802298429469,-1.8813290907322815,-0.47935215916765767,1.6440852404692483,1.5197922116893232,0.36989364150333859,0.19221328971628124,-0.18202766595229705,0.1560632781962524,0.8878779211253951,-0.15056995641826776,-0.51131916752964035,0.40663453557074619,0.11979755236956649,-0.37485468603651395,0.31128225918356806,-0.0181113299461269,0.89332332398911485,-1.3017214618633175,-0.029108289074773881,-0.068049065590551225,-1.3317578931111176,-0.72068395692066423,0.36297984286500634,0.56134155838864808,-0.38079599174355883,-0.75237596536865392,0.62691734483711448,-0.72806080465235767,-0.44243095450020209,0.75460340328384334,1.1371597604447421,1.3470436881165577,1.0866201791064947,0.20064040023241439,1.3446221269819603,-0.041937243766150788,-1.1242778495196968,1.1326015734093609,-1.0894151109277297,0.45105767316456036,-0.74091482991337876,0.048476463503483232,-0.58750513828009188,-1.4700853489967083,