{"Descriptions":[{"width":28,"height":28,"channels":1,"filters":0,"kernelSize":0,"stride":0,"padding":0,"activation":0,"layers":0,"neurons":null,"fc_activations":null,"layerType":0},{"width":0,"height":0,"channels":0,"filters":6,"kernelSize":5,"stride":1,"padding":0,"activation":1,"layers":0,"neurons":null,"fc_activations":null,"layerType":1},{"width":0,"height":0,"channels":0,"filters":0,"kernelSize":2,"stride":2,"padding":0,"activation":0,"layers":0,"neurons":null,"fc_activations":null,"layerType":2},{"width":0,"height":0,"channels":0,"filters":16,"kernelSize":5,"stride":1,"padding":0,"activation":1,"layers":0,"neurons":null,"fc_activations":null,"layerType":1},{"width":0,"height":0,"channels":0,"filters":0,"kernelSize":2,"stride":2,"padding":0,"activation":0,"layers":0,"neurons":null,"fc_activations":null,"layerType":2},{"width":0,"height":0,"channels":0,"filters":0,"kernelSize":0,"stride":0,"padding":0,"activation":0,"layers":3,"neurons":[120,84,10],"fc_activations":[2,2,2],"layerType":3}],"Kernels":[[[{"rows":5,"cols":5,"data":[[-1.3615127710072348,-0.55225561456451921,-0.86506547508751608,-0.841195353879089,-0.56804423473023358],[-0.82001928572955574,0.18366265017343783,-0.28783439938904809,0.039634745732473338,-1.1519617215475557],[0.58527745766681571,-1.1971196559704971,0.61279810025986969,-0.269860004527228,0.65855252123721741],[0.2252347294259438,1.0172077571908036,0.12674487816055829,-0.13672871592065544,0.68504947282732986],[0.9676917543664223,-0.21555866268152302,0.23603152934321273,-0.55563912227458734,0.99855283167792852]]}],[{"rows":5,"cols":5,"data":[[0.93793849048661648,-0.17646541975909905,0.18561772006940336,-0.27097026344571851,-0.44660495413396351],[-0.075812384771158245,0.41066684538706871,-0.88225600248565839,0.80145099171267642,-0.78350390650687463],[0.9602766959244684,-0.74467312223671611,0.42374827049339125,-0.21204800425249326,-0.72597135898259724],[-0.41839977112041876,-0.112787677214942,-0.60885047045613938,-0.26214586957179437,0.038465563597517335],[0.42220611377666845,0.35566638734400247,-0.90992136759150921,-0.79585086340781974,0.37767687756225338]]}],[{"rows":5,"cols":5,"data":[[0.87448136574944735,-1.1147302256914784,-1.3871088275770112,-1.3371824799432435,-0.364260478171143],[1.0298075061208114,0.49153051646947804,-0.840167687086434,0.18189213986183961,-0.23182782501788168],[0.77009501038284545,1.3528506254717985,-0.29958053178187277,0.24084100647580167,0.48126258451707371],[-0.489758955893313,0.9507902023622149,1.1896333408676414,0.11689741666623453,-0.81406374388943248],[0.11104693980833577,-0.4239168360131455,1.1108346184897033,-0.50051054447304277,0.55951639060780867]]}],[{"rows":5,"cols":5,"data":[[0.029318609379562471,0.78224063243722131,0.85062268894319082,0.32718398082078959,0.84810012228895948],[-0.14496183585256348,-0.15564063092483374,0.15638355623408989,0.40568658091468768,0.602338582481814],[-0.067798259927549315,0.56943786837264221,-0.81220759842262968,-1.0568510496553771,-0.93344779373938569],[0.40154380284721919,1.0973107018635104,0.2336374791716534,-0.99486800897679573,-0.82343402124602771],[-1.4354775073315831,-0.3495849641131259,1.3288151201726284,1.003639805673239,-0.31731825580036177]]}],[{"rows":5,"cols":5,"data":[[0.41152545200529822,0.97231458543821359,1.0306930615025214,-1.1974657650214675,-1.186152268564727],[-0.2615603471553854,-0.28938109952370572,0.59962577797543326,-1.0154135717236976,-1.0669879309823005],[0.8080545092932957,1.1671178994466076,0.11551604425912401,-0.78970932633376734,-0.76450770805498769],[-0.41914653166572835,-0.12547638963389624,0.28540454461945619,0.25628468896253725,-0.20143158646600365],[-0.30663970960137965,0.40195585241934323,0.54179190903309749,-0.59711808495149854,-0.23801986958549548]]}],[{"rows":5,"cols":5,"data":[[0.51948555728872892,1.395685422400446,1.2921623873421917,0.440055424997509,-0.27897725465817086],[-1.1097847933453078,-0.45492280776455335,-0.057680328231298109,1.4455400376904191,-0.51511069269391074],[-1.0607466592513823,-0.41376070844231766,-0.071485465317694369,0.050014594957972759,-0.29182755593972759],[0.0876366130232705,-0.13952577148927012,-0.032593859267769323,0.51559857997760639,-0.62931059434697145],[-0.37153199382253432,-1.0291266248111362,0.26095943180429,-0.039561398186195036,-1.2319248894499548]]}]],[[{"rows":5,"cols":5,"data":[[1.3301990031330162,0.2759792897916713,0.42871758285397643,-0.82170626002218827,0.53712226052330858],[-2.32886588309546,-2.1752220702744993,-0.73641783693333418,-0.18510531217209417,-0.017621165783269877],[-1.318653068755542,-1.0195196854263982,-0.50617112694170741,-0.55412906619238311,-0.31850854427518505],[-0.78489193915101763,-0.214129564699389,0.12104278224352007,-0.10405817541545349,-0.41727206055726029],[-1.0473958089416404,0.46563220474195116,-0.80489962136799031,-0.40495271456002868,-0.13353908973936074]]},{"rows":5,"cols":5,"data":[[0.33373526271632581,-1.1075954203604095,0.14500147118987594,0.37375433209158476,-0.25136898179708755],[-0.5048766264815312,0.43477223362895845,-0.663650548011774,0.1670394034360787,0.19916584978761937],[-0.50538018355470016,-1.0487243286846777,-1.2819542744618067,-1.0642528570197658,0.82154684140161138],[-1.0902634902858364,0.15697668728352676,-0.0041959726435964635,0.70819347505924635,0.83463892954656793],[0.049370642665643914,-0.50048411636341694,-0.090206441533807066,0.18065721523796705,0.24388663658297996]]},{"rows":5,"cols":5,"data":[[0.53429709536468961,1.5306108141081554,0.46665334894924732,0.52737221631082909,-0.81937500995572932],[-1.2034537307189497,0.96649114495065624,0.77059862540829727,0.67221591276309089,-1.0693863395495542],[-1.4176649495400344,-0.56563664432372973,0.43239467629508871,0.51969675206988053,-0.39468404586414857],[-1.07394866545164,-1.4050093860007578,0.24898581691733873,-0.47522814260906249,0.0458782292618724],[-0.27912123645824283,-0.39095235975990217,-0.99512020003825019,-1.4488426757050703,-1.5767433555639869]]},{"rows":5,"cols":5,"data":[[0.031276272789678934,-0.41659094816816733,-0.8179049616272468,-0.21378663380135984,0.14059677798119397],[0.62724107689424213,0.58769960941529009,-0.73101064218548184,-0.49576023295942179,-0.39523718669676783],[-0.1230813299266563,-0.51800053249453526,0.65318127348989363,0.65951263259900961,0.80494017995260358],[1.6722571020764789,1.6498289554503929,0.59338250514637858,0.10746184757207611,0.11088533510243857],[0.40875659048861729,0.39910226587181752,-0.68135061632033844,-0.14125374082513506,-1.685885319475285]]},{"rows":5,"cols":5,"data":[[1.0524855217426268,0.29100801855174807,-0.15758272220197164,1.3942240059882094,-0.309454218538284],[-0.017495806352850713,1.04377857320147,1.2519725539225137,0.23397650626847194,0.50340217482549032],[0.15359812927213823,0.083650852573548623,0.91929630226630665,1.3850597528540618,0.721905965540271],[-0.8763791117509161,0.5844344375183661,0.40400725473176557,0.36728508378463631,-0.30823191699201824],[-1.1172847037592066,-1.9812410884292762,-1.5711750669904812,-1.7883122394295741,-0.18741307096893276]]},{"rows":5,"cols":5,"data":[[0.97768367270435463,-0.85478295792106462,-0.34965758546130143,0.03265084075504239,-0.96582693852533108],[0.73523776979674138,-0.24441717765963156,-0.7739595610004123,-0.074169398670081557,-0.18062980546865803],[0.11286676363923376,-0.62224630220611021,-0.6406292996995907,0.60878240973196807,0.36321253385957425],[1.0698388669450178,1.6471027986711868,1.7341989882355626,1.6540570313051972,2.1570489318590741E-05],[-0.70701435944099156,1.0914422105753243,0.61844894822037344,0.4393356520190807,-1.4040734234959016]]}],[{"rows":5,"cols":5,"data":[[1.149211924283492,0.7383299015685274,0.18381665275869025,0.20329874140732923,-1.1478527008662871],[-0.46056788345919469,-0.62289065550978906,-0.10325179205391213,-1.2882616161256855,-0.93350133369069643],[-0.80952042294641469,-0.61481528109446137,-1.7611896210218927,-1.8252022073535936,-1.6110799694160889],[0.073233721238448665,-1.5271639837118516,-1.3398899097755306,-1.3015769883875707,-0.03331058449398263],[-0.8356172141661895,-0.099810470747943622,-1.6909825261667142,-0.29417918248823388,-0.66530274184441773]]},{"rows":5,"cols":5,"data":[[-0.27539769301949657,0.26720956009311181,-0.54214072855572493,-0.30340505121109473,0.096620043298251232],[1.099898325911538,0.48657380684672058,-1.0250622675099137,0.20110545109713437,-0.58004893280339387],[0.67220961713464378,-0.4900334271730335,0.0869335193230537,-0.11104475649383638,0.94374391462800589],[-0.65366686294094389,-0.052234636722004756,-0.29068359584917308,-0.20122458273792435,0.25090906750166514],[-0.24504534105548836,0.20135705424043524,0.20213051557651854,0.264340064626848,0.44508127886694171]]},{"rows":5,"cols":5,"data":[[-0.68943455494046157,-0.45722781505016041,-0.67511748603396615,0.020295712673240564,-0.15396472936468575],[-1.0965922394536936,-0.573478778279895,-0.68204980939545656,-0.14345129347864119,0.805004559291742],[0.75477892021607074,-1.6163035237875814,-1.1304886512512433,0.011609636979449079,0.34571587044959146],[-0.090980677804388427,-1.060635867783627,-0.36773217305589673,1.485815948246318,-0.50194519310178787],[-0.49500088864594416,0.25102778214177063,0.08936772621705813,0.46290921957394038,0.673820683283943]]},{"rows":5,"cols":5,"data":[[0.40613330286959604,-0.12716568308066722,0.29673089603265462,0.011750585093861803,0.074390747519592376],[0.525903617060103,-0.38973741628184883,-0.256187694889135,0.39127493947633057,0.1320233328710953],[-1.3004020777578953,0.21415497447865109,0.389421998912689,0.5218283152726354,-0.21369307615391889],[-1.0052389661954535,-0.44044828585315954,1.4996890969055157,0.13628566773918691,-0.50026333684845969],[-0.39598706097590625,0.98689641237681425,0.76254028315102784,0.80097475662469009,0.61753314553441552]]},{"rows":5,"cols":5,"data":[[-0.850108255671128,-0.81201459817274668,-0.053565610949538947,0.16230009496216907,0.15480343473471622],[-1.2281950777665374,-1.0976918217152962,0.634700395949122,0.31583991744589041,-0.26456088216468288],[-0.61511829149210284,-0.80717014961617184,1.3252612341453713,1.8557119241378695,-0.87833273697514447],[-0.16490122874163726,1.1881565104153355,-0.190458740831577,0.64850438239256492,-1.025756127508753],[-0.35860043887883597,-0.077788530108394816,-0.14055988763720129,-0.51810897436531067,0.92227145049525039]]},{"rows":5,"cols":5,"data":[[-0.87502089304143382,0.81983109323650638,0.62692020458808528,-0.28406720470608265,-1.4068265757389684],[0.0866798757008414,0.71075941130783393,1.0000481528533418,-0.72351626764693522,-0.21328912131584404],[-0.22776944391582082,0.2830774682279511,0.24786052073104811,-0.66886991058123135,-0.970496580389192],[-1.5697005335022896,0.89385988949734585,0.4954253708744234,-1.0390994572520289,-0.48730714687557075],[-0.089717653004366391,0.49733492375527716,0.591694095166367,-0.25856489440027053,-0.59169682991728356]]}],[{"rows":5,"cols":5,"data":[[0.053624812442892071,0.10769566629105826,0.065979847939710942,0.23032395011781512,0.10480777841138721],[-0.986126480790568,-1.3267378756113537,-0.043492378291848426,0.19495604062823527,-0.67515159594696639],[0.19896217222387305,-0.27929094340439187,-0.58492305585579529,-1.21301494629682,-0.22841212935383451],[-0.049321051008788565,-0.17539676343125848,-0.86686343330053839,-0.87566864937439315,-0.76825130089987093],[0.73560307548593162,-1.1283641186663946,-1.1552486451888588,-0.11875059499726563,0.30590516520622607]]},{"rows":5,"cols":5,"data":[[0.24933818369184274,-0.8416216225588723,0.19669685110976778,0.72620865299203863,0.019508030981075473],[0.49261902902610549,1.016027656043635,0.017493571480179083,-0.71109697162875318,0.38673130042065768],[1.0207313594255731,0.38984070506705021,0.89111694859552415,0.027872296968353187,0.10098494111169791],[-0.41852549073804124,-0.35255616961371367,0.45257239064707522,0.18324226063643009,1.0533165116812742],[0.16194925851511047,0.080437457732172243,1.0678239308254705,0.45948305592541505,1.050430753168305]]},{"rows":5,"cols":5,"data":[[-0.26476305808332457,-1.4776473620006319,-0.067989044392691489,0.57333327977366921,0.32132363377928186],[-1.2298861426187866,-1.3466764508686113,-0.91154082065665432,-1.1268383322660371,-0.33303973679140897],[-0.93583945844555316,-0.083070664191942908,-0.42530541705218256,-0.21724309851724147,0.90717569304019408],[0.0046362106692079729,-1.4089425542477463,-0.051567000331381625,0.097693949356807031,0.25133262826464642],[-0.11738244172811488,-0.86001137619981349,0.28005947055680025,-1.1189706393730503,-0.98211187366195141]]},{"rows":5,"cols":5,"data":[[-0.49449310370144506,0.090643800373296668,0.69495897871178625,0.13358942648552211,-0.66298962435487485],[-0.90418679059663343,-0.829196275590699,0.24538617290346929,0.52718110211129277,0.97993342664881922],[-1.76294828907051,-1.1625590277692581,0.38490345662515579,-0.251896830511624,-0.74960481480910135],[-1.5401004549070245,-0.42382625662373041,0.92806804947611821,-0.649047113627351,-0.50988249889754766],[-0.010424224118948592,0.53002873097068637,0.095366345109343192,-0.28311512042481657,-0.54674491882096232]]},{"rows":5,"cols":5,"data":[[-0.29741891907568457,-0.91145749766153228,0.41301685531381122,0.5620599666174193,0.27348711696839439],[-0.94397564192337813,-0.95073021255632029,0.80816736930697231,1.4249615636294928,0.917660790072382],[-2.5187395392664165,-0.47971215650167,1.5178356865151672,2.4493000832104008,1.0390319160446484],[-0.87337927848259811,0.85716288966789222,1.4579275782712444,1.544112933179806,0.64374647364449444],[-1.2745345850325849,1.1386442476677654,1.9171463500795511,-0.032463112803881651,0.11131382171765235]]},{"rows":5,"cols":5,"data":[[0.32760809463016805,0.304351951160954,0.16389021874524576,0.77569491006649394,-0.34691968253908334],[-1.4806773454296418,0.05847908670320786,0.023837229254524125,-0.33525844765567137,-1.02957474135442],[-0.60783577457271731,1.31721175203948,-0.30261714956012886,-0.40011097665360384,-0.65692919178253628],[0.297083547423156,1.4995035576058797,0.29529578726922218,-1.322691359902229,-1.1392540406034235],[0.090194432639695621,-0.37344363482023574,0.460214760370913,-1.1532830574186668,-0.28199328367701471]]}],[{"rows":5,"cols":5,"data":[[-0.1509436802116976,1.0220159299648843,0.25336536651638014,0.35978725006156664,-0.45353127200160293],[-0.8493066930215657,0.34854309744201867,0.24005979755027862,-0.60819398796853175,0.10652318818663824],[0.32543001128793814,0.38141394683081914,0.62064245375837246,-0.79273285696773066,-0.91954175077210232],[0.58178462600320846,-0.66134191399465769,-1.2277312405157326,0.2369386167464993,-0.44294213846669872],[0.12418771650053831,-0.23806153463160953,-1.1398346455591797,-0.54491874680660468,0.52665439862789043]]},{"rows":5,"cols":5,"data":[[-0.9001186531103138,0.604668848558865,0.33347485736674348,-0.994282822276467,-1.0372696818119496],[0.708441458559206,0.35363412333297578,0.23583210152612136,-0.9024365875233461,-1.0508756968302604],[-0.83630727834594454,-0.29169314020233561,0.19393641704860476,0.882484912511867,-0.759814931201466],[-0.25797550207801645,1.1781881127062899,-0.081183398571742046,0.60627262685544392,0.014676303275019179],[-0.35838015159204595,-0.43117230530256245,0.1302930567388372,-0.834583243261973,-0.26068400797028762]]},{"rows":5,"cols":5,"data":[[0.74786933437214831,0.65456182839905308,-1.8880651772966843,-0.801093720193344,-0.0810172678697196],[-0.28434184925771183,2.6234205058123625,0.39388542095121259,-1.4273320451633655,-0.56122234948668792],[0.19368421542518297,1.5517442766740093,0.18622098322869898,-1.2445216395705936,0.054346188170859358],[-0.60365164301228569,0.48703880379812353,1.1584312252713378,-0.46630836898449352,-0.68203639540535987],[-0.41013819668321272,0.251821292997266,-0.39287057451256091,0.360152073543734,1.5156221820542242]]},{"rows":5,"cols":5,"data":[[1.1183168391362879,0.60980289300382839,-0.32240527593929291,-0.0798708686134656,0.23189597089161013],[-0.847871108128733,-1.0583425343087571,-0.945571880552919,-0.81055641858780114,-0.18056032649757395],[-0.636970836105208,-1.1630472207526579,-1.7169377416007177,-1.0630459982510536,0.6052447008959243],[-1.0082275067413051,0.47567067048785416,-0.77792945440480221,-0.3796499335045917,0.27562001916183426],[0.86351041270875184,0.47604908890211989,-1.20938456018574,0.51322835991840532,-0.053866320555958296]]},{"rows":5,"cols":5,"data":[[-0.634253975028061,-1.0030198602949825,-1.2895102156475555,-0.46319938552213963,0.22002214360012712],[0.512085205948862,0.21573312386679402,-0.35659349950814923,-0.93812021587223215,-1.4449310477989958],[0.46805072633660633,1.0441593306198478,-0.48660631960490613,-0.5892293730453585,-0.58108210329907239],[-0.10700951194209539,1.326699915816703,0.92863750645671816,-0.439724687646789,0.86716226091826876],[1.8267049868097067,1.4598688802579993,-0.0854429931602693,-0.58298933952631393,-0.17668527191330161]]},{"rows":5,"cols":5,"data":[[-1.0493638711493372,-0.56213728776084682,0.20618039849355888,0.44935341004272628,-0.16116111283096848],[0.32029876155164344,-0.38023852534006419,-0.47913545326779333,-1.3142213504826528,-0.92818018876415054],[0.85314652531174906,0.929559096694242,-0.55204513942105748,-0.12459161006295608,-0.77675052369062769],[-0.51656171474650026,-0.24015808254219764,-0.80429900708409852,-0.81444926529046491,-0.37387921368942945],[-0.088442619018653149,-0.26275531766508203,0.17251017681104194,-0.546897720958117,-0.25652612144509462]]}],[{"rows":5,"cols":5,"data":[[-0.66454569383824647,-0.49133477231453387,0.2003339467551877,-1.1289886894809817,0.073823202614060668],[-0.12976059738274898,-1.0135290000562824,-1.0186046432717353,0.46454444651530458,-0.600686273096788],[-0.068908054209948569,-0.46668170240922491,0.88867254813752472,-0.64021108738762789,-0.86924703487512323],[-0.33714325062684697,-0.67891202813110607,0.80726204628138887,-0.50967498461412386,0.20410105149595115],[-0.66988465365246008,0.059529348623825522,0.535112263480616,-0.3001514972493044,0.76825612578719893]]},{"rows":5,"cols":5,"data":[[-0.5539348221135787,-0.17114918030224874,-0.78055378561130917,0.797267990935541,0.14309314897288694],[0.84303305221745772,0.045436324858792738,-0.342724225482023,-0.10600156174455491,-0.628562434792927],[0.26529592921565687,0.29005088566793163,-0.25214396188133104,-0.17885375234263043,-1.0732543830929635],[0.18082777165707617,0.52487548673181028,0.62613890415284956,-0.22281773598602983,0.47750495101923068],[0.88162339611264451,0.2550069314216632,-0.67895110668593306,-0.5785683873035582,-0.99137267573705157]]},{"rows":5,"cols":5,"data":[[-1.1131347371093754,0.10626355786244734,-0.031391067083682209,-0.025982831033926661,0.903147952749963],[-0.23401274823282539,-0.22184423872241529,-0.43440733716621011,-1.0618378439251393,-0.32750001143142238],[1.4432599514678783,0.84762234019895666,-0.60275134771350214,-0.766404336584774,-0.42616807506790066],[1.7696242842895233,1.1894116435575632,-0.019648852498867792,0.71979287545023662,-0.12256791838159616],[0.88615361229753,0.95852187821124191,0.21845421996563058,-0.49440102881840364,-0.860195073083881]]},{"rows":5,"cols":5,"data":[[0.28356748859773134,1.0631882545198144,0.29447824177458309,0.6476639013887473,-0.40489898216630704],[0.32878943406159145,-0.49072384114308787,0.53779549077886335,0.31509279591855333,-0.26353418478698271],[-1.0541863865050729,0.15028114490858438,-0.39544140321744636,-0.51422519009780088,0.2477793785724231],[0.35647096752394497,-0.574090783690092,-0.67832887697039068,0.826097253430139,-0.53878873339772781],[0.1039106229247867,-0.35966911992468592,0.21229369071702142,-1.1577211335490953,-1.0220952507036218]]},{"rows":5,"cols":5,"data":[[0.363628679109914,-1.0933736301379891,-0.19144217168657304,0.27104685423359276,-0.39424579072884336],[0.0570977352263184,-0.25947801227084971,-0.2166023720421795,-0.40801919959909572,-0.53712461833032077],[1.2580812662053211,-0.34184970595649911,0.35603543483627642,-1.2182441179146706,0.37817701214976346],[0.90642733942124964,-1.0436800429612336,-0.55949703394741157,0.47659244165805481,-0.81614911652403677],[1.4851884910998567,-0.52536364814244807,-1.1175385497619048,-0.57850178868370927,-0.14132574378691237]]},{"rows":5,"cols":5,"data":[[0.192700598933522,0.48883767118048282,0.0064389282165019527,1.4080725881389604,0.50375739853600809],[-0.88121466769944456,-0.59248844731864525,-0.38211409297084636,-0.16767724660091524,-0.81074743584933762],[0.042717961930363507,-0.94530060670204352,-0.91747727116748057,-0.23938657951594172,0.45254890708486506],[0.28266536915877,-0.012978049050729695,-1.1235284669030585,-1.0668129204993906,0.65308648334846719],[0.043347471195629129,-0.636570773588799,-0.93794210014961421,-0.680394155587054,0.7388967392936725]]}],[{"rows":5,"cols":5,"data":[[0.20389684831064578,-1.0407612442778167,0.58968349906975659,0.83758361741224441,-0.84621100216752],[0.423216616281494,-1.0740143395162045,0.9186673672663046,0.994151814595512,0.098998959014826166],[1.1851751273006688,0.9813695946145985,-0.45047330001943819,-1.0273584518424332,-0.73719937405085778],[0.77711411254350726,-0.48239490103699256,-0.093203885140744083,-0.867744782326307,-0.32583047782588942],[-0.55590052846087945,0.74736198780870855,0.92010965401468636,-0.66289492613455514,0.33855025202586336]]},{"rows":5,"cols":5,"data":[[-0.85592413292509351,-0.63678105542529118,0.86110855593876989,-0.0973338941949081,-0.57102340952302133],[-0.29252684163001874,-0.11995597495313995,-0.49035653393436512,-0.53455195588113158,0.68248589770340973],[-0.75636103994609649,-0.42873265733763849,-0.0708993260512601,-0.14335755122833829,-0.20703445482197241],[0.0048360946907024631,-0.69416178574559129,0.002119179213309791,1.0691232864610238,0.806120306008039],[0.82684967720004732,-0.025399965698129853,1.0049891229015038,0.6811745127298543,-0.65156888628797027]]},{"rows":5,"cols":5,"data":[[-0.31881637216759617,0.66076700576263336,1.2010437885231662,0.24213250596640423,-0.59511417136148415],[0.28480630826114783,-0.96954550779295345,0.48780600266597363,-0.22231693138803027,-1.2981091656000687],[0.41345828983920346,-1.0481782433669484,-0.53951821454625082,0.48443015074846013,-0.501118268734309],[1.1331387370059232,-0.25889356818185028,-1.2093035027668511,-0.73590279485045473,-1.0662226562665731],[0.046396537491289629,-0.30174217287637622,-1.2093486320947595,-0.094617753281914921,0.6734142044764525]]},{"rows":5,"cols":5,"data":[[-0.26276173522771568,0.19216062239917173,1.4549901628777313,-0.35893316596821706,0.63267267143177164],[1.1240578252828783,-0.75373570368976817,-1.300103566558803,-0.67100082908979808,0.47739431465367721],[-0.59717423887433985,-0.71805740330141765,-0.37274121234618024,-0.039175126057465308,-1.1450140253424397],[-0.94327127088810814,0.3788151160547088,-0.45852107473373754,-0.99573925490248982,-1.1015818377800555],[0.89225041365019486,0.24871751293273636,-0.077571923565038239,-0.050026685088636579,0.4589277194273032]]},{"rows":5,"cols":5,"data":[[-0.55067792074930055,-0.84412553010133251,0.6820634920562868,0.41654493364674461,0.610694606274271],[0.28447914908349869,-0.2644081005143975,0.25167811350672259,-1.0005071301806294,-1.0550264775390585],[-0.86052490322379427,-1.3394882302072153,0.81980829742661976,0.058989768736150916,-1.2650774078468001],[-0.741571421817483,1.2977395743355285,0.34944681899590313,0.14245903061432055,0.25779846473122775],[1.7319424321809498,-0.4158587580679603,-0.70331799116740024,-1.5379055131132571,-1.047861230118998]]},{"rows":5,"cols":5,"data":[[0.36270685158009658,-0.35537807832753376,0.9793784750120762,0.18030327436799473,-0.17784137454962173],[-0.30678008771299614,0.80431385494223417,0.24664957611767571,-0.33054028686902587,-0.36572451044447912],[-0.34604507152109515,0.36723637047499735,-0.40069146377359055,-1.1106688788786896,-1.3178458423296064],[-0.21629844009150767,-0.99987789619156286,-0.82635702182381221,-0.55580590212504621,0.36131305877287345],[0.39158771659667413,-0.68110249848893578,0.17695264298788843,-1.2488504955301,-0.75003303677889344]]}],[{"rows":5,"cols":5,"data":[[0.4781997319160039,0.21969380104697,0.87768032236925,0.36022126025638518,0.76158537288729655],[-0.55443601025523814,1.0065597482878228,0.067387417922969664,0.22910230993818836,-0.18846107175396731],[-0.066322779658932213,1.1483048042973592,0.64004407317341061,0.28730845079904804,-0.67126212109477734],[1.174947002533594,1.4546949813660679,-0.149287122723003,-1.486815373567876,-1.3841161165814151],[0.48183578063188909,0.040056072508419159,-1.3272549314684095,-0.57609928412249,-1.2768734598107905]]},{"rows":5,"cols":5,"data":[[0.037426452847698272,-0.0016422772126303573,0.840278086995469,-0.39537438274276254,-0.76670539420520767],[-0.46269992973253488,0.76716160681971712,0.76083754899460987,-0.2474878818340171,0.41282929553549458],[-0.27145621021357963,-0.66572676844317547,-0.16557044699778345,0.28005308897022746,-0.69572338407274548],[0.48273699830735245,0.45164242834982316,-0.29537605240802756,0.50233379022416547,0.20029660565187049],[-0.039867654657786564,-0.83622006884513689,0.32070472288128171,0.36273577488851172,-0.78758481567488681]]},{"rows":5,"cols":5,"data":[[-0.45184840174621793,-0.793379336079531,-0.33536694982737258,0.2035194634006518,1.3471242517785349],[0.21777814213400784,-0.46279826243075989,-0.43829769870676477,0.21601756359056118,0.15079552663456103],[-0.42420821077018489,0.81897345035448976,0.493909745578872,-0.38240664432016264,-0.34385618154644176],[0.55757170441862247,0.77831681844454093,-0.44565458070163605,-1.7314198095840561,-0.75509760167099038],[0.81213348365838822,0.0126427569737628,-0.38402491833006952,-0.49440491307291173,1.0350895032763237]]},{"rows":5,"cols":5,"data":[[-0.50436122904016978,-0.22175462209608088,0.080583167164925112,-0.27660349193457173,-0.842815550502064],[0.3356144446082282,-0.717136365278139,-0.7917130055892142,-1.5479638654230266,-1.2108655960019941],[0.17922936486271363,-1.1683463296753494,-1.7226156727387014,0.35280748284915037,0.55090655928227972],[-1.6782692355492213,-1.9070908273659948,-1.0261503378299612,0.87512962323139609,1.0777033750080978],[0.14774071020019339,0.54844603892901667,0.3981854031051773,0.48043377700864026,1.0472898328687974]]},{"rows":5,"cols":5,"data":[[0.320446121921039,1.2767931751313582,-0.13359456041509196,-0.88539699643853875,0.85747534506847645],[0.65248244022830215,0.56904459686379316,-1.1545795184716148,-0.033024756694725051,1.0303156463431311],[-0.60952666787526344,-0.63082240857957439,-0.43303074820379139,-0.42793936639639996,1.3244489310027472],[-0.75560952113820057,-0.91215565033909762,0.25574899263398887,1.0463087932169137,1.1508498874871245],[-1.1222342389271272,1.2280641873750102,1.8390053861112579,1.2958929244737956,-0.0844831941851394]]},{"rows":5,"cols":5,"data":[[0.049060749984938805,-1.0455816116638068,0.14046573902928039,0.4144775680525532,0.84775094736698031],[-0.18127717647323297,-0.27905436143292361,-0.42508990150587583,0.61003065874874285,0.76913557818954037],[0.41056842145364003,-0.40401798904012859,0.074000000679776939,-0.2216738994946677,-1.1412104749029446],[-0.31711155251115436,0.24287691727305091,-0.422925156094443,-1.6217718626643254,0.10706368321470981],[-0.83492483147222707,-0.41350280173655507,-0.51297441966385338,0.015481246887318103,-0.60421713491698426]]}],[{"rows":5,"cols":5,"data":[[-0.25914971242083623,-0.94191746836286494,-0.88558273038261992,-0.30273617980398715,0.16090056334137465],[-0.54179006863746049,-0.6146805586414289,-0.25040985867441312,-0.55564400125379509,-1.2580335333130361],[-0.063760305670629236,-0.753709065255828,-0.89774883850187681,-2.1316984064686877,0.27859678795003373],[-0.774596693962556,-1.8998881544710058,-1.3999535004831649,0.23431468124493696,1.6428410189909872],[-0.54557175643325551,-1.08406706038511,-0.81682084278499811,0.25034715948173758,0.46965048719662866]]},{"rows":5,"cols":5,"data":[[-0.021401224257105049,-0.78600377132939181,0.19181934639948858,-0.53078058739546652,1.0643828315239881],[-0.35780121243880564,0.22916489846586458,1.0781524162187384,-0.44798369381127723,-0.22196937244120732],[-0.92197640311783247,0.069196740294746456,-0.76775122475685587,-0.89161679257107773,-0.73552140314930226],[-0.63020547795940118,-0.082772007275808565,-1.0185720815001769,-0.4342442438182797,-0.8815412725185332],[0.42698999276513505,-1.6613146964149468,-0.66739754791834771,-0.85634934152087083,-1.1037447662002435]]},{"rows":5,"cols":5,"data":[[-0.46785210788832254,-0.88858376032867548,-0.15922142831189379,0.86958539230646226,-0.56828607106480367],[-0.83046724112494041,0.56246422391434037,0.075190960913111865,-0.53911242012703664,-0.31064568983216928],[-0.89877321563689572,0.18587731132152963,-0.49335789569497268,0.60028846890221654,1.926322050972616],[-0.5255438314432942,1.1941151915753305,2.1317260406925209,1.7432696622117223,1.4622258336899132],[-2.0266494985311949,0.15513608687298522,-0.13937471612540095,-0.56663508297424692,-0.71949151698013236]]},{"rows":5,"cols":5,"data":[[-0.57480228558669,-0.97147088841338758,-1.4088653067296051,-0.98658658291830681,0.11685758933173043],[-0.88852518878600006,-0.3751049700398244,-0.7992230326248756,0.2397828728014042,1.217904962234035],[-0.6930139834939133,0.62159768079790212,0.89566785742809141,0.12928733141775611,-1.3660362196215805],[-0.097395407560093364,0.20825437728299318,0.10596552878605711,0.17662988513682015,0.028993598976547141],[1.3052318523558173,1.7316030301294365,2.4932198634742715,2.561832879346833,0.45295544404120236]]},{"rows":5,"cols":5,"data":[[-1.6426391269469458,-0.27452428489349828,0.11367897440309707,1.0331544262963501,0.51509734360618376],[-0.25037867199138009,1.3713929654271475,0.59870215890981937,0.44498131301625016,-0.75150347975230614],[0.25459536521904441,1.3053002282368325,-0.4680336344879924,-0.36247720274605244,-1.8090990029071734],[0.12329140423068122,-0.099647745930510928,-1.2962807523470112,-0.63207901217841056,-0.33631103748732516],[-0.099541469474668118,-0.57212279575490188,-0.29240567458737055,-0.918872250120587,-0.23035088356021538]]},{"rows":5,"cols":5,"data":[[0.16674000398426231,-0.18007011579434232,-0.59769980307738912,0.23770863327870284,-0.7909091824048986],[-0.37445324009519154,0.21964347417234245,-1.2503443169929134,-0.950572272916736,0.47658304298119686],[-0.91509161536792938,-0.42375031160900045,-0.65946498310978363,-0.1766879655889905,-1.255115742928884],[-0.368198491938653,-0.43463250755995025,-0.099328643679943388,-0.23004201722790382,0.19258714661017107],[0.13084315043015438,1.1197743221201522,1.3649321401551278,1.4902288109577619,1.4542103330410412]]}],[{"rows":5,"cols":5,"data":[[-0.13526392049681671,-0.28221873747391696,0.72830279162484768,-0.74663118990194977,-0.924156863769468],[-0.91048945558120808,-0.097532855291365961,-0.44147609057705062,0.54794920131119929,-0.20471615221089487],[0.27338436013168188,-0.76861619961765437,-0.40753330907984725,0.75458719575201683,1.2925440088487685],[0.06368269067178714,-0.016654813948235078,-0.30379781035066822,-0.14112668047669263,-0.76930096535791115],[0.59168137871746229,0.73076856532001666,0.42737607247982551,-0.23717797989437964,-0.84101727112646907]]},{"rows":5,"cols":5,"data":[[0.00590659978345482,-0.29535867121195236,-0.21606040172880756,0.78236699469618232,0.44462480487081674],[0.73434844307921665,-0.59792610966277371,0.94715463470071981,1.1723052365234381,-0.4643765234685277],[-1.0325073385288011,0.77918419795546068,1.23583574561561,0.87164936382701885,0.5817069593203561],[0.43653378194452469,-0.031407368914556581,1.0288329564908845,-0.83847741267281684,0.0896311977082042],[-0.45207500154807084,-0.23967264145900061,0.62491138998238593,-0.18909813435401043,-0.85661108902508376]]},{"rows":5,"cols":5,"data":[[-0.96348523977400824,0.13508765457807279,-1.3201743812230808,-0.29608272636626726,-0.10614509740900763],[-0.11999394066327372,-0.19403547079515993,-0.43641995998810312,0.54529918224005169,0.580407511606114],[0.19536154829796962,1.0225341510354924,-0.22555067140769891,0.6870076887910801,-0.84267241084323619],[-0.2444020137790302,-0.38063244705308186,-0.24878454473689021,-0.21613689415944629,0.32414354158068615],[-0.16604564590585513,-0.64414542564845478,-0.38112443928966533,0.33412593339086466,0.81402873131311049]]},{"rows":5,"cols":5,"data":[[-0.030009750090502704,-1.1853861319204453,0.15620697519191623,-0.72778056066405228,-0.15823469912843061],[-0.54191644357231972,-0.26792854377570208,0.27167376147542843,-0.32622813712237375,-0.28371538982177724],[-0.43291642741985403,-0.8892795973832831,-0.92202698756517409,-1.30129436838055,0.78177406566054786],[-0.26997462813048745,-0.38915856981176389,-1.5699019117923589,-0.64685252347934241,0.261699257952049],[0.34342978006000718,0.060921280395519341,-1.3390561069128588,0.78740544497013787,-0.92559545436603052]]},{"rows":5,"cols":5,"data":[[0.69523960984664213,-0.96113950231027367,-0.2543327689421479,-0.3332428905166237,-0.82582234685559686],[-0.2267202860796162,-0.45951156728407277,-0.36663795184404951,-1.5251893559496179,-1.0831629110228953],[-0.26321090563182553,0.38418900256758853,-0.5699977888584169,-0.30468825805202787,-0.51286633450717956],[-0.618935418624067,-1.0392558164782009,-0.19001082174919945,-1.0204496676587826,1.6362021471018327],[-0.019872238612352527,0.4404253220506959,-1.2815859358180053,0.88033243549424878,1.2829015335718406]]},{"rows":5,"cols":5,"data":[[-0.72050670822727259,-0.30841442276860642,-1.1024388263714038,-0.72185664183609155,0.42571226634629628],[0.26018243303585858,0.84783961890992221,0.20188671063923119,0.01089376777151763,-0.67568637578686719],[-0.57956604359036334,-0.65700010159531153,-0.38179733799329146,-0.3534678604195185,0.12674367335195771],[0.70654927111489485,-0.023036941371740949,-1.0110635825970109,0.869554155509536,0.26209728991815767],[0.45380459840726922,-0.9719588934719654,-0.50906531756385254,1.2131939488946395,-0.64735115386754]]}],[{"rows":5,"cols":5,"data":[[0.31986024908468136,-0.41695433068448634,0.84364800727146916,0.663565549689918,0.020170991929840027],[-1.4659755701827446,0.74358554334551752,0.21971823691747136,-1.0079822945781254,-0.51649890177834867],[0.28662257483149739,-1.2151003649971466,-0.033475648807297483,-0.90389028329817944,0.34590239379944077],[-0.28888530810128904,0.77667669003802642,0.0157193407233719,0.34506704860110771,-0.53152734941362456],[1.4407838699015894,1.2986933561256142,1.3859211543519849,2.5027749029806681,1.5324886541429967]]},{"rows":5,"cols":5,"data":[[0.427502710693399,0.555945003805311,-0.20144124219187995,-0.51607559748275234,0.26383183279502126],[-0.95278429697175726,-0.864892547761483,-0.57843897374731579,-0.43752608893264755,-0.75764655649666668],[-0.69289671319305346,-0.98337779898616429,0.72093589426750027,-0.32541387123455395,-0.92540557095733822],[-0.70926730307475949,-0.7604220764046391,-0.53628692372031261,-0.87975168103299994,-0.52697949926849241],[0.633320597278498,0.69928072723413015,-0.629886938374029,-0.41133807332475958,-0.82076250287974661]]},{"rows":5,"cols":5,"data":[[-1.207407293943668,0.28508462671964935,-1.3124312954322932,0.27204652445490224,-0.57068356551770238],[-1.2688388986723644,-1.5156190386292927,-0.90546356562333552,1.1468710711884265,1.117664154279715],[-1.2704678101882039,-1.1091520179065781,-0.43025727384617418,-0.099095255023960258,-0.33647785726436863],[0.69374303103028123,0.68194110927266216,-0.23259989213511439,-1.3809538469586289,-1.7886355445682043],[-0.1206214981412617,1.1580464732940037,-0.22330457552256916,0.10159145177517864,0.12478330666484588]]},{"rows":5,"cols":5,"data":[[0.41505968743692434,-0.21059855003447947,-0.46304583336948907,0.088916960040567608,-0.53226018945886144],[0.29432716156504496,0.16470173170883848,-0.45863126603645543,0.0944309859182086,0.47169394402493953],[-0.65774442661529942,-0.70108517719831842,0.66210834239312721,0.36952497465215312,1.2316917338373854],[-1.1751101952041796,0.83618802261728375,1.3627216571949286,1.4610892572770902,1.63289760388297],[-1.0755741385025668,-1.5336953138872682,-0.422151531917249,-1.77845379627266,-0.94122316329568367]]},{"rows":5,"cols":5,"data":[[0.638306427688924,-0.60955761409944131,-0.54143040444180734,0.23882583083572093,0.47025821771821658],[-1.0600737592026863,0.5263232659506184,0.889922854779017,0.7610610108603828,-0.089173620088332586],[0.23962681276531708,0.11359324604885659,-0.35807604837606921,0.25187707294289757,0.48537536962640465],[-0.75171652938017719,-1.4333553965905916,-1.1420421136827366,-0.84582966016698313,-0.92163333538660508],[0.022267389378089222,-1.2954211017217521,-1.3721378165823264,-2.6341720827616468,-2.1888218622129711]]},{"rows":5,"cols":5,"data":[[-0.097326862604583855,-0.84737321344209571,0.13299882174873118,-0.25410145835575315,-0.4247230324157516],[-0.80449332784803,-0.10068674137411038,-0.60691551893931761,-0.5878108271833774,-0.27235767799376731],[0.14105538925877356,0.24563680024175419,0.94671399531248956,0.67826074655993185,0.78545523515282489],[-0.90177754257648635,-0.73749983960227594,1.078826212603913,1.1968394238322078,0.832417656539981],[-1.0365011514925016,-0.48220930305647913,-1.0509319888449433,-0.56845895228339083,-0.33499530222600093]]}],[{"rows":5,"cols":5,"data":[[-0.85998722479592082,0.48484732933450131,0.44016318331335735,-0.69380052510911994,0.08634314831062391],[-0.36852261161038885,0.37232737996455662,-1.0152026263684271,0.030967608247949904,-0.70710615429945467],[-0.80794514143478158,-0.3618063226059226,0.064175105124577192,-0.10050525281053194,-0.76254004808433629],[-0.29494446072844965,0.4094059891221456,-0.67093660753769269,-0.011322117726751676,-0.70251096046330275],[-1.2442222910048364,0.076690006718836037,-0.87149354213250185,0.12424195596385251,0.24609805391475517]]},{"rows":5,"cols":5,"data":[[0.75667863812627278,1.0044538996452812,0.78651692338014279,0.74328210260951066,0.717642749942176],[1.0033364591032656,0.83789234517667066,0.79978172667513792,0.89778434516432248,-0.38860934111652462],[-0.0938832063308545,0.33744944026553303,-1.1585786180661983,0.78956455003473136,1.3178287552369357],[-0.677898077778978,0.014767390272076566,-0.71888353767330915,-9.4567255936120876E-06,0.28007114203465372],[-0.66035450468500956,0.61028017568458015,-0.11329529408066905,0.3761214439121896,0.57599773576786284]]},{"rows":5,"cols":5,"data":[[0.35906880871572189,-0.7865298366135044,-0.44818112886248324,-0.84986642675742574,-0.36451682593580748],[0.692884746883783,0.26501213360255538,-0.39723115257605246,-0.27041328848190865,-0.10101770465070371],[0.62396436987373449,0.7162661097655928,-0.61730186418534438,-0.30628671941162267,-0.49737780028047485],[0.2661130758221778,0.28967441816747108,0.1156891912238853,-0.37088902199784562,0.41669183187220771],[0.061402804858416073,-0.090564394281201152,-0.22677586677357231,-0.046560184805681366,-0.85336958161830467]]},{"rows":5,"cols":5,"data":[[-0.40544817925746035,-0.44308150897037474,0.44845412189639494,-0.80279082890701348,0.21289879823317465],[-0.60615880655353271,-0.86568808000859154,-0.31099762272879627,-0.066076964967711663,0.4006737117555122],[-1.1355585926134415,-0.89573815311858751,-0.12256712319774461,0.40815537207709535,0.88437057649431072],[-0.71141584913953615,-0.26764838219115894,0.020680683276944618,-0.48575997941825971,-0.45058365842150483],[-0.42269575216323979,0.58646847741659514,0.45226975088233323,-0.065709172158058424,-1.2584339254329136]]},{"rows":5,"cols":5,"data":[[0.6272204764071333,-1.2637319647001217,-1.1297308702651745,-0.62347237305167669,-0.70484235926322114],[0.48097148676022033,-1.5896293979822393,-1.0570459327921822,-0.67294131339191443,1.434449502409022],[0.68160819588155253,0.0358335093771694,-0.21531481125328966,0.62412071741857078,1.33285558239975],[0.56959795987114126,-0.3515401195977445,1.9819181490012696,0.72406062798407977,-0.8112570593031857],[1.1984687550757365,1.6854892555697589,1.7784600481277098,0.11508000130593046,-1.1192152067885155]]},{"rows":5,"cols":5,"data":[[-1.1936536501761217,-0.43057002789360488,-1.1541766620057694,0.42633322870956414,1.2879189035348133],[-0.18560860810903379,-1.3438590450385028,-1.0775142270491644,0.66347316799916789,0.39784230654924341],[-0.79385476710915615,-0.49304168441258417,0.329063799589613,-1.0559614118297354,-0.582602135239755],[-1.35433377603555,-1.1513616884603177,-0.87371750847864427,0.11911882849449927,-1.4669011650235959],[0.55874222689122233,-0.444222784302269,0.91109223340745182,-0.59356541091112325,-0.20573641104237955]]}],[{"rows":5,"cols":5,"data":[[0.92856178654767341,0.35697881737951831,-0.23714435847142037,0.20117451082388219,-0.825692278784808],[-0.58529697029991312,0.24063153755916894,1.4673998927871315,0.46726029033987915,1.4692992808217715],[0.92927890492494492,0.99322006600587354,0.42147020456238343,0.68050775442626044,1.0036825308624608],[0.5706103161360605,0.1526093288605577,-0.43606873821699,0.83296671969784619,0.15318513268041228],[-0.088730683023938051,0.21779298422175533,0.37761813238741104,0.21484221269452089,0.88347017677613338]]},{"rows":5,"cols":5,"data":[[0.15455184614093037,-0.28657973985059615,-1.294614443869486,-0.32516239751249054,-0.74480987500225693],[-1.3533200583968832,-0.2630889328956143,-0.79002631621761144,-0.92982951415123349,0.43570375336711165],[-0.5464875544217872,0.019882237038034156,-0.42482168670698667,-0.57184640316115354,-0.49213676927829653],[-0.6634198002865801,0.066326559194837334,-0.34450350045361322,-0.56022425752625349,0.50939437522983566],[-0.12532833318521477,-1.0324344047710461,0.8384559677218576,0.436159054464685,-0.52529305819867478]]},{"rows":5,"cols":5,"data":[[-0.20267230837864769,0.56724112515503267,-0.77570815183566566,-0.50599384658738222,-2.1385676101538573],[0.33923087214887188,0.70767194188871707,0.13083206118705942,1.2033696339415174,0.78774244134238725],[0.904638675787676,0.62449749526560328,0.82469063299652268,0.29007685388575516,1.0624677416021473],[-1.43353312073546,-0.53169958200706569,1.0917240294280073,-0.58487857398917631,-0.24000983706250118],[0.26618469207889789,-1.9719389270799408,-2.5579640686551959,-1.3650272460059483,-1.598898522522]]},{"rows":5,"cols":5,"data":[[0.55651595850448987,-0.34903835624805507,-0.73306725745036072,-1.4954018114298309,0.048911987093957769],[1.0123417132000654,-0.21794396173177877,-1.0153722159555183,-1.2073809360150178,-0.54636449972661127],[-0.57349470888117915,0.15196483052984663,0.2423048949493144,1.2350484697822304,0.23132517023237878],[1.5540853091252631,0.34639131610599133,1.4630798798273712,1.0099677633287907,0.47732935908711172],[-0.34830226216995924,0.29446144260439949,-0.493615270210752,-0.48216872944515765,-1.4747240793045695]]},{"rows":5,"cols":5,"data":[[0.10956294025043553,-1.2088225086837996,-0.618423990593,-1.6808565093490895,-1.2788795378488549],[-0.09944720116378547,-0.064122081789019514,0.16633158336801426,-0.69347846012313319,-1.0120697772659397],[0.44629830803547521,-0.32089023676538514,-0.4421623104329076,-1.2983513603636152,-0.62621246930466279],[-1.0334668489774372,-0.940832639049179,-0.37384654181380589,-1.0985496638742531,0.59358010823005924],[-0.167438248346467,-0.44515229949940177,-0.79625923715127456,-0.85832584971537429,-1.7217910130163217]]},{"rows":5,"cols":5,"data":[[-0.42473145138480706,-0.63655665981905907,-0.27372391627804576,0.22844068561074787,-0.32324726810041254],[0.46946091618806446,0.036376109229200392,0.00081051984242922121,-0.75421460891130065,-0.61147464574049937],[-0.7433915208337124,-1.2099688128443908,0.89674599934599963,1.6624152261710283,-0.29738356555166084],[0.57203624120603058,0.8965851459780434,0.27468568101229879,0.81426120147267711,0.35615070667113025],[0.17510575490798677,0.96070439716545286,1.0279799340568576,-0.61982540231950345,-0.92889508754648176]]}],[{"rows":5,"cols":5,"data":[[-0.25208667962281217,-0.613901264966379,-1.1176236181658021,-1.57072370060389,-1.3949286554194733],[0.27222547805631975,0.21461559399123026,-1.5561189986752375,-1.0349891065080497,-0.19724642260267286],[-1.4871743355080522,-0.91118809284792868,-0.984197826277298,-0.96965110479158778,0.36660987226935055],[-1.4008125943432759,0.32663810177576164,-0.53542545697034849,0.39986285101288693,0.39581637023898059],[0.1409700726374292,-0.70685522925749311,0.33167650141181848,-0.27519451735524841,-0.91934230489641255]]},{"rows":5,"cols":5,"data":[[-0.95396811760216493,-0.8293488259741596,0.74029561020029888,0.013997895003534979,-0.75803409841753666],[0.32397233550656035,-0.51899711463291209,-1.0366469622697756,0.4679611331110593,-0.64675751315044661],[0.40698673025813265,-0.5369020081423358,0.31967635660461358,-0.83804016616193977,-0.21568934488873495],[0.012147753548134195,-0.65088041390353923,0.52888732740468836,-0.44783924871445718,-0.076969554822143627],[-0.86553983595914541,-0.26446310120330546,-0.35497202598984323,0.47018043521102837,-0.11212224092969196]]},{"rows":5,"cols":5,"data":[[-0.23045541342310894,0.46280794765733785,-0.76836732058141932,-0.246836724707587,-0.055071912900285576],[-0.46833351383341326,0.083817753728331459,0.32070527696037149,1.3146871997104443,0.94178010617130659],[-0.16883119067792876,-1.1232227591199131,0.41551923656402745,-0.28626686653492339,1.1926705664121753],[0.59074522862880463,-0.044708820602611832,-0.49814129964221948,1.0383777581102305,0.95367698766025588],[1.4669218763258605,0.324952215720988,-1.0534840042662168,-0.52103375008967845,-0.43601474220711739]]},{"rows":5,"cols":5,"data":[[-0.40779738808050625,-0.73684476933459375,-0.047884122987833878,2.06621117053582,1.8323321689997865],[-0.026911368919984135,1.143454591549784,-0.39220207579307514,-0.35607068050087975,0.98968930068699945],[0.1676462681348177,0.1944130414382112,-0.11838565365136332,-0.86947390481279674,-1.6934883725381302],[-0.0418925443680696,-0.45358764656095174,-0.12389528892413108,-0.83149560964080571,0.54415849674223749],[-0.032494082361607751,0.1506155976409656,0.34287161266650551,0.67827204746820113,0.49716693047076826]]},{"rows":5,"cols":5,"data":[[-0.46896803401382808,-1.2459415494079262,-0.51034030935103947,-0.34396323811126878,0.53876799354287386],[0.33291351786667384,0.49194104351883527,0.46182310473750343,0.71741765667890645,-1.1586135695122919],[0.96243336988593486,0.10887922299007109,0.82384160363606651,-0.930812257812491,-2.0090798376539341],[0.58563286182545216,-0.97786173600662174,-0.19240182077701726,-0.72242263187044053,-0.44717643175825356],[-0.094966824341861156,1.3472093666685225,-0.35369060503306432,0.99700608360770682,0.38666343380104962]]},{"rows":5,"cols":5,"data":[[-0.21615014844632804,-0.194852599495213,-0.22729981992703657,-1.0859915921575263,0.44997440040483494],[0.26302480002080131,0.002125509962529637,-0.52707865200703241,0.63833824515778281,-0.70801914555769152],[0.12468810964753561,-0.36909748650711866,0.70360325712387473,-0.22118563506433525,-1.219913963924057],[-0.57509547489731372,0.49681411638680162,0.15047679033795941,0.9999162334121624,-1.0436085098775276],[0.59781626503051488,-0.019374191368741474,-0.23312432220135226,-0.080504972457535573,-0.44948036869516289]]}],[{"rows":5,"cols":5,"data":[[-0.4314580920741255,-0.507693089827072,0.73604941750970843,0.093248927736346757,0.43549743848528227],[0.22916529368615149,0.41059769267270241,-0.33169577426962193,-0.39163317308166351,0.61492542914282067],[-0.085802556582896844,-0.94980958692952511,-0.28877636459188866,-0.56535731118349564,-0.65027840266372483],[1.3291852981999794,1.1131997340216493,1.1332471519142153,-1.1236118066775243,-0.073039240730661772],[-0.024091510893035514,-0.61206713063142437,0.87020671591172782,-0.71581993729507665,-0.40359978185119538]]},{"rows":5,"cols":5,"data":[[0.29149947997330738,-0.50203846929588036,-0.94548595501652744,-0.46370099425361044,-0.867068877897507],[-0.72578830469572142,0.47530229352386727,-0.479402488460189,0.62074795207083,-1.1325072912605949],[0.022495873940820716,-0.95546574576500432,-0.77701407195748973,-0.39649112976711492,-0.79350927658812809],[0.50067468846017227,0.39179176155757978,0.48805819703786724,0.15072362827776734,0.58985983616911075],[-0.59025870173506023,-0.91175647093748768,0.050048513713682137,0.82033080990234386,-0.20152662690608866]]},{"rows":5,"cols":5,"data":[[0.4307031112973822,1.0117080078700051,2.0996298399646274,1.1270435779058148,-1.0878772456413115],[-0.94710342704488582,-0.9244929737532388,0.63902528832483674,1.4990491121119749,1.2919631761736343],[-0.56059219402082439,-0.925660869339301,-1.2208462498296668,-0.80176656389122325,1.2696493390389085],[-0.43440830721814583,-0.70942072608267726,-1.2243183475352204,-1.1818498670109252,-0.12107945688061743],[0.564004003158714,-0.469017088000108,-0.53263865760611717,0.0683454497477972,-0.19471324161635434]]},{"rows":5,"cols":5,"data":[[0.36060598777603065,-0.36182492226625623,-0.49302755292524147,-0.688938032246437,-1.4950129137167521],[1.8543197127595998,1.8243442867986517,0.91656558403143962,-0.8082969621244237,-0.71771858217593043],[0.29528274731021931,-0.42099011165934391,-0.7615966868558991,0.43110996221347109,-0.42654845275192332],[-1.3813162658238194,-0.71769300493509969,-0.3194158613941967,-0.072206011411021662,-0.2935787835494415],[-1.0439903699285047,0.10321254854778555,-0.31669940811835356,-0.12671692348000668,-0.55755949946562322]]},{"rows":5,"cols":5,"data":[[0.38238868279817478,0.41690728186883047,-1.0171120425957263,-1.1451790209923936,-0.540327666698087],[-1.1336183262227566,0.030144695906294667,-0.095714385069181257,0.28651262082419132,0.41003919049972071],[-1.814394538951714,-0.66175812470562179,-0.676419471944809,0.031615381551215016,0.22582963751116239],[-1.0032466398410396,-1.6961804120650841,-0.2185550207029518,0.81504791701117441,0.16321839866112339],[-1.6634086643067,-0.60888170668572217,0.22489755966236091,-0.15776700900454507,-0.16590571047293176]]},{"rows":5,"cols":5,"data":[[-0.38113070211943262,-1.067244670173058,-1.614370711725831,-0.56896899329868944,-0.55410054911183726],[1.2539137005564263,0.95008084302750417,1.6226010635446524,0.032849738113516574,-0.89181607396175466],[-0.829742853543806,-0.66659895436685346,-0.47730258177338991,0.44998108261294595,0.79606623070455362],[-0.068195032973080577,-0.61651963654242858,-0.76301624296519233,-0.032003234837078731,0.23050993406569037],[-0.92021879703159526,-0.99490969098343074,-0.24040236020110634,-0.16201527729290632,1.0395820672479168]]}],[{"rows":5,"cols":5,"data":[[0.815212319027543,-0.26546136264146125,-0.020590676633124541,0.74805551879160159,0.078072461828492215],[-0.41660537133325792,0.24603888714819772,-0.1446624257077764,-1.2546332641368911,-0.78836439229824828],[-1.2715824528541062,-0.16628964443012617,-0.86596637522786113,-0.93947858530117534,0.26514785950932529],[-0.83418230120378223,-1.331767682856086,-0.97610643606721492,0.15345704485208195,0.90387123309807049],[-0.95087505210495493,-0.81838224053064457,-0.028689699190905183,-0.96047482193786315,-0.94024525245325818]]},{"rows":5,"cols":5,"data":[[0.15969048824148252,-0.81858783549358238,-1.0387786917886555,-0.7531074639956099,0.50903677202782516],[0.8162140164720697,-0.25617804534324085,-0.11944525297477546,-0.14625563640835185,0.19778122640974261],[-0.53737320850158565,-0.577970987289648,-0.65059214806436549,0.63744223516502785,0.36995895014484953],[-0.46797629627522713,0.63532989016888186,0.63204881461744922,-1.1941170539152204,0.3959888355115887],[-0.792286340349957,-0.90070381113939879,0.42669613997424222,0.1432060926785598,0.80436942888275142]]},{"rows":5,"cols":5,"data":[[-0.43794062384684906,-0.70413299087719761,0.00044409966777513672,0.74644238783562678,0.84910103237291845],[0.67840969522420447,0.54270112069060494,-0.2866482330009274,-0.62715518961888439,-0.927906497213494],[-0.58398410006285417,-0.029830139470890138,-0.61300512735932711,0.14847985715328191,-0.98033008056063353],[-0.57356403415638768,-0.925873150340701,-0.69550971068602829,1.5531195061483725,-0.22807133768867649],[-0.64998586157671767,0.89692551448290969,-0.79178577031300768,0.04524991644704119,-0.71690305803129006]]},{"rows":5,"cols":5,"data":[[-0.8545309514947842,-0.59986576703572647,-0.52929871116276639,-0.92019628435899437,-0.98303975374422281],[-0.094538346993152667,-0.36543456163502164,1.068558523471971,1.4713117148510897,0.18227308521847493],[1.5338759544986287,0.47178953301008086,0.7431295300304499,-0.39664261733761708,-0.3132783550230353],[0.76187797447894068,0.90204698121495319,-0.099466536893176624,-1.1346914887762079,0.3559705085187983],[-0.25678399758294684,-0.22144353137518757,0.14625831761076952,0.611690209112855,0.22207472876112944]]},{"rows":5,"cols":5,"data":[[0.23785888619628595,0.502812052311246,-0.32427126294214015,-0.10265647855393209,0.52675815251940317],[-0.65855654883270509,0.0046912423279815,0.78335818805079482,0.26722318405212536,0.294776929318988],[0.046478982373267579,0.1242253686088137,0.84700190687954924,-0.32746290949528006,-2.0973450221617673],[0.81208356202481347,-0.3406175799173104,-1.037070508199532,-0.46506222794200275,-0.383405633140815],[-1.6239953820271715,-1.5792245139913008,-1.2081588223565278,-0.10212935219736494,1.489473830870949]]},{"rows":5,"cols":5,"data":[[-0.39911916320415941,-0.58182964384385638,0.77064347113038845,0.15641080864108664,0.48447023464022904],[0.44580445932701707,0.24567905548691441,-0.031696459372077594,-0.37727726428411434,-0.18376528809978138],[-0.011103911378071128,0.62271349645056251,0.5458259182537295,-0.82521552767738482,-0.25594259317151113],[-0.18899912755320161,1.0392128681557689,0.19403797590851979,-0.35794425157466486,-0.27225629597212686],[0.54969851603835074,-0.62798420551507539,-0.004127207916871484,0.18646951904883566,0.25665728025673257]]}],[{"rows":5,"cols":5,"data":[[1.1542486208570739,-0.66368362104161771,0.40934838140495838,-0.76830994890977544,-1.0791186088800773],[0.23713627047208891,-0.68494082171657522,-0.77892591203923289,-0.95945952737752116,-0.34751161206279996],[-0.703535634479581,-0.056135346178900022,-0.2862854161693531,-0.49850417063288321,0.30291010021371978],[0.78484775483032521,0.2785973813926132,0.20406356367904932,-0.47581341446024655,0.130521971335427],[-0.44642565153103125,0.3202157988953625,0.3686925494388773,0.21525233218669695,-0.56479244028140529]]},{"rows":5,"cols":5,"data":[[-0.24434961325738791,0.83753638267968888,-0.960926856661759,0.20985440308460415,-0.56405301918560191],[-0.88527816638442758,0.61122230111302422,0.17821779432417628,-0.12992498796209487,-1.1832950612106792],[0.38031538244852992,0.43840429962164779,-0.69495855017516051,0.011607978257655492,0.050457707037240417],[-0.534158180726346,-0.23016608316809237,-0.17153845810998536,-0.70402088901471183,0.48277156019301148],[-0.28954441145475307,-0.40324065877673609,-0.579300142808769,0.56469412965701427,-0.14806159301827288]]},{"rows":5,"cols":5,"data":[[-1.1586433867254926,-0.013273527825346737,0.33390239093545865,0.11093596799295258,-0.43670345559151591],[-0.57395806982408115,-0.34422637635774006,-1.1085437895619157,-0.65500650471249378,2.0355650900703171],[-0.66362693957289864,-1.255611322491234,1.5088993450018051,0.75965201248592729,0.30452756824780691],[-0.51335555585894754,-0.6176626446896718,0.52683220595643265,0.24192046647566523,-1.1278373701744937],[-0.74885701488149781,0.38216250198987195,-0.70292285512478037,0.16242068766200615,-0.693617208826634]]},{"rows":5,"cols":5,"data":[[0.25110974330841346,-1.12647111428284,-0.08097568054141796,1.3763091519132158,1.3032753210240482],[-0.00870324158122593,0.49070603372747978,-0.034832675309900626,-1.2732898187416695,0.38506975955823691],[-0.54543817367308955,1.09662522623245,1.6331904410675182,0.27764970874644723,-0.14382425815908448],[-0.5768742816054937,0.36206930830488221,-0.43776208846707604,-0.10563679497522349,-0.9680705598900764],[-1.0667743334883912,-0.31598541240497358,-1.0473276351182057,-0.050132711365395211,-0.74484846217360667]]},{"rows":5,"cols":5,"data":[[-1.0118060347349986,-1.8185287490301296,0.25569180636039474,0.42259055333698614,0.18443745280136026],[-0.23004818492362666,0.14592183912435255,-0.080186114646280282,0.35604711991120969,-0.081635167056851934],[-0.97059947291141613,0.67628831396820011,-0.074781483010878586,-1.1761106842503148,-1.68867053014326],[-0.51610063064575906,-0.45056341268371014,0.29413408923049483,-0.45430449689714753,0.68838218098712034],[-0.89361240014031984,-1.512738582230883,-0.47776913706398927,0.17398366192507045,0.80665901487120961]]},{"rows":5,"cols":5,"data":[[-0.87122088486616656,-0.46392636930054681,-0.16972735625700181,-0.3424191736354617,-1.1940976668786099],[-1.5916258293086945,-1.2177502864838881,-0.099711065608937124,-0.5772797085741368,-0.082010603717358979],[0.338792585166285,0.64693577867074425,0.23080336912192714,0.70290077066741141,0.02813463042921658],[-0.25643698955376276,0.1506385317744191,-0.64425290278511116,0.88367374781122654,0.55865198062643362],[-1.1550822441101936,-0.615355056358624,0.72756412882484311,0.160648820249813,-0.095313875849172822]]}]]],"Weights":[{"rows":120,"cols":256,"data":[[0.52133228157936407,0.74424420089324328,0.32299009110782279,1.4546190187864563,-0.23974674230990817,-0.90195389461694975,0.059017890536284472,0.55262715023042719,0.75085696644092814,-1.0715130366562982,-1.3315837851874668,-0.15274286568235579,0.94973142013253631,-0.70564322557281367,0.39788324930092239,-0.78423826329707347,-0.83244828555085437,0.27325290439453387,0.10114665621386398,0.27325394028483929,-0.39837998948519171,-0.84326646738453481,-0.19382187414676919,0.64435751571447963,-0.49765866743169651,0.087631434054809929,-0.070818051399186233,0.81879132052856607,-0.8191596094659076,-0.44188048260677115,-0.017876987131542989,0.15605426175134507,0.76011945358238975,-1.1258358102085642,-0.097665465477419056,0.16815278672182102,-0.61035154228931288,0.55898045512155037,0.10479288090556642,1.8402288108725076,-0.23592202791140904,-0.16009453392852963,0.091986960804821966,1.0056903711377594,-0.51301218105429813,-1.0340278868950061,-0.84237066959393758,-0.42453889602274991,-1.0485336998596742,-0.85908146855135892,1.2697929396980145,0.49825087712661886,-0.0025095198695229124,-0.23996102298629887,0.85076474613895,0.39175441646584813,0.066778022238135573,0.21040156801926288,-0.25983902640875728,-1.1900045421136523,-0.49953799413353689,0.83182970930210831,-1.2064504748079534,-1.5890963842218318,-0.740272872877669,0.15834651873202235,-0.16262230812541995,0.89378796764526314,0.46461852344825788,-0.29021267278790491,0.6656596540619365,-0.097588464305968653,0.076217458523446982,0.474026812646336,0.640522807027288,-1.5521793353009905,-0.73737888765963189,0.24104825360481602,0.337971811066658,-1.0752934188612673,0.30561242388002019,0.40550702331425226,0.397044693748527,-0.45208976098935449,0.34236321630595473,0.13695104938437711,0.8759394265627759,-0.054622571444134418,-0.417321782613752,-0.64284237640713071,0.56511435770658591,0.55353464242513084,-0.47101342900174953,-0.94750694055830287,-0.17135019652163408,-0.20259531633280553,-0.62446601160618587,-0.092662275034418568,-0.38510113730808959,-0.15334343248221671,0.55961215563679179,0.1738148727805551,0.25568810026221905,0.33989621847801732,-0.19612398051731075,-1.1450225018800764,0.60476011335570012,0.890463065531542,0.36299402745231668,0.57670850227615955,-0.23785883966533505,0.92456388073691675,1.112707199235635,-0.73098378251715868,-0.0073424483093243549,-0.3370684441213076,-1.0880019745662453,-1.8623972392934016,0.17547945948357785,0.63598877632957518,0.11712178718582529,0.44630193623981856,-0.54885684166740556,0.1751686109668511,0.23892856555775205,-0.47355354225719182,-0.86991866262527762,0.43889854267350303,-0.89576947503092663,-0.67245947333810585,0.047810341104121017,0.037813928111132641,-0.533166591548301,-0.625037732938622,-0.1416082675996754,-0.44850199786459694,-0.459349749314721,-0.88069021276576476,0.31115875980737756,-0.26783577993385843,0.33884736086114287,-0.40161619684122046,0.56762083805716179,0.13366805059407788,1.6861747928133757,1.3901622341001663,-0.60270358446538908,-1.0056503050300298,-0.075586406990642285,1.1000815815807963,-0.22785288255744626,0.19116081637545163,1.3202264356387181,1.4485493943733097,-0.76613734967062319,-0.93700074921063847,0.36558491883263466,0.65491155187478478,-0.681338953055704,0.002378416040423984,1.0062031881144053,-0.37530491215947648,0.016530229766442781,0.12356038974336502,-0.33538604897586388,0.90582037883034616,0.54524371812878247,-0.13649801760600563,0.7568555636350035,-0.31574805480224,-0.57038666963591667,-1.2064163417107146,-0.10498694590430541,-0.11612470077585049,1.1014536376162685,-0.52818608380747,-0.53968294400051642,1.057325606138821,0.76109783211361193,-0.31701998228372708,1.2538634577359047,0.21704067168049004,-0.80822506340499412,-0.382746654260758,0.36494804627676186,0.0015526610541822718,-0.61335247705560869,-0.54438592117235407,-0.00073257905260990506,0.14390709142115174,0.28541041604840317,0.56750060485263343,0.991913569078031,-0.619105514297265,-0.28328830722108927,-0.12058120879340638,0.57710033167387986,-1.410321976714106,-0.61365029471634447,-0.22345803249085849,-0.77579093856593606,0.1659127181204407,-0.44125780956613797,1.1007556466256598,0.67534664402399081,-0.25725509272404717,-0.38291930647431477,0.013214829523998889,0.42061099508634653,0.42541905919370454,1.4169473661776906,0.054839273982071779,-1.01369545154285,0.012589321667562386,0.96581603949917028,0.54850660220722891,-1.3701019488296378,-1.625948722231886,0.3004496400588289,0.49886383066487089,-0.96672063914791539,-0.71774873226999425,-0.20994540807681733,-0.27674755784103039,1.0060690114261257,0.098973045964628165,-0.64874781162022455,-0.35757614873880572,0.49878494766249648,0.48152835342086919,0.61041407608777276,1.1908791675004484,-0.1776885392143073,0.1611660302605491,0.041250334369284915,-0.24320870111108842,0.36302468215800093,-1.3426315376495863,-0.11160038218544156,0.066400859289511976,0.20468908247140569,0.64076474245960136,0.097604958507391121,0.17111620306931108,-0.65964078320205688,-0.69267329817958645,-0.07411031379792142,-0.11298594105726291,-1.1366346080966903,0.36227327319118724,-0.41529213430141976,-0.1046976967381428,-0.63825112160443087,0.36503973099564929,0.60638699249958061,0.5757388714633831],[0.93709436988347028,0.74939332425869709,0.943763975538066,-0.58687083817971186,-0.76999613900461539,0.93424061773765321,0.68633615066748388,-0.29876277628166031,0.434116646902458,-0.99030216909699376,0.056801137919730446,0.26988637331916343,-0.6843903103873703,0.044392284880649044,0.67954051972776963,-0.7667928788574877,0.19401430154590479,-0.573770738255175,0.87802852195209646,-0.12533842105487911,0.83698252234660186,-0.83220576493789955,0.90942676748904272,0.371816558232516,-0.63679603758115122,0.61807452494551862,0.80380697937342849,-0.64804684421705139,0.3435841282407604,-0.24487099954265706,0.098469357721705009,0.676630578198313,0.40333339852768774,0.51320470666663531,-0.41650206556984515,-0.883947268935873,-0.4342687765862272,-0.13735421171224968,0.01290560723207501,0.47845477057814656,-0.74696248556941447,-0.5220355114648535,0.64266714776618217,0.066486951028494612,1.0187960922413677,0.90541914558229841,-0.183369522380935,-0.84215125348873954,1.00187534822684,-0.81928149571118258,0.89701608362704011,-0.50055409128865225,0.68476528064543118,-0.053591471008107246,0.70985933039652038,0.90552278008989662,0.88490996514667652,-0.26481341617253329,-0.83241808051036215,-0.5383377446373655,-0.93949536458245764,0.30385113206497427,0.43025598935057285,-0.19695868239568234,0.12344336948211616,0.19381406182631217,0.83766897591757372,-0.24371753495484133,-0.72564265575354447,0.36814575420211826,0.607477875596378,-0.49947793768530535,0.43212870036176715,-0.39329969677318022,-0.20747991363828383,0.41082800462060354,-0.59062667228420551,0.050463047170112879,0.37015357117807857,-0.53066851320736463,-0.14167587103728804,0.76163936058819326,-0.65473411091515843,-0.027711840050492209,-0.12384439390655282,-0.56177810657728122,0.96294461344032312,-0.44228009271852003,0.762977659726524,-0.33334673817499749,-0.7533900815753779,0.73668212069377925,-0.41192941271357231,-0.56975851068856176,0.37532928818672762,-0.16873664702876115,0.2273013197449972,0.0662769153395076,0.92591104757136111,-0.14949295572559693,-0.77663600078258588,0.95618110322504235,0.88649600557230335,-0.093569903712520858,-0.34912714894525604,0.42696650159575045,0.16702217751293821,0.32110893696479875,-0.754175328252403,-0.58016725392205226,0.58713967813658763,0.082256464729792658,0.5473777441846438,0.96415080507965834,0.99132294624413342,-0.508817459834823,-0.00085938840971474064,-0.34977403331200868,1.0838502015690812,-0.17741495065584764,0.38148515261329707,0.4624709650298407,0.039792771141108789,0.651463797569727,0.49688241717143067,1.0628068254937924,0.96422829390615172,0.083766452475587158,0.34777644217153925,0.968929715006528,-0.61515396384460985,0.61325045738763129,0.2864624896352963,-0.45912012920133827,-0.53848795282105133,-0.044662510894321085,-0.98165969947093645,0.70989033624010378,-0.55868932124898751,0.53948389929196872,0.40437014908244173,-0.10140443709544514,-0.69554210184755716,0.50987467883548621,0.0500556726040838,0.34233148727767937,-0.61795145503808546,-0.11192915499745824,-0.26517683409266546,0.0054855794290250811,0.93389490164454647,-0.37088644696257866,-0.038053141257210592,0.1295278424212539,0.55941757848350848,-0.3349121417748111,-0.011552588038414774,-0.88864759473565136,0.50475640784381637,-0.27397870252423689,0.4412380358018535,1.045526653278505,0.83050774790573634,-0.69849847190998193,0.91997315249064116,-0.93457418986687879,0.70497837865352153,-0.099328635904545,0.3194653500556392,-0.19514753852949968,-0.67102086574784847,0.254848527188346,1.0031316119985116,-0.55137418576838237,0.33493195063498965,-0.61787976018359525,-0.019650218988845072,0.4798822465761719,-0.22571208216789804,1.0644301967881231,0.67897092560855155,0.19091069534995409,-0.34613970326334875,-0.65744572889835784,-1.0043893528353247,0.63447075636098726,-0.41063893990036543,-0.81308503109870056,0.14270168989992435,1.0339586065384134,-0.77572528154292553,0.98120138577340277,-0.7202427950107243,0.731522322306925,-0.83490826139070662,0.45959644791891724,0.00663325138773978,-0.76035893987209036,0.65404015669109916,0.16917962324431485,0.72196026607303243,0.60063626312710294,0.62609112305516268,0.92763259285857724,-0.11457694240273715,-0.17825509239575524,-0.29315694787136481,-0.30372421307731773,0.77068436992221867,0.25384755608073878,0.62798484419796152,0.4157495293592044,0.55722938064874283,0.70651081609502309,0.31369895985211638,-0.27043080361570077,0.64612538469288427,0.72203785586457492,-0.739327045246887,-0.87283212494344919,0.47401295456049153,0.53276092519466833,0.94414254868830849,0.47798540276692031,-0.18570855971962028,-0.6747012028716084,-0.024059852007134196,-0.66491647170336188,-0.7277522797692908,0.95907166952392719,0.41664026933715448,0.057894234644580156,0.94799218839592514,0.46949912832714535,-0.78067310346616547,-0.82931598618644775,0.54367844955241551,-0.40810177628821515,0.60927237376419685,0.44674251374831775,0.09849853115846223,0.95282364583691892,-0.64107503548566558,0.81543233113277758,-0.8669743303509847,-0.35798667588631294,-0.55986591176201073,-0.40775931262496207,-0.4913980108543104,0.62700023402691163,0.815834626590002,0.50586898743356545,1.0213426404380266,0.41861292602388722,0.66660848021322638,-0.85041487324904452],[0.98726437360365837,-0.69467999342316122,0.13307445503357104,-0.17661218831800318,0.97707868165283629,-0.87604518417515886,-0.82221832703445952,1.4544797376838476,0.451234285980456,-0.811246489327359,0.30276953584024852,-0.19671837315555318,0.22527123803699753,-0.46794856815355257,-0.38501631080836679,0.34451810422710349,-1.3233488574722958,-0.73524327638436593,0.061371744788166184,0.90712793841698514,-0.33568579694080175,-1.282398185144636,0.70022260561444016,0.21899206763692847,0.25523229732287261,-1.1320899991715288,0.88858423152798816,0.45446479368688836,-1.6077568047294959,0.311306438290447,0.1367414749422084,-0.23110538145149812,0.63096630024970857,-1.5765050197415449,-1.2443004659327672,-0.1057193707249853,-0.052354629908691976,-0.11247812498846581,0.8031034389604732,-0.13169580898226835,-0.18974281390879857,-1.0596441671941965,0.86194166005760464,1.2773188650609508,-0.42109356242340695,-0.51654777691386766,0.40056203485708092,0.067455977530795588,-0.38069748882967691,-0.65812772519657681,0.38303806893647785,0.15273225266904175,-0.72363574924426544,-1.2510375085375289,-0.14507689431298126,0.72565689457061633,-0.28933574564427822,-0.28380977509149696,-0.95116355759829663,0.53350168674869525,-0.39451545173529362,0.73726971737094049,0.3091008621536892,-0.87931384122422063,0.54471147069891723,-0.10027498313276022,-0.82111423718420817,0.954346188620812,-0.1603072836831746,0.52081689899754113,0.52218868833565413,-0.16696423764649371,0.36190623725233267,-0.72518096975622282,0.73713403236467767,-0.79383888975939221,-0.68660029761860375,0.86181048357417878,-0.051696660713982989,-0.011848909595179431,0.41770904393072561,-0.45486673448698978,1.0625941512684867,0.84859033053847455,-0.47319087863115139,-0.86766538901217982,-0.65524648455586321,1.2222320919727214,0.20069080976562947,-0.15553227270399694,-0.338004884791497,-0.17606358416403306,-0.27471177262197166,-0.69994659375834811,-0.397295601614795,0.7586404710149236,-0.83270666726644071,0.1024660476353257,-1.029402476633869,-1.4894852194477006,-1.7425175789775551,0.40587864880787816,0.44837547787036092,0.23118938925016003,-0.73863941359884588,-0.30006130438989476,1.44933802087517,1.227263298991762,-0.66481393228930263,-0.065239894410682356,0.855346923959321,-0.58436207713724664,1.2051565853272674,0.094103052098113177,0.66094195804845912,0.069900590194537149,0.388749005804821,-0.84244521677444517,0.026919022709452824,0.2414432235969193,-0.20934779493680961,-0.69017542245959651,-0.88501756448870439,0.6575073640272292,-0.42181829269801918,-1.3044927484757023,-2.0158688511378249,0.044137065878592868,-1.1886211940845068,-1.3378192576269512,0.92729375635790079,-0.62629803442004151,0.7302144465645346,0.11453359202497448,0.45598629732360491,0.96010990776234417,-1.0562656057747477,-0.10258905097318559,-0.66306516278275718,-1.0548298309541038,-0.2514661130101708,-0.4413940881066864,0.59293745586125235,-0.18456270687746387,1.2938765044639915,1.4862935497616434,-0.07398711857127975,0.84906159847793783,-0.084894538874700817,-0.20809535346431227,-0.83325731995385777,-0.58287067896754308,0.089202156255149476,0.53841468784228941,0.086188708374649675,0.66114221002040763,0.059360641166537463,-0.519319276553761,-0.8405793277718896,0.94391086497497312,-0.50961497221569774,-0.30244259786191663,0.42461448499310839,-0.86148345728231246,-0.49248014412214819,-0.20740738616662013,0.13938217613010173,-0.4969199968859791,0.20563830610282596,-1.0257462897456429,0.65855183774832449,-0.17909041324335584,1.0300919038394389,1.381997116144692,0.117026328210571,-0.84075489031498718,0.66990662763621422,1.4936503506235441,-0.22957096713333378,-0.24972240016087871,-0.0405272540080795,-0.38187554375419125,-0.65891120130894265,0.375935541572663,0.93412207746239562,0.23040681595387136,-0.80978565070413511,-0.032068113493613638,1.1153676054758515,0.56709178077481659,-0.68825831442844221,0.74053256230480191,0.285882993652707,-0.63084077946267791,0.61057073166458442,0.91839385298417653,-0.021771656167926902,0.31648029807322509,-0.57497365315298421,0.24238375966615716,-0.44923768302916928,-0.92296205778782336,-0.51422276288826185,-0.79405884529955684,-0.45704575960489874,0.038462357226058334,-0.97769028815961845,-0.55192501881078071,0.47067212981118117,-0.17235201361793473,0.52156041761459615,1.0109282231593395,-0.98191453923157879,-0.0770068787824712,1.2921917732283241,-0.42652710312078712,-1.0995989427543971,0.28443178803269442,-1.0493129285129408,-0.35218392859648534,-0.36442350181459193,-0.79747754722424957,-0.092081645812578022,0.28057662217237855,0.24680298339407111,-0.6620832892581392,-0.76254612373758113,0.57929889161757409,0.868145857634923,0.45849862175613448,-0.56527110355769961,0.32252571694877374,-0.400561249226211,0.591324963787862,0.11849635377800137,-0.87367012045346493,0.026930702660904256,-1.115463513146951,0.0041839073613616894,-0.33659501768411743,-0.18270398151186748,0.60985160047566089,0.44971691994820706,0.22628206955829147,-0.46970131351533928,0.45801868152479364,0.689516644718016,0.92007180721268289,-1.0098963485483021,0.68430966093761281,0.91990038588256962,-0.56693367440642339,-0.072677749788557164,0.41850518461269964,-0.88470357405834654,-0.580875512796634],[0.61034809566559345,-0.00048994769401966879,-0.021699645485105203,-0.976688113381911,0.14667429627778975,-0.0686825042959216,-0.0677363809707452,-0.47561578304425212,-0.33048060979420318,1.1152272707582798,0.083031924930455081,-0.57223377470316894,-0.505549705805277,0.5111065872488163,-0.72378117766775107,1.1596134613338938,-0.41788509327033596,0.667226975296904,-1.1167019688443163,0.021564503070925077,-0.5910891471801043,0.43803743026738712,-0.48025598374533074,0.79984980812324979,-1.0918628597410049,-1.0854023674112,-0.011261873264745839,-1.0101474994526039,-0.30301337285211566,-0.18745617804631015,-0.4775208217662843,0.49397449424535206,0.64872192909315229,-0.47814444408160584,-0.4619732361898749,-0.34516633673918612,-0.58619557531134037,-0.029554492846108869,-0.031155602488508856,0.93464915784392777,-0.95953188250510657,-0.60972995132552554,-0.49583138297051688,0.21236542014721813,-0.75475531069698343,0.2038111792202344,0.56632096285818156,0.046765122740991795,0.1519320042166977,0.85416489425396236,0.97530918383475063,0.12428985126578343,0.64623437227577962,0.11789717915076886,0.5955322408236664,0.325754288130964,-0.50087137741817167,0.27634954156891278,-0.9899437661115299,0.60305258506885184,-0.59849474755048881,-0.52088030821579168,-0.22689383010695333,0.12413953825954348,0.44192549945177773,-0.07283489815556829,-0.30434844145815104,1.019630563937783,-0.17532420898790221,-0.79675740734105815,-0.23431441025395308,1.0048795492328184,-0.27007189705020163,-0.725713355914703,-0.92325314066755448,-0.7289488312049327,0.024812207690097437,0.25879888298489989,-0.354437746501988,-0.17993394932387716,-0.438945733238079,0.60761780002249788,0.22397883730470714,0.8995008347791178,0.66470865789738443,-0.51897996977951544,0.89699817007761928,-0.084133719416436284,-0.15637362227718207,-0.24846508064168013,-0.71094845516099248,0.764189100033953,-0.23552289783698441,0.99100147408502071,0.7869996583937473,-1.0935285263022574,0.510192167716824,0.036808884106715754,0.675487466870991,-0.59339141120383421,-0.36724633722515609,0.72540633526366127,0.31112236962137113,-0.17037954985796397,-0.45381059616920744,-0.96377875881068209,0.068386454160647772,-0.0029547594734093355,-0.47789434910050954,0.20055817055955294,-0.64898339117652759,0.358838909929501,-0.65907064427097084,-0.69265562868097286,-0.97797416813913329,-0.51659309513111418,0.11022144060334399,0.50298162844610161,0.70251393360580616,-0.010898226137000769,1.3271534790760857,0.10552403419704677,-0.14787698306058889,0.99450632480013812,-0.74490452582139643,-1.1110040597486321,-0.81510604544729492,-0.0054018989609394032,-0.035541603573986717,0.97777457276001423,-0.52590305778186641,0.69893950399352123,0.634942999702489,-0.49351683303728167,-0.60165524567263751,-0.19828593985007939,-0.10693879781183413,-0.86593235384246647,-0.043891252224511783,0.5458900626899178,0.65169654497268081,-0.59505739191081986,0.49471197921605614,0.63722895247289446,-0.83255297426649677,0.014817483872247276,0.037581115299721572,0.79769394694026285,0.31828680582775004,-0.186322529227938,-0.11755374155182119,-0.031726765970335788,1.6248133565743672,1.0018651373198697,0.26967657581334664,-0.47047745413105424,0.37983913734785346,-0.3529001810435079,-0.15788173087587923,0.897181322562787,0.21130288307873041,-0.84358683273138024,-0.50087688750254,0.33007701477508622,-0.088093799977264325,-0.10010021158955026,1.1065155230834882,-0.53867371503548134,-0.40619250305061688,0.73089474746915284,0.42382752174297206,0.31402112306665775,-0.86424166625062615,1.2967326472797582,-0.019375923640943673,-0.5068710772381555,-0.35444585476672047,-0.31746807174048675,-0.055154847171304693,-0.38840369244071871,-0.735420059902232,-0.40526941791753163,0.3285287567416158,-0.98512458489650756,-0.29813770919242177,0.53616633819017367,0.94548797096626214,-0.96077108946707934,1.3554875708764191,1.2375053987986995,-0.94139349548952245,-0.58950584926875982,0.18289579170017906,-0.027623229160956018,-0.82471807731706748,0.52950073604686754,-1.1267492980189546,-0.91950663329925642,-0.67165426259704875,0.10961474412283799,-0.27687360996936344,-0.61321750103717754,0.11273949380604527,0.23176587439678567,0.17424735432927171,0.24556383021860836,-0.51589450031023609,0.49777925725083838,0.349909751827974,-0.41893466431508597,0.57355672390808632,0.3687214378568418,-0.35008980536356343,0.38487515558680641,0.301051870827747,-0.76464534212566126,-0.692419549576186,-0.96409226158292438,-0.34955453412094833,0.65414541864127751,0.11775995419178484,0.67153522135842914,0.39742035423543681,0.063475711699030268,0.67809130124815631,-0.5216154213747437,0.66327859629184294,0.034835804949912744,0.38319491263717453,0.7942114802052086,-0.714075655902326,-0.89128437262541838,-0.11122197404332636,-0.45080072371544272,-0.46415972815143314,0.36365344305413477,-1.4769595873510724,-0.85800780605736537,0.21531304271247659,0.20544917757816511,-0.65651427378264693,-0.95257543869390271,-0.27266282482844312,-0.29531100553864681,0.56747534796698085,-0.28393790654727585,-0.950806504054233,0.72242228163461863,-0.095548024140070714,-0.2561832578197431,0.14828430272590834,0.71847743593091418,-0.74371529932808522,-0.22716041151749192,-0.92124130043298025,0.58504699893282675],[-0.66469803319464171,-0.54981673992502733,1.11908932283829,-0.0977019939264731,0.61953497653196088,0.78934341457377977,-0.16598977453341038,0.9192047885176734,-0.55682010203830223,0.42909895481030225,-0.21296148314581689,-0.3514791869692977,0.14649546901487676,-0.79379392654499459,-1.4148217447098337,-0.8598636402780071,-0.050985218391480944,-0.11705111361390953,0.0871754922386402,-0.11214883532913735,-0.36028347536317795,1.0167509042789631,0.39558834586234159,-0.19206351176948883,-0.20634396831112689,-1.4044775629524793,0.601596106649783,0.14189810594496144,-0.47264304138663227,-0.73789208887757818,-0.71231259069515507,1.05329168593902,-0.94438986350468823,-0.62793885862544452,0.20689193569735578,1.0326372603023708,0.011929866749442495,0.44996992368229571,0.86573706737201672,-0.75371781438429819,0.92173482517943983,-0.11440049039453847,-0.19571947806669549,-0.57579239094905621,-1.394449285285545,0.27863048594991208,0.050874934635510016,0.86606355664862322,-0.74690065872346123,-0.038543348611182852,-0.57220640986456617,0.70176531605496251,0.50787779955221468,0.37913781194826007,-0.14618464882456869,-0.59827465649672318,0.12006717933357308,-0.23894660720121294,0.76811029579217083,1.467468804970639,0.91032319129331807,0.054006880947713963,0.12891302643300415,1.1429327842378405,0.067610520478084968,-0.35984131994676394,0.83538452011532471,-0.37410275009610627,-0.15988428714502992,-0.7893622623168598,0.57428701589005993,-0.42153045730603783,0.63080685561739669,-0.0731872462254177,0.33661571432694293,0.88844665159362735,0.14721132982158325,-0.34955054565753907,0.0030374392573602068,-0.38954923372279182,0.7277057633924302,-0.087862404181140122,0.228259915028254,0.91531600151040327,-0.8725720221307568,0.41418625245227186,-0.26272675774260162,0.1751430775267023,0.73835886948552365,0.46347442447164156,0.208384201692294,-0.31476846987772966,0.22552036179571208,0.6881905020039436,0.093719284510076911,0.53137346123013007,-1.1349460930631772,0.32053451498371321,0.615680716248921,0.82184807191962228,-0.68676873620664158,1.4314483922237968,-1.4691432238131239,-1.5576924338674039,-0.058973322749089854,-1.8170637033509172,-0.24186754123475146,-0.18019108993962849,-1.1614495574577455,0.45664356822135632,1.589134723042557,0.0841035542059862,0.46318417862758687,-0.2536047871326696,0.65474856190943331,-0.058152580264291633,0.43291556619695581,-0.070789667798843714,0.45938640159269506,0.52948217285022525,-1.3251905316248427,-0.577301410534437,-0.55832604221080251,0.091220965085957478,0.83397696758461637,0.16244469619212293,-0.3353378264832565,-0.13748349742451715,0.60128459230745079,-0.94012670785142249,0.46267701632700731,0.79058594257911974,0.3533829233811725,0.40600370843544642,-0.17261206072397367,0.894698546624248,-0.804657654433103,-0.11668261843920307,-0.73625841532425462,0.96492690806045878,-0.965625957053702,0.86332269562742647,-0.1037064355692069,-0.38708345096574404,0.010955435916985723,-0.30502677733681061,-0.25160980586230053,-0.29957964473738619,0.82799132698469124,1.3185386748057077,0.26364696305191182,0.16097644121262433,0.20351189921357524,1.8029490010211611,0.82389974131544552,0.18515085235411635,0.1655011048921472,-0.44455105772612746,-0.27065817492111083,-0.14222875686153266,0.018738925766317506,0.26207062190873509,0.059652618218854557,-0.68231734769598951,0.869350018833871,0.2895366196809121,-0.14736019793505228,-0.94228375041563628,0.94138031901900754,-1.179549113710848,-1.2933522517805685,-0.35478659139232738,-0.31371076612902887,0.42989730192462505,1.1427940579639471,-0.32174340855801187,1.0422108500112284,-1.0171185498142814,0.23907451889818973,0.36476897608324493,-0.79577220309824437,-0.27202678872019292,-0.485712949921865,0.88321592979927344,-0.21277341878874559,-1.611013667266759,0.51275386502510767,0.59796390705049873,1.7025838552110268,1.2007735889004148,0.3232256673717126,-1.0691245770897351,-0.45223713525333065,0.49169022026988257,-0.066346687194771284,-0.54379446156962785,0.29303677845803916,-0.49404154111447118,-0.402216243692142,0.49782355017749952,0.18835699942371365,-0.501257468505306,0.35079407105221555,0.51608369080567262,1.7676955964586039,0.14141425963001689,-0.83456324397450943,-0.54519793782544135,-0.65582358174455246,0.41257772353958444,0.26851225672233436,0.15714737019764602,0.19470029105326431,0.49708388037380724,-0.74095757304115906,-0.91414891777372809,-0.27797638569403071,-0.38642892123046252,1.186974044665353,1.7704678565562795,0.75509650920275384,1.2321180365078635,0.49879291886550603,0.18107620664117727,0.082565253738133448,0.71565830773992456,-1.0099335783123506,0.33999974456718074,-0.90484442065276116,-0.31003220075579713,0.588301355396725,0.68966573087897887,-0.101432670171114,0.46991072980930493,0.35010974105035508,0.339579019756651,0.45234343420460815,-1.1092695348461834,-1.0728952882468366,-0.707993191491129,0.749473003175062,0.27002960115939467,0.15113879991273302,-0.24543652621272832,-0.69018913216249755,-0.97214916942809726,-0.20522102735918743,-0.27793580347502178,-0.56110575789246819,0.059861892776868951,1.0483945168976123,0.7437142717463191,0.044387918916344513,0.11572499810785429,0.7565721140916245,0.27447143828890191],[0.88095093290143489,-0.2033404691103492,-0.33631140553337813,0.9024447800204104,-0.89141091973509923,-0.13984699640844248,-0.92218147909630277,0.4787189088195033,0.46361299555887403,0.91693896621266546,0.38135541845518467,0.84089420878431165,1.0683683920960045,-0.35813292275629521,-0.71225595844914069,-0.342399413792806,-0.10371311054184686,-0.29486599233905719,0.45797223859532166,-0.68161186182317612,-0.22877746317184186,0.70839651159550709,0.3053775225380051,-0.060532487817050687,0.20470457086307112,0.68238942462595342,-0.34223664736950193,-0.79058541657115144,0.37013716881081576,0.718458454143801,-1.0009438311759487,-0.72355346321146741,0.83529099453680167,-0.65431423535872246,-1.1290161224366888,0.0764078510231613,0.82314178388472092,-0.66372885857092279,-1.1202796354798676,0.084410379657202175,-0.049733489366638073,0.49151621309352617,-0.10720063323992875,-0.11751216748612449,-0.24609109208019955,-0.068369127398980309,-0.44558360481756309,-0.6014088857044092,0.84564542124442055,-0.2343364697922411,-0.12620946102449004,-0.54556731309244277,0.703572626244705,0.6573797897129795,-0.36999820512862708,-0.92408423397942319,0.10737318624846254,0.90801188028685431,-0.046990607032772053,-0.558994533173557,0.82868558307216489,-0.83645743506529158,-0.60330803655435283,0.83233413314288029,0.8099397131602688,0.40140951228353827,0.79878989034294734,0.48387166678136123,-0.53706737502645119,0.47418472444337345,0.13897726571937638,-0.46399035397981303,-0.76690398864801168,-0.54793915809026006,0.55142557593847952,0.076615555693268819,-0.65268607670326284,-0.038631855144067,-0.92150739301460693,0.77532229379802309,-0.041306437133479514,-0.19612776359546147,-0.76684019099742218,-0.49669806778844672,-0.11721927291678209,0.32949944454629693,-0.65761853227696609,-0.8134796534200166,0.731976183849883,0.92514429586382863,-0.96427105838925309,0.77496168664047338,0.24089061762862996,-0.98098165317045838,0.41735067262728232,-0.085469000412515581,0.21660559495010592,0.60795565299831922,-0.29622863532472649,0.44970551184041152,0.54054946703287765,-0.19295906999278509,0.38421695861733768,-0.42416263463412979,0.55619047532427657,-1.0093439126827632,-0.49390969218241892,0.42984440429412696,-0.83410536001753555,0.17685377959633955,1.13195291195252,-0.78429297893990868,1.0690568882256213,0.37777634929113613,0.7851274054702394,0.15920210389452572,0.92796713238816408,0.7899089673979014,-0.049358070512340264,-0.34009710009551092,0.18328416330930272,0.817509218773127,0.88700032098695714,-0.48431339505025056,0.33557084182994296,0.263405230169277,0.062301949756665427,-1.0117092128258476,0.14568913563918634,-0.25490274069516916,-1.0628215367139784,-0.23434755014041742,-0.79522814974563982,-0.43501053966604225,-0.50095192150421608,0.90985614370807388,0.096485440545321433,0.72509173878521449,0.0027934498297590695,-0.37165130607991514,-0.14166897744328807,0.011915812107835338,-0.84779446111693779,-0.642482635087951,-0.78604716700993937,0.98629015703400624,-0.94860706162535957,-0.90077534088021372,-0.384159829883875,-0.62888127022980178,-0.17828887181288272,0.40011887758567388,-0.29420593778381349,-0.579480263229923,-0.64886323608008034,0.699876568883879,0.38055623812297334,0.25548971807208193,-0.048455529866220017,-0.74110496801324854,-0.14766907652122105,-0.75771543422195986,-0.8218706626358131,0.23068033685451744,0.36674808441153167,0.16915985675653558,-1.1067885251425687,0.019178832624994174,-0.38995484118292451,0.47121383764457997,0.90882981187035716,-0.93066289902317978,-0.18983090758957213,-0.88170132257357081,0.72938934852363446,-1.0612737610040275,0.53348787420772692,0.59244563179518028,-0.41312898878117149,0.65585556748819429,0.4109560918025007,0.48563847832834212,0.75494780208232959,-0.11109902572198784,-0.95009072816678208,-0.34375018245999533,1.05748336322578,1.0045071986036924,-0.56657935567537621,-0.18004824714185444,-0.34381981164026615,0.7653426216498056,-0.11423354729686722,-0.2420253383422373,0.77178668091536573,-0.40571982318419514,-0.13964057561173082,-0.10655092193050068,-0.0243922073105895,-0.010213446668580045,0.92580676794626493,0.02666151605119936,0.57015569524344922,-0.0016815625269508512,-0.50896369741177,-0.15978353634479303,-0.46612922207445268,-0.34580415639573842,-0.16343737465808639,-0.63588232659766619,-0.879986089258963,0.74595387336397723,-0.2443019978731806,0.43368077041271036,-0.18962430185596479,0.6588550279062052,-0.44838898020760592,0.52749335286536425,0.35739308653324836,-0.0745210202079988,0.20769385898041934,-0.69136215011635327,-0.27778204152890779,0.79884201034235092,-0.030069835538773369,-0.85117869413990255,0.36848158346101539,-0.88605247582053193,-0.55774293889769211,0.11145711466111759,0.46215993545741652,-0.26316027025571742,-0.36913490156836332,0.63178409244245526,0.82038416832742556,-0.63552936851909825,0.8144251840015343,-0.1825533032483774,-0.47846745928191364,0.37572589409475782,-0.88687313536308154,0.25765054848557445,-0.0097037062965521243,-0.839180957640399,-0.30956146214008551,0.00519441959189616,0.31605980198411732,0.52707769339069788,0.79414977133242926,-0.6278747418242252,-0.85786648194233206,0.28260189370406374,0.59334812284469729,-0.69050757229340609,0.78183850239986841,0.59867447006844721],[-0.657754141376685,0.80226818467702532,-0.87487714278709539,-0.71483995711325177,0.38500649918344737,-0.46799512305477203,-0.79519310501085028,0.76603136172322794,-0.00791964177074244,0.39727918701836568,0.22559451171358871,0.23818048635186348,0.54834202130133081,-0.4090602012042816,0.6951190596814687,0.723223880330621,0.11758513203080126,0.7731755909167628,-0.28629464897231854,0.92552726511352379,0.18532918109996008,-0.52088100040342122,0.021643276603991641,0.85715905430903916,-0.201212277904555,0.74673905782894923,-0.79513251716554056,-0.92564564555079032,-0.087468410062819121,0.96911433430277172,0.056495306654420471,-0.8143780492944438,0.75709327169783158,-0.86995170685953882,-0.98078214992239254,0.89220072775414849,-0.52227760168570392,-0.901085564883703,-1.028245425507301,0.4068598593448462,-0.031895380298479534,0.15497523882460687,0.063633895533162788,0.11914791581478065,0.69727553468920367,-0.9398569173331548,0.98720544291932932,0.13503669051249184,-0.5093716541019726,-0.91384840696533942,-0.86844529494067513,0.77792669072985077,0.5609917605142104,0.78258836431399537,-0.66884416731095164,0.80871251761942009,-0.23571658750231536,-0.809804913212321,0.45034547618276083,0.537466523729137,-0.730075469330021,-0.86225342226682733,-0.15091614189586047,-0.085821177036238955,-0.50733913106894035,-0.049500871871623241,0.3944160909181042,0.45835711147413127,-0.36116053784435709,0.80329551900545537,0.36056250322958455,0.048718293441901962,0.77909069267954612,0.20351643704588759,-0.041949969279623647,-0.97810147846261242,0.40932182532221206,0.92514901030015306,-0.85354596986511277,-0.17065799002226972,0.89361782932537115,0.10144109452534822,0.63590712245755165,-0.16763792369396566,0.86379501993439733,0.24248434217962089,-0.29773046184368723,-0.97114066327923143,0.83393773243017832,-0.80651702761944133,0.18526344552022836,-0.680145249620776,-0.40554948632115845,-0.56242481315227943,0.20964026993413812,-0.17550144149344582,-0.76627986027656825,-0.95689565256872977,-0.37153023363924192,-0.22589846327143998,-0.37980414517787447,-0.6331961945230391,-0.58436092815924812,-0.34164884784370791,-0.28562637170677091,-0.029973176353611207,-1.0286585046065382,-0.6893445909442506,-0.22142224252090714,-0.7263790714048004,-0.71715776626429939,-0.1667655415578965,-0.94420330345434678,-0.35150749741036047,0.5863902937921821,0.087165098114592166,-0.59219091148556158,-1.0134479634367402,0.22078788426890142,0.2485800141489227,-0.83452322497854725,0.21427800004400108,0.50839860610897347,-0.66339467842581468,-0.40901453834577184,0.0051372501129868407,-0.57637332150860765,0.30268180942466849,0.93957974507989361,-0.8943762434772824,0.71583027102803576,0.38386738024594019,0.29228055022882682,0.34426690465559895,-0.88801773981883414,0.44563786068788019,-0.40586336621827862,-0.013713827410524791,-0.8790711832088578,-0.19019817460066946,0.21677672232241071,-0.62740660722906727,0.231903162765314,0.5576745585426,0.81584112732164016,-0.63754186149631109,-0.74135854743778262,0.89963559483362232,-0.25612891647855529,-0.93544453497089364,-0.66358311805802428,-0.7064473202717334,-0.20953286939797955,0.35780925124382279,-0.437189076990434,0.30797527714394141,-0.19780161757374518,-0.94080233921994938,-0.96479884955293937,0.67691063921500982,-0.44451376283148841,-0.36106643274045719,-0.63595047946209249,-0.32216059162094923,-0.46252195635198745,-0.011613330087974216,0.53328212494399452,-0.23767855429036078,-0.42106778303321329,-0.7746232192884327,-0.46140550541212372,0.52551866960678528,0.89660005687981359,-0.611543388303536,-0.9522617336700554,0.83280051979737124,-0.89082720781786717,-1.0469457599030547,-0.47229737518870946,-0.79779269285183729,-0.2780571761341854,-0.51440161332886314,-0.50702857216085973,0.8273952537447461,0.72759488435854469,0.35235370778131381,-0.55143864801764408,0.78514129021485013,-0.25520696800227488,-0.26126745270664847,-0.46924309864861768,-0.62651012730786582,-0.10613429705168656,-0.555545470683042,-0.78940358683080136,-0.43796631135802427,-0.99358922715790476,-0.45767267492566005,0.016110817774480556,-0.23130382644082542,-0.25225730644309985,0.53568034818506638,0.28191310574596423,-0.53412765196778911,0.50100479201096237,-0.20195262859344734,-0.63433437098763279,-0.5518685004311501,0.32745979173409751,-0.29043458761198954,0.19167778751297807,-0.23301893739796031,0.47336397626024229,0.788203896709393,-0.1208854255820296,-1.0040726452208517,-0.93560095804322008,-0.5610501102860701,-0.068352011145843966,0.093550308202235727,-0.59726468319995063,0.65917502390378568,0.81042370964404142,0.666164142591418,0.58843385224049449,-0.96135763806359908,-0.39193610728657574,0.46550911413459978,-0.85936439692485478,0.46173593163482834,0.861383222813132,0.55671447265461826,-0.034564757266172225,0.8326553963838621,0.42467030098875641,0.195335856938462,0.28541670199725355,-0.92857980918460115,-0.61110657189049522,-0.11988979392305053,0.015336411974374287,-0.89400922252367143,-0.44260143566168331,-0.937837015724401,0.57696412029913569,0.79984570879152694,0.090054702546958978,0.13437994827662639,0.48176965233691466,-0.77919316345990353,-0.5308797049698657,0.57432695374720455,0.58785720679028086,0.884938397192135,-0.65015344605326,0.12467280675671651],[0.581414491263341,0.52964957930952561,-0.091919594010324124,0.51031040992971977,-0.79159905918134243,-0.0845368145685954,-0.70608098518446227,0.90690628679569707,-0.15425682433861832,0.63698918544896688,0.76052397752494438,0.624149522445358,-0.68128728347217249,0.76490233765515225,-0.16467088675074962,1.0488157671236777,0.99508418412612809,-0.97083286246641887,-0.89455644310137894,-0.62659782882582882,0.10095979218132656,0.950120476985181,-0.71260188940322711,0.81543128655726227,0.0052996411739957665,0.57339022599397282,1.0096590489653841,0.95564420753513557,0.030616972407707565,-0.63068834377349281,1.0059124591100519,0.13456624164021797,0.45925840887216773,-0.6250782765756675,0.73593171389106471,0.8319816459009125,0.20219822732832557,0.090911733204906822,-0.1344718252146262,-0.83981407347352677,0.87887667662041624,-0.1894499372713046,0.29148603529193956,0.97502018163908566,-0.87772917043620191,0.48898321556189295,-0.097827093084805611,0.86232252144745625,0.49393436558068926,-0.50341622077619175,0.57196814575581023,0.708232367113781,0.86194053854677766,-0.95057505902788142,-0.99194011469587329,0.68832475224089185,0.36460423242537621,0.099027937379429165,-0.53292804249810233,-0.19737013233423306,-0.019989018346106578,-0.67362226844780249,-0.12333060204054634,-0.32116682364542343,0.68591260479487626,-0.38162734358695982,-0.85840304606020024,0.93005729866758879,-0.99262665832229569,-0.043643479125179616,-0.20412942806907752,0.01163541070245034,0.28438671413350997,0.90395722459731709,-0.52647678712287083,-0.53975175673110221,-0.3229224895429702,-0.812421418378976,0.70091492869288019,0.5529164495996014,-0.36462804956255068,-0.93000204606549686,-0.52550917205215963,-0.4707127333892166,-0.28737999452676094,-0.65123951960722637,0.28252124898852771,0.41564684272286767,-0.66991052847913013,0.99611430784185118,-0.59534765479107643,-0.8888009728326226,-0.44818278694561581,0.99513944396537068,0.19155166847534788,0.53594236300854792,0.85077845829188536,-0.26639177863254893,-0.62395809820771309,0.49057651975348027,0.34327592276523439,0.039632493486366972,0.89452910120558349,-0.47041090036260175,0.78156877323403817,-0.31506965694452155,-0.67937340199315244,0.97754519620325331,0.63329933863096577,0.675096513498954,0.042475603546765356,0.21151554880218551,0.41345123077788787,0.0056604890166345664,-0.84228975967914377,-0.054881285141305546,0.88916332215876581,-0.60376682038380614,0.85316178890912531,0.35778910060233782,0.40218344686780222,-0.19154593988448937,0.62750576914516953,-0.96143149159722063,-0.23204984005023152,-0.0790765374849555,-0.41424905210137974,0.33665968754124254,-0.25032538195465887,-0.057460851041619111,-0.43374815889933438,-0.98634439933273643,0.93241119054208643,-0.72539742230459725,-0.80510480296909326,0.72136804236952889,-0.75347079955033625,0.93394322782800576,-0.21910341558575638,-0.87721639085748759,-0.98483469824222414,0.31344014905069728,0.81912474988031281,-0.30310722624524428,0.042185343444366481,0.26534620003963472,-0.29925207254795777,0.59843950867941531,0.91950437852218381,-0.72434349133963349,0.67904512401111128,0.45532154437813244,-0.13543514199764256,3.7820514858736273E-05,-0.87943814649215424,-0.42027832006325749,0.36730516497569532,0.85989133943924523,0.9859126345864293,0.025439036642782107,-0.833529060439193,0.037274631957435314,0.22711830824039433,-0.2928422025807213,0.078861874301336343,0.010432540858567338,0.32168389014324178,0.16453167017202977,-0.24019129918272228,-0.605877108865439,-0.3105935321730362,0.95982005256257574,0.59698962200166839,0.73427507530202185,0.32393153028262173,-0.90400243615102072,-0.02594984005219176,-0.0065069133497001668,0.068297955595210111,0.39650293107570733,0.99839811631619013,-0.15251939994444921,0.41334395624763887,-0.49169788049441848,0.25566063206367823,0.11009711949409418,0.20207687154478113,-0.061233680302171183,-0.72946318522921683,0.81725933857567179,-0.40632296129554252,-0.46925846700248,0.94795554670531967,0.77120231150190088,0.9624381578141411,-0.0093056228117454082,-0.88272508614233391,0.17991701201808674,0.63030854518249135,-0.94395453071699309,0.95623449743497047,0.55237330886541314,-0.10234081953886913,0.56006714543326575,0.58644392599278761,0.77337488935990883,0.87735341954440738,0.088855918290056568,0.64528368190011032,-0.91905107380217677,0.72139287646409034,-0.56682861452500177,-0.16140438274157593,-0.33741893469654793,0.040923413075846717,0.34219999127602935,0.65584447293490866,-0.24971237345055411,0.40135307616850685,0.96558740326308612,0.78673626329751822,-0.65946563737815811,0.05887552932747922,0.13280734887550316,0.96739128645949268,-0.62407714788429869,1.0104367507998144,0.84989455886399423,0.77847566210088537,-0.65949467489195612,0.96799548987923412,0.78155744545547445,0.28732685308414074,0.0089724985306802729,0.36720591321683876,-0.54755544085980434,1.0015946829577409,0.87936324920289177,-0.068677819640251048,0.50931324338136386,0.26290244491576326,-0.83973684630379741,0.32998295773821062,-0.95097641626253726,0.999499222744074,-0.961217088975467,0.55704354302322412,0.27650521737072314,-0.26512985316019794,-0.35061081258574189,0.34147992346506528,0.34022295512452272,0.76329090055707838,0.71320304332755469,-0.7600225321270867,0.62150418047905409],[-0.29414064751219382,0.80774869366465507,0.33466451058428009,0.12154665518251528,0.80986147802219122,-0.86787346444127367,0.39626158305302944,1.1549130272262493,-0.67377121557736053,0.88258436367056214,0.15133239555318312,0.40770549146308704,0.57497320111104455,-0.71704240088484317,0.18101892113701787,0.91882754581045056,0.636559349390774,0.37241337090239873,-0.17568222204611611,1.1291365206701103,-0.15624889889196589,-0.43872604839723806,0.57000705312709132,1.8643128994100093,-0.45073659468324073,-0.6782740375179207,0.15897346465125761,-0.13333773077577255,-0.11603714276083575,-0.25732930546673638,-1.0105154419155722,0.46997054362068158,-0.52210177236475741,0.15620151765440576,0.60296518363177953,-0.53479723277619784,-0.75248598272928946,0.131272595595584,1.0239021419799623,1.2906850699376009,-0.16155842553118083,0.790400767530855,1.152750921724538,-0.82158172787078154,0.26041579263750442,1.19420049223235,0.59601495844882579,-0.88849621443706739,0.26681434419009747,0.52165489558774114,0.74597908624805342,1.5001833343509776,-0.043461188713802987,-0.40190052049633751,-0.27057282022319129,0.86672904873484768,-0.50625681382763976,0.46183985829667051,-0.78914067371460439,-0.49349499459634522,-0.10589163767810506,-0.91583855963555072,-0.49806143955917243,0.64464588563190606,0.84677850082793649,0.49488242084060774,0.20808758178338546,1.0165794293766597,-0.38080669448069604,0.068569716591593721,0.44470144182947174,-0.94131828355233593,-0.75695201817159352,0.47305530398984458,-0.18966134197760726,-0.20906361392222342,0.093869581099426308,0.11434438535820704,0.13778856118192837,0.13384251983968931,-0.23933522044322919,-0.067261960479379879,0.95742371558117756,0.78738190771581629,0.15965389207891961,-0.7051128685563105,-0.23889128074914939,-0.69369054797391616,