{"Descriptions":[{"width":28,"height":28,"channels":1,"filters":0,"kernelSize":0,"stride":0,"padding":0,"activation":0,"layers":0,"neurons":null,"fc_activations":null,"layerType":0},{"width":0,"height":0,"channels":0,"filters":6,"kernelSize":5,"stride":1,"padding":0,"activation":1,"layers":0,"neurons":null,"fc_activations":null,"layerType":1},{"width":0,"height":0,"channels":0,"filters":0,"kernelSize":2,"stride":2,"padding":0,"activation":0,"layers":0,"neurons":null,"fc_activations":null,"layerType":2},{"width":0,"height":0,"channels":0,"filters":16,"kernelSize":5,"stride":1,"padding":0,"activation":1,"layers":0,"neurons":null,"fc_activations":null,"layerType":1},{"width":0,"height":0,"channels":0,"filters":0,"kernelSize":2,"stride":2,"padding":0,"activation":0,"layers":0,"neurons":null,"fc_activations":null,"layerType":2},{"width":0,"height":0,"channels":0,"filters":0,"kernelSize":0,"stride":0,"padding":0,"activation":0,"layers":3,"neurons":[120,84,10],"fc_activations":[2,2,2],"layerType":3}],"Kernels":[[[{"rows":5,"cols":5,"data":[[0.3627736,0.5059472,0.5795709,-0.793577433,0.6342479],[0.332150638,0.413538158,0.871486247,0.326815754,0.856326938],[-0.45662424,0.6571952,-0.7024551,-0.6432425,-0.131972238],[0.327064037,-0.7698693,-0.939065635,0.347127229,-0.5725071],[0.012404995,-1.09333181,0.521861,0.8224633,-0.8219271]]}],[{"rows":5,"cols":5,"data":[[0.443074346,-0.5647958,-0.0282919053,0.417567939,-1.09308314],[-0.5011049,0.1820485,-0.341496319,0.538995445,-0.2640729],[0.9014128,0.40749827,-0.043178536,-0.4199142,-0.8846744],[0.375526369,0.8993469,0.355179727,-0.9186965,-0.0216623377],[0.390080363,-0.326079041,-0.519785643,-0.2585823,0.127284989]]}],[{"rows":5,"cols":5,"data":[[0.756641,0.938727,1.16821492,0.3168408,-0.2408436],[0.493259072,0.8465148,0.6284427,0.8621701,-0.352753758],[0.145384848,-1.05334,-1.00755942,0.152699187,0.7548468],[-0.0728287,-0.8353391,-0.608991444,0.5421306,0.374950469],[0.5167062,-0.2132887,0.4077161,0.320336729,0.364062071]]}],[{"rows":5,"cols":5,"data":[[0.288732558,-0.6181647,-0.174154714,-0.5545866,-0.105495818],[-0.217766032,0.696806669,-1.02824724,-0.7444303,-0.818537652],[-0.371300846,0.2266596,0.607248,-0.0283354875,0.4007172],[0.9488506,0.888604939,0.405994415,-0.7620428,0.257668644],[0.204795882,0.8342099,-0.640992343,-0.467489839,1.0646615]]}],[{"rows":5,"cols":5,"data":[[-0.527589262,0.686644,-0.28266862,0.432507664,0.52055794],[-0.371548384,-0.801780939,-0.337732673,0.8194784,0.4487379],[-0.365567774,-0.7738373,-0.3028668,-0.320863456,0.937963963],[0.196258038,0.667673349,0.4540806,-0.268638164,0.26850608],[0.912619,-0.207579479,0.3313631,0.9336743,0.482308626]]}],[{"rows":5,"cols":5,"data":[[0.961487,0.791133046,0.247098386,0.9405886,-0.9196438],[0.817045748,-0.346546173,-0.0306022409,-0.246443778,-0.549730062],[0.1967055,0.357334524,0.03972971,0.088606216,0.5474919],[-0.502816,-0.112383351,-0.791043162,0.8192333,-0.160635],[0.7937359,0.4856951,-0.149751276,-0.662633538,-0.8201717]]}]],[[{"rows":5,"cols":5,"data":[[0.222622424,-0.7406802,-0.04621176,0.02967641,-0.9980416],[0.1765789,-0.7030705,-0.88671,-2.020807,-0.0301624089],[0.008984781,-0.137552276,-0.926552057,-0.0579383,0.234222814],[-1.26018369,0.119637407,0.7280561,-1.1625191,-0.9114708],[0.7724668,-0.6406697,-1.23462164,-0.369991243,-0.589140534]]},{"rows":5,"cols":5,"data":[[-0.0581293181,-0.35969913,0.129257187,-0.59949404,0.5602078],[-0.2216338,-0.248131,-0.144399673,1.46143973,-0.2714143],[0.412090778,0.302648842,1.37593687,1.00033164,-0.405895352],[-0.187221736,0.7198499,1.21978569,0.901085138,-0.7243584],[0.5438268,1.73916686,-0.223358124,-1.36629784,-0.5316659]]},{"rows":5,"cols":5,"data":[[-0.425869823,-0.6066581,-1.00468528,-0.103430443,-0.72063005],[0.453047156,1.70353115,-1.91870809,-2.690752,-0.406191468],[0.228118628,1.61654246,0.381044775,-2.42538643,-0.387448579],[0.721880555,-0.173754469,-0.48541972,-0.677045643,-1.12958479],[-0.09084795,-0.03832329,-0.441520065,-0.2982712,-1.12041163]]},{"rows":5,"cols":5,"data":[[0.3862648,0.6419884,-0.4112797,-1.42351973,-1.455552],[0.109211408,1.078429,1.23956716,0.2551461,0.7255293],[-0.210777268,-0.138847545,1.832952,1.56857646,0.09789553],[0.190859377,-0.879300535,0.540324748,0.574979842,-0.140370846],[-0.555703163,-1.57639575,-0.5448482,-0.5591974,-0.6158698]]},{"rows":5,"cols":5,"data":[[-0.43534863,-0.5804792,-0.08866898,0.268623,-1.386136],[-0.0599829629,0.150528684,-0.9310141,-0.864246368,0.267030716],[0.440322667,1.37723315,-0.4821336,-2.73257184,1.85605],[0.640301645,2.27064252,0.07259359,-1.69189668,2.10575318],[-0.34727183,-0.2963697,0.0455511063,0.243048728,1.84516418]]},{"rows":5,"cols":5,"data":[[0.06742489,0.786514044,-0.5174622,0.7961704,0.0538697131],[-0.7436265,-0.4218778,-1.41810465,-0.1544534,-0.857504845],[-1.72053027,0.319144219,0.443033755,-0.839975357,-0.740579963],[-0.443575323,0.0198975354,-0.260331273,-0.08649071,-1.30492461],[-0.517732,0.165346012,0.5069899,-0.005584569,-0.8048676]]}],[{"rows":5,"cols":5,"data":[[-0.8857932,0.197668016,-0.7986362,-0.021509625,0.6005458],[-0.6503355,0.407511473,0.7559425,-0.439712435,-0.765380144],[-0.288609743,0.7574206,0.230965689,0.6071002,-0.88656956],[-0.606245339,-0.357198775,0.9139866,-0.197177857,0.6553475],[0.570837557,0.347177774,0.1655859,0.349167556,0.7413331]]},{"rows":5,"cols":5,"data":[[0.4924592,0.478244215,-0.196008533,-0.102565944,-0.5247716],[-0.626718163,-0.654127955,-0.349368781,-0.410534,-0.2657024],[0.679441154,-0.5099415,0.2948261,0.925379634,-0.267948419],[-0.0175585747,0.455287755,0.37408936,0.940639734,-0.5553393],[1.03531885,-0.556491435,0.200037,-0.526010334,-0.8449489]]},{"rows":5,"cols":5,"data":[[0.6462,0.355701,-0.584709942,0.317939222,0.8699188],[-0.191001728,-1.1040504,-0.152745277,-0.210087836,-0.8266154],[-0.06759564,-0.379211217,-0.185931116,-1.20542514,0.6585973],[-0.6774241,-0.0683123,-0.540824056,-0.142575711,-0.8789971],[0.9969003,0.0597582534,-1.15217054,-0.9096686,-0.189599454]]},{"rows":5,"cols":5,"data":[[1.0386225,-0.991792738,0.204946443,-0.2768766,-1.02663243],[0.0988304,-0.7952705,-0.761057734,-0.331280261,-0.5719429],[-0.00334634725,0.546491563,-0.0334243923,-0.167861089,0.5590252],[0.724482059,0.40632996,-0.741241753,0.5981913,0.794703],[-0.816383,-0.743895233,0.06974733,0.7645951,-0.5861408]]},{"rows":5,"cols":5,"data":[[-0.4101837,0.686254144,-0.710597932,-0.985023856,-0.687935054],[-0.5708415,0.373276442,-0.536662042,-0.6810802,0.574006],[-0.1388418,-0.187917262,-0.9869596,-0.342620522,0.222902775],[-0.216901526,-0.743264139,-1.12299287,0.212938875,0.0436183624],[-0.5965262,-1.34023392,0.39762,-0.0164559539,0.192002952]]},{"rows":5,"cols":5,"data":[[-0.498807222,0.0479321145,-0.7013562,-0.901781261,-0.175649241],[0.5171116,-0.382654428,0.170586884,-0.491820574,0.271568447],[0.266592443,0.8535355,-0.7810113,-0.450978249,-0.792064667],[0.482247859,0.00237883651,-0.589455,0.0267918333,-0.07232405],[-0.109972671,0.253790021,0.283147722,-0.841341555,-0.0373920277]]}],[{"rows":5,"cols":5,"data":[[1.26180971,-0.213112518,1.51961243,0.477788419,0.762259841],[-0.08891843,1.2778275,0.7076559,0.300770223,0.762965441],[0.124670208,-0.08538313,-0.9494872,0.138173729,-1.10268211],[-0.996464431,0.440187722,0.266863137,0.0937093347,-1.54546463],[-0.3675483,-0.766319036,1.2947216,1.51452184,2.37855363]]},{"rows":5,"cols":5,"data":[[0.5596062,0.6650873,-0.220844477,0.96042496,-0.608792365],[0.169522524,0.577915668,-1.086242,-0.392984778,-0.123214513],[0.342461854,-0.238694742,-0.681865454,-0.277139872,-0.9360363],[0.751594961,-0.5879156,0.01852584,-0.477574736,-0.6383301],[-0.235950053,-0.137653455,-0.00642230967,-0.295930624,-0.3750934]]},{"rows":5,"cols":5,"data":[[0.5128145,0.0425093025,0.965663135,-0.188581914,-0.6622405],[0.64869976,-0.6907771,-0.472687751,-0.9717162,-1.918033],[-0.120875664,-0.6669408,-0.66170454,-1.81581044,-1.19059777],[0.8661378,-0.0217178445,0.023177661,-0.943824947,-0.5824054],[0.9646584,0.2383999,-0.260507971,0.998384833,1.6335963]]},{"rows":5,"cols":5,"data":[[-0.383029938,-0.6946095,-0.8984532,-1.48533714,-0.0822749138],[-0.273068,-0.579998434,-1.71695864,-0.9474892,-0.8247437],[1.05834675,-0.840778947,-0.82623595,-0.483279616,-0.164698631],[0.243849069,-0.76207006,1.26502085,1.44613171,1.87695742],[2.018165,0.3536768,0.5126398,-0.006812086,0.159873754]]},{"rows":5,"cols":5,"data":[[0.18984963,0.129525259,-1.02884316,0.0893422738,-0.162075311],[-1.20655155,-0.7375004,-0.89371115,-1.10306585,-2.52800035],[-0.589289069,-1.52154577,-0.537237,0.208533481,0.22175698],[-0.728801966,0.519979239,0.0266864765,0.336764753,0.7280151],[1.23573542,0.779324055,-0.165027514,0.185391292,0.362568527]]},{"rows":5,"cols":5,"data":[[0.632219732,0.428358,0.9061153,1.44912994,0.572394252],[0.5216884,-0.7782289,-0.08933013,-0.026026329,1.08529043],[0.5492888,-0.9363917,-0.9021229,-0.254543841,-0.249891862],[0.035088025,-0.09610475,0.0294136573,-0.455925554,-0.922784448],[-0.6220874,0.217605963,-0.888084233,0.878670037,0.203998238]]}],[{"rows":5,"cols":5,"data":[[-0.107685074,0.409003347,0.7067322,0.394451171,0.4177424],[-0.0391621776,-0.3999371,-0.343933254,-0.90658325,0.568293452],[-0.768968761,0.09630517,-0.175815478,0.5803547,0.261843443],[0.128103137,1.28770065,1.27837574,0.333387554,-1.89047742],[0.352601916,-1.09428084,-0.08288127,0.7896959,-0.843817055]]},{"rows":5,"cols":5,"data":[[-0.9866383,0.315130383,-0.9201055,-0.5841031,0.0300349984],[0.583492041,0.130467355,-0.520316541,-0.120999306,-0.261038333],[-0.7861831,-0.6575712,0.278822482,0.280257881,-0.2706969],[-0.9337222,-0.684719741,-1.20786881,-0.049397707,-0.6402298],[-0.248288885,-1.27405989,0.243069947,0.5950033,0.6101029]]},{"rows":5,"cols":5,"data":[[-0.346590549,1.06003177,0.376285642,1.84939158,-0.354929984],[-0.869125664,0.836050153,0.44977957,-1.29442573,0.367245018],[-0.411828339,-0.6881768,-0.9175213,-0.2020384,-0.7616698],[-0.6767361,0.666033566,0.333139241,1.53504956,-0.5637368],[-1.95029628,-1.62336779,-0.6111348,0.319448858,0.7641141]]},{"rows":5,"cols":5,"data":[[-0.7109567,-1.138482,-0.7349701,0.09273466,1.11591613],[0.0895026,-0.901737154,-0.0130430693,-0.908571362,-1.17841578],[-1.04047215,-0.449236661,-0.798453033,-0.1374943,-1.68731093],[-0.920441568,-1.63976109,-0.8557226,0.10417603,-0.01786141],[0.33825168,-0.8259197,-0.497436047,-0.847530842,0.260273874]]},{"rows":5,"cols":5,"data":[[-0.969408631,0.202188477,0.470228851,1.02603233,1.01687813],[-0.7025607,0.327293783,1.15267074,1.50106382,-1.74754274],[0.851217866,0.668253839,-1.28038728,-0.9705279,-1.09264958],[0.410673022,-0.8573305,-1.59677553,-0.366285652,-1.00394619],[-1.436493,-0.392713249,0.340900451,1.29321253,0.7340362]]},{"rows":5,"cols":5,"data":[[0.393845141,0.0115069579,-0.30931437,0.7688342,-1.22857869],[-1.70521677,0.0503234,0.227615625,-0.7867857,0.419745833],[-1.1725893,-0.6082428,0.444906384,0.7469102,0.917956531],[-0.5772648,0.09533009,0.808958054,0.6593775,-1.19354475],[-0.4528116,-1.17122138,0.38044098,-1.11432433,0.15023303]]}],[{"rows":5,"cols":5,"data":[[-0.002584202,-0.175037339,-0.0778419748,0.00466452539,0.5986194],[2.31128335,2.34340525,3.20470381,2.84776378,2.80873227],[-0.5087234,-1.635766,0.958405733,0.5038334,-1.25295591],[-0.9276213,0.119161174,-1.83704567,-1.63839257,-0.5456059],[0.495767385,0.3796371,-0.100761168,0.3758679,0.2641621]]},{"rows":5,"cols":5,"data":[[-0.212063119,0.313118815,0.7542934,1.115478,0.124967575],[-0.8675183,-0.9661523,-1.410546,-1.4572686,0.185075372],[-0.0408588424,-1.43797147,-0.3158742,-0.383924723,-0.1544018],[0.229076266,0.145023,-0.5718132,0.576425135,-0.520689547],[0.4439468,0.565196753,0.3987524,0.307097018,-0.35283497]]},{"rows":5,"cols":5,"data":[[-1.02897,-1.06510389,-0.173459053,-1.25471091,0.405549169],[-0.624481261,1.363449,1.31653929,1.35660541,1.456785],[-3.14968586,-2.319826,-1.18503821,-0.0014105076,-1.13255394],[0.00138581917,-0.7760383,-1.48280549,-2.23335481,-2.100764],[1.17389274,0.3247142,0.255432129,-0.1371977,0.520230353]]},{"rows":5,"cols":5,"data":[[-1.25056088,-0.180390418,0.5843155,-0.0227708276,0.594477534],[-1.13425434,-3.44685912,-2.46614146,-2.193725,-1.695959],[-0.00450559752,-0.864673257,-1.062001,-0.0258201286,0.272618234],[1.98842669,2.19673228,0.621766865,-0.389597028,0.4005211],[-0.634464741,-0.104611747,1.59774649,0.6717759,0.5590321]]},{"rows":5,"cols":5,"data":[[-1.77986348,1.07733607,0.378226638,0.119372487,0.744508147],[-2.2661407,-0.9356563,-2.4637382,-3.13756084,-2.2224443],[-1.604561,-0.302146137,0.802840769,0.148584783,0.3663243],[0.358187973,-0.805334151,0.3295334,0.8776483,0.7260989],[0.7816846,0.61966604,0.8100678,-0.3077286,-0.687430739]]},{"rows":5,"cols":5,"data":[[0.5856542,-0.489419937,-0.07123449,0.796845436,0.587634146],[0.4183552,0.823015749,2.16931629,1.62610734,1.989853],[-2.02103734,-1.0341922,0.09493418,-0.03145389,-0.5502907],[-0.649209142,-0.438637018,-1.051092,-1.0534811,-0.738021255],[-0.253961116,-0.6183031,-0.031266775,-0.5237439,0.19627513]]}],[{"rows":5,"cols":5,"data":[[-0.08813143,1.3869592,0.475368023,1.229344,-0.163387328],[0.335352778,-0.6590336,-0.799438,-0.406116277,-0.655787647],[-1.25357127,-0.167025864,-0.667282164,0.09274295,-0.156931415],[0.159430355,0.749474168,-0.527900338,0.284556657,0.257585138],[-0.792047,-0.473353535,0.543133736,0.741659462,-0.3796809]]},{"rows":5,"cols":5,"data":[[0.0590271279,-0.0272451453,0.7467128,0.9871607,0.660676837],[0.433087945,0.43173945,0.8514073,-0.518169761,0.4037635],[0.567831,-0.534598649,0.6356432,-0.2535387,-0.4473272],[0.8142675,0.5313767,0.103376873,-0.4729637,-0.186550453],[1.18322909,0.354191273,-0.696825564,-0.2133961,0.2924255]]},{"rows":5,"cols":5,"data":[[0.439963847,1.15856385,0.94904083,1.18209946,0.868719161],[0.5594716,0.5705016,-0.306350946,-0.185611933,-0.135222673],[0.7572195,-1.44160557,-1.41457772,-0.5011353,-0.4347874],[-1.14986718,-0.2954045,-1.508476,0.154350162,-0.258364052],[0.191512674,-0.9058059,0.4546978,-0.509564161,0.6551933]]},{"rows":5,"cols":5,"data":[[-0.4998609,-0.07653529,-0.120624445,0.0501463078,-0.187238321],[0.5600216,-0.5570993,-0.163435668,-0.5571052,-0.278588772],[-0.8851345,-0.6136348,-0.7591265,0.003967756,-0.966080368],[1.02244723,0.4955356,-0.729555845,0.484132856,-0.3691249],[-0.106620423,0.0658646,-0.7424836,-0.9641389,-0.464541]]},{"rows":5,"cols":5,"data":[[-0.9595787,-0.031259127,-0.5333694,0.9145479,-0.788319767],[-1.14265776,0.225389287,-0.9121892,0.264798224,-0.310334116],[0.520150065,-0.7428222,0.3988216,-0.8808857,0.161257967],[-0.162934422,0.22286205,0.244925559,-1.00254369,-0.5428698],[0.578334749,-0.18700105,-0.225552589,0.440422058,0.0435879268]]},{"rows":5,"cols":5,"data":[[0.8880701,0.9179476,-0.269055665,-0.08106279,0.281081319],[0.428104877,0.190607682,0.239127159,-0.467145354,-0.879663944],[-0.352076054,-1.47613442,-0.0694905445,-0.687547,-0.735156238],[-0.494153976,-1.16813385,-0.260307223,-0.7616671,-0.985671341],[0.283375621,0.8445115,-0.9387056,-0.6880821,0.560611]]}],[{"rows":5,"cols":5,"data":[[0.390779853,0.7300275,-0.7117326,0.6237043,-0.3904689],[1.03470469,-0.501493156,0.311836,-0.3128673,-0.292100132],[-0.207923815,0.332644969,-0.9500445,-0.454533756,0.395789981],[-0.823811948,0.183538079,-0.0747824,-1.10623956,-0.528221965],[-0.442159832,-0.8914077,-0.09762228,0.6398292,0.632642269]]},{"rows":5,"cols":5,"data":[[1.10328853,0.8004644,-0.8044649,0.183018059,0.958425],[0.644855559,0.193621039,0.520793736,-0.4444176,0.562886536],[0.269339383,-0.2952397,0.388676345,0.8460781,-0.573976],[-0.9392348,-0.396382868,-0.65281415,0.7365068,0.4302189],[0.2973954,0.834046245,-0.8217876,0.02799703,0.4661828]]},{"rows":5,"cols":5,"data":[[0.6332645,-0.3528358,-0.8192724,-1.04980087,-0.427128345],[0.443264723,-0.383134842,-0.5793912,0.791506231,-0.14136681],[-0.72349447,-1.05836415,-1.03773,-0.3340835,0.03338783],[-0.04613364,0.166632876,0.00655569742,-0.303121537,0.7263572],[0.180287361,-1.33002663,-0.155441776,0.248196915,-0.690942943]]},{"rows":5,"cols":5,"data":[[-0.0421822146,0.7235562,0.105520695,-0.7817746,-0.476056457],[0.7484728,-0.0291495435,-0.175902575,0.621805668,-0.6598066],[-0.2056847,-0.160824612,0.284890562,-1.11132061,-0.5720421],[-0.0418719761,-0.8905838,0.292460859,-0.0329589434,-0.614306867],[1.24660575,-0.7284733,0.492074132,-0.40777263,0.9122415]]},{"rows":5,"cols":5,"data":[[0.285755038,-0.635324061,0.394602716,0.222976387,0.6207286],[0.0343989655,0.0318420529,-0.4643154,0.4236538,-0.814888656],[-0.4233803,0.191680834,-0.824903131,0.261093438,0.0178539455],[-0.933317363,-0.227559581,-0.822119832,-0.694502831,-0.893284142],[-0.961476266,-1.00955868,0.256507754,-0.7167278,-0.0816497356]]},{"rows":5,"cols":5,"data":[[0.905420065,-0.438948631,-0.9253744,0.0912405849,-0.350037873],[1.4940716,-0.782722,-0.6017046,-0.8152318,0.221182585],[0.741519868,0.711135864,0.7046754,-0.9674458,-0.201049462],[0.622719765,-1.01155365,-1.36750436,0.6025419,0.2253342],[0.205618665,0.901122,-0.9802295,0.8627917,0.6793567]]}],[{"rows":5,"cols":5,"data":[[-0.504033,-0.904821634,0.409117043,-0.534416258,0.5470271],[-0.127579927,-0.07627925,-0.2811995,-0.9779357,-1.05261886],[0.0314265676,0.240084589,0.37151286,-0.189723834,-0.7290154],[0.09156717,-0.152507141,-1.02793241,-0.915619731,0.641092956],[-0.08447794,0.359864056,-0.7086803,0.426652074,-0.392182052]]},{"rows":5,"cols":5,"data":[[1.06208289,-0.6673427,0.4892651,0.0114146648,0.6518082],[0.8851789,-0.6515466,-1.01904631,0.316738963,-0.8653185],[0.890408635,-0.362439126,1.00713062,-0.2509873,-0.6979568],[-0.5719498,-0.0468693078,0.867238164,-0.760834038,0.8706697],[-0.7539142,-0.08130344,0.313760221,0.7252364,-0.740957558]]},{"rows":5,"cols":5,"data":[[-1.272122,0.5001593,-1.047182,-1.13641834,-0.431871444],[-0.453274429,0.3040429,0.4012093,0.475756854,0.08903562],[-0.275481224,-0.02532608,0.171893731,-0.8850196,-0.784643769],[0.07676207,0.0383921675,-0.817546666,-0.3952325,-0.8264814],[-0.352716684,0.442924261,0.5349678,0.705544651,0.238690585]]},{"rows":5,"cols":5,"data":[[0.764548838,0.599635,-1.20451427,0.436107874,-0.6445617],[0.542670965,-0.0204615947,-1.0020442,-0.182552114,0.37814483],[1.08088291,-1.06042039,1.06686139,-0.417112023,-0.0141768046],[1.29723561,-0.0372357368,-0.5313731,0.470455021,0.43759194],[0.374991268,0.265489072,0.392063469,0.87260133,-0.1197118]]},{"rows":5,"cols":5,"data":[[-0.1454985,-0.7973995,-0.9326958,-0.5645412,0.136634722],[-0.128471151,-0.8102893,-0.804519,-0.5146958,-0.434907228],[0.2386885,0.5020325,-0.7183019,0.4473823,-1.02152359],[0.630082965,0.356311768,-0.0813357159,-0.171904758,-0.6883729],[-0.133729175,0.457764149,0.7185347,0.561450362,-0.818769038]]},{"rows":5,"cols":5,"data":[[0.491362184,0.048468668,-0.683723748,-0.767275,-0.7138973],[-0.307914078,-0.613359451,-0.5200626,-0.29464522,0.198673368],[-0.131223559,-0.209086239,0.260103017,0.279092342,-0.68528],[0.471039474,0.69885534,0.259515226,0.44209832,0.4471609],[-0.492698342,-0.285369158,-0.273436338,-0.1508026,0.9586837]]}],[{"rows":5,"cols":5,"data":[[-1.02701521,-0.5671783,-0.882332563,-0.2683056,-1.04610729],[0.901030242,-0.141549557,-0.535295,-0.942686558,0.7682419],[-0.842405856,-0.7871418,0.8742106,-0.6210199,-0.6072714],[0.132231265,0.24395439,0.3297348,-0.844887435,1.00387812],[-0.277489424,0.296365082,0.0532210171,-0.49436304,0.286779851]]},{"rows":5,"cols":5,"data":[[-0.03448037,0.824341655,-0.851577938,-0.7435098,-0.6751306],[-0.06510574,-0.562654436,0.61975807,-0.6083225,-0.846316338],[-1.03866589,-0.7404943,0.974213243,0.170101821,0.6824758],[0.648271441,-0.6513419,0.5047222,0.8287277,-0.72974956],[0.06864813,0.823312163,-0.318869263,0.242851615,-0.343230456]]},{"rows":5,"cols":5,"data":[[-0.00244866335,0.191694632,-0.836829066,-0.6626176,-0.443669],[-0.541720152,0.111369982,0.392362,0.102422237,-0.2560735],[-0.8115966,-0.302705526,-0.9294387,0.373988926,-0.525465],[0.663834751,0.0613674521,0.7880416,-0.448717564,-0.6962633],[-0.1750794,0.314425,-0.6275814,-0.541110337,-1.15427744]]},{"rows":5,"cols":5,"data":[[-0.618144751,-1.00179029,0.339764625,-0.653631747,-0.6743214],[0.105319485,-0.013638908,0.09338856,0.7792229,0.218045563],[0.405726373,1.21733963,0.203629166,0.897505939,0.680530131],[-0.254420847,-0.397255868,-0.5654069,1.039201,0.281979024],[0.04321585,-1.00433838,0.5727589,0.0374907628,-0.498465955]]},{"rows":5,"cols":5,"data":[[-0.656712949,-0.837103367,-0.7795453,-0.679607332,0.2521471],[-0.853794336,0.2864088,0.9907061,-0.386580855,-0.6351546],[-0.6459416,0.6694919,-0.07119853,-0.278737038,0.6442803],[0.2632434,0.633577168,-0.7905636,-0.434264839,0.0557098947],[0.6402265,0.8352384,1.28626359,-0.384186327,0.244823232]]},{"rows":5,"cols":5,"data":[[-1.12605178,-0.422302783,-0.8328161,0.06982047,0.121085748],[-0.7258708,-0.6207618,-0.0927474052,-0.918097436,0.922155261],[-0.3915697,-0.6747926,-0.6227151,-0.8287328,-0.2948777],[-1.06724823,0.945356,-0.5437766,0.299883544,0.4376081],[-0.05293649,0.878768742,0.6130928,-0.883046031,-0.661738157]]}],[{"rows":5,"cols":5,"data":[[0.453738958,0.941282034,0.2898181,0.188430756,-0.5753679],[0.7984432,-0.303396225,-0.704335153,-0.343012631,-0.536969066],[0.0035101804,-0.4634133,-0.5687012,0.281799257,-0.0727725551],[0.6487129,-0.400489122,-0.978189945,-0.423642755,0.54488647],[-0.363006473,-0.003743573,0.34011212,0.5305451,0.9221589]]},{"rows":5,"cols":5,"data":[[1.344697,0.7943592,-0.123903088,0.709810734,-0.215833157],[-0.248971924,-0.0420624055,-1.32976973,-0.7270794,0.34501645],[-0.8372692,-0.226519063,0.021019686,-0.0313137062,0.185637414],[0.619776368,-0.9317357,-0.6661932,-1.03591585,-0.11096476],[0.382566631,0.6203583,-0.7776771,-1.16986549,-0.316009849]]},{"rows":5,"cols":5,"data":[[-1.2329427,0.175935715,-0.251239568,-0.3650176,0.513294],[-0.632894754,-0.4260425,0.2609996,-0.400576055,-0.019823866],[0.32938233,0.888216257,0.230675757,-1.05733967,0.368307054],[1.1602124,0.308253765,0.112594508,0.360399842,1.67779171],[0.8912838,0.566249,0.60115236,0.8184228,0.7898281]]},{"rows":5,"cols":5,"data":[[-0.809336364,-1.07284057,-0.7321783,-0.628547668,-0.7115435],[-1.33265543,-0.9748878,0.05542303,-0.743765831,0.400512934],[0.5907204,0.275281668,0.469475329,1.19044363,0.251888],[0.9054066,1.471191,0.4077198,-0.235067219,0.07615118],[-0.258666545,0.7841544,0.51038444,0.421403468,-1.01196682]]},{"rows":5,"cols":5,"data":[[-0.5556164,-0.222151339,0.307611942,-0.474569649,-2.637089],[-0.33277598,-0.146190554,0.0187064018,0.7229276,0.325668484],[-0.9340349,0.590475857,0.789107561,1.14481378,-0.9454411],[1.2215451,1.19099736,0.1050816,-0.9342036,-1.612614],[0.08072951,1.033616,-2.16317344,-2.27323651,-0.6676528]]},{"rows":5,"cols":5,"data":[[-0.9540831,0.837556243,0.315939367,-1.14011145,-0.770491064],[-0.067098096,-0.65955,-0.587143838,-0.356894374,-1.13969088],[-0.77324,-1.68705165,-1.6651324,-0.5256678,-0.518737137],[-0.133465931,-0.9065287,0.444839567,0.239952683,1.4597863],[0.938822567,-0.3961062,1.17700374,0.9334391,0.267692238]]}],[{"rows":5,"cols":5,"data":[[-0.344962537,-0.3722865,-0.6320103,-0.243380621,-1.03241992],[-0.568296,-0.366333455,-1.78896189,-1.41488671,-0.108232051],[0.23048605,-1.51260483,-1.99754047,-0.358554721,-0.668768167],[0.587936759,-0.6566361,-0.644097,-0.5195326,-0.361749],[-0.125968963,-0.8337339,-1.13478255,-1.89056182,-1.41353619]]},{"rows":5,"cols":5,"data":[[0.690951943,0.722842753,-0.722371042,-0.835722864,0.5266003],[-0.105960637,-0.551158547,-1.086788,0.70230937,0.96989274],[-0.347082734,0.903631032,-0.382828444,0.4381891,2.03978825],[1.39303911,-0.557972133,-0.604681134,1.4501456,0.836122334],[0.614747047,-0.123367585,0.594503939,0.2477763,0.231047273]]},{"rows":5,"cols":5,"data":[[-0.7448403,-0.336271673,0.986384869,0.31332925,-0.9728521],[-0.8132485,-0.06621844,-0.7508167,-0.949431,-1.35720944],[-0.8265363,-1.81568456,-0.7017379,-0.362024546,-0.05994621],[0.0253911633,-2.06633043,-0.330210924,0.116101064,-0.9451821],[-0.9079628,-1.7225877,-0.1487675,0.325924546,0.426033646]]},{"rows":5,"cols":5,"data":[[-0.0459452569,0.123569377,-1.044041,0.410599649,0.432097644],[0.220457375,-0.5814083,-0.817308545,0.333880931,0.6193297],[1.078422,-0.772527635,-1.11345744,-0.148140341,1.7960645],[-0.457566619,0.0301294625,-1.49398959,0.111947365,0.8400151],[0.811302066,-1.21034861,-0.740817964,-0.7741131,0.649084151]]},{"rows":5,"cols":5,"data":[[-0.358111978,0.211971551,-0.02891654,0.30403474,1.27888143],[-1.28838372,0.2664728,0.877743363,1.68913841,0.42329964],[-0.226498768,-0.420950383,2.0191977,1.074297,-0.338720053],[-1.40293157,0.7786087,2.39571381,1.3741188,-1.78375232],[0.27919203,0.893747,2.93067646,-0.140459344,-1.02487123]]},{"rows":5,"cols":5,"data":[[0.125655174,1.36020458,0.011469923,0.18920669,-1.10637486],[0.307630062,0.7610641,-1.08607852,-0.34632948,-0.822117269],[0.8029712,-0.2368933,-0.5020098,-0.771938264,0.8427192],[-0.185271055,-0.7647841,-1.03933454,-0.5468923,0.313177377],[0.82377094,-1.16302454,-0.0622937866,0.618863046,-0.230311856]]}],[{"rows":5,"cols":5,"data":[[0.308831453,-1.75041544,0.248402447,-0.0301104523,0.792236745],[-0.6201569,-0.4592939,-0.700502038,0.0495218374,0.771393239],[-0.280584455,-0.788820863,-1.540123,-0.295349419,0.238474429],[1.31259131,2.657103,0.7266072,0.43705377,0.0602457263],[-0.03860672,-0.3794294,1.27931106,1.24923491,1.72152734]]},{"rows":5,"cols":5,"data":[[-0.5487313,0.08153943,0.374652922,-0.8474309,-1.1657294],[-0.335728049,-1.00133348,-0.844740152,-0.7621512,-0.811994553],[-0.6145731,-1.80597556,-1.01745892,0.301333636,-0.7229416],[0.6195823,0.350123882,-1.47864032,-0.5506184,-0.31739223],[-0.8207955,-0.7873449,-0.1617043,-0.975473046,-0.6162014]]},{"rows":5,"cols":5,"data":[[-0.5665746,-1.37632442,-0.476107121,-0.457364649,0.150486544],[0.389618754,0.0637545139,-0.1158262,1.43756986,0.561594069],[1.50429833,3.52033114,0.7422891,0.224902838,0.308165848],[-1.36333942,1.382847,3.52425075,1.50179124,0.00210906938],[-0.3648584,-0.8287443,0.07173635,1.6439029,-0.218713179]]},{"rows":5,"cols":5,"data":[[0.201750785,1.11985373,-0.0692808256,-0.580521464,-0.910333335],[0.3269893,1.069463,0.197970748,-0.284484535,0.4173906],[-1.4370079,-0.3540283,1.76506734,2.13015556,1.11062324],[-1.44162881,-1.52206659,-0.6467967,0.184585974,0.7308327],[0.517679751,-1.07463443,-1.21296215,-1.27306366,-1.45944238]]},{"rows":5,"cols":5,"data":[[0.696069062,-0.9198498,-1.93627286,-0.226990774,-1.83630061],[0.9243876,1.10158718,0.342045158,-1.06840682,-0.186196432],[0.169301048,0.9270285,-0.559810042,-1.35312629,-0.244762123],[-1.69512379,-0.479915828,-0.2550852,-1.52114165,-0.6977692],[-0.7579419,-0.445876569,0.3543565,-0.06488137,-2.771186]]},{"rows":5,"cols":5,"data":[[-1.46163332,-0.0123302592,0.315829456,-1.28397465,-0.22223182],[-1.06943262,-0.7847401,-0.7900343,0.05396945,0.4575567],[-0.008277101,-0.409079283,-0.4765186,-0.0420708321,-1.122817],[-0.5996038,0.008885449,0.808861256,-0.05323524,0.243756324],[-1.70703173,-1.62955868,-0.8328772,-0.5728545,0.23861219]]}],[{"rows":5,"cols":5,"data":[[-0.401744932,-0.0102634681,0.282869577,0.07478593,-0.501140654],[-0.838385642,0.5617556,-0.0416654423,-0.225189343,-1.10074079],[-0.902737856,-0.6807408,-0.381712615,-0.7444427,-0.165158138],[-0.4254777,0.4632012,-0.6586209,0.491085172,0.348312855],[0.05478865,-0.363340229,0.0027545148,-0.277015,-0.6124808]]},{"rows":5,"cols":5,"data":[[0.6516264,0.6243801,0.344805747,-0.884396553,-0.7585564],[0.9001271,-0.229677454,0.228830934,0.344805062,0.329143733],[0.5117608,-0.115531281,-0.323793739,-0.967971146,-0.2938759],[0.67875737,0.201884955,-0.344296962,0.8197503,-0.939329743],[-0.9641336,-0.257204741,-0.413038433,0.180381864,-0.00068571954]]},{"rows":5,"cols":5,"data":[[-0.5253019,0.251168549,-0.9289108,-1.03555512,-0.387909651],[-1.16322255,-0.861153,-0.2939298,-0.324615836,-0.466250926],[-0.426636815,-0.746964633,-0.54253006,-0.74021095,-1.27597237],[0.3806265,-0.431682646,-0.007454865,-0.2684026,0.217089623],[0.4243711,-0.859936655,-0.9357331,-0.518394768,0.505696]]},{"rows":5,"cols":5,"data":[[0.8379397,-0.573391,0.4259906,-0.289272934,-0.851308346],[0.116720743,-0.195178315,0.6156178,-0.173300609,0.297758162],[-0.243338972,0.6889879,-0.8345029,0.6166172,0.0258778576],[0.114284366,-1.10944474,-1.18005764,-0.17264168,0.456694],[0.48660633,0.06776511,-0.8179812,0.6276077,-0.707229853]]},{"rows":5,"cols":5,"data":[[0.453689963,-0.132260025,0.20926176,0.0300131328,0.237582013],[1.2223562,-0.263472974,-1.19317341,-0.534263849,0.131984428],[0.6813434,-0.523228049,-1.24699175,-0.747011364,-1.421728],[-1.46335411,-0.707824945,0.5238045,-0.3344989,0.387105674],[0.16442959,-0.9636315,0.3448796,0.330974132,-0.6025953]]},{"rows":5,"cols":5,"data":[[0.140529051,-0.173399851,0.0868787542,-0.429231644,-0.3649571],[0.217496753,0.9993681,0.40499872,-0.777060151,-0.0645369142],[1.24205828,0.328901052,-0.578255653,0.146291614,0.521432638],[0.307975382,0.8612757,0.5095755,-1.0010072,0.301430553],[1.08056164,-1.01378453,0.0674729943,-0.236983672,0.5778684]]}],[{"rows":5,"cols":5,"data":[[-0.6662551,-0.0487997644,0.29957357,1.00339437,0.0828482956],[0.0159909874,0.715752244,0.8334398,-0.47356227,-0.194672629],[0.1854065,0.613921046,-0.0471094064,0.712788,-0.352615178],[0.855413735,0.335911721,0.9000537,0.570524335,-0.6062535],[-0.445613056,-0.9522785,-0.473868,0.513162553,-0.0726659447]]},{"rows":5,"cols":5,"data":[[0.579333961,-0.6894387,0.454105556,-0.6613863,0.06141905],[-0.227333024,0.254025638,-0.290274531,0.311178863,-0.5175472],[-0.862396,-0.309519321,0.6896775,0.280286074,0.8787263],[0.9504511,0.5124548,0.866942763,-0.5875561,-0.7264509],[0.259228081,-0.106288448,0.9123634,0.327147067,0.466661662]]},{"rows":5,"cols":5,"data":[[-0.867295,-1.02116263,0.8190766,-0.544978738,0.06409854],[-0.9124046,-0.812582135,0.491493434,-0.232853085,0.106389761],[-0.6067132,-0.8894716,0.266020834,0.28592065,-1.087],[0.6068171,-0.231657565,0.5121135,0.224755555,-0.577223],[0.133585349,0.641485,-0.37282455,0.5627426,-0.495893151]]},{"rows":5,"cols":5,"data":[[-0.06841855,-0.9185721,-0.916945338,0.1575649,0.6272551],[-0.231436849,-0.5315275,-0.887183964,-0.0542616844,-0.33225432],[-0.504906833,0.356932759,-0.762441456,-0.677931845,-0.8732663],[0.7078432,-0.0483922,-0.2034723,-0.918048263,0.3161903],[0.641749263,-0.9635554,-0.610760033,-0.642257154,-0.52879107]]},{"rows":5,"cols":5,"data":[[-0.725417554,0.258644134,-0.4228525,-0.287098676,-1.02029264],[-0.530667365,0.407029748,-1.00753868,0.764172435,0.686228931],[-0.9186765,-0.8806033,-0.8084439,-0.04561995,-0.7802188],[-1.05510318,-1.0118531,-0.6229409,-0.277038157,0.378753334],[-0.633131862,-0.464843839,0.3212677,0.167590544,-0.0334537923]]},{"rows":5,"cols":5,"data":[[-0.8456526,-0.309238553,-0.4330594,-0.689689934,-0.1556452],[-0.09585315,0.687335134,0.5802662,-0.116994932,0.4671998],[0.4167597,0.775505245,0.263750523,-0.33369422,-1.01588142],[-0.04125926,0.176387742,-0.6444388,-0.6646518,-1.00696182],[0.495699048,-0.431058139,0.65689373,0.5998767,0.2918361]]}],[{"rows":5,"cols":5,"data":[[1.05106783,1.31462812,1.2667048,0.4159918,0.9087484],[0.4909311,0.8783316,0.2705526,-1.258072,0.0619291924],[0.5441624,-0.14849855,0.54563123,-0.1647538,-0.486050844],[-0.6207276,-0.3048082,0.632147431,0.6521608,-0.274613321],[-1.13028145,-0.6069988,0.5007202,-0.266335964,-0.298779935]]},{"rows":5,"cols":5,"data":[[-0.09639554,-0.871043742,-0.316287,-0.169717982,0.217922136],[0.510857165,0.144345954,-0.1991927,-0.261113137,0.293833584],[0.335411429,-0.73378545,-0.516562462,-0.0242740531,0.531614959],[0.479105383,-0.69429934,0.0448316745,-0.276265562,-0.803762853],[-1.01866865,0.3891312,0.273310274,0.461660534,0.461896837]]},{"rows":5,"cols":5,"data":[[0.286608458,1.01457965,1.86504221,0.396304131,1.196258],[-0.6910519,0.8206072,-0.45906812,-0.6202063,-0.486263782],[0.07646401,-0.0567025058,-1.05844867,-1.0897876,0.167667791],[-0.945002854,-1.10052311,-0.544134259,0.293337256,0.920085669],[0.479375184,0.271077633,-1.26705921,-1.17167413,0.4680045]]},{"rows":5,"cols":5,"data":[[0.368605167,0.334336966,-0.4413303,-1.04323733,-1.4117564],[0.453973025,-0.3382423,-0.0103275869,-0.287043631,-0.937272131],[-0.6250649,0.08415024,-1.11759007,0.227188274,-0.838290334],[0.101901837,-0.259395,0.363311231,-1.29726231,-1.3044529],[-0.5080311,0.824685454,-0.8834951,-0.8264551,-0.0677645653]]},{"rows":5,"cols":5,"data":[[-0.633008838,-0.272219777,0.186782956,-0.849299669,1.43523014],[0.113769874,-0.4956896,0.40478915,0.578547835,1.15776765],[-0.0305554438,-0.183359191,-0.539084256,-0.473383874,1.14817667],[-0.7147293,0.416915447,-0.549095154,-1.80742478,1.3509773],[-0.04391261,-0.9311739,-0.34488368,-0.4903897,1.19121373]]},{"rows":5,"cols":5,"data":[[-0.2723799,1.36935377,0.0147071583,-0.7086099,-0.7948234],[0.441976428,-0.190101847,-0.796692967,-0.8216543,-1.25789607],[-0.132838532,0.133061275,-0.134449631,0.08020865,0.153818682],[-0.8944125,0.5821596,-0.651739657,-0.8792424,-0.103659205],[-0.9234085,-0.567226,0.10365057,-0.143979743,-0.0387600027]]}],[{"rows":5,"cols":5,"data":[[-0.228536487,-0.460209042,-0.795957,-0.420990884,-0.423436135],[-1.12285078,0.02278746,-0.891033232,-0.9218039,0.186464652],[-0.028010685,-0.9398166,0.6107409,-0.236979574,0.956919253],[-0.5111314,-0.105084784,-0.7487931,-0.7362072,-0.882725],[0.7080168,-0.410890728,0.856915534,-0.2751052,0.701349437]]},{"rows":5,"cols":5,"data":[[0.624691069,0.132336751,0.00855607,-0.818422854,0.5982993],[0.9642645,-0.5023699,0.303320259,-0.216988817,-0.9646836],[-0.152606159,-0.320514172,0.751752734,0.71331507,-0.91811657],[0.6209544,-0.2162569,-0.0074201175,-0.936800361,-0.5833687],[0.669803739,0.6179479,0.6720303,-0.980706453,-0.4040815]]},{"rows":5,"cols":5,"data":[[0.8172318,-0.986996,-0.124995261,-0.464013666,0.2727402],[-1.16061747,-0.7108361,0.333324552,-0.2100381,-0.2738504],[-0.297226131,-1.29928732,0.7866719,-0.5843308,0.232428253],[-0.0037160127,-0.04442275,-0.2397521,-0.390971452,-0.109471053],[0.8452225,-0.0679260641,-0.609261036,-1.00141776,-0.811858]]},{"rows":5,"cols":5,"data":[[-0.03402772,0.2546615,0.551940143,-0.7422645,0.879065454],[1.25852263,0.946708739,-0.029730631,0.5107227,-0.9433667],[0.8309792,0.327958822,-0.5156846,0.352199763,-1.00882542],[-0.916913331,-0.118410096,-0.3472216,-0.204393461,0.4397697],[0.556095541,-0.260459661,-0.491989255,-0.428862363,0.6278125]]},{"rows":5,"cols":5,"data":[[-0.389118582,-0.18547304,-0.2223837,-0.177800164,-0.350777],[-0.5106073,0.9154486,0.107428573,-0.6025284,-0.463397682],[-0.666515648,-0.1714099,0.206418946,-0.06669466,-0.226259276],[-0.325469583,-0.3214728,-0.7189262,-0.71048665,0.5506413],[0.221964344,-0.8710606,0.315200061,-0.492231518,-0.252107322]]},{"rows":5,"cols":5,"data":[[0.312205821,-1.012281,0.2601068,-0.6021262,-0.337473243],[0.732057154,-0.3774548,-0.201545015,-0.5717136,-0.180094138],[0.0839210451,-0.09603349,-1.010647,-0.317980677,0.4923495],[0.903170466,-0.5656183,-0.8774392,-0.285319149,0.5037827],[0.0709612146,0.729338,0.8890986,-1.07040131,-0.155429274]]}]]],"Weights":[{"rows":120,"cols":256,"data":[[-0.4774321,-0.5240844,-0.910342455,0.183017716,-0.626464844,-0.187578455,0.8246083,-0.4504805,0.8570178,0.9010748,-0.6558409,-0.8014146,-0.603312731,0.6973159,-0.435292959,0.10763032,-0.9856337,-0.2966612,-0.9551808,0.9542162,0.7304096,-0.134531081,0.651022255,-0.113417067,-0.680812657,0.251725316,-0.7944723,-0.396493733,0.160242066,-0.879259169,0.102493368,-0.691126347,0.9000623,0.780151546,-0.99350363,0.395657539,0.179794952,-0.6427714,-1.00169313,-0.7883311,0.287961662,-0.188683376,-0.709250331,-0.109084986,0.106473342,0.0522138365,0.743223548,-0.695081353,-1.00400591,-0.6050486,0.134460568,0.0416887663,0.8938039,-1.03698564,0.0600376278,0.712685645,-0.5143793,0.173430219,-0.360202163,0.0501306169,-0.0857140347,0.384892374,0.01462895,0.7228539,0.105919562,-0.838585854,-0.111834295,-0.152151614,0.912066638,1.03211236,0.0416261628,0.719486237,0.156730577,1.01636052,-0.634334564,-0.131701052,-0.552423954,-0.2803474,0.58459723,0.413680345,0.533474565,0.8372686,-0.457586318,0.139708281,0.194284618,-0.9679782,-0.5386344,0.479668468,-0.4078913,-0.7688794,-0.434171557,0.374584854,0.587222755,-0.137894258,0.6374471,-0.6489844,0.713440359,-0.6120063,-0.99922365,0.117267296,-0.4988336,0.01833863,-0.338466316,-0.297903121,0.349802643,0.0556776449,-0.6107743,0.898528337,0.44998318,-0.9077138,0.141261965,-1.0372951,0.641099632,0.393816382,0.630870342,-0.2996756,-0.5104975,0.865584135,-0.44146654,-0.149833515,0.56182003,0.226520568,-0.932891,0.357189983,-0.288340718,0.221586,-0.759937,0.704990149,-0.6879092,-0.7175916,0.32550934,-0.797251463,-0.2369852,-0.4522299,-0.377446562,-0.4877771,0.178353056,0.8134883,0.7870536,-0.8757956,0.6610879,-0.445747882,-0.896068037,-0.471891642,0.0433682874,-0.6722506,0.458289057,-1.21974659,0.319408625,-0.4355806,0.7369469,0.47168386,1.57152247,0.739633,0.750958443,0.231984124,0.0351678357,-0.192615762,-1.66532326,-1.10242212,-0.0761595443,-0.630057454,0.4046597,0.07134349,-0.308422357,-0.5792518,0.346196026,0.237756982,0.00164229551,0.00174487452,0.509324551,-0.328294516,-0.6134258,-0.556249,-0.06024459,-0.121109895,-0.2064412,0.751316369,-0.642249167,-0.786340356,0.142738417,-1.05069232,-0.388623446,0.27185306,-0.7963321,0.219008371,-0.153528467,0.8403351,-0.248077616,-0.0334724,0.546917,1.497806,0.7177266,0.623476446,0.31619215,-0.008715219,-0.06791802,-0.0621958449,0.7544311,-0.6815916,0.263649583,-0.221586809,0.408409238,-0.788432837,0.342339128,0.24888587,0.587893844,0.02348599,-0.8379313,-0.3194907,-0.7564008,0.373018563,0.002685538,0.8817341,-0.236479923,-0.277731061,-0.978394747,-0.8806124,-0.24365513,0.232367277,-0.6278095,0.72264,-0.821182966,0.486832231,0.517961562,0.542745769,-0.132651061,-0.6121735,-0.126077473,-1.05797935,-0.9227164,-0.909059644,0.5947677,0.941928566,-0.026828479,-0.4607446,-0.370398,-0.6729433,-0.8150789,0.2420213,0.759768248,0.08427004,0.4061315,-0.7624749,0.06503511,-0.7540411,-0.08843355,0.8883243,-0.09051634,-0.363689929,0.06691494,-0.212213516,-0.835588038,-0.456912339,0.881454647,0.4999746],[-1.0730139,-0.3535667,-0.713352859,-0.0717493,-0.6588883,0.16050522,-1.243845,-1.36362791,0.104204781,-1.27827513,0.158605978,1.26212525,-0.034629602,-0.700605452,-0.857239842,1.71121466,0.9206611,0.752111137,0.4787355,0.289059,-0.443385124,0.9736977,-0.575001657,0.198803112,-0.37488243,0.0225067977,0.498048335,-0.574771464,-0.0756827,0.08675614,0.9500047,0.28032136,-1.28850436,0.1180727,0.737879634,-0.147157624,0.463748932,-0.7020999,-0.2521911,-0.6275486,0.0296778921,-0.466052532,-0.0441274866,-0.2867348,0.0247362759,1.04372072,-0.107894994,-0.438111931,-0.3444363,0.188377276,-0.638784,-0.407788068,0.246698722,0.468546569,0.6908939,0.117718026,0.326386571,1.01050985,0.0537573,0.05068788,0.514189,-0.123485737,-0.2804947,0.127088457,-1.40990973,-0.972073257,-0.398878068,0.266080171,-0.9414925,-0.230232254,0.6078969,1.32859254,1.05724525,0.937135935,0.449068576,0.781088531,-0.009845222,1.44084811,0.08639849,-0.745839357,-0.812923849,-0.242576212,0.8379414,0.458809733,-0.6789464,0.44482854,-0.6873656,0.477903664,-1.00088727,0.027096618,0.4048731,0.07268038,0.296892732,0.3168397,-0.129832014,-0.00122314726,-0.964539468,-0.8985808,-0.225775346,-0.6374884,-0.138609037,0.216725543,-0.475438327,0.268183559,0.6570991,0.216212481,0.649132252,-1.14346814,-0.911960661,-0.9525955,-0.6712161,1.12880731,-0.45006004,-0.9635511,-0.177161366,-0.08821413,-0.9293647,0.778531,-0.04115881,-0.5677177,-0.6625251,0.442854077,0.4338907,-0.3133302,0.8762447,0.334093153,-0.658476353,0.492133945,-0.589400232,0.5891897,0.449789882,-0.449295968,-0.1472268,-0.774841666,1.04318571,-0.0422441438,-0.6556226,-0.5834267,0.797656238,0.147568271,0.7238453,-0.856062055,0.395659059,-0.940389037,-0.126026288,-0.2917967,0.329167575,-0.06861321,-2.10149765,0.472973675,0.7498828,-0.8152512,-0.268999964,-1.20823157,-1.63610661,-0.9180015,0.7208412,1.33030128,1.30541623,-0.541282058,-0.8654518,-1.34166253,0.6405122,-0.640532136,-0.97854203,1.02935553,-0.3638778,-0.984735668,-1.75562513,-0.9889338,-0.900980949,0.588094831,0.117005408,-1.23765814,-0.06539022,1.07389152,-0.9036027,-0.00113172946,0.8669804,-0.312480658,1.52440929,0.034478616,0.075572215,-0.441161752,0.486961216,-0.2352267,1.03816521,-0.5690589,1.11596537,-0.6802856,-0.22221832,-1.55132842,-0.0538748764,0.509901643,-0.8555085,0.307093769,-0.482397318,-0.195583031,0.0141576631,-0.2138939,-0.9254557,-0.06701031,-0.114598796,-1.20390749,-0.165532827,0.41401276,-0.279705226,0.6234293,-0.0226795953,-0.71356225,0.274459958,-0.594908,0.8017467,0.0139203155,-0.355139583,0.734122336,0.06584524,-0.152574837,0.890258,-0.7736902,-0.365288019,-0.344711065,-0.435745478,0.6531299,0.04981144,-0.634944,-0.376661628,-0.5515102,1.06202042,0.363424778,0.0752608255,0.2804465,-0.8928798,-0.8798219,-0.8305312,-0.07326964,-0.762554765,-0.4305286,1.041812,-0.0219023526,-0.527300358,-0.66905874,0.585171461,0.5541514,0.346545726,-0.214411691,-0.307004362,0.6828823,-0.170001358,-0.633299351,-0.5408107,0.5728131,0.003783613,0.0324421562,-0.412107348,0.531152964],[-0.537210643,0.3611008,0.6498854,0.14784047,-0.14876841,0.9074614,0.203463867,1.18629277,-0.178644314,-0.9442539,-0.5813213,0.488901377,-0.36482197,-0.889103949,0.07975113,-0.911329567,0.0286819041,-0.31424,0.666919351,-0.712902844,0.0859559551,-0.101742581,-0.7347666,-0.799847066,0.486278653,-0.308481127,0.5695554,0.467292845,0.07010578,0.810824752,-0.824747,0.08292881,-0.884741366,-0.123479165,0.415317774,-0.313121647,0.5649912,0.24953413,-0.6686678,-0.688325942,0.0232831519,-1.116518,-0.2985527,0.166500732,-0.400452554,0.430135071,0.342877448,-0.113898732,-0.1968567,-0.722068548,-0.3757745,-0.6644592,-0.343717217,-0.863004565,-0.452217162,0.6509105,0.122359492,0.4587184,0.460429937,-0.8867464,-0.370381445,0.8240578,-0.0328863263,-0.06604666,0.7823683,-0.206302747,-0.361323446,0.438803583,-1.49838066,-0.893872142,-0.9446273,0.717209,-0.9265496,0.8092217,0.139114663,-0.24309285,-0.130089223,0.9007398,1.15666568,-1.29869461,0.5472896,-0.1432942,-0.41777575,-0.363574862,0.151090011,0.8415741,0.770877242,0.8102148,-0.560045242,-0.8009137,0.9090658,-0.1479692,-0.8410051,-0.567394137,-0.8473976,0.5618463,0.609762967,0.7397887,0.274411857,0.383396417,-0.826891363,0.344929874,-0.46448195,-0.6241685,-0.817935646,-0.114200704,-0.877703965,-0.6343422,0.170884863,0.385283738,0.621921062,-0.9689033,0.329062,0.06904875,-0.467684865,0.4134229,0.02842748,0.7929623,0.8614704,-0.9744174,0.404157937,0.388799816,0.263376653,0.9392872,-0.411726922,0.321349353,0.6606608,0.8836369,-0.115438007,0.6349855,0.466822,-0.421216339,0.7221145,-0.740068555,0.9509192,-0.86244756,-0.6922067,-0.7627599,-0.506919861,-0.732681453,0.6874719,0.465669423,-0.355842918,0.143919349,-0.551542044,0.9563286,0.595538259,-0.006332984,0.7223785,-0.7021755,-0.09155627,1.467499,0.781990945,0.215136781,-0.901531339,-0.208973348,-0.7602537,0.12354371,0.4629967,-0.448384851,0.731724262,-0.4346762,0.412741423,0.75890696,-0.701564252,0.399369419,-0.7091666,0.172612607,-0.1851877,-1.28147316,-0.373297423,-0.21193403,0.2253882,0.591350555,-0.270993918,1.06941283,-0.932522655,-1.34018493,-0.139839053,-0.279204756,0.87981087,0.0458583944,-0.5673708,-0.929433,0.712893069,1.035099,-0.2663174,-0.46030584,-0.8816214,-0.8644171,-1.655919,0.758967,-0.563554943,0.5770213,-0.04190458,0.407472759,-0.882626653,-0.0333499461,0.12292023,0.689625561,0.652489364,-0.521133,1.08168852,0.515912354,0.461148053,0.6957709,-0.116714887,-0.849786937,-0.174491018,-0.9201522,1.01177216,0.934839368,0.461179346,0.12535505,0.103964776,-0.363839716,-0.8673778,0.04799472,-0.3908238,-0.5574224,-0.104555212,0.780545354,-0.165872231,0.904292941,-0.7255213,0.551328242,-0.6178732,0.6367513,-0.268516332,-0.082361944,0.807053745,0.729346752,-0.144569337,0.154186875,-0.156616718,0.3794613,-0.5263831,-0.0859596,-0.0796563253,0.5714206,0.06702097,-0.798117161,0.687636,-0.748484552,0.184192643,-0.817468941,-0.839283645,0.340674639,-0.448667228,-0.5856618,0.2532248,-0.00477826362,-0.6018704,-0.3096729,-0.3615686,0.7288251],[0.729526162,-0.557004631,0.5802037,1.27802539,0.315623939,-0.137754008,0.788570762,0.9420419,-0.6867088,-0.8118376,-0.223107651,0.298793823,-0.9042052,0.718533158,0.6847158,0.12010701,-0.756335557,0.240523666,0.385766238,-0.3941637,-0.9245671,-0.316149116,-0.255714417,-0.9297464,0.432209,0.108289942,0.148252025,-0.859178543,0.7267494,-0.23697874,0.385484278,-0.7239783,0.194059163,0.168945149,0.6740029,-0.2801099,0.5180045,-0.06452543,-1.04642725,-1.125586,-0.332046241,1.007917,0.8252827,-0.232276529,-0.0559860878,-0.81030786,0.146394283,-0.176301658,-0.5379202,0.8068793,-0.196003541,0.0153079405,0.3803707,-0.9234361,0.988166332,0.13150239,0.325828075,0.221184149,-0.3455819,-0.7178119,0.8635359,0.6694371,-0.386410445,0.9134649,0.0456253551,-0.295087785,-0.319717735,0.03185369,-0.565119147,0.5287423,-1.36642075,-0.42673704,-0.21291402,-0.03322124,-0.9908979,-0.7782921,-0.203402847,0.6452592,-0.409848034,0.0224889126,0.971423447,-0.5886875,0.7338326,-0.9176732,1.00500786,-0.687514067,0.0044220523,-0.141864881,0.3527405,-0.3242061,0.228523269,-0.986857355,-0.5896892,0.9522001,-0.519766152,0.182136774,0.7797641,-0.6558496,-0.833914042,-0.3347918,0.8153507,-0.9339907,-0.479497671,0.0214725658,0.5714253,0.39094013,0.9988565,-0.9049146,-0.9699059,0.612470448,-0.85009104,0.4475202,-0.583609641,0.504675448,-0.681922257,0.493302971,0.706175864,-0.912066638,0.600358844,-0.331710368,0.6209022,0.5393772,0.719532251,0.5282652,-0.8893319,0.9396824,-0.000439775671,0.187451422,-0.4402481,-0.114863239,-0.5789762,-0.4457144,0.597907245,-0.820875168,0.161088511,0.943354845,0.843888462,-0.289494962,-0.5857568,-0.401964366,-0.7134703,-0.209400252,0.06506789,0.6839466,-0.0537371226,0.661174953,0.407734483,0.02725792,0.980281949,0.4512492,0.8962924,1.35937023,-0.105003223,0.842109859,0.427917778,-0.203085139,-0.7224717,-0.1502885,-0.3225423,0.6322924,-0.809496343,-0.214451447,0.69741565,0.22811386,0.2970355,0.7173941,1.12083614,-0.5428987,-0.362977952,-0.551208258,0.246335164,0.106894985,0.7497043,0.04557246,-0.720361352,-0.169904575,-0.37574628,-1.04223883,0.100529149,-0.282263249,-0.8726881,-1.23987031,0.250101626,0.434482276,0.667802632,-0.227147162,0.685493,-0.7122973,0.108343847,-0.000758701761,0.8380103,0.197158784,0.8057619,-0.180885762,-0.6462915,0.5315,0.189110622,0.9591084,-0.4700626,-0.1958052,0.815137148,0.6588055,-0.520105,0.448701233,0.8780592,-0.6119526,-1.02486217,0.5634926,0.280041456,-0.9128526,0.879183054,-0.7402897,0.812867939,-0.487134665,0.5502185,-0.796492636,0.280887932,-0.7200552,0.6676336,-0.5662423,-0.9271636,0.8669935,-0.0394187346,0.479348749,-0.373900473,-0.5347669,0.2007365,-0.154929623,-0.337969154,-0.19756034,0.7419681,-0.657626331,0.6676416,-0.537706554,-0.5116513,-0.6932121,0.5770038,-0.9378045,0.43245253,0.130255878,-0.3182989,0.846088052,-0.170653567,0.2559497,0.001790193,0.365193069,0.134813428,0.375331253,0.246008337,-0.9510635,-0.7273871,-0.225975111,-0.7412588,-0.932100356,-0.34722662,0.8821542],[-0.199364975,0.145924583,-0.9527772,-0.8212367,0.421002984,0.271163762,0.0149586191,-0.506024837,-0.209875926,0.677224636,0.185440525,0.5168186,1.21342647,0.3159642,-0.6432314,-0.8284061,-0.0117779616,-0.3508123,0.786165059,-0.7985543,0.132660761,0.78475666,-0.506474733,0.344569474,0.3223189,0.877543569,0.5956824,-0.331180185,-0.6116935,-0.2173101,-0.7330035,0.447573751,0.5400524,-0.3271265,1.16598618,-0.13820383,0.448021263,-1.09239924,0.8156686,0.6927013,-0.316701382,-0.707152963,-0.132222772,0.3365058,0.0108461259,0.6766584,0.09246822,-1.15856946,0.469395846,0.0153998313,-0.9589923,0.782057,-1.04442191,-0.134569988,0.0921562761,-0.326321363,-0.478456676,0.208124146,-0.8066293,0.100339681,0.00260221725,-0.280946046,1.20670033,0.6212161,-0.171266481,-0.125840619,0.211597845,0.589350164,0.32480222,0.5330052,0.427472442,0.786188841,-0.5913764,0.0108770356,0.7660497,-0.08153037,-0.200152621,-0.143424585,-0.602118731,0.03783982,-0.502868235,0.399953455,0.222477913,0.4144028,-0.265803963,-0.371277422,0.221084654,0.584144831,0.680421352,-0.05776973,-0.7521373,-1.00485337,0.956764,-0.49774152,0.7295435,-1.00965786,-0.662021041,0.09982174,-0.423437536,0.544640839,-0.7817249,-0.9137457,-0.07229586,0.3278554,0.308566,0.218075544,-0.07649357,-0.9939213,-0.030929992,-0.760507643,0.8654593,0.795174,-0.321469665,-0.487080038,-0.101406068,-0.7441515,0.24232018,-0.389051378,-0.0399297178,-0.518027,0.95144546,-0.75891453,0.691743731,-0.6016957,0.8448322,0.8012499,-0.140038446,-0.6722884,-0.459484547,0.397298485,-0.6420583,0.8743668,-0.672669649,0.108374149,0.3529428,-0.486076057,-0.5079018,0.694602132,-0.9123303,0.5414628,0.6735645,0.201370567,-0.6352786,0.449013621,-0.699486256,-0.642149,0.298815459,0.193956718,0.642343462,0.07840633,-1.64641988,-0.1207184,-1.26573062,-1.53349972,0.7786297,1.07350457,0.117529295,0.411690861,0.7874724,0.398531049,-0.8814848,0.189866677,0.759961069,0.6453453,0.9019309,1.44839907,0.4955167,0.63633585,-0.27939558,-0.135473624,1.10306442,0.743648469,-0.985753357,0.335863352,0.0252051838,-0.3129581,0.8162023,-0.501375,0.8063952,0.4048857,-1.75606525,-0.779680133,0.238926709,0.270068228,-0.8003002,-0.969743848,0.298689574,-1.46195889,0.7161534,-0.292643815,1.04453838,0.9799428,-0.9668067,-0.41969502,0.2677576,0.0423633754,0.6479506,-0.34147048,0.6302035,0.0465035,-0.05356855,0.652297854,-0.592133,0.5543862,0.9229622,0.40186286,0.412175953,0.03583116,0.3567527,-0.163366348,-0.8456498,-0.691322744,0.481086671,-0.7879934,-0.0126578948,-0.006908603,-0.7350707,-0.250478983,0.4037574,0.290587068,-0.988957942,0.311011463,-0.896743953,0.8626312,-0.538315237,0.957823,0.560574949,1.00867629,-0.6850633,0.7446465,0.159239843,0.45798564,-0.3841302,0.9533915,-0.285044044,-0.05059613,-0.3734835,-0.127775759,-0.280291021,0.0196353234,0.375444949,-0.1021218,-0.1776834,-0.287233949,0.207745254,0.675669432,-0.5827613,0.851727664,0.5966742,-0.7892512,-0.179836586,-0.02437631,0.2576409,-0.6680424,0.171795473,0.734473169],[0.763391852,-0.236418918,-0.3727985,-1.05962789,0.967924833,0.479361534,-0.64008,0.5886842,0.826000333,-0.16076237,0.6866244,0.533645868,0.5233728,-1.02071333,0.810048938,0.04244645,0.841052234,-0.5063928,0.8997958,0.213183329,-0.5199782,0.406888932,-0.354735941,-0.252003253,0.449247152,0.7202105,-0.6752627,0.966446459,-0.09420282,-0.7654233,0.956352055,-0.7164604,-0.2854152,-0.112303577,0.3248553,-0.341498137,-0.7388191,0.0428338572,0.386062384,-0.7309368,-0.7944245,0.107090928,-0.0871886238,-0.736461461,-0.9541717,-0.173789755,-0.775624335,0.44929,-0.5348323,0.65069133,0.0144715486,-0.208155736,-0.7071699,0.8029101,0.236324787,-0.8565638,0.735999346,-1.0287168,-0.441764057,-1.02123666,0.129627392,-0.238421142,-0.376779616,0.2931362,-0.0329988338,0.404297382,0.05695548,-0.03565413,-0.2681823,-0.146040767,-0.362491637,0.00128810038,0.307789445,0.8363466,-0.04284503,0.263598621,-0.272894055,-0.488864422,-0.3680064,-0.5179259,0.5493714,-0.1491368,0.572395563,0.228707954,0.1898755,0.144054785,0.8318512,-0.132713377,0.653465748,0.098935,-0.08017915,-0.9627146,-0.7157544,0.0929601,0.00257670972,0.5200716,-0.477519,0.492524147,0.31661582,-0.432665944,-0.9491265,0.351782918,-0.3622241,0.177730933,-0.07549095,-0.9921456,0.4349837,-0.4406786,-0.0206659157,0.9029101,0.7430383,0.341872722,0.4040454,0.9781937,-0.458325,-0.9166333,0.05625303,0.464226365,-0.6386683,0.819985449,0.5489494,-1.00158954,0.141871229,0.7183191,-0.7964076,-0.262813568,-0.21892041,-0.7257406,-0.1640965,0.415873677,-0.3323175,-0.0450486839,0.0466027223,-0.850787044,-0.427835137,-0.7714418,-0.796038151,-0.658407032,-0.714436948,0.210040033,0.708265245,0.236901224,0.8145092,0.776545346,-0.0643205643,-0.143934742,-0.602241,-0.773387,-0.4619691,-0.0351194665,-0.453381181,0.06974702,0.396443874,0.6925286,0.218407571,-0.777284861,-0.760775268,-0.101749562,-0.177841783,-0.926188469,-0.03449229,0.113941245,1.18184662,0.7554467,0.0439933054,-0.129436046,-0.4756806,0.274075538,0.395977229,-0.8530748,1.06668115,-0.311154723,0.14696306,-0.0780031,-0.824539542,-0.7166707,-0.6556802,0.0994962454,-1.45378792,-0.63003093,-0.919902,-0.2643273,0.473873943,0.7418983,0.312727153,0.820637643,1.08120382,0.5272067,0.248693034,-0.606268942,-0.6757064,0.303611279,0.288523227,-0.8868988,0.973091662,-0.482950628,0.4441699,-0.744134843,-0.362522155,-0.500127435,0.119653828,0.473452061,-0.20268546,-0.8529126,-0.05698806,0.7124165,0.798205554,-1.06259072,0.453147858,-0.234516844,0.8593733,-0.197500244,-0.2821236,-0.6470307,-0.824913263,-0.2844872,0.3364544,0.869783461,-0.398553163,0.406010628,0.0135887777,-0.109844379,-0.8205418,-0.0690759942,-0.7488881,-0.232485518,0.47901538,0.122173771,0.158412114,0.4804,-0.188586429,0.9360911,-0.382994354,0.6494547,0.5665469,-0.439725518,0.641713858,0.7011162,0.0283574164,0.241326138,0.8551944,0.7698868,-0.9378105,-0.7329989,-0.339546621,0.241380528,-0.5000417,-0.05277982,0.8965077,0.235879451,0.197716877,0.588411033,0.654690146,0.2550544,0.6407178,-0.765815556],[0.280274063,0.5680452,0.6150141,-0.5071338,-0.8551726,-0.321656585,-0.7640477,1.1713407,0.886712134,0.956407,-0.8118388,0.337813169,-0.193301573,0.5311069,0.545012,0.8970131,-0.14499402,0.2602557,0.5440529,0.216292888,-0.193616077,0.825022936,-0.730980933,-0.0155926626,-0.7605521,-0.508464634,0.2267472,0.9550264,-0.727576137,0.250633657,-0.7205639,0.463536,1.01874018,0.282491565,0.353657842,0.688110769,0.630474,-0.1546884,0.117369808,0.108618073,-0.06031415,-0.933556,-0.5984841,-0.491025,0.0009411753,0.410847753,-0.938385,-0.551346,-0.7421659,0.285316676,-0.2502844,-0.648204744,0.675785959,-0.575819731,0.290215373,0.4132425,0.733360469,-0.2066779,0.857259,0.784216046,0.5325974,-0.180211648,0.504083633,-0.3387023,0.5590343,-0.276636928,0.06767741,0.426032662,-0.6509301,0.367539018,1.24353886,-0.77786845,-0.51556313,-0.07065649,-0.254151851,0.00351124629,0.316960454,0.652879059,0.9358874,-0.117919028,-0.673569739,-0.09776934,0.7264803,-0.2635392,-0.4552217,0.9917773,0.801215649,0.8394268,0.9593063,0.9213116,-0.7516878,0.248455063,-0.06358341,0.354788661,0.62270385,-0.777887762,-0.5221392,0.7765718,0.0899001,-0.7247282,-0.714856148,-0.269510239,-0.91809684,-0.0708642751,0.45463413,-0.320666,-0.943004966,0.204613239,0.977622032,-0.339737028,-1.03846812,-0.712944746,-0.09568375,0.172045767,0.4207308,-0.459743738,0.161028072,-0.229168743,-0.903226435,0.505556643,-0.154507965,0.479821682,0.503947854,-0.906412661,-0.02937895,0.0572995655,0.158084765,0.0312770978,-0.0974768,-0.5181388,-0.58559674,0.7680374,-0.569174349,0.34354943,-0.4627495,0.593960047,-0.179935917,-0.3245814,0.396474063,0.8609355,0.849795938,-0.5030098,0.656236649,0.270752877,1.10982084,-0.267776847,-0.5290429,0.8868522,0.8212851,-0.104818456,-0.1402037,1.03518522,0.5460857,0.269176334,0.9505044,0.054375302,-0.1622115,0.408885,-1.11891139,-0.8518535,0.7004908,-0.241796181,-1.36516309,0.49508357,-0.3233658,-1.066496,0.4338304,0.492190272,-0.291556835,0.2532446,0.7787787,-0.467937469,0.3780729,-0.885220647,0.760511041,-0.5292411,1.1553067,-0.547825,-0.2802026,-0.0419332758,0.430258632,0.870890737,0.01943041,0.9850317,0.593137145,-0.115653843,1.16954494,0.442755282,0.359979063,1.01244223,-1.60582948,-0.6683692,-0.3896032,0.00114113546,-0.796693146,-0.209301636,-0.953477561,-0.9464989,-0.09603809,0.5644432,-0.5418704,-0.5426322,0.02223491,-0.778435349,0.2217644,-0.647853434,-0.6991812,0.8878306,0.581579745,0.431928933,-0.00959949847,-0.08687009,0.367792368,0.227811664,0.395111054,-0.915016532,-0.9650911,-0.358764,-0.8996014,0.865771949,-0.569334567,-0.3865706,-0.9983945,-0.207130924,0.234013364,-0.601998031,0.831017137,-0.6437725,1.01280189,0.161980852,-0.707609236,0.885535657,0.268875927,-0.1013065,-0.5930244,-0.3949704,-0.6733686,-0.109743729,-0.372057736,0.3644944,-0.837349057,-0.457048148,0.3370259,-1.07978487,-0.2540689,0.37267828,0.687139153,0.09944152,0.599270642,-0.7734825,-0.236048222,0.334616154,0.947465658,0.009211789,0.0914203,1.00796854],[-1.777584,-1.45762169,0.15230155,0.4698675,-1.21633577,-1.38891947,0.6601937,0.367640078,0.22483626,0.4232628,0.2168088,-0.0612618737,-0.0418844968,0.110754058,1.12222207,0.156077236,-0.9869434,-0.0480332077,0.6589263,0.9611477,0.2312255,0.8928544,-0.9553922,-0.9780893,0.0450399667,-0.5044831,-0.244252056,0.689755857,-0.637503743,-0.0921280161,0.8202992,-0.6310318,1.20077336,0.08585168,-1.18782055,0.107633732,-0.521574438,-0.8494183,-0.625654,-1.09060955,0.371319443,0.29235062,0.00695997663,0.57779,1.13743484,0.394849181,-0.5873158,0.0495993569,-0.4850378,1.37338984,0.407177448,-0.07298704,0.6902604,0.7279337,0.246253759,-0.0356142856,-0.8388192,0.890610754,0.7146907,-0.27645278,-0.0320322961,0.361634046,-1.02173829,-0.6938293,0.7549366,0.782167435,0.123099022,-0.4278672,0.218719482,0.4399954,0.0417305,0.873198748,-0.441371679,1.2200917,-0.08887979,-0.7618478,0.219511226,0.2199312,-0.6483271,0.571227968,0.8888659,0.9702749,0.42902717,-0.4005078,0.4478472,-0.119597986,0.09104909,-0.6181712,0.899128258,0.5840396,0.385279834,0.9091931,-0.692389965,-1.06479979,-0.0750989,0.192972481,-0.3581553,-0.3685974,-0.858778954,-0.453949124,-0.490853578,-0.711655,-0.9420708,-0.5149122,-0.0108879488,0.5031907,-0.501508832,0.9627307,-0.5317447,-0.4968127,0.730151,1.18345666,-0.9258055,0.5918352,-0.7912177,0.291045785,-0.6231553,0.69050777,-0.145612732,-0.198218748,-0.5701169,-0.805296957,-0.5979629,0.155177221,-0.0558456481,0.052386,0.208399683,0.972715855,-0.6620037,0.0112451641,0.830388367,-0.299188048,-0.597736657,0.918512166,0.294856578,0.4777857,0.967650056,0.389396518,0.5463408,0.9009165,-0.669036746,0.270318717,-0.9297707,0.3991236,0.9346451,1.66836309,0.919067,-0.5769118,-1.70761085,-0.160858572,-1.02262175,-0.356012255,0.09324464,0.2923422,-1.30375183,-1.19657564,1.41617632,0.349903047,0.6227404,0.8137005,-0.841715753,-0.7377572,-0.9871947,-0.835026,-0.04452552,0.3992013,0.546528459,-0.3898181,-0.24216105,-0.08137712,0.8228558,0.147861421,-0.914775968,0.817588449,-0.161456,0.235610887,-0.67452,1.25319922,2.36055827,2.1075325,-0.294408977,-0.9165871,1.12283647,-0.2246246,-1.20245349,-0.8604564,-2.277186,-1.45034146,0.889316857,-0.3273757,-0.320143878,-0.7592039,-0.7402919,0.5702111,0.6626496,0.525275648,-0.8444318,0.16556856,-0.4898274,-0.06949097,-0.974817634,0.147892937,-0.110526159,0.7709207,-0.692411065,0.9080126,-0.225988477,0.4235523,0.321412921,0.009006679,-0.8501137,-0.0451285057,0.5031743,0.756696939,-0.6055007,-0.894696,-0.304381549,-0.8701398,-0.7642502,-0.7088272,-0.13768132,-0.349153847,-0.643283665,0.338544846,-0.042820964,-0.8163668,-0.273767024,-0.5094848,0.5295293,-0.48556897,-0.0206713025,-0.170139953,-0.358835459,-0.168783173,0.605660141,-0.461417437,-0.0188763,-1.39193022,-0.309732616,-0.2589998,0.909928858,0.6180886,0.499764681,0.376978546,-0.17098622,-0.274314165,0.646906734,-0.179550588,0.196801826,0.567649364,0.107269317,-0.8329302,-0.04109034,-0.708779037,0.655721,0.7041047],[-0.2741738,0.360577047,-0.5595076,-1.09076524,0.1259403,-0.812142849,0.4292014,-0.1860684,-0.99408,0.182910681,-0.6741803,-0.40725258,-0.7056408,0.901934445,-0.41366297,-0.5496815,0.3476357,0.429815173,-0.6868801,0.125605449,0.1316432,0.432634,-0.5107747,-0.759518147,-0.4311104,-0.779124856,0.369492859,0.734135151,0.271704882,-0.0950647444,0.9881755,-0.770000637,0.1679575,-0.9978206,0.5942379,-1.01550674,0.7247571,-0.368310481,0.517948449,0.628528833,-0.806444049,-0.52116853,-0.105685778,0.5524112,-0.5782519,0.00493323943,-0.8390936,0.2268719,-0.109402739,-0.424624979,-0.354340166,0.506033361,0.869963169,-0.538722336,-0.83586967,0.26396665,-0.192018837,-0.7503876,0.427746,-0.116779231,-0.335765064,0.6112792,0.5585854,-0.015249257,0.2147063,-0.937053442,0.330213875,-0.8212208,-0.8062012,-0.5456191,-0.347373456,-0.3821001,0.7492595,-0.4471031,-0.172679067,-0.40923667,-0.500469744,-0.20127742,0.7014583,0.496071637,-0.9805723,-0.9015729,-0.227655575,-0.384892821,-0.774331868,-0.534375548,-0.761115432,-0.315252155,0.8091999,-0.6332723,0.187061578,0.461673945,0.206465662,-0.3325104,-0.131572381,-0.565390646,-0.199085549,0.757666349,-0.6374219,-0.699066758,0.6014781,0.9314041,0.0100243064,-0.5769963,0.9181278,-1.00471318,0.680932939,0.353083223,0.6040821,0.577596545,-0.228250235,-1.01169145,-0.533331335,0.895485938,-0.143088385,-0.352472752,-0.03301488,0.0341874547,-0.103439637,-0.294380784,0.8157237,-0.334509581,-0.563187361,0.8437897,0.305976957,0.208823085,0.444204539,0.143137231,0.6991174,-0.5660895,0.8281327,-0.24808614,-0.5015923,0.461958855,0.9467381,-0.9240723,0.08941261,-0.6560216,-0.284913659,-0.780695856,-0.219267011,-0.12098591,0.094746165,-0.770870566,0.3341293,-0.0780343041,-0.242361665,-0.0128376838,0.5189735,-1.05023766,0.107192829,0.443362176,-0.388845235,0.258336872,-0.748774052,-0.273185641,0.215420485,-0.175752386,-0.11605572,-0.451776564,-0.611350358,-0.547970653,0.607843,0.164421827,0.6013049,-1.049668,0.4145932,-0.0243876651,0.83198,-0.244177133,0.525097,-0.398571849,-0.7371965,-0.331382662,0.941689551,-0.0682994,0.5377048,-0.877348661,-0.84236306,-0.9832663,-0.89987576,-0.9276395,0.204795241,0.2326686,-0.226944149,-1.04292488,0.7572964,-0.322957456,-0.309479445,-0.300701171,-0.614501357,0.759535432,0.223416954,-1.00566757,0.641066134,-0.770395041,0.184728146,0.887640238,-0.548752964,0.4918289,0.663459063,-0.976196766,0.2656091,-0.142381728,-0.439407468,-0.19648324,0.306375772,-0.8693014,0.6348391,0.5020391,0.2811959,0.263365418,-0.1514606,-0.0316299424,-0.491789073,-0.624884248,0.121126056,-0.8254896,-0.764104068,0.6528169,-0.8901053,-0.380301028,0.9917172,-0.08944232,-0.793584466,0.6232651,0.380185455,-0.6890493,-0.00566597,0.6922342,0.7441711,0.6853831,0.7191978,-0.28929612,-0.5436007,-0.8758828,-0.159600943,-0.537951,-0.107508808,-0.9285459,-0.28206262,0.751135051,0.245898813,0.4837702,0.7714252,0.332496822,0.09320112,-0.742899537,0.5044579,0.293194354,0.12542066,0.0254984964,0.678100169,-0.179829746,0.441078722,0.05021941],[-0.92155236,-0.506943166,-0.2348251,0.00542869326,0.4662645,0.0613679066,0.1640365,0.9528777,0.74560684,0.5850408,0.52584517,-0.7918986,-0.4878819,-0.6313693,0.5714584,-0.255171835,0.2557439,-0.860268354,-0.06169355,-0.638799965,0.3683734,-0.4945921,0.139006853,-0.09828305,-0.419956684,0.139730722,-0.167396471,0.727222443,-0.4060836,-0.2567885,-0.979768455,-0.0759781152,0.3199493,0.415839076,-0.867364645,-0.505194664,0.783867836,-0.9385773,-0.329659373,0.708949149,-0.389470875,0.3407326,0.7464181,-0.7681368,0.8298849,0.0007061644,0.757348955,0.191234767,0.778807759,-0.497240752,0.784495056,0.5380845,0.915601552,0.104522742,0.692005336,0.548137,0.3304985,0.8317992,-0.6609524,-0.699490964,-0.725386739,0.392460883,0.380795419,0.0171118584,0.5739637,-0.411766469,-0.178409159,0.127645344,-0.701248944,0.1340615,-0.08068568,0.276095867,0.5413715,0.3008899,0.7718679,-0.903691649,-0.196961284,0.00839522,0.115201436,0.5949852,0.387105137,0.6894655,0.9555207,-0.886972368,-0.0398356281,-0.514555156,0.03698208,-0.7793731,0.7245887,-0.441507071,0.177614838,1.00293684,0.7076385,-0.6517577,0.462717056,0.212722152,-0.988283455,-0.244189084,-0.382677019,0.220368683,-0.8338684,-0.348603874,-0.118539713,-0.300225645,0.619949,-0.4368436,-0.9615603,-0.363743484,0.328619272,0.643787,-0.218070731,-0.6512464,-0.289703578,-0.270001918,-0.06898215,-0.448224455,0.46097064,0.204064623,-0.958137,0.08789062,0.5664667,-0.39635098,0.377209753,0.7027843,0.9031932,-0.134105265,0.5123712,0.172595546,0.80371815,-0.402003616,-0.953044832,1.01049459,-0.651326239,0.870128453,0.41979292,-0.2586496,-0.181917056,0.2666441,-0.5066896,-0.604321361,-0.550029337,-0.596569061,-0.115720183,-0.9191795,0.8290155,0.0183551311,0.381873876,0.09699613,0.460831136,-0.007390417,0.770727158,-0.08101912,-0.200888678,0.5598741,0.6477977,0.6042588,0.2860455,0.252165437,-0.152019143,-0.214690968,0.164671481,-0.0292954464,-0.188303471,-0.202851862,0.7248873,-0.1408805,0.987010062,-0.143235236,0.390952557,-0.789940655,0.7416568,-0.7868022,-0.233208358,0.6496437,-0.296363056,0.156269744,0.7972013,0.381654143,0.9780164,0.110636763,0.6153115,-0.344542742,0.8286289,-0.13124387,-0.108047538,0.236149,0.350077361,-0.145059124,-0.631249547,0.9150564,0.5252307,0.675895452,-0.5208871,0.7481237,0.34684068,0.5588628,0.56334275,-0.8774174,-0.53591156,-0.0132859265,-0.117963366,-0.5393445,0.6677511,0.24798575,0.238250479,0.523574,-0.9169844,0.149737716,-0.105325505,-0.5088284,0.843760133,0.9776559,0.249007836,0.744648337,0.179476246,-0.480596572,0.1260393,0.993699849,0.918484569,-0.609523237,0.5156584,0.177673936,-0.389404148,0.424622446,-0.215292439,-0.9268417,0.723916233,-0.0212148242,-0.6319794,0.08868761,0.6089567,0.599168539,-0.125239477,0.00523439329,-0.81617403,0.129967228,-0.134354278,-0.381813377,0.6567588,0.368669271,0.133514628,-0.7962512,0.909879863,0.7278635,-0.9749074,0.484644353,-0.618905663,-0.2648738,-0.440366417,-0.17490913,-0.5572923,0.5714918,-0.796051562,-0.930107236,0.468096018,0.712933242],[1.22374225,-0.0552381165,-0.0456716754,0.762168169,1.17551434,0.684324741,0.2780308,0.871266,-0.201332554,-0.7197467,-0.17994988,-0.8710498,0.244542778,-1.04972386,0.028894417,-0.232792333,-0.469494641,-0.4164772,0.274806142,0.2898275,0.1651681,-0.142455235,0.424345,0.244973913,0.7174189,-0.0216666348,-0.5733899,0.3911523,-0.340555936,-0.9546088,0.374186367,-0.268755823,0.698315263,-0.750567436,0.149754837,-0.216363758,-0.5017433,-0.0464968681,1.13581467,-0.81780386,0.316326261,-0.839769661,0.128253341,0.8323141,-0.984658539,-0.785507262,0.553324938,-0.31833604,0.2110738,1.14609146,0.470315069,0.5432034,0.100409545,-1.38194788,-1.007335,-0.09004138,0.165537208,-0.391321748,0.352128655,-0.23422493,0.8794864,0.5795824,0.26026684,0.372828633,0.0141242715,-0.868142,-0.419707328,-0.07631608,-0.137875021,-0.297229528,-0.6811478,0.0270812735,-0.8176681,-1.41564107,-0.284900546,-0.45290032,-2.138351,-0.315579861,0.02039581,0.80406034,0.822368,0.917025864,-0.653177142,-0.143277392,-0.0879749,0.8693469,0.8873145,0.102956019,-0.9634788,-0.67161715,0.5471613,-0.493322164,0.0192994382,-0.3179898,0.2250738,-0.923593342,-0.115920782,0.954262,-0.105307378,0.814019144,0.2585309,-0.9779898,0.6857364,-1.14486754,0.251148373,0.293148518,-0.493498474,0.374731779,-0.7242669,0.233814925,-0.240873173,-0.05110995,-0.59019953,0.7699083,0.1602265,-0.122776382,-0.0100470334,-0.576453149,-0.8406065,0.239248678,-0.5692329,0.5171319,0.1991922,-0.4393291,0.33212772,0.8137914,-0.157177582,-0.687744,0.96985054,0.874366,-0.716848135,-1.3663069,-0.3533281,-0.06696951,-0.7261715,0.778679132,-0.7984382,-0.713807344,0.537919939,0.5713898,0.2830166,-0.6243387,0.0178690515,-0.253180265,0.570347965,-0.5749772,-1.169168,-0.405435532,0.8533324,-0.09508924,0.564325035,-0.310262769,1.55719519,1.69026923,0.595310152,1.44222844,-0.816178441,-0.7641768,-0.5545186,1.16375875,0.05855348,-0.394576877,1.35482419,-0.213533759,0.572481751,0.374693185,0.1544963,0.6763221,1.58109963,0.446848273,-0.5661269,0.02033133,0.7101942,-0.8675183,0.330651075,-0.971689343,-0.8101295,-1.1736,0.0397246927,-0.111263432,0.549212039,0.314752728,-0.71182394,0.346946746,-0.668682754,0.622723758,-0.296593428,0.763678432,0.522441149,1.20442653,0.241973862,0.9156768,0.5757959,-0.829844058,0.165252581,0.439302862,-0.273154825,-0.3886214,0.763293862,-0.0122020738,0.9120931,-0.0146935321,0.6468829,-0.312416017,-1.02718115,-0.6159419,0.257275879,-0.130102322,-0.9284575,0.4637643,0.353706747,-0.437516272,-1.00827456,0.7291355,0.9565685,-0.29151836,0.327600539,-0.7828228,0.8842808,0.106520519,-0.410500884,0.6322355,-1.02791059,-0.121692181,-0.561265469,0.5801426,0.164355531,-0.243782669,0.511894,-0.07261182,0.476471782,0.792567849,-0.517161131,-0.6021662,-0.129180774,-0.7019242,1.09516644,-0.9543393,0.4627967,-0.8295219,-0.80190134,-0.2642354,-0.252140015,0.9530987,0.216191635,-0.6503259,-0.0255361069,0.772057056,-0.8999912,-0.5398437,0.834866,-0.756674051,-0.393970877,-0.357115775,0.882363439,-0.864748657],[-0.248537779,-0.39411965,-0.774110138,-0.414098859,0.308497876,-0.232114092,-0.8838134,1.035453,-0.8583512,0.348179132,-1.06245875,0.2754171,-0.2347919,0.385513723,-0.323919117,-0.127764642,-0.06812848,0.7031206,-0.04202434,0.925885141,-0.0302528832,-0.9370543,0.6940256,0.9362546,-0.46473366,0.2715051,-0.343547374,-0.121715933,-0.25528267,-0.12735042,0.265356749,0.8873207,-0.0802889839,-0.278447479,0.38062498,0.101416893,0.872079,-0.015443773,0.112019643,0.33612448,-0.273172349,0.475411654,0.840205133,0.6091934,-0.9092611,0.4348104,0.0232162233,-0.506612,0.5815331,-0.232953876,0.600043058,-0.101543814,0.492559969,0.7221149,0.137890264,-0.109297745,-0.179409161,-0.704684734,1.06133521,-0.9439695,-0.7916771,0.190364182,-0.0509796068,0.334158,-0.7591234,-0.90496093,-0.170977473,-1.0131321,-1.06884575,0.5848414,0.113982342,-1.04823828,-0.423849046,0.6203739,0.0941623,0.366215646,-0.6135683,1.31573915,0.7434539,-0.0236490145,-0.7745094,-0.93076247,0.174297526,-0.9322987,0.3569796,-0.646012068,-0.751921952,-0.420293272,0.494778126,-0.3297879,-0.918961644,0.6511329,-0.161280245,-0.167942837,0.207835883,0.364165038,-0.513005555,-0.4786177,0.629104853,-0.773641169,-0.396372557,0.0540957972,-0.432755649,-0.884179,0.5530193,0.45119223,-0.908500254,-0.9348042,-0.3059319,0.493187338,-0.4037322,0.246154442,-0.285004437,-0.149981156,0.7817081,-0.855846345,-0.9276497,-0.31237036,0.8748393,0.831968248,0.905812144,-0.8134756,-0.542399645,0.40535146,0.507338643,0.419678777,0.120592892,-1.00292528,-0.5603383,0.889832,0.196978,0.640068531,-0.7132841,0.391825885,-0.528617263,0.179129392,0.5205481,0.05908831,-0.486274421,0.901225,-0.7630113,-0.8725403,0.961134732,-0.969490051,1.35752892,0.4367099,-0.09472033,-1.15001106,0.09218598,-0.295431584,0.267092079,1.19456542,-0.137569681,1.19548666,-0.502423167,-0.6501607,-0.40414837,0.273166984,-0.7798319,-1.237559,-0.6470022,-0.841146946,0.323489636,-0.270635039,-0.477646947,-0.192801133,-0.208345234,0.4069405,-0.73473084,-0.5865021,-0.5856135,0.08495729,-1.02935648,0.726697,0.1646844,0.843436062,-1.09209585,-0.627033532,0.8077118,0.250534147,-0.782414734,-0.3513985,-0.227378726,0.423967242,0.5844225,0.518919051,-0.170672,-0.540836036,0.740886569,-0.7400107,-0.2334006,-0.439232618,-0.5312376,-0.6215883,0.592363954,-0.832795441,-0.5320201,0.17114161,0.785919964,0.0770977437,0.875638962,0.715211868,0.6417556,-0.5215369,-0.5614657,-0.6859454,0.5352203,-0.2989862,-0.7058422,-0.472671479,-0.8405959,-0.832355738,0.6913547,0.8871536,0.7142337,0.24376367,0.110153429,-0.713145554,-0.8118516,-0.182285845,0.7583836,-0.4692745,-0.8034844,-0.678935766,-0.982448757,-0.764086962,-0.45366928,0.8090035,-0.699131966,0.305446237,0.4670643,-0.0539219975,-0.439803839,-0.6054752,-0.07953922,-0.43650052,0.09367716,-0.464862227,0.0389541462,-0.671221256,0.8396609,-0.5294565,-0.883649945,-0.395045429,0.902040839,-0.5883445,-0.3441344,-0.4197557,-0.3401048,-0.673158646,0.054111883,-0.853588164,0.00178947148,-0.05035793,0.343839526,0.3491114],[0.7175002,-0.102750249,-1.12290907,-1.48640144,0.471415579,0.7359578,-0.83699,0.08368219,-0.210093856,0.102385759,0.436367482,0.227695256,-0.136548683,0.0375990234,0.7642847,-0.404664546,0.3606377,0.7940939,-0.018575849,0.229179665,-0.7052339,0.6207481,-0.5718031,0.6057291,0.725471556,0.9795946,0.149066016,-0.966364,-0.742706537,0.14773725,-0.959406257,0.6863833,-0.21298793,0.266679645,0.20033741,-0.963065863,-1.09811592,-0.536744535,-0.436762631,-0.943085849,-0.782939553,0.5019823,0.5490567,-0.5227916,-0.265156269,0.7297036,0.5327716,0.435152,-0.3247772,-0.359571785,-0.184255764,0.179316372,1.04678833,-1.18957412,-0.364193648,0.88742274,0.31502685,-0.415775925,-0.6783845,0.967890561,0.03322497,-0.8712352,-0.8883356,-0.7125921,-0.171209827,0.613330364,-0.401945174,0.909426451,0.567458332,0.652545452,-0.704214156,0.334614068,0.06753918,-0.7307697,-0.211362869,0.5978106,-1.67052853,-0.30997318,-0.1134759,-0.412204236,-0.51715523,0.5581259,0.53341645,0.710600853,-0.7169401,-0.05289222,0.7310494,0.0266154073,-0.5567317,0.2500045,0.2641967,0.680288851,-0.924826264,-0.387492836,0.196232677,-1.03086245,-0.363563269,0.237163141,0.6829483,-0.147216186,-0.0385482,0.803895056,0.637484133,-0.199649155,-0.6717363,-0.813168645,0.6824984,0.09001406,0.0311305951,0.816167653,0.522796,0.2210568,0.9286277,-0.6608192,0.2924627,-0.05405042,-0.441095948,-0.251101434,0.7902597,-1.0502286,-1.00586689,0.453498572,0.220962584,-0.23390612,-0.523848057,-0.383982122,-0.518308759,-0.114958927,0.5734585,-0.03619916,-0.5090335,-0.109934852,0.866322041,0.61052233,0.278433144,-0.32494393,0.8768812,-0.2737029,0.4574106,-0.901886642,0.1765739,-0.277851164,0.8749297,-0.362810224,0.497447222,0.76914537,-0.29752025,0.0500539243,0.696233869,-1.15850544,-0.7081161,0.3595851,0.5275023,0.231286034,-0.400080681,0.5951531,-1.66574156,-1.5191431,-1.245939,0.6864523,0.9388576,-0.3808105,-0.250660628,-0.9635918,0.221657842,-0.612445652,-0.05301914,-0.7918179,0.0789862946,-0.7472621,0.384587884,0.8590422,0.5101818,0.1441331,-0.294004947,0.20358254,0.7788044,-0.0999335945,0.07158683,-0.6577565,0.029082913,0.122362122,0.795580864,0.632452667,-0.06712206,-0.9268277,-0.00758164,-0.358757615,-0.48931253,0.9943555,-2.05130625,-0.385697067,-0.580563068,0.7193413,-0.642138243,-1.00245357,0.233589262,0.836037,0.290744156,0.02329408,-0.339537621,0.422169447,-0.5184453,-0.511209965,0.08249774,0.448372841,-0.77977556,0.550834239,-0.258127749,0.7481695,0.9438676,0.887808,0.784781456,0.746207,-0.186432645,-0.121052369,0.399511248,-0.787226737,-0.5127199,-0.412714452,-0.156672284,-0.106851079,0.7069368,0.250174165,-0.482582957,-1.14670861,0.4026994,0.6735166,0.135065183,-0.46397686,-0.9036764,0.7642703,0.21949105,-0.486147135,1.04891384,0.248572245,-0.9258178,-0.434886634,-1.08210278,-1.19786537,-0.8323672,0.876408,0.6551976,-0.37792933,0.8246293,-0.882838845,0.2804283,-0.3757716,-0.0609151274,0.5507054,-0.146910518,0.0592539124,0.332739621,-0.250587672,-0.850931764,0.7620301],[0.6088939,0.780377,-0.7488506,0.05778104,-0.9906766,0.0115828421,-0.564774752,-1.370281,0.6467106,-0.7976876,-0.142051488,0.457994968,0.886622548,0.191885665,-0.114433125,-0.490537852,-0.947206,-0.5429053,-0.5768648,0.00705889054,0.241576925,-0.158116236,0.393986166,-0.575940251,-0.119732045,-0.230755046,-0.311142445,0.6803314,0.6277663,0.0610932633,-0.601578057,-0.494359434,0.934869,-0.847341835,0.9011583,-0.434115976,-0.29099077,0.128718078,0.896238863,0.179517537,0.298917562,0.244377717,-0.017592553,0.5796272,0.260197848,0.353409767,-0.327743232,0.6984143,-0.3954384,-0.9249012,-0.08781233,-0.1720547,-0.764441431,0.177866176,-0.44968605,-0.07343438,-0.9145329,0.769237,-0.8369176,0.337869,-0.9333815,0.0867805257,-0.188507736,-0.5169579,0.9500201,-0.572116554,0.8564238,0.579943538,0.32236433,-0.6992944,-0.7507779,-0.213116542,-0.3464261,0.151817545,0.4485116,0.57596916,0.2178979,0.427750826,-0.1558852,0.396395057,1.00157642,0.0100824563,0.0289498158,0.5293167,-0.901257753,0.5104827,-0.801616549,-0.301416129,0.703163147,0.000925082539,-0.630016446,-0.108955242,0.11448057,-0.495716,0.06631307,-0.487068176,-0.122240871,-0.4217745,0.8241249,0.134328827,0.826698959,0.0197620448,-0.740680337,-0.7625018,0.9239765,-0.9572012,-0.6687525,0.165296108,0.494327217,-0.300068468,0.185934424,-0.613044262,-0.3702206,-0.213909358,0.345531076,0.176719174,0.8278335,0.0153837223,-0.505416036,-0.6763066,-0.942880332,0.0562983938,-0.9022306,-0.6236076,-0.9696991,0.257640451,0.7606144,0.971475959,0.939515,0.171813443,-0.175761461,0.0464215875,0.9513368,0.975148439,0.462144017,0.03055369,-0.2526469,-0.202926889,0.621901453,-0.923224747,0.190668523,-0.01991067,0.226955563,-0.0443270244,0.6470337,-1.17163694,-0.795971,-0.484959,0.132886291,0.861531,-0.424794883,0.8296969,-1.00998044,0.207656711,0.05634331,-0.426031321,0.06331111,0.8392948,-0.8637471,-0.5213192,-1.02750933,-0.9770643,0.2587445,-0.645754933,0.5179244,-1.07319248,-0.612909138,-0.361468583,0.249084339,-0.6600326,-0.757492244,-0.0727724,0.328783423,-0.488123477,-0.0841092542,-0.0063302,0.9468133,0.211248,-0.537899435,-0.839781463,0.117557935,0.8062987,0.05343106,-1.26985919,-0.8249304,0.04562536,0.245366693,-0.5239489,-0.230305448,-0.5268424,-0.9783587,-0.2289822,-0.415559351,-0.054317005,0.7791856,-0.19777824,0.74543184,-0.0884288549,0.1932546,0.610408664,0.5816436,0.57886225,-0.03600368,-0.1861189,0.5466075,0.6427327,-0.6149355,0.605384,-0.5748516,0.9812391,-0.06438662,0.7599699,0.207302973,-0.8158128,0.674334168,-0.1459208,0.5763208,0.2343194,0.8054969,-0.280503243,0.0887623,-0.963230431,0.793113947,-0.31535992,-0.7572404,0.5639639,-0.56408304,-0.58093524,-0.411400169,-0.7172723,0.3332824,-0.105815537,1.18631279,0.0421149358,-0.634006262,0.308791667,-0.572960556,0.7277136,-0.719897747,-0.183883443,-0.378050536,0.3621166,0.9708669,-0.09380952,0.7389173,-0.688319,0.6751151,-0.6386033,0.2751197,-0.0613464341,0.267216474,-0.4599548,0.115172811,-0.5412798,-0.426962823,0.533557951],[0.781647146,0.06409584,0.3867901,-0.495773077,0.2267637,1.36499417,0.3276123,-0.7111918,-0.186940953,-0.851513,1.01393938,-0.348485649,0.852474332,-0.7427883,-0.6396702,0.794123232,-0.2635287,-0.06766574,-0.896238744,0.806979835,-0.993492842,-0.107606985,-0.06423068,0.989687145,0.819039047,-0.966537356,0.170542181,0.6694899,0.018082371,-0.203274235,0.784456551,0.5667213,-0.470529944,-0.139416873,0.6026801,-0.5694377,0.615651965,-0.273834974,0.5821647,-0.2829072,-0.434424073,0.913959265,-0.616415739,1.19773209,-0.635048,0.406718552,-0.281954616,-0.0304804537,-0.233022928,0.638137,0.7913167,-0.799849153,-0.451845467,-0.0787671357,0.5038615,-0.197111055,0.321936369,-1.05998,-1.10288572,-0.08761278,0.0244562645,0.650682,0.116543673,0.891571,-0.3911319,-0.6127571,0.8984844,-0.0201153848,0.03566214,-0.7948371,-0.7889344,-0.4357732,0.373080134,0.1360076,0.3844068,-0.644627333,-0.6629549,0.152289212,0.879974961,-0.141952828,0.419960469,-0.8441688,0.173865139,0.439670146,0.05920477,0.617579758,0.132219464,0.5761645,0.4286467,-0.317373782,-0.260639817,-0.187234417,-0.680244148,-0.3735545,0.7350311,-0.08454895,-0.309044421,-0.5440342,0.5093159,-0.596377969,0.46831435,0.7732957,-0.6012774,-0.7582522,0.285515368,0.432205468,-0.0172293372,-0.139976516,0.47027418,0.194436863,-0.7618332,-0.9371807,0.22267355,0.755699158,0.7425937,-0.212027162,-0.832011342,0.754390061,-0.2501409,-0.166600674,0.164716214,-0.5688815,0.459183723,1.00762045,0.5033651,0.5723078,-0.9018197,-0.270587862,0.6026351,-0.511574745,0.432096571,-1.31745028,0.7408663,0.175765589,-0.00327461166,0.648888767,0.82491684,-0.08449543,-0.8579749,0.6903294,-0.303054,-0.729111254,-0.9266988,-0.741633534,-0.496522218,-0.5309768,-0.1519246,-0.5466733,0.16664958,-0.2889397,0.0209242534,0.146241456,1.43149054,-0.0891483054,0.789310753,0.331590176,-0.406227261,-0.566533864,0.03687895,1.80833733,0.7702288,-0.252979964,0.4353506,0.4348694,0.911177,-0.536231339,-0.136008024,1.05374694,0.284233,-0.979520857,-0.39455843,0.103742011,0.6628303,-0.0998827443,0.316363,-0.53910464,-0.8114289,-0.129704311,-0.262829632,-0.441691935,0.8139025,0.659607768,0.599679,-0.5642697,0.4984121,-0.157844961,-0.2862733,0.6653204,1.7636168,2.04385734,1.51036561,1.0314256,-0.871346,-0.573859,-0.527225852,-0.407568336,0.03382207,-0.03967083,-0.2902901,-0.3927131,-0.7816016,0.6615294,0.788461447,0.2906194,-0.7118582,0.7496725,0.07252517,-0.198663846,-0.06564336,-0.6610093,-0.236489311,0.209271148,0.123515256,0.8477291,0.767839432,0.797833443,-0.5779612,-0.2327102,0.8359489,-0.0221968275,0.581042945,0.567164063,-1.01175308,-0.2132703,-0.240412861,0.532550037,0.109381415,0.196025148,-0.350002766,0.735400438,0.8384589,0.460808218,-0.5632221,-0.261884183,-0.449155629,-0.671294868,0.891412556,-0.04668237,-0.933471,0.38301757,0.3051741,0.828336358,0.993593037,0.74025923,0.167666,-0.8991644,-0.8314138,-0.662164569,-0.3624141,-0.438413054,0.9931664,-0.75072217,0.0590581261,0.653481,-0.242523313,-0.280711681],[0.6094645,0.08981262,-0.8465479,-0.325300217,-0.324464619,-0.857308269,1.01061654,0.4350949,-0.485166728,0.340016752,-0.292039633,-0.8897478,0.24624382,0.4522072,-0.9022119,0.399734974,-0.4179092,-0.747152,0.6897354,0.7764152,0.607644,-0.5699445,0.625287056,-0.3447763,0.446530253,-0.0852144,-0.416894227,-0.8796793,0.5364245,0.6302419,-0.656421542,-0.124701962,-0.671401262,-0.9832078,-0.3192553,-0.34036392,0.0327163525,0.5436273,-0.0152777564,0.2005415,0.8709081,-0.390412331,0.10482455,0.8479076,0.434004456,-0.8895432,-0.0228567887,0.228812784,-0.558039248,-0.425376475,0.6541097,-0.182883739,0.9664624,0.0274100229,0.03354655,0.1672815,0.435965151,0.370079935,0.209183648,0.716334164,0.56257993,0.858661056,0.8632794,-0.122897454,0.0214786157,0.780254245,0.8108834,0.173951983,-0.364474,0.3633759,-0.5551659,0.07175548,0.3134132,-0.3416197,0.971616745,0.0300991945,0.384257883,0.8286118,0.23404713,0.362452716,0.9575335,0.389841318,0.6259289,-0.0915435553,0.981777549,0.526489854,-0.09471503,0.232610568,-0.006590141,0.565771639,0.303483129,0.6105073,-0.6729553,0.2550695,0.6570172,-0.9564355,-0.2885759,-0.805681,-0.175100535,0.6408802,-0.7448269,0.7379636,-0.5297459,0.12726675,-0.747835934,-0.3809162,0.5264859,0.474628717,0.101377763,0.9918005,0.82695353,0.626949251,-0.8262154,0.869646847,0.761140168,-0.8412851,-0.7781401,-0.056637492,-0.100760892,0.4751173,-0.106546305,-0.383243173,-0.7791411,0.155585557,-0.906708539,-0.236941636,-0.2906301,-0.9580329,-0.129001021,0.8972596,-0.6447996,0.13867119,-0.02240573,0.6102765,0.09401621,-0.7855649,-0.08329887,-0.470648736,-0.344302654,0.3620402,-0.9925794,0.445563972,-0.875606537,0.0002518553,0.746415854,0.8048331,0.456621855,-0.5808129,0.5375985,0.5235081,0.7912692,0.781882465,0.3447882,0.3652817,-0.234181553,0.63119173,0.5401672,0.367246032,-0.0220375936,0.476886749,0.88824147,0.5742706,-0.3885716,0.216641709,0.6857091,-0.3373103,-0.338461,-0.4490135,-0.314483434,0.46109128,0.199525118,0.6742603,-0.804989159,0.550269842,0.468137532,0.46042943,-0.5290058,0.09213017,0.294680744,-0.63293153,0.321774274,-0.7000657,-0.41416356,0.3367124,-0.891047657,-0.399041981,0.8798138,0.625260651,-0.1512832,0.4643813,-0.332678676,0.593111336,0.5202704,0.1492275,0.468866974,-0.455105,-0.158561572,-0.0865065,0.343850881,0.0693856,0.04496621,-0.101877607,0.6781387,0.988761067,-0.7152981,-0.885820866,0.495329529,0.7965955,0.9087297,0.2638508,0.154259041,-0.688208938,0.8994943,-0.391789317,-0.81741035,0.6529101,-0.05801424,0.260884076,0.12699455,0.08905886,-0.128938183,0.06571931,0.671587169,0.3205051,-0.09600078,0.6144292,-0.842955351,0.122983769,-0.8828433,-0.053553015,-0.354283124,0.5876427,0.892519057,-0.6217399,0.394975364,-0.5672991,-0.397311062,-0.359735966,0.08638741,0.9867467,0.08719904,-0.9599232,0.6714651,0.6382619,-0.6999317,-0.6353872,0.687985,-0.06840534,-0.0166383553,0.7979568,0.584706962,0.600156248,0.7846408,-0.745337,-0.826924264,0.9872726],[1.08607519,-0.204288527,-0.64396584,-1.37609673,1.23469985,-0.6011232,0.289529264,-0.357191831,-0.394571275,0.13577798,-0.175615162,0.487722367,-0.133331954,0.5363096,-0.0459971055,-0.101137549,-0.651292,0.219078466,-0.998392045,-0.2192288,0.402627558,-0.9435007,0.00660230545,-0.46754548,0.9786395,0.275810629,-0.8702844,-0.713239133,0.414554328,0.100796945,0.7870331,0.642299235,-1.33509934,0.259461462,0.72984,-0.330602437,-0.419262379,-0.7844945,-0.5294857,0.6593016,-0.148814,-0.0347119942,0.07870708,0.0217682049,1.1406219,-0.889677465,0.595971942,0.136461377,-0.711201,-0.188908219,0.324772775,-0.232281268,-0.8927448,-0.134613246,-1.01363444,0.0565733649,0.9154906,-0.637058,-0.295161068,-0.484209,-0.550718248,-0.233149186,-0.05693955,0.0998751447,0.07461513,-0.9925942,0.09008876,1.03457642,-1.28617394,-0.334170163,0.640666068,2.196567,0.115385123,-0.3277401,-1.28877664,-0.1911956,0.406689078,-1.18157983,-0.6334072,0.406787574,0.577643,-0.03463091,0.6098374,-0.7805351,0.5934744,0.111313611,0.4422918,0.281650126,-0.186570376,-1.06775928,-0.2061059,-0.0331338942,0.7560898,0.3915837,-0.3517674,0.05080443,0.09842427,0.3403449,-0.0328458957,0.152186424,-0.175635859,0.791377068,-0.357899129,0.827377737,-0.5740394,0.598401368,0.4660426,0.07499668,-0.108849116,0.904906869,-0.926919043,0.193954915,-1.05486715,-0.03453892,0.0867130458,0.12649107,0.700035,0.47795108,0.9933752,-0.8342091,0.444373816,-0.5914239,0.0617794953,-0.292066157,0.9522088,0.8419605,-0.9452957,0.852609038,-0.1758242,0.4769355,0.467311382,0.8508246,0.222909346,0.3642707,-0.0533933342,0.8219226,-0.7617741,0.667107,0.6993888,-0.9145874,0.6646388,-0.6048574,0.9699545,-0.125031769,1.02812,0.782649457,0.255423367,0.419802248,-1.54089081,-0.775712669,0.665730238,0.7110164,-0.08651239,-0.31080696,0.560111,-0.6576957,-0.920091569,-0.906195462,0.6162451,-1.01167977,1.318232,1.19562972,-0.226793289,0.408771127,-0.386126161,0.145763934,0.661748648,-0.7109347,0.00186986907,0.990068138,0.241562143,-0.8696115,0.20684734,1.370837,0.313793242,0.269470334,-0.350544065,-1.80727887,-1.26956356,-1.14392924,0.6933025,0.930171967,0.3427677,0.5818573,-0.0487397648,1.43934,-0.497909,-0.484698623,-0.348580152,-0.426836,0.364743948,-0.7239566,0.7775567,0.264975369,-0.399413466,1.09659755,-0.860422552,-0.406811982,-0.4845505,0.5442836,-0.847917557,-0.6329157,-0.219328061,-0.305568039,-0.7504262,0.06685335,1.25089216,0.3771624,0.2891149,-0.4289685,0.860654235,-0.641865253,0.489272624,0.776620269,0.5565669,-0.760218441,-0.864901543,-0.29293707,-0.0570108332,-0.669962645,1.01414526,-0.343203872,-0.2342982,0.367739052,-0.7427081,-0.245054886,-0.625888348,-0.25102967,0.396492749,-0.116373867,-0.2817311,1.28543222,0.771149337,0.228856191,0.6413092,-0.272711337,-0.196752056,0.0924424,0.407276928,0.407094538,-0.805967748,-0.00214597653,0.6295505,-0.13133356,-0.248832151,-0.396290034,-0.259082854,1.00704014,0.6189186,-0.732969046,0.8292722,0.5418318,0.6784979,-0.7829084,0.6522883,0.488672435],[0.617982745,0.451048464,-0.144080088,0.6633164,-0.49315846,0.163457468,0.9308817,-0.315822929,0.7126551,0.9862848,-0.120777108,-0.4258873,0.823878765,-0.011079222,0.781675041,0.51360786,0.3827905,0.452071875,-0.8601354,-0.0508925878,0.0174474288,0.549908936,-0.367346376,0.581875861,-0.8966074,-0.591494858,0.0229076389,0.200299829,0.186941117,0.476559252,-0.7463622,0.4292064,0.354973465,-0.5374435,-0.066401124,0.0177804083,0.863307357,0.977142751,-0.0174429,0.0598403439,0.159838364,0.333386,0.557254732,-0.211658567,0.773186564,-0.735206544,-0.8628656,-0.313405246,-0.418819845,-0.512847066,-0.8470244,-0.807154357,-0.7243056,-0.07571301,-0.5931239,-0.8900506,-0.108938031,0.112690687,0.399306685,-0.7796134,-0.8534736,-0.101665109,0.322279245,-0.7619676,0.7102373,0.4631905,0.108338661,0.2875989,-0.8618354,-0.0941690654,0.728412032,0.491123557,-0.4354159,0.191218853,0.90279603,0.745762467,0.9604354,0.7993969,0.817943633,0.822280467,-0.7890716,-0.6052096,-0.326514572,-0.138963282,0.4053175,-0.9450087,0.3282769,-0.3439738,-0.952092052,-0.136044174,-0.753807068,-0.334588945,-0.401656747,-0.1957092,-0.123307332,-0.5982649,-0.9411493,0.3506967,0.100602709,-0.7038608,0.151897684,-0.107321061,-0.3996859,0.794154644,-0.3631903,-0.390577853,0.684469044,-0.035191223,-0.169922635,-0.2760063,-0.9155732,0.00108956825,0.334449857,0.5090735,0.930926144,0.7498058,-0.9518849,-0.6576637,-0.208119929,0.641753256,-0.920824349,-0.520689964,0.257829636,0.174014673,-0.5222607,-0.0249146782,-0.138646,0.7044903,-0.7860911,0.545144141,0.6794017,-0.327008218,-0.263218552,0.527758658,-0.335181683,0.317147583,0.789522946,-0.109533861,-0.768751562,-0.208746791,-0.630367756,-0.625661552,0.809244,0.316275626,-0.142015085,0.536447763,0.369266748,0.159428477,-0.07625501,-0.023270864,-0.7020335,0.841712534,-0.499912322,0.556662,-0.439415336,-0.224489614,0.763043642,0.805446,0.4557462,0.629522562,0.839522541,0.9950753,-0.3248203,0.220502123,0.10177134,0.4462058,-0.705413043,0.813385844,-0.08968448,-0.3295408,1.02762067,0.144702688,-0.7792701,1.04882443,0.259999752,0.722031534,-0.265304863,1.1236285,-0.176509812,0.509327531,0.657215834,0.7844536,-0.052540306,0.192600772,0.247248173,0.9868387,-0.8484831,0.3920047,0.4355992,1.109206,0.7713447,-0.518420041,0.5604041,-0.425185651,0.04560665,-0.63344866,0.610329151,-0.4801181,-0.7297932,0.2735255,0.0339131951,0.5571172,-0.788935542,-0.675205648,0.2012299,0.1157116,0.5886739,-0.368625671,-0.807468951,-0.487705618,-0.9856819,0.6894441,0.00230589625,-0.8524971,-0.9566582,0.9814181,0.166450977,0.727284431,-0.9471288,0.08729599,0.389188558,-0.0530796126,-0.4920165,-0.1555733,-0.0391387045,0.593399346,0.5803889,0.5528574,0.003994697,-0.00225477642,-0.8798569,-0.875387967,0.74639,0.175690383,-0.8100735,-0.9936634,0.5350018,-0.43108958,0.8222664,-0.8359553,-0.626057267,0.5170693,0.08375355,-0.193579718,0.9802412,0.9885405,0.3723656,0.442275375,-0.474685848,0.0652696043,0.234548658,0.916648448,-0.526514351,0.191605166,0.911638,-0.9240652],[0.0182069447,0.19409284,0.1603741,0.576245666,0.5655833,-0.971643,0.805173934,0.613110244,-0.644093454,0.984735966,-1.11155176,0.8566937,0.9741166,1.00385618,-0.791963935,-0.37355274,0.853084445,0.9872412,-0.2856477,0.8685141,0.8903604,0.703913867,-0.127286255,-0.0405718721,-0.781864047,-0.852728,0.0273285564,0.8821937,0.6416768,-0.7956054,0.673462033,-0.539463937,0.08023311,-0.842731655,0.0753954947,-0.9076098,0.23809275,-0.507178843,-0.439242482,-0.8157038,0.9417282,1.03737581,-0.495925367,-1.00952613,0.8744213,0.4727097,0.5955837,-0.685186148,-0.4443433,-0.328334451,-0.82435894,-0.4345873,-0.6604392,-0.988641262,-0.7677711,0.3214858,-0.673292,-0.5875805,0.389918029,0.349805176,-0.0106432978,0.5785264,0.806980133,-0.7422534,-0.848744452,0.368808836,-0.457380563,0.9533736,0.09475092,-0.556332231,0.207950056,0.3289723,0.287310332,-0.5622812,1.008064,-0.9972043,0.0737537,-0.340426475,-0.03085538,-0.293048441,-0.34887597,-0.5016169,0.3236848,0.06893788,-0.8279513,0.21268335,-0.9351052,0.241315469,0.889983952,0.689749539,0.5821804,-0.227117732,-0.182504028,0.13260226,0.3148673,-1.06175125,-0.8880016,-0.7982793,0.942089438,-0.506664,-0.133180529,0.6537382,0.5694402,-0.7261772,0.273603261,-0.5711713,0.0686248541,-0.9111491,-0.9104398,-0.9040691,-0.9428688,0.6141805,0.38577652,-0.282287627,-0.143896058,-0.373903751,-0.5559136,-0.308507949,-0.9134705,0.1254391,0.5647245,0.487178028,0.9936528,0.415564626,-0.15476796,-0.4363523,-0.179158553,-0.6998325,0.07050948,0.8189726,0.9910314,0.03112024,-0.120287433,-0.417305022,0.843727767,0.0255152956,-0.08457224,0.09893178,0.7213564,0.740070939,-0.9208607,0.9034451,0.0812898949,0.8126895,0.934767067,0.808115959,0.402109146,-1.17947,-0.646381259,-0.241106585,0.444947571,0.236132845,-0.700438857,-0.009872726,-0.198750883,0.5819373,0.5408632,-0.8822733,0.535830855,-0.0221577119,0.7137555,-0.452943057,-0.03141217,-0.8552864,-0.9727384,-0.053703133,0.292850375,-0.02688089,0.06058916,0.538625062,0.7988737,0.466517448,-0.02611551,-0.75692004,0.09629043,0.5058173,-0.8905318,-0.876562953,0.9497355,0.210792676,-0.1003671,-0.916145265,0.7636922,-0.515823662,-0.755100846,-0.836058438,-0.42262575,0.65018,0.755977631,-0.462296337,0.502247751,0.06852815,0.7542504,-0.004381157,-0.8820692,0.344978273,-0.033714477,-0.16305396,0.7545764,-0.3107458,-0.145592853,-0.367837071,0.368789226,-0.4913274,0.206382364,-0.5770958,-0.509424269,0.675193548,0.935857534,0.247555286,0.0171924345,0.612513542,-0.532481551,-0.682875752,0.6739432,-0.003728099,-0.19385241,-0.315394253,-0.772885442,0.5505376,0.9865628,0.01587345,0.177229837,-0.550299942,-0.685534656,-0.0911951661,0.654078543,1.00313842,-0.9332861,0.799538136,-0.1401705,0.6581471,-0.772371531,0.256343573,-0.6742702,-0.46105,0.099080205,0.4883519,0.118009768,0.5323698,-0.959654748,0.155007884,-0.9922393,-0.4838965,0.401119769,0.6906168,-0.7416207,0.471923172,0.29152903,0.07329739,-0.495289832,-0.748386145,-0.45178026,-0.870779,-0.360062033,0.7123498],[0.37805593,-0.06627941,-0.5549181,-0.337424546,-0.3130121,-0.204354,0.542417347,-0.0352314338,-0.437902361,0.477677524,0.3831467,1.10282612,-0.854301333,0.180641651,0.924197257,0.989441156,0.49627766,-0.5337604,0.5395147,-0.168266773,-0.02611137,-0.2446315,0.0600241646,-0.194878966,-0.429571539,-0.813951254,-0.315909147,0.185620978,0.246701658,-0.5693941,0.0552145727,-0.688443,-0.389226675,-0.655040264,-0.0742187947,-0.4101643,-0.0912456438,-0.1921648,0.008972903,0.354973823,0.462929368,0.530182242,0.891026855,1.261074,-0.197633445,-0.0292772874,0.346104532,-0.8493562,0.8652748,0.0820561647,-0.336499333,-0.9981847,-0.4776828,0.8745142,0.0103361718,-0.4282505,0.895344138,0.6396191,0.449826539,-0.5651291,0.95229,-0.6169461,0.4253773,-0.85974884,-0.62176317,-0.114636615,-0.356605977,0.516419768,-1.31192613,-0.5278105,-0.9098792,-0.09005471,0.582685769,-0.352766454,0.6260292,0.446649432,-0.256941766,0.6323357,-0.319515735,0.7392787,-0.128932536,-0.458800524,0.701334,-0.9262311,0.8164822,0.1461023,0.760564744,-0.252108157,0.7058653,-0.6308471,-0.124666311,-0.69648546,0.218671232,-0.502725244,0.6407891,0.332212478,-0.4077561,0.8596805,0.625752032,0.6484835,-0.91621387,0.790147662,-0.924847245,-0.452303618,0.0464840122,-0.867458165,-0.579736352,-0.3428927,-0.437968016,0.472529978,0.755963564,-0.198645592,0.06602654,0.9674539,0.6001459,0.211769387,-0.3646157,0.0811421946,-0.714252055,0.250266939,0.06426077,-0.815622866,0.86110127,0.572317839,-0.9568295,0.9669048,0.316092819,0.252152175,-0.671507955,0.9646025,-0.226635739,0.0157759935,0.3972502,-0.5024542,0.595145762,0.07138437,-0.555718,0.168555543,-0.016387457,0.647097468,-0.375348866,0.171299309,-0.909164965,-0.7697696,-0.215994164,-0.0463873,0.352588356,0.5106596,0.2915866,-0.277514458,0.346948534,1.09723723,0.275090784,-0.8500539,-0.470650822,1.034764,1.06975985,0.4472504,0.3518486,0.5825042,0.261361122,0.59206903,-1.14694667,-0.326803863,0.228688926,0.0372531563,-0.190173119,-0.5353645,-0.315380484,-0.900053144,-0.6962666,0.419000328,-0.561772168,-0.626078,-0.497757882,0.9118824,-1.103518,0.20293,-0.4480428,0.41032505,-0.0481454059,2.03918576,0.10681276,1.01834917,0.58299613,0.452249885,0.6273743,-0.0063511217,1.65173733,1.27890635,0.123695396,1.211496,-0.3123666,0.9133865,-0.117942423,0.14960739,-0.0521891378,0.5014706,0.442293882,1.010782,0.03916849,-0.385511577,-0.09454927,-0.5540543,0.569339752,0.09641821,0.319109619,0.3056227,0.6251119,-0.258190453,0.867329061,-0.727687061,0.5827547,-0.335961938,-0.776190042,-0.181829482,0.0499524623,-0.7747413,0.308274359,0.5704532,0.311803937,-0.960643351,-0.3646659,-0.4189306,0.413901031,-0.416084141,-0.2940054,-0.8044931,0.9744909,0.592876,0.0189247262,-0.445714056,-0.565659344,-0.425498128,-0.403903782,-0.6930564,-0.137553558,0.5723538,-0.653322,-0.9424691,0.798216343,-0.5268819,0.5129271,0.06455439,0.839726746,-0.1310759,-0.6206576,0.9688601,0.677584052,-0.9841285,-0.733192861,-0.249913141,-0.8351649,0.8749906,-0.435144484,0.0614781529],[1.46472037,0.388108969,1.10715282,-0.293391615,-0.448410839,0.550588548,0.8707207,-0.489377052,0.8184207,1.12229347,-0.7749955,-0.9729237,1.12765026,-0.666920066,-1.26011407,-0.008490698,0.828554749,0.145174518,0.7863254,-0.145300657,-0.5232346,0.5630904,-0.2306534,-0.52537936,-0.539144158,-0.1841775,-0.425049871,0.7673089,0.17702049,-0.7285314,-0.590397835,-0.71297735,-0.49726668,1.02920592,-0.5906712,-0.8153141,-0.275204748,0.5842502,0.5001673,-0.8811793,0.322052,1.03011286,0.7604766,-1.01352537,-0.233635634,1.07452524,-0.8774795,0.541537941,-1.2636739,-0.2701979,-0.075799875,-0.0446845666,-1.33037031,0.441695273,-0.536617,-0.618411541,1.05995107,-0.467842877,-0.6019731,0.793375432,-0.210751355,0.520724952,-0.105219811,0.595707,-0.08047095,0.940516651,-0.516290843,-0.8719434,0.4296604,0.6006223,-0.6372565,-1.57782161,0.0946543,-0.317355931,0.250488,0.0115122069,-1.17493474,-0.9574679,0.8261032,-0.365749031,-0.2845664,-0.122073814,0.69897604,0.9696362,0.277510583,0.5595091,-0.673514,-0.440072119,0.27641055,0.954877138,-0.482875824,-1.18283415,0.393167943,0.871462762,0.747029662,0.695899069,-0.947055638,0.741770864,0.6658521,-0.052386608,0.485962719,0.802092135,0.904802144,-0.621435642,-0.299618036,-0.237233251,0.35142982,-0.02545869,-0.9162904,0.222342417,-0.8602674,0.5192428,0.114509016,0.8520512,0.305149,0.9663248,0.7383372,0.1818095,-0.67637527,0.419631243,0.560712457,0.740098238,0.08681838,0.9036127,0.239873543,-0.692292631,-0.0160217285,0.7294772,0.301198065,0.828468,0.216794208,-0.555897057,-0.5145273,-0.21438399,0.23532252,-0.06723941,-0.124808915,0.4369719,0.30198288,-0.3600776,-0.8792601,0.302644134,-0.3665766,-0.9095853,0.833817959,-0.234560683,0.13491872,1.06796539,0.019322399,-1.33718157,-2.34074044,-0.503643334,-0.3660619,-1.53415561,0.224053979,1.45684016,-1.29880607,-0.399602056,0.1430992,-0.583131731,0.4811606,0.48488453,0.4399241,-0.467302859,0.983698249,0.562352538,0.342508972,-0.3176236,-0.6493739,-0.9689827,0.602953255,-0.08523714,0.733740568,1.32907915,0.8718885,-0.7378533,0.247576192,0.06987516,-0.08520363,-0.7185136,0.458659083,0.188021153,-0.4058809,0.632865369,-0.101252988,-0.743723452,-0.136570439,-0.799647868,-0.708784342,-0.3174872,-1.09571755,-0.234085053,-0.592705,-0.1705835,-0.111991778,-0.480427,0.6700727,-0.488279551,-0.7350273,-0.934839,0.680250347,0.4107187,0.0505598038,-0.273906,0.2147998,0.896415,-0.242063925,0.8826988,-0.0388667956,0.0618398525,-0.0482886471,0.941240549,0.618353248,-0.3670267,0.5302716,-0.6367434,-0.430355817,-0.5742511,-0.371683359,0.48896414,-0.357374847,-0.0743814,-0.20603539,0.1190347,-1.04924893,0.7543663,0.9042493,0.112437524,-0.3261429,-0.178542614,0.187342554,-0.389112443,-0.090748556,0.187022075,0.3963315,0.5340798,-0.04714362,-0.153013617,-1.09605551,0.721679747,0.41824618,0.176840931,0.27911514,-0.4580076,-0.6225728,-0.818831742,0.4395659,0.9080647,0.278016746,-0.4522916,-0.9163688,0.256881922,0.6736271,-0.351182938,0.3670883,-0.40969],[-0.7908003,0.9972456,-0.577594,0.323401541,-1.02900422,0.793718755,0.196148247,-0.4814784,-0.5136604,-0.7103256,0.0433632769,-0.2353887,0.9234139,0.5214986,-1.2681371,-1.08556,-0.6230408,-0.182238221,-0.901919246,0.432483971,0.574748337,-0.5554209,-0.2177313,0.909300864,-0.564032257,-0.953594565,0.7893526,-0.7905058,-0.428250939,0.355990261,-0.0339047,-0.9077273,0.01876362,-0.8194142,0.6789805,-0.61109513,0.763303936,-0.2949334,0.6698021,0.361823857,-1.0708133,0.08788134,0.9429514,-0.9304456,-0.167888314,-0.820877969,1.00499749,0.5998133,-0.761038,0.7080733,-0.2372635,-0.154442489,-0.6149014,0.7869104,0.08083732,0.8467572,0.130167961,-0.353654,-0.139470324,0.926986039,-1.01975048,-0.04592459,0.55809474,-0.00219069,0.343835175,0.119547457,-0.7440076,0.7987915,0.596415758,0.3894468,-0.723854244,0.4019855,-0.0347278677,-0.282351851,0.423849076,-0.512844861,-0.323231071,-0.1309869,-0.09476976,-0.776204467,-0.935096264,-0.8824649,0.7770005,-0.3200609,-0.5212116,-0.9139846,0.5707154,-0.153236359,-0.04281594,0.892017245,0.0853929,-0.2973269,0.821185,0.8251317,0.3768076,0.257700264,0.307055563,-0.1526348,-0.3036022,0.8237894,0.82759887,-0.714874864,0.6852558,-0.4050525,0.352740467,0.144804612,0.778014839,0.920517147,-0.389750957,-0.4329228,0.275094837,-0.6516295,0.84278506,-0.357819349,0.9279805,0.9382107,0.0965264738,0.01664434,-0.465278774,0.214872465,0.526657,0.407196641,-0.3183916,-0.8860111,-0.381559759,0.5481727,0.8938535,0.152287781,0.08708048,-0.727820635,0.30367586,0.82005924,-0.98154515,0.07488239,-0.5764288,0.78152436,-0.573573768,0.08531217,0.322157532,0.353655517,-0.6818598,0.57895267,-0.7005193,-0.569687665,-0.276952177,-0.28762,0.082395196,0.344079643,1.04261386,0.304747552,-0.657403946,-0.469505727,-1.276832,0.593338549,-0.502663851,-0.725695252,0.5781816,0.6832392,-1.21256125,0.7795178,0.181213722,-0.6573773,-0.189314678,-0.58522594,0.3251624,0.219653934,-0.6721147,-0.252662182,-1.09209967,-0.8689199,0.5052656,-0.895041764,0.8338756,0.92977035,0.04863738,1.024666,-0.0271334518,-0.8873111,0.598072231,0.726547956,-0.5237188,0.0710377544,0.49283883,0.4699152,-0.8119279,-0.116122685,0.192391992,-0.479391068,-0.820059359,-1.48524284,-1.04665887,-0.400669962,0.0219392329,0.5063412,-0.8796982,0.5987589,-0.359426439,0.8937034,0.105145723,-0.0618385822,-0.7930421,-0.6397561,-0.147007436,0.8348465,0.9078577,-0.996377945,-0.435215533,-0.219779685,-0.434931,-0.684720337,0.265998662,0.299890071,0.9593115,-0.9067707,0.360894084,-0.610708058,0.272621542,0.286935568,-0.826518238,-0.6912127,-0.753761232,0.917673945,0.980534434,-0.780255556,0.652044654,-0.280394226,-0.041401647,-0.8185748,-0.2265009,0.0817856938,0.312872916,0.129857972,-0.0492046364,-0.339796633,0.7096594,-1.035508,