{"Descriptions":[{"width":28,"height":28,"channels":1,"filters":0,"kernelSize":0,"stride":0,"padding":0,"activation":0,"layers":0,"neurons":null,"fc_activations":null,"layerType":0},{"width":0,"height":0,"channels":0,"filters":6,"kernelSize":5,"stride":1,"padding":0,"activation":1,"layers":0,"neurons":null,"fc_activations":null,"layerType":1},{"width":0,"height":0,"channels":0,"filters":0,"kernelSize":2,"stride":2,"padding":0,"activation":0,"layers":0,"neurons":null,"fc_activations":null,"layerType":2},{"width":0,"height":0,"channels":0,"filters":16,"kernelSize":5,"stride":1,"padding":0,"activation":1,"layers":0,"neurons":null,"fc_activations":null,"layerType":1},{"width":0,"height":0,"channels":0,"filters":0,"kernelSize":2,"stride":2,"padding":0,"activation":0,"layers":0,"neurons":null,"fc_activations":null,"layerType":2},{"width":0,"height":0,"channels":0,"filters":0,"kernelSize":0,"stride":0,"padding":0,"activation":0,"layers":3,"neurons":[120,84,10],"fc_activations":[2,2,2],"layerType":3}],"Kernels":[[[{"rows":5,"cols":5,"data":[[-0.430377245,0.8881615,0.5907846,-0.28080833,0.242878422],[-0.5934705,0.453264982,-0.337119579,-0.9838453,0.928814054],[-0.00890004449,-0.263138741,0.168120667,0.0054772906,0.196056366],[-0.417625,0.0816261,-0.23719129,0.163222313,-0.688953],[-0.445838869,0.2460964,0.6314708,0.694574,0.128205225]]}],[{"rows":5,"cols":5,"data":[[0.8394223,-0.2294624,-0.467119843,0.160206065,0.2555559],[-0.75089395,0.07091773,0.7565283,0.157619625,-0.635809839],[-0.7681403,-0.0139758987,0.09172346,0.387925327,0.524003267],[0.545941532,-0.9547789,0.565237463,0.274451822,0.8032983],[0.6744094,-0.0440153,-0.7494746,-0.897734,-0.5646237]]}],[{"rows":5,"cols":5,"data":[[-0.362962574,0.116587557,-0.678261042,0.6822586,0.44179216],[0.409712285,-0.7121519,0.8463783,0.56164825,0.43029964],[0.755743,-0.142777577,0.487205416,-0.209041208,0.7489124],[-1.08009434,-0.04679174,-0.916964054,-0.282821059,0.0565080456],[0.5853079,-0.9836454,0.415331662,0.723997831,-0.198015109]]}],[{"rows":5,"cols":5,"data":[[-0.471145868,0.7445981,-0.5860097,0.8987392,0.473668367],[-0.172443211,-0.4655105,-0.5412827,-0.269989729,-0.304724067],[0.190006256,-0.230906934,-0.922999442,0.714674,-0.0481237024],[0.9597125,0.10723234,0.507785,-1.01107037,0.7801838],[-0.337436438,-0.4613944,-0.25186187,0.57334,0.783880949]]}],[{"rows":5,"cols":5,"data":[[-0.374605715,-0.0187414773,0.5816545,0.046672374,-0.4049681],[-0.593668,0.6509631,-0.436522722,-0.233225092,-0.224460512],[0.5866918,0.86647886,0.947247446,-0.882339656,-0.4242805],[0.275338143,-0.5259026,-0.203031108,-0.8535177,-0.4390668],[0.2858109,-0.06766154,-0.6607832,0.6941031,0.0565009564]]}],[{"rows":5,"cols":5,"data":[[-0.358908,-0.388706028,0.439727575,0.9792542,-0.8686292],[-0.972991049,-0.027044164,-0.124497652,-0.8829681,-0.228599966],[0.8526414,-0.100785151,0.3773502,-0.91433084,-0.760893345],[0.578023851,-0.8160057,0.2858475,-0.0394544,0.442230135],[-0.8527328,0.191333592,0.454203635,0.4760828,-0.5157366]]}]],[[{"rows":5,"cols":5,"data":[[-0.7556172,0.7852735,-0.3726964,-0.04026801,-0.4705689],[0.7843262,-0.350344062,0.9133543,0.991602063,-0.9475165],[0.859710038,-0.6986198,-0.3285161,-0.349144429,-0.184001148],[-0.3156661,0.04480056,0.85583514,0.310680926,-0.245064512],[-0.4942514,0.152452558,-0.298019052,0.887508333,0.0186147764]]},{"rows":5,"cols":5,"data":[[0.152851135,0.7122872,0.390802056,-0.7338099,-0.0575745329],[0.5235979,0.243485838,0.963580132,0.515454769,0.9016379],[-0.7523823,-0.7195839,0.9008761,0.657073259,0.0650143549],[0.234556988,-0.004914895,0.3504898,-0.920316637,-0.5890175],[0.348145068,0.5787031,-0.471967727,-0.8959049,-0.271428317]]},{"rows":5,"cols":5,"data":[[0.149149239,0.4127388,-0.913005,-0.263033152,-1.01385808],[0.1729149,0.153082266,-0.332524419,0.935261,0.261938125],[-0.908490956,0.254755616,0.53382355,0.0574478768,-0.5033609],[-0.282186925,-0.770710468,0.0615068674,-0.185651526,-0.428901166],[-0.582619369,0.1977538,-0.797385,-0.7049367,0.495654]]},{"rows":5,"cols":5,"data":[[0.47668767,0.7557923,-0.447318882,0.483828753,0.6393845],[0.6241472,0.07360682,0.212674558,0.538431168,0.8801765],[-0.7256387,0.135350183,0.241137758,0.518607,-0.172579482],[0.256774515,0.525645256,0.7789782,-0.753835142,-0.0253133718],[1.0211879,0.3445805,-0.7130505,0.5625194,0.7221793]]},{"rows":5,"cols":5,"data":[[0.105108321,-0.5859325,0.9251179,0.6818076,-0.5684526],[0.893754,0.09396895,0.8671164,0.137590349,-0.4676686],[0.338875055,-0.5315072,0.242592737,-0.7114634,0.763721764],[-0.112777017,-0.984004557,-0.865916669,0.162556574,-0.7216942],[0.472543329,-0.014927635,0.606881142,0.837394536,0.267658085]]},{"rows":5,"cols":5,"data":[[-0.259761423,0.322286069,-0.9727024,0.28164953,0.57535],[-0.9189006,0.4322195,0.0769440159,0.746119261,-0.374801964],[0.177933082,0.2679515,0.59650135,0.0615003668,0.9576454],[0.1641567,0.3564528,-0.871598244,-0.0108184535,0.5439413],[-0.234271929,-0.6605032,0.510760367,-0.537884951,-0.9132537]]}],[{"rows":5,"cols":5,"data":[[0.9718227,0.295406163,0.129628286,0.218975022,-0.746778548],[-0.8795381,-0.135107413,0.9445206,-0.6593947,0.7332074],[-0.44797197,0.04970687,-0.506731153,0.6113024,-0.5365972],[0.8781953,0.39657703,0.5542289,0.7501528,-0.4236181],[0.6591638,-0.616919,0.0467976257,0.2540686,0.148570538]]},{"rows":5,"cols":5,"data":[[-0.8721443,-0.197334245,-0.4103892,-0.6725561,-0.479641616],[-0.548679531,0.791921854,0.547934532,0.126425192,0.5671809],[-0.1924856,-0.719603956,0.8402161,0.477040231,-0.606054664],[-0.7119345,0.3184041,0.283359,0.393608779,0.3698653],[-0.8341736,-0.0812170953,-0.4534924,-0.470003217,0.639114857]]},{"rows":5,"cols":5,"data":[[0.4137453,-0.19972463,0.795045555,0.863175869,-0.5798535],[0.578858733,-0.7227661,0.908126652,-0.8900273,-0.9104251],[0.414351583,-0.7234836,0.633186758,0.8057394,0.2236904],[-0.230293065,0.466214031,0.300813645,1.0553925,0.6173115],[0.604239,0.511511,0.989551,0.3606386,-0.776468]]},{"rows":5,"cols":5,"data":[[-0.6534818,0.128627792,0.664356053,0.8846678,-0.0332079381],[0.277718127,-0.7324759,-0.8919686,-0.271261781,0.0839621946],[0.5724584,0.975718737,0.6526821,-0.22909227,-0.9548486],[-0.4103885,-0.607536435,0.7366658,0.449216843,0.0367352031],[-0.8721968,0.7242521,0.47955066,-0.9389001,-0.45272395]]},{"rows":5,"cols":5,"data":[[-0.3304481,0.5168748,-0.441801131,-0.154817015,-0.98405385],[0.85897243,-0.101352766,-0.442505062,0.6654446,-0.886293054],[-0.6165752,-0.3965299,-0.9618645,0.1326387,-0.151731327],[0.0337447338,-0.866634548,-0.08606831,-0.342047483,0.8217881],[-0.260739267,0.7993171,-0.426660419,0.9393457,0.210983425]]},{"rows":5,"cols":5,"data":[[0.266770482,0.8219783,-0.4444301,-0.857655942,-0.8634129],[-0.3917754,0.715171337,0.6156282,0.3052957,-0.7329574],[0.6909951,0.7309701,0.24573724,-0.372157544,0.213337734],[-0.3660642,0.461405069,-1.00934124,-0.3717421,0.6510839],[0.943603635,-0.6755118,-0.47558403,-0.4313619,-0.9339868]]}],[{"rows":5,"cols":5,"data":[[0.933044553,-0.237968713,-0.236507937,-0.7234606,0.7917174],[-0.112277947,-0.0173639078,-0.402125478,0.703968048,-0.22594972],[-0.8830153,-0.678491056,-0.5899217,0.47878322,0.481368661],[-0.288862854,-0.0206823349,-0.283462077,-0.140840769,0.121743],[0.310687661,-0.1322944,-0.722558439,0.5101653,0.120574526]]},{"rows":5,"cols":5,"data":[[0.327121645,0.7829284,0.9059054,-0.7320859,0.190884143],[-0.07859258,0.256061584,0.981529,-0.921380162,-0.760306954],[0.8017062,-0.03797612,0.324143767,0.498793662,0.3579791],[-0.2709053,0.158425376,0.548636138,0.7947192,0.08653747],[-0.6555271,0.07908215,-0.488665134,0.116649,-0.03683368]]},{"rows":5,"cols":5,"data":[[-0.0604098551,0.6134652,0.6206076,0.4099159,-0.245737553],[0.0278517,-0.485312432,0.217553109,0.12857756,-0.5026434],[0.08145205,0.08020129,-0.708361864,-0.51388067,0.872291863],[-0.182427466,-0.6609283,-0.742298067,0.228972182,0.669024646],[0.769046545,0.650387,0.256817222,0.479901969,-0.5981331]]},{"rows":5,"cols":5,"data":[[-0.865321457,0.396430284,-0.559075058,-0.612226367,-0.15994294],[-0.739012241,0.2891249,-0.24669984,0.288948476,-0.77874],[0.368592083,0.6421325,-0.465444773,0.347251743,0.188663557],[0.322835267,0.724677861,-0.8133104,0.0340192765,-0.699130952],[0.6312669,-0.190385461,-0.0264770575,0.971718848,-0.685604]]},{"rows":5,"cols":5,"data":[[1.01003194,-0.202837825,0.239437282,0.4548044,0.180963263],[0.369265825,-0.6863782,-0.865417957,0.001045381,-0.43499887],[0.6931332,-0.9807508,-0.160090879,-0.6620536,-0.7436287],[0.8061054,-0.7118433,-0.047195144,-0.6400824,-0.472107649],[0.168259054,0.7655611,-0.105939366,-0.9080017,-0.697913647]]},{"rows":5,"cols":5,"data":[[-0.980262458,0.399204254,-0.816364,0.221657276,-0.2695831],[0.3244639,-0.653293133,-0.5078823,-0.92324096,-0.198920444],[0.452893555,0.998251557,0.2936969,-0.868129432,-0.118900575],[-0.0100786509,0.4707422,0.510993958,-0.182036757,0.4800658],[0.3156617,-0.129205853,0.8658377,-0.186151952,-0.5517141]]}],[{"rows":5,"cols":5,"data":[[0.3630841,0.8990818,-0.23902753,0.4894562,0.104512081],[-0.778872669,0.96347034,0.245344266,0.213082582,0.129740164],[0.9552934,-0.786971152,-0.04018885,-0.6588495,0.274893373],[0.398607939,0.5846087,-0.19240883,0.5763552,-0.215074748],[0.8852674,0.05361081,-0.103125788,0.504550755,0.546042144]]},{"rows":5,"cols":5,"data":[[0.7048349,-0.7550189,-0.868314564,-0.385945737,-0.0525749028],[0.09115997,0.5249839,0.405036628,-0.221275076,0.346327],[0.4419009,0.6815744,0.04634124,-0.06159038,-0.403372139],[0.6174482,-0.13007766,-0.9202892,-0.0470221527,-0.0174169857],[-0.177761272,-0.441679239,0.2686809,0.6111756,-0.8521391]]},{"rows":5,"cols":5,"data":[[0.7432503,-0.7786512,-0.5384587,-0.9242415,-0.4085535],[-0.6659635,0.08930387,0.3215075,0.889644742,0.365301967],[0.9167653,0.8224647,-0.436577082,-0.8643764,-0.9980795],[-0.5305142,-0.07921988,-0.745313644,-0.0352125019,0.8426243],[0.7956898,-0.408559769,0.8665906,-0.0348322839,0.260055035]]},{"rows":5,"cols":5,"data":[[-0.00345977256,-0.04351662,0.8947749,-0.5696617,-0.346358925],[0.190141082,0.092260085,-0.428500861,-0.533676744,0.214869216],[0.0419868529,0.280215532,0.347940564,-0.8332417,-0.0136374049],[-0.600741565,-0.5849468,0.1314371,0.6030818,-0.311436385],[0.8175905,-0.6674986,1.00467038,-0.0532854237,-0.4081723]]},{"rows":5,"cols":5,"data":[[-0.9199492,-0.627137363,-0.75092,0.8348886,-0.5169028],[0.286984175,-0.6762786,0.468006283,-0.04763117,0.596028268],[0.4914326,0.188905627,-0.103513479,0.3272537,-0.7478459],[-0.09318479,0.321578026,-0.844535232,-0.033563558,0.0285439529],[0.168015167,0.556621,-0.90942204,-0.965115845,0.539708734]]},{"rows":5,"cols":5,"data":[[0.328603268,0.3908927,-0.7830412,-0.7364477,0.447125584],[-0.24999702,-0.04082798,-0.06888393,0.8826968,-0.367750049],[-0.201041028,-0.227550983,-0.214892134,-0.9395792,0.963500857],[-0.300817579,0.796272159,-0.5339976,-0.4719753,0.448430061],[0.149885461,0.576928258,0.8594751,0.321154684,0.7498477]]}],[{"rows":5,"cols":5,"data":[[-0.494239956,-0.8197455,-0.04455912,0.928039432,0.3829872],[-0.439323246,-0.675291061,-0.7471465,-0.762337565,0.0824743],[0.8427182,-0.899279237,0.139618173,0.374129683,-0.130526334],[-0.471202463,-0.7063786,-0.108400851,-0.420037955,0.420398146],[-0.888119638,-0.5103555,-0.9883294,-0.0227329638,-0.6722891]]},{"rows":5,"cols":5,"data":[[0.370163769,0.0105515607,0.53610146,-0.4248599,-0.6407065],[0.773767531,0.5305644,-0.09401299,-0.452583849,-0.0716235861],[-0.435912728,0.954434,-0.03434875,-0.564993262,-0.9361152],[-0.529079735,-0.47677967,-0.473813653,-0.0556990243,-0.908108234],[-0.420754164,-0.3305183,0.05436637,0.6594518,-0.122512653]]},{"rows":5,"cols":5,"data":[[-0.140730441,-0.30617258,0.279971957,0.891394258,0.587936044],[-0.995197535,-0.8562763,0.9748147,0.5648072,-0.971093833],[0.552098453,-0.217792317,0.65905416,0.869178951,0.278688461],[-0.7159376,0.192815885,-0.404002845,-0.5470446,-0.7369565],[-0.44458726,0.315466672,-0.532465756,-0.4759347,-0.045957908]]},{"rows":5,"cols":5,"data":[[0.5971995,0.9299709,0.0413234681,-0.1329262,0.714731455],[-0.300657541,0.940113246,0.8615759,0.64813,0.5172049],[0.107484356,-0.7157104,0.00740608154,-0.08164471,-0.07275304],[-0.5849237,0.97347033,0.378772348,-0.6008962,-0.488022953],[0.666255057,-0.161233544,-0.3851859,0.641087949,0.7601249]]},{"rows":5,"cols":5,"data":[[0.354158461,-0.963743,-0.398419,0.369902,-0.646176636],[0.520063,-0.8254369,-0.271648258,-0.04940992,-0.9860082],[-0.9453762,0.09569419,0.08498981,0.88849014,0.338697851],[0.6082944,-0.08699164,-0.995690942,-0.6103606,-0.824273],[-1.01265156,-0.826792,0.7298263,0.5180093,0.8802086]]},{"rows":5,"cols":5,"data":[[-0.43985033,0.931606531,-0.9204454,1.003862,0.29510355],[-0.2493608,0.353832066,0.410172373,0.1252738,-0.6019584],[-0.3285573,0.353555262,-0.497218579,0.340849727,0.9910282],[-0.0507517271,0.559354246,-0.907197356,-0.108505912,-0.122013427],[0.297748357,-0.09566722,0.552435338,0.0309442412,-0.108823322]]}],[{"rows":5,"cols":5,"data":[[-0.312148541,-0.162253022,-0.827544034,0.404740334,0.746479452],[0.1465061,-0.7067551,0.05456198,0.463195771,0.76127845],[0.584283054,-0.8701264,-0.287594885,0.6395784,0.306079358],[-0.32998687,0.6870149,0.9670342,0.5043696,-0.292182863],[-0.7098154,-0.568907559,-0.320717722,-0.575397134,0.2925469]]},{"rows":5,"cols":5,"data":[[-0.5942458,-0.925018251,-0.178841978,-0.3721096,-0.416021317],[0.6676516,-0.636027336,0.0430975147,0.112736814,-0.43318224],[0.889723837,0.147850588,1.01586378,0.319525063,0.161976725],[-0.620118737,-0.6986076,-0.03727561,0.5262824,-0.5656827],[-0.185001716,-0.201281339,-0.5849056,0.6023298,-0.8069621]]},{"rows":5,"cols":5,"data":[[0.5134346,-0.171348572,-1.000551,-0.765673339,-0.384196758],[-0.744544566,-0.808482766,0.75873816,-0.918459654,0.327007145],[0.08939287,0.52832526,-0.5863501,-0.0687555745,-0.8761157],[0.2304047,0.103311494,0.678594768,0.102809146,0.373684019],[0.5441085,0.7329872,-0.350412,-0.68170464,-0.62965256]]},{"rows":5,"cols":5,"data":[[0.942585,0.4112356,0.0973949,0.968932569,-0.5833625],[0.6490995,0.6811655,0.1872251,-0.5412419,0.00615252927],[-0.217832163,-0.6912273,-0.324968725,-0.533669949,-0.7110269],[0.718034267,0.3554774,0.8489498,-0.945693851,-0.8937958],[-0.106704056,0.9129916,-0.9142086,0.4737615,0.214041069]]},{"rows":5,"cols":5,"data":[[0.787692547,0.141568527,0.3287971,-0.7696083,-0.391809434],[0.8632663,-0.7498727,0.7981387,-1.00045681,-0.3632122],[-0.154704988,0.02758411,0.7852705,0.7864119,0.6654315],[0.426042527,-0.79919827,0.9477404,0.8747062,0.349696875],[-0.1216068,-0.684109569,0.152200118,-0.21630457,0.728786945]]},{"rows":5,"cols":5,"data":[[-0.812513232,0.879552364,-0.348356575,-0.8424745,0.438468635],[-0.9591234,0.3302669,0.683248758,-0.205231279,-0.4181721],[-0.5317526,-0.7148765,0.005398519,0.792743564,0.09582499],[-0.522915,-0.5519266,-0.2916117,0.8027505,0.425020784],[-0.342614621,0.551513433,-0.935654342,-0.6753238,-0.327909857]]}],[{"rows":5,"cols":5,"data":[[-0.354373842,0.9744636,-0.82780087,-0.939783752,-0.7577191],[0.49005428,0.936834753,-0.518053532,-0.518177748,-0.619870067],[-1.02328265,0.5643697,0.654706657,-0.4957144,-0.445552737],[0.48198393,0.327185959,-0.0277551711,0.116058081,0.205935836],[0.09855089,0.168820724,-0.9208207,-0.185472891,-0.103244036]]},{"rows":5,"cols":5,"data":[[-0.591425538,0.595262766,0.354010969,0.366390824,0.0109803267],[-0.3628824,0.8436133,-0.6622491,0.443471819,-0.254781],[-0.948385835,0.1440386,0.576598763,-0.5616358,0.007680198],[-0.516232669,0.711464047,-0.5922732,0.32339406,0.05248107],[-0.174086779,-0.292665273,-0.931255758,0.1599252,0.8974251]]},{"rows":5,"cols":5,"data":[[0.205565155,-0.492964238,-0.141856432,0.00094857614,0.403724521],[0.356632352,0.831208766,0.277027935,0.1223958,0.8139253],[0.813007653,-0.411664039,0.143655792,0.4748875,0.7707446],[-0.844953,0.2795563,-0.858157039,0.704384267,-0.479717225],[-0.703615844,0.72372216,-0.570984542,-0.9070414,-0.19335562]]},{"rows":5,"cols":5,"data":[[0.365624279,-0.238661364,-0.212710112,0.702883,-1.04453814],[0.6510808,0.496153265,-0.8601008,0.418156117,0.7174422],[-0.9367319,-0.08486139,0.148828521,0.9392783,0.3660586],[-0.8440003,0.8343586,-0.6870044,-0.424782246,0.24777016],[0.864334762,-0.454725176,-0.107780293,0.509365737,-0.08362066]]},{"rows":5,"cols":5,"data":[[0.539040446,-0.461606055,-0.676748157,-0.383450836,0.5031854],[0.455035746,0.9298469,-0.2705153,-0.6294264,-0.9106084],[-0.34202686,0.04261848,0.550166547,0.177257374,-0.835326731],[-0.610461354,-0.5886452,0.6549377,0.681532,0.6741326],[0.276095271,-0.895412,-0.79657495,-0.661305,-0.7071016]]},{"rows":5,"cols":5,"data":[[-0.538493037,0.426817268,0.973478854,-0.107486568,-0.169722274],[-0.202596337,0.8010042,0.308365077,-0.118405089,-0.5135473],[0.1391031,0.130421937,0.5658732,0.9086848,-0.6883438],[-0.872123361,-0.838949442,-0.13375324,0.85516715,-0.301865458],[0.111924112,-0.6783349,0.166072115,-0.6089388,-0.2092376]]}],[{"rows":5,"cols":5,"data":[[0.470801532,-0.09014941,0.159356922,0.7375711,0.6086623],[0.3534013,-0.7226177,0.9850753,-0.6916379,0.09322988],[-0.9628012,-0.991286039,0.8697215,0.532657743,0.3118042],[-0.174282432,0.745161831,-0.34395802,-0.2564305,0.06299199],[0.204342365,-0.152449653,0.825922251,0.5029224,0.6358222]]},{"rows":5,"cols":5,"data":[[0.112957455,0.250701785,-0.6208319,0.677380443,0.1966042],[-0.8800361,-0.777079165,0.513153136,-0.9374126,0.363940537],[0.8218172,-0.37930578,0.53262645,0.231447116,0.038287662],[-0.154438391,0.166750714,0.253335953,-0.171795264,-0.726534069],[-0.922613144,-0.72377944,0.3372644,-0.425216347,0.891183436]]},{"rows":5,"cols":5,"data":[[0.302089721,0.6392783,-0.49976635,0.3905388,0.5876125],[-0.373078883,0.1339943,0.7508131,-0.8322929,-0.541362166],[-0.8754546,0.8820003,-0.7471371,0.0458749421,-0.12215066],[0.6844183,-0.5505417,0.817728639,-0.84419,0.3718762],[-0.8068749,-0.7383684,0.443713784,0.6588561,-0.747735858]]},{"rows":5,"cols":5,"data":[[-0.928449452,0.5407462,-0.07390421,0.147297442,0.461678475],[-0.216088,0.8797806,0.823703349,0.7751637,0.8162752],[-0.5268485,0.791285753,-0.7777441,-0.488798976,-0.318311],[-0.287400752,-0.06281998,0.456809968,-0.255556464,-0.08126037],[-0.07387225,-0.0754376,-0.7321367,0.945221663,-0.464593828]]},{"rows":5,"cols":5,"data":[[0.591490149,-0.514075637,0.170164689,0.139042482,0.731613755],[0.10040269,-0.745402455,-0.193572536,0.122232743,0.5150299],[0.047951892,-0.837238133,-0.5126292,-0.390075654,0.7444912],[-0.7677331,-0.9065756,-0.5183617,0.12541683,-0.5578923],[0.953291953,-0.7527641,0.228366479,0.4123768,-0.299742341]]},{"rows":5,"cols":5,"data":[[0.2564875,-0.169340417,-0.352038026,-0.291060954,0.289634883],[0.1961112,0.3346024,0.05126647,-0.3150709,0.8675588],[-0.705114067,-0.3127649,-0.3157354,-0.9081227,-0.228058547],[-0.7907826,-0.0223211814,0.09820519,-0.0179061834,0.6224071],[-0.501862347,-0.590167642,-0.251103461,0.0194400549,-0.360090733]]}],[{"rows":5,"cols":5,"data":[[-0.206356123,-0.6428365,0.0556438826,0.3726208,-0.476253629],[0.368921429,0.201593816,0.736619055,-0.6571701,-0.570986867],[-0.7024778,0.595158637,-0.930232,0.7698769,-0.709126055],[0.772814631,0.1192951,0.772154,-0.283297181,0.387816],[0.5849897,0.3805986,-0.670435667,-0.658904254,-0.788107455]]},{"rows":5,"cols":5,"data":[[-0.0582501963,0.1428062,-0.729324639,0.7948591,-0.809458137],[-0.170394272,-0.92512846,0.598399341,-0.955685556,-0.553396046],[-0.183287084,-0.7472447,0.5904702,-0.8888154,-0.51039803],[0.07527169,-0.08791764,-0.773728967,0.606981754,-0.5635739],[-0.4173033,-0.193200827,0.20878911,-0.3599823,0.8308037]]},{"rows":5,"cols":5,"data":[[0.3143605,-0.4941739,0.857296467,0.5684187,0.0406662151],[0.331821829,0.8790719,-0.416502237,0.178458288,0.531385362],[-0.8270531,-0.120754987,0.897039354,-0.8408703,0.516244948],[-0.7763095,-1.02932382,-1.00383735,0.3106966,0.4512014],[0.503145754,0.493054628,0.627467334,-0.7870696,-0.7109273]]},{"rows":5,"cols":5,"data":[[-0.347353369,0.118361749,-0.292784333,0.9040409,0.6308486],[-0.8382469,0.9133577,0.5831842,0.9126549,-0.158305079],[-0.707689345,-0.9119739,0.916329443,-0.0667335242,0.07305631],[-0.17475982,0.5012359,-0.6553556,-0.46759066,-0.700896],[-0.889975667,-0.145074159,-0.9835423,-0.9385034,-0.743851542]]},{"rows":5,"cols":5,"data":[[-0.432903439,-0.270630062,0.8432574,0.121429272,-0.6449989],[0.7884595,-0.15748,0.6897089,0.2914804,-0.577642739],[-0.783282,0.259021521,-0.188167408,0.5270174,0.3893736],[-0.7394818,0.326507151,-0.926663637,0.304899275,0.246306747],[-0.924985468,-0.952669561,0.115968622,-0.7844698,-0.384192139]]},{"rows":5,"cols":5,"data":[[0.926223338,0.130849063,0.145540938,0.94225204,-0.8232682],[0.731184542,0.09384412,-0.343179166,0.6349707,0.110711768],[0.4074068,-0.9330414,-0.5218117,0.562668264,0.0793137],[0.4435422,-0.5346385,-0.292368054,-0.462137,-0.144235134],[0.6156654,-0.197571352,-0.117678449,0.141241238,-0.920771956]]}],[{"rows":5,"cols":5,"data":[[-0.180754989,-0.09874742,-0.222905472,-0.184194788,-0.8193507],[-0.5313639,0.6126163,0.626232,-0.442895,-0.5549826],[-0.359201849,0.750033,0.7793065,0.142270952,-0.3117944],[0.153043374,-0.403066635,0.106146008,-0.59501195,0.9702016],[-0.884702265,-0.219394326,-0.493325442,-0.731388569,0.8181007]]},{"rows":5,"cols":5,"data":[[0.5689538,0.340026647,-0.366228074,0.412891328,0.08217657],[0.132639736,-0.706119955,-0.9798123,0.8506083,0.29115],[-0.161695853,-0.6241845,0.865837336,0.470293075,-0.422170818],[0.814993441,-0.508899868,1.02451134,0.150130048,-0.589638352],[0.77915,-0.2491008,0.5522099,0.84166044,0.732779]]},{"rows":5,"cols":5,"data":[[-0.036149513,0.7358134,-0.491665453,0.147924855,0.908545136],[-0.9640131,-0.523811936,-0.457528144,-0.00661721,-0.299880326],[0.205492944,0.07274657,-0.7529508,0.449327141,0.344957],[-0.6332539,0.6905713,0.8686296,0.806926131,0.8641938],[-0.200029269,-0.1724848,0.7218748,0.833217561,-0.7867793]]},{"rows":5,"cols":5,"data":[[0.7026614,-0.09085816,0.367015243,0.8145284,-0.862552047],[-0.1587228,0.76832664,-0.20810163,0.6627828,1.03622973],[0.468721181,0.846335948,-0.130426764,0.9434642,0.235956892],[-0.491191149,0.961901069,-0.109139554,-0.212602049,0.351160347],[-0.20278196,-0.7641628,-0.51428175,0.8279891,-0.9809368]]},{"rows":5,"cols":5,"data":[[-0.9636599,-0.158307076,0.8197732,-0.9287825,0.00372409262],[-0.655729,0.936709344,-0.3414979,-0.024908917,-0.7683001],[0.215131268,0.0127314823,-0.3841404,-0.1356529,0.8246061],[0.480352,-0.780987263,-0.431434959,0.5408928,0.829952657],[-0.39557752,-0.141619429,0.9552214,-0.435189068,0.352156878]]},{"rows":5,"cols":5,"data":[[-0.1515994,0.816497,-0.065373,-0.5538916,0.369575977],[0.473793179,-0.639192462,0.5591324,0.8075789,-0.937064946],[0.948084235,0.932979047,-0.3069168,-0.314480454,0.632002234],[0.5148323,0.107904114,0.906714,0.767229438,-0.9927209],[0.4344683,0.265832275,-0.9544227,-0.0107855536,0.882632]]}],[{"rows":5,"cols":5,"data":[[-0.5089695,0.661169946,0.00629057037,0.9860457,0.3586301],[0.1367182,-0.0234375019,0.260372877,-0.2969785,-0.9259325],[-0.5281848,-0.024555007,-0.838380635,0.5451998,-0.316420883],[-0.151946887,0.4270182,-0.166045308,-0.221311614,0.825819731],[0.547872841,0.545594931,0.866483867,0.801905,-0.639257133]]},{"rows":5,"cols":5,"data":[[0.49164623,-0.13433288,-0.882220745,-0.4426126,0.905609667],[0.515156031,0.7042638,0.8802847,-0.4384055,-0.2576014],[0.7441457,0.3590789,0.5636346,-0.5776542,-0.2135919],[-0.1202017,-0.3430963,0.9480576,-0.4498885,0.0856493339],[-0.569858551,-0.126430348,-0.7107542,0.0063997847,0.10195379]]},{"rows":5,"cols":5,"data":[[0.931026,-0.578821838,0.242407382,0.180961892,-0.7331108],[-0.106662221,0.749920964,0.08355664,0.603023946,0.75808847],[-0.8138641,-0.198757812,-0.337198228,-0.219234824,-0.5593251],[-0.305205971,0.09046807,0.6593373,-0.215971068,-0.148751691],[0.442569047,0.8068716,-0.6879296,0.827254236,-0.1401863]]},{"rows":5,"cols":5,"data":[[-0.1686168,0.524523735,0.241863415,-0.289328247,0.809857666],[-0.457619,-0.350692958,0.132635891,0.376673341,0.8596275],[0.0944144,-0.542481959,-0.211741522,-0.806916654,0.704049945],[0.84390676,-0.8281429,0.9651061,-0.463080555,-0.448692977],[-0.9443788,1.02318931,0.17856659,-0.9643222,-0.606271446]]},{"rows":5,"cols":5,"data":[[0.35301888,0.257326245,0.4181236,-1.01275539,0.6659278],[-0.9027602,-0.9859376,0.294452816,-0.865417957,0.470487118],[0.372742772,-0.466563433,-0.59966296,0.7015315,0.30464682],[0.545566142,0.685356557,0.288554966,-0.144980192,0.4134355],[-0.7912702,-0.747142732,0.3685964,0.040144518,-0.007393214]]},{"rows":5,"cols":5,"data":[[0.303540766,0.9001471,0.805229068,0.299926,-0.1470481],[-0.1075773,-0.635571361,0.2158567,-0.703099966,-0.473594457],[0.311818123,0.17327705,0.054496564,0.7376937,0.8450295],[0.0313410163,0.141652375,-0.399810225,-0.186574131,-0.672520339],[0.319090933,0.737425745,-0.7312601,0.2911372,-0.021715831]]}],[{"rows":5,"cols":5,"data":[[-0.589848,-0.237244025,-0.667310834,-0.416179985,-0.855845869],[0.121569268,0.9289285,-0.5869073,-0.00651583774,-0.720130265],[-0.781861544,-0.703206837,-0.9901941,0.334104151,-0.5018264],[0.09965597,0.406037658,-0.8312818,0.139807954,0.9167471],[-0.5037365,-0.287213057,0.5366568,-0.0161962491,-0.591593564]]},{"rows":5,"cols":5,"data":[[0.05001127,0.69524616,-0.401914954,-0.312407464,0.7476619],[0.5971502,0.600620568,-0.5033927,-0.668060243,-0.463859856],[-0.7842461,-0.984791934,-0.345280021,-0.84996897,0.427414358],[0.438857,-0.226260841,-0.9315284,0.4356559,0.6244486],[-0.1819916,0.204823062,0.322610855,-0.737098038,0.249162152]]},{"rows":5,"cols":5,"data":[[1.01995,0.645606756,0.126097575,0.29441157,-0.4879801],[0.7238605,0.151563749,0.326524973,-0.841972232,0.0707028061],[0.464287549,0.31589362,0.7515979,0.228646576,-0.27781862],[-0.338721246,0.8109776,0.7128641,-0.265504837,-0.697095],[0.06310238,-0.2478633,0.957648158,0.6583156,-0.4378635]]},{"rows":5,"cols":5,"data":[[0.747973144,-0.414530933,-0.8734162,0.34289977,0.5678406],[0.980868,-0.5799026,-0.6857413,0.384622484,0.75777483],[1.01351607,-0.5102233,0.197746441,0.7662759,-0.163245067],[0.0760313,-0.2532844,-0.566401,0.0299848188,-0.9036835],[-0.890333831,0.0601048842,-0.241115928,-0.349215031,0.08123788]]},{"rows":5,"cols":5,"data":[[0.000491272658,0.434224576,-0.486291081,0.978711545,-0.7483867],[0.175203755,0.6704295,0.451413542,-0.179677188,-0.167719439],[0.09690983,0.0461366661,0.9820431,-0.3619512,0.153776482],[0.000836439955,0.05798455,-0.7011416,0.5637207,-0.216930583],[-0.8643282,-0.423804969,0.899710953,1.03617084,0.222389981]]},{"rows":5,"cols":5,"data":[[-0.7062439,-0.724124551,-0.0906802937,0.6219544,-0.546952844],[-0.360958,0.7930637,0.487573624,-0.670097232,-0.4517693],[-0.5017641,0.9639679,-0.6497217,0.152768821,-0.434466273],[-0.651506543,0.08634467,-0.615478456,-0.03658384,0.7602578],[-0.923709,-0.237020686,0.850052953,0.919223,0.115094572]]}],[{"rows":5,"cols":5,"data":[[0.0544314161,-0.256648362,0.294677734,0.8562335,-0.0879784],[-0.534572,0.5982123,-0.530026853,-0.367028564,0.9465458],[-0.0335574746,-0.315888524,0.798040032,-0.685004,-0.8375935],[0.304217339,0.515566468,0.636566162,-1.00632882,-0.381440729],[-0.0235706437,-0.34109816,0.122653827,-0.0944405943,-0.5849457]]},{"rows":5,"cols":5,"data":[[0.0159157813,-0.780112267,-0.07522441,-0.7988455,0.202829421],[0.5384859,-0.542480767,0.00131881959,-0.501725137,0.419157416],[0.8986118,-0.466079235,0.612493753,0.385765374,-0.898851454],[-0.11043106,0.4886851,0.697692633,0.14910382,0.6128993],[0.698499262,0.311135173,-0.9531258,-0.2653135,-0.5674341]]},{"rows":5,"cols":5,"data":[[-0.46198827,0.153362438,0.8536688,0.233179,-0.883980453],[-0.6196773,0.620071232,-0.62667346,0.359876871,0.872247756],[-0.724180758,-0.301740527,-0.7587061,0.417624444,-0.591545463],[-0.518800139,0.6626225,0.241919279,-0.134149149,-0.747810364],[-0.198914737,0.904688835,-0.747914732,0.883803964,0.707993746]]},{"rows":5,"cols":5,"data":[[0.512001157,0.02131039,-1.0019033,0.274312466,-0.198591873],[0.740741968,-0.8040027,-0.87011683,0.7305165,-0.360398173],[-0.6056334,-0.353703558,0.751536131,-0.6527061,0.0189853385],[-0.6254988,-0.8122117,-0.7796123,0.445632875,0.8262651],[-0.786505759,0.2657426,-0.77903986,-0.309407949,0.16566582]]},{"rows":5,"cols":5,"data":[[1.00453138,-0.9693361,0.1523061,-0.4700368,0.694943547],[-0.318489671,-0.06253778,0.9277971,0.521124065,-0.388790637],[0.396184653,0.5735454,0.08217623,-0.3527324,-0.802206635],[-0.913168848,-0.412481785,-0.489485741,-0.178736046,-0.929971457],[0.8719011,0.9628809,-0.125935361,0.871929169,0.9211246]]},{"rows":5,"cols":5,"data":[[-0.3526217,0.663998,-0.252484262,-0.914131343,0.517604947],[-0.78194505,-0.2720973,0.2601875,-0.846498251,-0.191778734],[0.6803168,0.0194403939,0.6661819,-0.9319782,0.9654659],[0.463489771,-0.271853626,-0.7405882,0.787768841,0.6787395],[-0.204958573,0.104161292,0.592680156,0.2764525,0.7450433]]}],[{"rows":5,"cols":5,"data":[[0.674895942,-0.2538531,0.3636245,-0.40516445,0.340363145],[-0.949861765,0.131511748,0.198716849,-0.5123283,0.0490596071],[-0.005534448,-0.874230266,0.774212539,1.014254,-0.6104463],[-0.3857227,-0.77258873,-0.144775063,0.7803956,-0.499019444],[-0.0125550106,-0.182282254,-0.5950465,-0.191330522,-0.379262358]]},{"rows":5,"cols":5,"data":[[0.118358336,0.650272,0.0567508377,-0.878537536,0.125435382],[0.524100363,-0.930403769,0.461630523,-0.6955936,0.815252662],[0.439208478,0.2752583,-0.424262732,-0.179211333,-0.245148614],[-0.468758076,0.7465366,0.118363582,0.06454593,-0.03189298],[0.286883831,-0.116557844,-0.7731291,0.379619032,0.02471025]]},{"rows":5,"cols":5,"data":[[-0.5226798,-0.811849535,0.6930724,-0.322013825,-0.277048618],[-0.161637321,-0.643191159,-0.478985071,-0.9869002,-0.7690389],[-0.627987444,-0.9943775,0.05010744,0.383356243,0.5326477],[-0.124483138,-0.365755677,0.449258983,-0.825944,-0.02899388],[0.312628716,0.619008,-0.948671162,0.08191193,0.985944748]]},{"rows":5,"cols":5,"data":[[0.262602478,0.6806022,0.301397145,0.8629133,0.348830432],[-0.8001025,0.319437742,0.601161838,0.15083389,-0.3506721],[0.2884426,-0.75427264,-0.3082523,0.6331826,-0.0133560617],[0.0246942323,-0.361388236,-0.4479136,-0.352036744,-0.6444644],[-0.606729746,-0.368640721,0.7468374,0.5456506,-0.917401135]]},{"rows":5,"cols":5,"data":[[-0.4127517,0.4093525,-0.886506,-0.5401541,0.59541595],[-0.1401765,-0.8286048,-0.292257935,-0.297022,0.3608573],[0.110358082,0.00489953067,-0.239414111,-0.342546582,0.94626087],[0.0190288,-0.5880352,0.9193799,-0.324482232,-0.8145588],[-0.384476423,0.975688,0.782385945,0.185614437,0.8325965]]},{"rows":5,"cols":5,"data":[[-0.354126334,0.09568512,0.380607843,-0.259703726,0.555584133],[-0.3781555,0.9633194,0.814906359,0.7453555,-0.300193131],[-0.230191156,0.287448764,0.208301067,0.4174996,0.7926376],[0.131751508,0.59207654,0.928860962,-0.8090109,0.8722281],[-0.9344786,0.9048242,0.8075972,-0.311091423,0.310235322]]}],[{"rows":5,"cols":5,"data":[[-0.9588162,-0.306951821,0.0344107337,0.348032683,0.437649518],[-0.3159244,0.61754936,-0.08926909,-0.379367083,0.0465287231],[0.798384964,-0.189369112,0.9854084,0.239507228,-0.200976878],[0.200234488,0.21004042,0.004170237,-0.9807155,0.225165516],[0.8106072,0.26133123,-0.391099751,-0.0139885582,0.1252252]]},{"rows":5,"cols":5,"data":[[0.0263737217,-0.93247664,0.688262761,0.314652532,0.7744437],[-0.268041044,0.3336259,-0.2635508,0.415245175,0.4733414],[1.01429856,-0.0294937138,-0.550388932,-0.645605,-0.8809375],[0.209552437,-0.639261365,-0.3711555,-0.6349766,-0.9675593],[-0.666396856,0.602447,-0.271921366,0.353229731,-0.305921078]]},{"rows":5,"cols":5,"data":[[-0.0594159737,-0.1021091,0.770316541,0.446423024,0.5679712],[-0.123948,-0.893699646,-0.8979009,-0.684350133,-0.5816951],[-0.405429751,0.9194559,0.6235987,-0.173107252,-0.677493],[-0.4783885,-0.8918428,-0.4273245,0.749333441,-0.08115148],[-0.7833601,-0.2868363,-0.3216112,0.8738237,0.9926059]]},{"rows":5,"cols":5,"data":[[0.434163481,-0.3831996,-0.792622566,-0.103547052,-0.2868094],[0.431216031,0.3476238,-0.7173193,-0.365212679,-0.08243995],[0.8603684,0.478907168,0.242140278,0.8691077,-0.293331742],[0.8860085,-0.141210571,-0.87638104,0.88924855,0.5900199],[0.306747884,-0.163469344,0.7895532,-0.909279943,0.60859853]]},{"rows":5,"cols":5,"data":[[-0.733936846,0.09707312,0.01947368,-0.403203,-0.5506724],[-0.829608738,-0.7595029,0.9519438,0.503100336,-0.842473149],[-0.7781378,0.990042,0.226356462,0.580134749,0.00229609641],[0.265107483,0.747981966,-0.0219198633,0.9434485,-0.501199841],[0.08045961,-0.0842904,-0.321427435,0.0442181043,-0.07524187]]},{"rows":5,"cols":5,"data":[[0.345750421,-0.412434727,-0.200702026,-0.65678364,-0.287583321],[-0.40567416,-0.188900054,-0.8577923,0.336375058,-0.511823058],[-0.6818883,-0.6238426,0.724454343,-0.8538517,-0.259070367],[0.5921497,0.6113153,0.7349221,0.6444343,-0.5524328],[-0.957568467,0.6991465,-0.449430078,-0.143561512,-0.600984156]]}],[{"rows":5,"cols":5,"data":[[0.6190084,0.8296231,0.929397345,0.5522319,-0.3961204],[0.3267207,-0.594410062,0.981627345,0.6107537,0.157982573],[0.5568415,0.401386321,0.494256079,-0.228834733,0.621400833],[0.400142759,0.7125966,0.8300543,0.133526728,-0.295542359],[-0.186655462,0.9682738,-0.177392185,0.149942443,-0.0667376]]},{"rows":5,"cols":5,"data":[[0.318494529,0.115363546,0.0395496674,-0.3977526,-0.0623875968],[0.6141161,-0.96552074,0.984140158,0.9552566,0.05015322],[-0.226808861,-0.000774304441,-0.3974282,-0.22230275,0.16098848],[0.926710248,-0.6081035,-0.967874646,0.04858458,0.251215428],[-0.8151103,-0.9359813,-0.0310722012,-0.925791442,0.0283366069]]},{"rows":5,"cols":5,"data":[[-0.748167634,0.8806751,0.442490071,-0.8414774,0.616200864],[0.6780147,0.00323160319,-0.3214381,-0.330500036,0.263186276],[-0.7838052,0.409128755,0.4358342,-0.246334389,0.524536669],[0.6068629,0.5576506,0.594929934,0.7283575,-0.0955867544],[-0.5473962,0.09555329,0.0326370262,-1.020841,-0.222188741]]},{"rows":5,"cols":5,"data":[[-0.5749785,0.8785327,0.822687268,-1.00420058,-0.198700786],[0.321071178,-0.7776942,-0.008291466,0.5913774,-0.330967784],[0.772177,-0.4018495,0.7905295,-0.61703223,0.3342665],[0.7443721,-0.709946752,0.919697642,0.5256654,-0.0965185538],[-0.358771831,0.03632633,0.3468556,0.524870157,0.6462388]]},{"rows":5,"cols":5,"data":[[-0.371208549,-0.5858021,0.205204532,0.1955818,-0.414711982],[0.09029093,-0.2435933,0.407397658,0.463875979,0.105210774],[0.850097656,0.173981637,-0.270072967,0.94537735,0.887100339],[-0.942761958,-0.589056,0.8569978,-0.9316329,0.7333027],[-0.07953844,0.7328078,0.223279014,-0.54088366,0.11013855]]},{"rows":5,"cols":5,"data":[[-0.8541136,0.1843655,0.538724661,0.124853708,-0.7888534],[0.438055038,-0.5373071,-0.746879756,-0.5941043,-0.8970179],[-0.108600013,-0.07382249,0.83342725,-0.0423083827,0.483576417],[-0.0233006142,0.202998713,-0.6035213,0.201533228,0.411383241],[-0.452261716,0.652883351,-0.938902855,0.65479517,-0.15398857]]}]]],"Weights":[{"rows":120,"cols":256,"data":[[-0.818344,0.177188039,0.288927823,0.8711972,-0.3254932,-0.058126498,0.197860271,-0.161713481,-0.9234862,-0.5422438,0.9417819,0.2708508,-0.70694524,0.218328923,0.739908934,0.47775346,-0.0374877155,-0.7511298,0.7875387,0.0238513965,0.09623046,-0.4325082,-0.109536856,-0.3721009,-0.243140653,0.7802039,0.3407513,-0.959241,0.0219265837,-0.423720956,-0.508515,0.135455,0.8932007,-0.715548933,0.995027244,-0.7166534,0.176872864,-0.60292846,0.7266955,0.168041155,0.695404351,-0.8915093,0.745678,-0.46178174,0.533283055,0.711900055,-0.063587226,0.229998767,0.495947421,0.912322462,0.5872836,0.373511344,-0.7073085,-0.335618228,0.7301667,0.6647943,-0.7336913,-0.345748246,0.133517236,-0.07069617,0.6125114,0.14569217,0.8056004,0.498316646,0.883780241,-0.1992944,0.376144826,0.9919388,0.168168217,0.450357974,-0.7186621,-0.4389531,-0.449928552,-0.3772646,0.310790271,-0.0057530324,-0.175768554,-0.6406886,0.06252785,-0.0137971863,-0.1869653,-0.879110932,-0.433318347,0.114166781,-0.006410607,0.188956618,-0.124757677,0.2546436,-0.443215042,-0.643308342,-0.986606,-0.4674827,0.26044634,-0.187532037,0.548887432,-0.4438323,-0.6888175,-0.77466,-0.373110354,-0.239384964,-0.666824043,-0.09187412,-0.9642714,-0.976534545,0.6460274,0.0159640536,-0.169140533,0.6836381,0.33970654,-0.234928712,-0.127830759,0.936710835,0.5728875,-0.8260448,-0.897676468,0.5095293,-0.4109919,-0.292192847,-0.494692653,-0.269787669,0.9780203,-0.858268142,0.445435941,-0.166139439,0.4725899,0.7930674,0.297839433,0.75595814,0.06270735,-0.242476478,-0.318565875,-0.426956922,0.6938075,-0.6612345,-0.355361938,0.8813103,-0.930568457,-0.4383908,0.442667574,0.957614839,-0.617057741,0.188783973,0.905585945,0.8288658,0.440658182,-0.9057637,-0.0606039427,0.146734267,-0.295186967,-0.945793033,1.04662275,0.616445065,0.7360924,0.9437985,-0.199355945,-0.7675472,0.479905456,0.17013213,-0.489560544,0.8720268,0.7183748,0.07912855,-0.39474535,-0.403707176,-0.937500656,-0.6917835,-0.772593141,0.242733449,0.5364551,-0.742652237,0.450516,-0.985573649,0.2730554,-0.417556018,-0.633375943,-0.233479962,-0.7492323,0.627888,0.407161266,0.383692265,-0.1722558,-0.821486,0.05484591,0.0366873369,-0.258293033,0.08184578,-0.13566947,0.8031925,0.5328678,-0.5736313,-0.6088574,-0.106402047,-0.9988547,0.549264669,-0.756593,0.304029763,-0.4250932,0.336315483,0.7829701,0.198317125,0.8648601,0.701464951,0.611023962,-0.529959559,-0.405807137,1.00065482,-0.637567163,0.160282478,0.5368401,-0.9552877,0.9955676,0.874905646,0.8056342,0.182854742,0.06926828,0.5473623,-0.980377853,0.5761053,0.812667847,-0.008695016,0.422634363,-0.578423262,0.6977833,0.08999754,0.850836456,-0.442221463,1.0079217,0.7326556,-0.678348,0.107842728,-0.7934987,-0.0948173851,0.856173635,-0.7935947,0.501449645,0.110073447,-0.4360452,-0.401283145,-0.55464834,-0.236644566,-0.289778948,0.7284697,-0.7198684,0.5260496,-0.5676262,-0.445868343,0.120369524,-0.154968321,-0.499815881,-0.264882445,0.321732134,0.008822392,0.558568835,-0.177882522,0.7737559,0.438403338],[0.980046332,-0.486370385,-0.402055085,-0.9506246,0.9993003,-0.355433166,-0.191677317,-0.540548444,0.8258871,0.0442429334,-0.9852514,0.57125175,0.6547285,0.944176137,-0.0528080761,0.40189895,0.112655647,0.09663299,-0.75235033,0.7133125,-0.795345068,-0.801964,-0.332211375,0.34272,0.488724142,0.169891462,0.2249186,0.6600153,0.8321695,0.210132569,0.389778048,0.0423862264,-0.543846548,-0.9312287,0.1230339,-0.934661269,0.9788353,-0.628912568,-0.2299994,-0.9120795,-0.09287183,0.792926669,0.65978694,0.3580291,-0.482473,0.5279078,0.1293929,-0.485240072,0.709467,0.8577006,0.8713454,-0.5402545,-0.478842646,-0.9348179,0.295471132,0.7846237,0.846385539,0.328258574,-0.410496622,-0.1925027,0.410758942,0.1754391,-0.342969,-0.3514689,0.6981205,-0.0537956879,0.136725545,0.5991615,-0.165030956,-0.07300871,0.4345163,-0.2630729,-0.7264758,-0.8265332,-0.200554788,-0.645652652,-0.4630108,0.324382365,-0.1945751,0.9209272,-0.9805213,-0.2748815,0.900266945,0.918184757,0.343595952,-0.0623626933,-0.48222816,-0.598776162,-0.190366536,0.280095369,-0.766813338,-0.323857367,0.7891937,0.9737117,-0.300819367,0.7307054,0.1285944,-0.0111332517,0.6470481,0.559295833,-0.631288,0.5509561,0.7118812,-0.20402199,-0.5594108,0.118340418,-0.8274205,-0.687353969,0.246434748,-0.0712344646,0.297016352,-0.4601965,-0.500499249,-0.289787382,-0.21628584,-0.300387442,0.236592114,-0.235279337,0.30968827,-0.1909829,-0.590830564,-0.2292501,-0.213834763,0.5270823,-0.301927924,-0.208175033,-0.0512952246,-0.6758463,0.521869957,0.08417269,0.201477483,0.498284459,0.683415651,0.261269271,0.5283985,-0.516248167,0.0121090887,0.1162547,0.485883564,-0.8028681,-0.2801201,-0.7773579,0.156618655,0.863943934,-0.987179935,0.689699769,-0.844066739,0.06431265,0.172427654,0.96964,-0.541353762,-0.5899994,0.722613752,-0.157861263,0.1729803,0.64078933,-0.225633577,-0.823462367,-0.8444198,0.65438,-0.8452682,0.8990323,-0.199255466,-0.8298622,0.736886442,0.8039558,-0.1613423,0.2625404,0.176651388,-0.69341284,0.6872287,-0.8778635,0.292347223,0.126228839,-0.9345039,-0.835351,0.58472234,-0.06686426,0.499976069,-0.00498141674,-0.391349077,0.840573967,0.174001247,0.5279053,-0.386678219,-0.151201144,0.8486258,-0.164462835,-0.91151017,0.945168257,0.7190185,-0.175669134,-0.0206847973,0.812948763,-0.974369943,-0.152974263,0.4209629,-0.0139373476,-0.856606,-0.7992595,-0.15467602,-0.09651654,0.9386616,-0.129231662,-0.7074781,-0.665478,0.13599883,-0.4301154,-0.224235713,-0.015993055,-0.946934342,0.803657651,-0.325126439,0.14550668,0.05001445,-0.682701,-0.286604047,0.257927448,0.5647225,-0.06982176,0.9876804,-0.9955738,0.176561728,0.25860098,-0.407861769,-0.1476285,0.169655949,0.435902417,0.11456544,0.248771608,-0.22078903,-0.429543048,-0.200238824,0.311987936,-0.8471607,0.6989629,0.899378955,-0.73257184,0.229933485,-0.723736644,0.6086825,0.25713,-0.9042481,0.09681054,0.848628938,0.954180837,-0.8561187,0.8264082,-0.204701528,0.7529704,-0.88382864,-0.8293862,0.447379619,0.2521167,-0.7620566,-0.148298919],[0.7412653,-0.319422871,-0.700877249,0.4231164,0.18947351,0.7137258,0.4710911,0.5718437,-0.767075539,0.4713727,0.0250629336,0.396978229,0.00294283871,0.3513567,-0.5969487,-0.5586324,-0.981248438,0.3067513,0.2949102,-0.241914555,0.9569678,-0.9167264,0.4552333,-0.336434871,-0.249694735,0.337642282,-0.3107146,0.4077718,0.0943287238,-0.3887594,0.171940669,0.571454942,0.07548136,0.3099654,0.972946,0.254200757,-0.9944368,0.8403159,0.08872627,0.9468934,0.7908343,-0.500045538,-0.124708615,-0.631341457,-0.09299044,-0.2588929,-0.15713568,0.437658459,0.306334347,0.6983198,-0.8333119,-0.858777761,0.9426006,0.465696841,-0.115490273,0.6681773,0.237957314,0.6362,-0.319859117,0.8706154,0.03643321,-0.935793936,-0.5066306,0.6366182,-0.6949032,0.451612055,-0.683512866,0.6899642,0.375046968,0.1509893,-0.5667224,-0.825874031,-0.784561753,0.339766949,-0.0266103223,0.4647431,0.20040141,0.06671372,0.743170142,0.9992374,-0.5167132,0.243246377,-0.8941752,0.401932657,-0.561458945,0.0287671853,0.630621135,0.615417242,-0.5705426,-0.683201969,-0.9823299,-0.622941852,0.155697092,0.222085029,-0.08277456,0.7262617,-0.990922153,0.251942873,-0.928493738,0.4633857,-0.5745548,0.162365556,-0.9388779,-0.831311464,0.2707288,0.986121655,0.920362651,-0.3898864,-0.492414862,0.4288624,-0.5316806,-0.8199272,0.903203547,-0.3160297,0.392971963,0.7901432,0.972391963,0.0994942859,0.207596123,0.273383439,0.8324003,-0.286693782,0.274743319,0.05935907,0.149482459,-0.9295955,0.0249674954,-0.0021438715,-0.568801165,0.244451523,0.458907574,0.957614541,0.000383935054,-0.7122685,0.581168652,0.329525232,0.181967109,0.938670337,-0.869993448,-0.543363631,0.11148639,0.0260052923,0.120442554,0.00824393053,0.86662966,0.8469142,-0.5096127,-0.5223596,0.8353396,0.139722586,0.7701986,-0.07707986,-0.9318361,-0.183500677,0.6443688,0.7311416,0.9012666,0.0169391222,0.02347767,0.209112152,-0.02831948,-0.0722856745,-0.8010819,0.254536867,0.9665239,-0.483597577,0.192231745,0.610540032,0.111811183,-0.926046669,-0.381318718,-0.967576742,-0.0211943872,-0.24414292,-0.819747865,-0.185395047,0.588881731,-0.7398192,0.2131502,0.304456085,0.585208237,-0.446773618,0.170766413,0.314672142,0.483005017,-0.451491624,0.9096512,-0.788305759,-0.3430982,0.859785736,0.4546201,-0.8129225,-0.07849191,-0.07483076,0.495432,-0.8107325,-0.163228631,0.868010461,0.0513445549,0.350218743,-0.331572622,-0.128260955,0.368798018,0.7781113,-0.484691679,0.7398653,0.949451447,0.314156622,-0.366291881,-0.172456831,-0.869014,0.6246153,0.799072266,0.7157019,0.6208465,-0.58568126,0.7580027,-0.119771987,0.7724469,0.4149959,-0.400987625,-0.0307519436,-0.051287517,0.248878986,-0.3896873,-0.563866258,0.10675174,-0.9526276,0.245562285,0.982432067,0.9699995,0.7277635,0.2210445,0.861979,-0.3598558,-0.286346138,0.1794078,0.387347281,-0.202998742,0.7415666,-0.394035369,-0.391373,0.596189737,0.8418399,0.7340072,0.8321631,-0.5993192,0.21521619,0.316690415,0.09200285,-0.546677947,0.972482264,-0.8860243,0.652187765,-0.226075917,0.7031962],[0.922841966,-0.8801749,0.167946413,-0.91573596,-0.3637561,0.905824661,-0.9270446,-0.345384032,-0.144091487,-0.589093268,-0.589379,0.940342665,0.07848607,-0.09629788,0.236033827,-0.630790353,-0.909756064,-0.9728405,-0.18198,-0.999516666,0.392464578,0.117691942,0.5238209,-0.210643426,-0.9538378,0.8973418,-0.264142036,-0.8402353,0.543768346,-0.987412751,0.620950043,0.583209455,0.101551615,-0.0593664944,-0.2091882,0.0584597774,-0.7807649,-0.2946362,0.105322696,-0.308848768,-0.4788359,-0.07910967,-0.02488798,0.314151,0.409905016,-0.5576686,-0.872833848,-0.59739244,0.844959,-0.9375609,0.8664374,-0.928030431,-0.1872497,-0.245664865,-0.6960229,-0.194849983,-0.403995752,-0.6214102,-0.961898148,-0.261097848,0.169966683,0.9131907,0.110847645,-0.156678751,-0.210043341,-0.172588482,-0.161208928,-0.86214745,-0.8871097,-0.822425961,-0.8500255,0.384880126,-0.07816319,-0.8731312,0.479319245,-0.528425753,-0.8574201,-0.7903301,0.379451543,0.6038308,0.770175636,-0.6667496,-0.6851943,0.481329262,-0.8538501,0.5489805,-0.229540855,-0.6527835,-0.3633436,0.9856618,-0.5375445,0.8406453,-0.332738042,-0.633579433,0.521184564,-0.392026633,0.8100427,-0.868209243,-0.47580567,-0.4175065,0.6035403,0.9893136,-0.710282743,0.667385,0.912464559,-0.51844275,0.150132731,-0.314118475,0.2750159,0.8324028,-0.3374299,-0.61366564,-0.0008617104,-0.565728962,-0.03127347,-0.1632837,0.5983851,0.6295184,-0.3028286,0.240976155,-0.943047643,-0.5084254,0.501196146,-0.8727715,0.7151185,-0.6906708,-0.282381833,-0.444583744,-0.394315749,-0.128654122,-0.338468432,-0.989210844,0.6854756,-0.203041956,-0.999709547,0.780862033,-0.956466854,-0.3525793,0.5688647,0.6645926,-0.601152241,-0.9154224,0.0722006038,-0.195746452,0.3230917,-0.9238788,-0.158493,-0.7670091,0.397694021,-0.31553176,0.009588299,-0.8194757,0.4346194,0.283218175,-0.474458873,0.111965753,-0.511882544,-0.837511241,0.952266455,0.6031353,0.7639391,-0.4052835,-0.9198027,-0.59633,0.170871288,-0.348219067,-0.299141258,-0.797819734,-0.5660194,0.187864512,-0.206816822,-0.04903563,-0.9393463,0.03257876,-0.1578716,0.972374737,0.419373959,-0.3030574,-0.195863158,0.6389973,0.467822224,-0.515372753,0.15772222,0.921216,0.8617576,-0.5189927,-0.423830241,-0.597742558,-0.7285831,-0.111675285,0.292744577,0.8810444,-0.30484575,0.9657294,0.900653541,0.804131269,-0.995619655,-0.331469417,0.633382261,-0.328689247,0.375262439,-0.360673249,0.799010336,-0.7901705,0.891285062,-0.9413761,-0.880129337,-0.5979594,-0.558910251,-0.4468336,0.6925918,0.7911748,0.3583519,-0.6867309,-0.8646869,0.279311866,0.436994255,-0.841018736,-0.458087564,-0.310135961,-0.9243888,-0.7013987,0.930763364,0.545655847,0.895119965,-0.0878611952,-0.7441899,-0.9050757,0.131925225,0.03799711,0.9679944,-0.249156624,0.0635603443,-0.8671739,-0.7362651,-0.171504542,-0.314383119,-0.052107282,-0.970069051,0.803133667,-0.6388634,-0.8258709,0.961167634,0.7182505,0.195732936,0.501569748,-0.477307528,-0.6181148,0.8304163,-0.378658324,-0.632863,0.8453991,-0.873381853,-0.0564817637,-0.404300421,0.07666112],[-0.288517743,-0.7407819,-0.6825493,-0.0142830238,0.805775,-0.9700217,0.279573083,0.410489172,-0.407814115,-0.0522773527,-0.265799373,0.230986208,-0.945971549,0.31341058,-0.402224272,-0.5079632,-0.8697579,-0.24852246,-0.661792338,0.9122538,-0.6606494,-0.7728346,-0.642801464,-0.598371565,-0.6016046,0.890781,-0.7334769,-0.488288045,-0.32072562,-0.866747558,-0.375573635,-0.87927717,0.5391296,0.188846126,-0.879872262,-0.5667433,-0.366368562,0.05468032,-0.998333931,-0.6618997,-0.09245159,-0.4410145,0.137822986,-0.7419495,-0.225259721,0.299338222,-0.6671778,-0.4715582,-0.9711664,0.8813531,0.7235823,0.391548038,-0.382774681,-0.302203625,-0.255640328,-0.499604851,0.904416561,0.925214,-0.403766,0.9306885,0.7626664,-0.237272874,-0.2613919,-0.5372691,-0.6824768,-0.391078919,0.688399255,-0.1365376,0.1886751,-0.8369193,0.8560991,0.07835565,-0.2608342,0.9929738,-0.00253171241,0.779557645,0.07943513,-0.900954545,0.619594932,0.09263923,0.54215914,0.744312942,-0.51527,-0.200092331,-0.5924404,0.236524582,0.5097296,-0.156577677,-0.5509249,0.6262347,-0.468444884,-0.287976235,-0.5373858,-0.9244086,-0.422392368,-0.853794158,0.828954339,-0.32915172,0.940727,-0.831986666,0.612691462,0.470287353,0.341259062,0.8680847,-0.976275265,-0.361634046,-0.3486041,-0.375193536,0.6991764,-0.03839761,0.417015553,0.8084461,-0.6963954,0.504067242,-0.6081986,-0.978860438,-0.7194124,0.945645869,-0.936986864,0.08457197,0.110723272,-0.147679761,-0.581571758,0.5638511,0.639264464,0.147087172,-0.382819146,-0.3319883,0.416785419,-0.146667272,0.953516245,-0.590797663,-0.840522945,0.4547125,0.483881056,-0.927939355,-0.595803857,-0.383027673,-0.229292467,0.7689304,-0.41266,-0.115434632,0.146159708,0.488108248,-0.7871494,-0.268601179,-0.578941941,-0.0269216523,0.692855,-0.4348027,0.8805773,0.890069962,-0.372023255,-0.1314553,0.06730913,-0.234984428,0.06707817,0.783359349,-0.7652971,-0.1213192,-0.978029549,0.9920947,0.21037209,-0.151874229,0.0106991157,0.0155022712,0.656099558,-0.147637978,-0.979599833,-0.6776614,0.6211262,0.6623643,0.176490918,-0.7055914,-0.5035856,-0.77947253,0.699713647,-0.07289718,0.361559272,-0.08583728,-0.2661494,0.654451132,-0.0120208869,-0.1344362,-0.0146251433,-0.9320257,0.7997242,0.308522671,-0.6058304,-0.275970638,0.02256216,-0.367388368,-0.6168662,0.892758667,0.7472609,-0.395234942,0.6775916,-0.697602451,-0.518373668,0.200534165,0.07334711,0.562106848,-0.0498049371,0.369427055,-0.0591104925,-0.7919853,-0.280532032,-0.673549235,-0.6385833,-0.154272646,0.0639464855,-0.8712301,-0.5820078,0.3223483,-0.8552129,-0.632442951,0.0006342819,-0.653820932,0.8586967,-0.060729295,0.2129223,-0.654751,-0.54079777,0.293727249,0.30087924,-0.0143138031,0.279829741,0.277625829,-0.45764184,0.892309248,-0.456781834,0.397679448,-0.5519823,-0.8407143,0.8410948,0.171942785,-0.2961772,0.6174415,0.922691941,-0.222915232,0.352089733,0.479119331,-0.04796699,0.553777754,0.6607138,-0.09957073,-0.7756087,0.07286962,0.7558386,0.395686537,0.617077231,0.338316679,-0.5444929,0.5543872,0.9973777,-0.2694529],[0.126870081,0.6742537,-0.938063443,0.954488754,-0.05409549,0.4084426,0.764859259,-0.5284358,-0.6786717,0.6742374,0.6900439,-0.7261193,0.508090556,-0.0136990407,0.657205,0.418917984,-0.54270643,0.07609344,0.510980368,0.750408053,0.45796603,-0.109593421,0.631468,-0.538382,-0.202689052,-0.8248668,0.532979965,0.204314187,-0.694006562,0.22366032,-0.0427433178,-0.09521774,-0.831795931,0.102045126,-0.910274565,0.06004644,0.5268247,0.9390332,0.8989002,0.9110975,0.6745875,-0.5489974,0.227515057,0.976564,0.218034133,0.9459112,0.554910958,-0.252984256,0.7259175,-0.771955,-0.05077691,0.3375391,0.9360495,-0.7276307,0.3214018,-0.840977132,-0.9759078,0.679646552,0.156945467,-0.2855397,0.9157448,-0.396851867,-0.835962832,0.106552795,-0.30975017,-0.23366487,-0.9141183,-0.634619,-0.100373596,-0.393338233,0.8235079,-0.5441979,0.249131441,0.6622687,-0.9428012,-0.0603687428,0.688678563,0.6487179,0.207882389,-0.180000708,-0.33306852,-0.234406248,0.3946883,-0.9473977,-0.662685633,0.5731293,-0.0585028455,0.9280525,0.784060955,0.854580045,0.0427571721,0.8981935,-0.235137165,0.131804287,1.01186121,0.0622550249,-0.729747355,-0.863145351,0.2822922,-0.5718752,0.833025932,0.188936844,0.8728743,0.0961779952,-0.61823684,-0.5493174,-0.8591003,-0.7178826,-0.814903438,-0.584489,-0.487208426,-0.595536,-0.536981463,-0.6181213,-0.9571602,0.1561604,0.205164641,-0.911091745,-0.249243453,0.125345811,0.8619394,-0.8845031,-0.436409682,0.0499403924,0.5819473,0.9385525,0.6903524,-0.9003659,0.6852875,0.00101461844,-0.358994633,0.520197332,-0.627738655,-0.212270647,-0.05095965,0.434388041,-0.114577852,-0.662185967,0.6984216,0.8612881,0.476642281,-0.3193899,0.745257437,0.385596424,0.374764562,-0.347310632,0.385998935,-0.5871416,0.0982611552,-0.212559372,0.8927228,-0.8351507,0.3647896,-0.8689663,-0.3951435,0.7138893,-0.393583983,-0.15008156,0.531888366,-0.551032245,-0.2076761,-0.9594273,-0.4563609,0.187308386,0.7796352,-0.0164404735,0.980495155,0.6801015,0.4253089,-0.3876871,-0.7287552,-0.134531677,-0.5529099,-0.07938326,0.6635739,0.158130884,-0.5588619,0.198224366,0.644898951,-0.07199336,-0.483097255,0.2872217,0.0504181571,-0.171463847,0.111859113,-0.4673889,-0.8222058,-0.8005095,-0.7895319,0.2799771,-0.198766977,-0.9574445,-0.174066156,0.2514506,0.09660014,0.4502465,-0.900765359,-0.428186744,0.631659,-0.614226937,-0.3403773,0.772223353,0.0303869043,-0.5725017,-0.434643567,0.04384311,0.7135427,-0.5727215,-0.5043382,0.441903263,0.264876455,0.377805948,0.174981028,-0.421310723,0.915106,0.4989638,-0.0252659116,0.7228711,-0.9292399,0.274000645,-0.185530812,0.775851548,0.4797705,-0.867350757,0.8016619,-0.7797392,-0.9724355,0.157719865,0.831516,-0.7618271,0.0595953166,0.837776065,0.5825119,0.282167971,-0.7586656,-0.243574724,-0.751912534,-0.379983634,-0.7252498,-0.9026923,-0.225851536,0.7853813,0.7231475,-0.267531961,1.03380084,0.4789746,-0.171296313,-0.7830379,0.387642145,0.61064744,-0.559747934,-0.61375016,-0.445465147,-0.641155064,0.572089,-0.06292335],[-0.7246824,-0.12222214,-0.390547127,-0.6791294,0.0215148944,-0.480777472,-0.462486982,-0.735021651,-0.6470089,0.400137275,0.784381032,0.8961379,-0.6938373,0.160457686,0.2455941,-0.6618594,0.420483857,0.959884942,-0.543721437,0.0381681472,-0.9683124,-0.2971456,-0.894902647,-0.6477995,0.377569854,0.7361899,0.8233453,-0.751065135,0.727615833,-0.328587741,0.3310546,0.225463063,0.728176534,0.377050847,-0.5502386,0.359585673,-0.9860258,0.951186,0.0399074033,-0.7732871,0.176717848,0.4234966,-0.6530704,-0.4347731,0.635635436,-0.0624434762,0.9275569,-0.8298628,-0.6728552,-0.8735085,-0.0897583961,-0.496164918,0.8590836,-0.5222096,-0.178043827,0.5517349,-0.2508214,-0.751549065,-0.0567097962,0.283247977,-0.318684936,-0.667137861,-0.480261475,0.6882369,-0.9408092,-0.41970253,-0.8240519,-0.07095852,-0.2830909,0.9023513,-0.676663637,0.484074116,-0.061865516,-0.7313954,0.8931175,-0.393920481,-0.635231256,0.5627083,-0.270550281,-0.5790628,0.815800667,0.6589368,0.8984969,0.5876364,0.746642351,-0.167249843,0.358874172,0.230819076,-0.449730337,-0.137843072,-0.40286687,0.756175339,-0.000916323857,0.7361569,0.5338525,-0.158561677,-0.09183033,-0.338172734,-0.4788951,0.05759631,-0.224019364,-0.0151342656,0.436908543,-0.570777833,0.7976306,0.421609044,0.547566056,0.5753158,-0.4191696,-0.7807552,0.211692825,0.21345067,0.5273544,-0.467840821,0.4501044,0.0266247541,-0.6086225,-0.07075696,0.907582939,0.214312091,0.178575546,-0.06729531,-0.660370767,0.8347652,0.278120279,-0.4369743,-0.513693333,0.202927291,-0.256772965,0.0445572175,0.7006187,0.697767,0.0281225387,0.6512634,0.642799437,-0.177678943,-0.798137844,0.4781847,0.7973674,-0.672847,0.271552473,0.7901634,-0.358421028,-0.667220533,0.6303899,0.348135978,-0.8370977,-0.539442241,-0.734945953,-0.538573146,-0.574134767,0.9758871,-0.2697651,0.2832254,0.8523948,0.838155448,-0.407529056,0.606538653,0.122700095,0.231230259,-0.0535283051,-0.636765242,-0.18958582,0.536738455,-0.485067368,0.494262666,-0.8540528,0.882073343,-0.132284462,-0.39362517,-0.204980582,-0.07166034,0.109523043,0.5846061,0.9429575,0.411151,-0.713897943,-0.967805,-0.825684547,0.916755855,-0.6394673,0.9914651,-0.096737355,-0.772544,-0.408275038,0.7196831,-0.0421737731,0.7257934,0.765484,0.8006385,-0.8125615,-0.4153853,-0.6492336,-0.441640049,0.3636346,-0.09638334,-0.0534866229,0.08490954,0.805898368,-0.8322997,0.207445443,-0.689189,0.6025997,0.663973,0.6686779,0.5159706,-0.155371621,0.127503514,0.3245659,-0.567014,0.5377796,-0.418980658,0.442146868,0.213700548,-0.127750337,-0.0307912584,0.4483323,-0.4062606,-0.0454207323,-0.1969485,-0.4522233,-0.5739585,-0.8913023,0.0635209,-0.5759394,-0.7680453,-0.423425943,-0.44472608,-0.7732683,0.044936005,-0.52153945,0.194143,-0.7770788,-0.9883595,-0.297279954,-0.9436737,-0.620299041,0.247173488,-0.429053,0.0728562,-0.146184623,0.811156452,-0.60537684,0.313860029,-0.7586095,0.5961284,0.0787690058,0.0959815457,0.6566146,-0.6137362,0.420263439,-0.6662853,-0.876890242,-0.0117548294,0.5962096,-0.220397383],[-0.807702541,-0.463988483,0.238150343,0.430763245,-0.0576134771,-0.7100648,-0.101390094,-0.725183547,0.969953835,-0.661240458,-0.6503436,0.428947568,-0.494091272,-0.183014259,-0.426632762,-0.799404562,-0.9834821,0.873711944,0.939105868,-0.284495175,-0.9846679,-0.231397092,-0.203292847,-0.197966784,0.0979338,0.438366681,-0.126244411,0.8314458,0.5977009,-0.8863585,0.06356752,0.2279194,-0.5914198,0.92626363,0.8647603,0.8567817,-0.9884702,0.144650578,-0.862878,-0.42420572,-0.06625927,-0.8589476,0.37568146,0.9311648,0.272687823,0.7130476,-0.3681886,-0.127456486,0.8285151,0.255446434,-0.659462,-0.7343805,0.0654521,-0.107496396,-0.235041857,0.423700482,0.73930943,-0.563877344,-0.667166,0.504019856,0.4161864,0.0671667755,-0.3228808,0.85631454,0.2751961,0.121732764,0.0203649141,-0.420356154,-0.04777471,-0.283415526,-0.810937047,-0.128134668,0.7365892,0.363305628,0.7817613,0.874274969,0.392919064,-0.134465024,0.5293427,0.384880364,-0.193445474,-0.9987923,-0.997071147,-0.6577489,0.7731058,-0.202053487,-0.837532163,0.516082764,0.161309361,-0.5589391,-0.882526,0.575409234,-0.188183174,-0.36689496,0.159613118,0.8665766,0.46393472,0.519369841,-0.344031721,-0.849045455,-0.307318538,-0.947831631,0.9203227,0.111931063,0.06638298,0.46867156,-0.470968932,0.702147663,0.110740356,-0.109318,-0.969218731,-0.1262245,-0.09322033,-0.05204519,-0.302536726,0.414978534,0.06423832,-0.665128648,-0.916789651,-0.5227451,-0.04072993,0.5042852,0.4183386,-0.48883298,-0.4008825,-0.386344463,-0.9399492,0.103484064,-0.7963054,0.9151838,-0.589659631,0.8735486,-0.790433347,0.378389657,-0.307801,-0.245611176,-0.919113457,-0.10899961,0.275867045,-0.695566,-0.7310848,-0.539678156,-0.5946592,-0.729371667,-0.589717269,0.2437049,-0.331362724,0.8638658,0.9356467,0.7446384,-0.197655469,0.129070029,0.4361641,-0.82128036,0.191694826,0.18839772,-0.366162479,0.409161061,-0.4871782,-0.5472689,0.408623159,0.425548434,0.498454154,0.195558235,-0.519657433,-0.842763662,-0.335789323,0.528393447,-0.744241059,0.9430768,0.33409515,-0.8267617,0.0590060726,0.7787784,-0.791660547,-0.5010556,0.0989452749,0.147707477,-0.8991131,0.355417758,0.945024133,-0.8038155,0.167844027,-0.5409346,0.11284332,0.281277746,-0.5626086,-0.969146,-0.813298047,0.503808,-0.879444,-0.328265876,-0.621817,-0.176862672,-0.10418725,-0.156631231,-0.03812963,0.20978497,0.79028964,-0.746952832,-0.420508832,0.140241966,0.6081095,0.9925673,-0.5894582,-0.3708943,-0.929936469,0.657385,0.970380843,-0.307255238,-0.910548,0.486124128,0.308272034,0.157403231,-0.492294252,0.212436736,-0.7422954,0.0393898338,-0.917287052,0.199065238,0.7198439,-0.366642356,0.341689169,-0.248048216,0.8225214,-0.3376377,0.795055568,-0.7641339,-0.117037117,0.364969939,0.537074864,0.889161468,0.35741967,0.8478397,-0.224077478,-0.195217311,-0.411924571,0.17527473,-0.9514798,-0.5162607,0.211214,-0.2199907,-0.9395238,0.4939611,0.414356053,-0.365561783,0.363465935,0.220787466,-0.6845621,0.683383763,-0.414330363,0.9224875,0.1270792,-0.4087703,-0.466790676,0.946139634],[0.7994128,-0.136628151,-0.8358045,0.746176541,-0.166214064,0.8269757,-0.227506578,-0.4030025,0.151529685,-0.796811163,-0.869612932,0.4582092,-0.625495434,0.7051917,-0.3796313,0.08479272,0.0042122677,0.5835501,0.9795393,-0.07346103,-0.42724666,0.835496068,0.333871424,0.187110931,0.289047837,-0.439868063,0.934888065,0.199095756,-0.246639386,0.6041902,-0.234771416,-0.231301844,0.3144384,-0.1713159,0.00104855094,0.728139,-0.000588221767,-0.7010302,0.6520415,0.374628663,-1.00187349,0.457817763,-0.6626894,0.203828022,-0.497618616,0.903652132,-0.162694857,-0.389959127,0.06079181,0.498673379,-0.06119958,0.5243052,-0.403912932,0.596517742,0.36123386,0.9501326,0.5141471,-0.02221992,-0.561364651,-0.735388,0.9102884,0.564890444,0.8222378,0.5453564,0.437541753,0.362510055,-0.856981933,0.5513993,-0.30214,-0.11385414,-0.9237144,-0.313130945,0.9561631,-0.387645066,-0.0617425665,0.115856461,0.503203034,-0.8783207,-0.316937357,0.393691123,0.7388555,0.308701217,-0.8663603,0.279128045,-0.31419903,0.227669984,-0.8377855,0.7212114,0.4532864,0.05134915,-0.7807895,-0.9763455,0.8428551,0.388363123,0.458840042,-0.57355094,0.629031837,-0.2013253,0.775905252,0.144590914,0.7547208,0.294107616,0.9161671,-0.8434152,0.424628228,-0.7610001,0.5777371,0.9956123,-0.343830377,-0.7416485,-0.561425865,0.396552444,-0.6987077,0.04967614,-0.4825087,-0.39213866,0.4373127,-0.4676505,-0.150890991,-0.7956414,0.204083025,-0.5815492,-0.896300137,0.636253834,-0.336869478,-0.9449626,-0.1545519,-0.440486848,0.1478648,-0.49649778,0.4850445,-0.2877355,-0.651626647,0.5376321,0.6369762,-0.5522743,0.393231958,0.9690398,0.851440251,-0.56079483,0.6577371,-0.831778347,0.06482316,0.2037222,-0.382805437,-0.185329586,0.7086255,-0.207890809,-0.136169225,-0.154279619,-0.0128789134,0.0768756,0.925860167,0.5635154,0.9515357,0.3313309,0.166364565,-0.7288425,0.4843307,0.374424845,0.4056926,0.013030393,-0.16314429,-0.8413446,-0.227987528,0.721471369,0.036819648,-0.238642126,0.40827167,-0.9356705,0.220288575,0.460233241,-0.31365028,-0.588565946,-0.450786084,0.0320078433,0.3657528,-0.113399714,0.028952295,0.8526529,-0.6709991,-0.9601712,0.6953465,-0.708911061,0.5017717,-0.589968145,-0.240208283,-0.223663583,0.596363544,-0.700649142,0.240565091,0.120889127,-0.5156797,-0.5213014,0.0377085954,-0.365297645,0.324578762,-0.08908122,-0.5640373,-0.116644688,0.7693285,-0.03658527,0.3814095,-0.212297216,0.644336045,0.5369993,-0.6210869,0.520301163,0.02315821,-0.08750965,0.969618261,-0.704139531,0.248912558,0.623869538,0.039945513,0.359784573,0.323542446,-0.445410073,-0.351185441,-0.6435287,-0.04340088,-0.7289986,0.165578663,0.107705005,-0.1823197,-0.9057462,-0.0262037478,-0.7774417,0.36715734,0.9220616,0.6987546,-0.544384,-0.5479987,-0.8592388,-0.921945333,0.366629422,-0.339036018,-0.0971719,-0.35301125,0.9721043,-0.961227655,0.248860672,0.7448401,-0.329148471,-0.6580886,-0.0476423949,0.8604755,-0.14637962,0.435635984,0.6753557,0.304663837,-0.223438635,-0.749756455,-0.939187646,0.9288093,0.5013095],[0.8161271,-0.698744833,1.01392591,0.572203457,-0.422399372,-0.798155,-0.8045741,0.136796579,0.240318969,0.560218036,0.866698265,0.14018856,0.5808382,0.732604265,-0.253740579,-0.554269969,0.9441407,-0.2614873,-0.5883849,0.7348519,-0.452766836,-0.449566782,-0.154003173,0.885130942,-0.7093964,-0.7696824,-0.1598183,0.7122646,-0.3394009,0.00502791535,-0.771884441,-0.5997563,-0.7699555,-0.388075083,0.5838967,-0.595551431,-0.04112972,0.113069825,0.413158536,0.89493835,0.144084275,-0.3418294,0.472663283,-0.160489216,0.135903567,-0.2227826,0.337423176,0.7905143,-0.0147563787,-0.08556768,-0.100578144,0.606954,0.77083987,-0.7587535,0.000935138,0.3443183,0.51888895,-0.881584048,0.355961233,-0.520627141,0.378092736,-0.5156451,-0.439829141,-0.7081488,0.324092954,0.463922024,-0.103657864,-0.0514626242,-0.875555933,-0.6643848,0.484850258,-0.190397367,0.2778201,-0.5268278,-0.393570781,0.873005748,0.0362015627,0.9710674,-0.242204666,0.46329993,-0.204526588,0.0305202138,-0.234220445,0.74575454,-0.9341566,-0.365246177,-0.3297824,1.01043522,0.609736145,-0.7095257,-0.0931894258,-0.135249674,0.796966851,-0.0217073783,-0.492353857,-0.326131,-0.8562003,0.212477535,0.5133898,0.681967556,0.8899634,-0.5865885,0.6650613,-0.311781377,0.452413052,-0.9352701,-0.677771449,0.316483647,0.657172143,0.141764745,-0.6692217,0.5635543,0.3677443,0.8868607,0.6873586,-0.6522518,0.7658655,-0.1531781,-0.7521332,-0.301771879,-0.121169336,-0.0260845665,0.3622827,0.8409992,0.478929877,-0.29759118,0.05714538,-0.6817791,0.9557485,0.9528889,0.7423636,0.819339,-0.558684945,0.0954403654,0.5978381,-0.587892234,0.372959226,-0.9270928,-0.694197834,-0.982255638,-0.675908,0.350260437,-0.627114356,-0.49793607,1.00136077,0.4032786,0.5584552,0.936911166,0.368202955,-0.7611146,-0.0344895348,0.3624072,0.08760434,-0.07697562,-0.117506295,0.00279720523,0.104383372,0.8694153,0.251347154,-0.199424416,0.03473545,-0.964957952,0.410269976,0.6869837,0.393924147,-0.4634026,0.160847425,-0.7192147,-0.696087956,0.319079369,0.00741312839,0.6995139,-0.448993176,-0.7446174,-0.5686562,0.5194896,-0.4669075,-0.149346679,0.92415446,-0.8827127,0.136510327,0.150985211,0.03660297,0.822579443,0.0682601258,-0.5811888,-0.141276747,0.6791529,-0.7379689,-0.3834247,0.440903246,0.592605233,-0.164457574,0.526989,0.00201481,-0.6855339,0.9772596,-0.30058828,0.137986332,0.4786986,-0.76087296,0.236025825,0.6494723,-0.929060757,0.179261267,0.236616343,-0.14874284,-0.19432804,-0.5816821,0.338837057,-0.54992795,-0.8004629,0.9135316,0.134783536,0.646375537,0.904661655,0.003980051,0.566349149,-0.360919565,-0.0283668954,0.665893555,0.470980942,-1.0052408,0.6619884,0.8798868,0.454349071,-0.116489708,0.005779761,0.213197276,-0.8968628,0.538165331,0.8524648,0.7249453,-0.5622813,0.887199342,0.928612947,0.4635973,-0.0486502424,-0.3673793,0.790720761,0.578533769,-0.922163248,0.312692046,-0.0207468923,-0.78234446,0.2584974,0.7491891,0.733058453,0.9182657,0.17788735,0.421637952,-0.5398817,-0.879709363,-0.7439165,0.8893892,-0.204226926],[0.245401919,0.958401144,-0.805307567,0.7663857,-0.616466045,0.8388446,0.62000525,-0.658908069,0.817822754,-0.379570484,-0.5133498,0.469314158,0.2648032,0.7081626,-0.576130331,-0.964272738,-0.01735515,-0.183041155,0.4558567,0.664639831,-0.7352206,0.0555295125,0.511123538,-0.302183449,0.7621443,0.154619277,0.1196388,-0.8764634,-0.208251834,0.106300481,0.7855305,0.5781904,-0.3769692,0.103081279,-0.309455663,0.48679027,-0.2526125,-0.155888975,0.449879885,0.6973849,-0.577102,-0.09312057,0.148665413,0.5669381,-0.307401866,-0.7867937,-0.5749831,-0.853146,-0.32533887,0.275929064,0.455534428,0.238182828,-0.2558596,-0.820134,-0.459298849,-0.829635859,-0.5052937,0.532348156,-0.978896856,0.198650658,-0.241893485,0.52223,0.5476963,-0.312157184,-0.153933883,-0.0851750448,-0.158287033,-0.8229324,0.037033204,-0.09071447,0.3031811,-0.884288669,0.394272536,0.7094192,0.221797422,0.342394978,0.939298749,0.9066108,0.974265,0.5450912,-0.228269592,-0.05276908,0.428960532,0.528021753,0.665254653,-0.472320527,-0.186257735,-0.5619285,-0.437003732,-0.461026132,-0.0124226455,0.220814779,-0.174760684,-0.770679057,-0.0533293746,-0.08704789,0.330692977,-0.548501253,-0.281363934,0.779149055,0.36047107,-0.7243224,0.11403916,0.75225395,0.961687446,0.3521088,0.8386849,0.00591842458,-0.03037161,0.1895981,-0.785512269,-0.4532398,0.5486192,-0.5383415,-0.538123,0.8003664,-0.91062367,-0.967398047,0.0439456031,-0.6733387,-0.8927019,-0.62298274,0.6292535,-0.467676431,0.9450296,-0.9569559,0.28631717,0.168410107,-0.225983024,-0.6925781,0.9907205,0.501322865,0.217238292,-0.793124139,-0.815075457,-0.491578281,0.8485214,0.6934843,0.5419849,-0.68102473,-0.3106072,0.8216252,0.487220645,0.350016743,-0.659379,-0.5546956,0.7314035,-0.623939455,0.796744764,0.1586885,-0.168611035,0.296024472,0.399151444,-0.6011427,0.658807158,-0.0152388709,-0.355708361,-0.408180922,0.8276001,0.908998,-0.936914563,-0.3375027,-0.7660002,-0.329977483,0.231763065,-0.315665573,0.364305019,0.341286629,-0.67950654,0.939372659,0.953449667,-0.6111665,-0.482180357,-0.288141161,0.6242443,-0.7270583,-0.09311785,-0.7418647,-0.834260166,0.484479576,-0.6231002,-0.0233057532,0.3362058,0.618149459,0.494338,-0.2993986,-0.934186161,-0.188726634,-0.438733548,0.2087359,0.88304913,0.238889739,0.8923791,0.6530617,-0.7440909,-0.9762597,0.595407844,-0.168932572,-0.8588794,0.6140751,0.08887396,-0.6288099,-0.9708212,0.8465159,0.227210522,-0.551545,-0.202167451,-0.304823369,-0.205506951,0.415096849,-0.9184784,-0.634151757,-0.5866493,-0.684090853,0.520822167,0.08156379,0.3023763,-0.380574465,0.168898955,-0.48668018,-0.383061677,-0.447487324,-0.206187382,0.122875236,-0.946959555,-0.313520283,-0.531717837,-0.160313129,-0.5396152,0.590292156,-0.347924262,-0.924937248,-0.879733,-0.428177118,-0.6035979,-0.99725914,-0.05030919,0.519984066,-0.60899967,0.0442668349,0.9183891,0.396852732,-0.9957037,0.1559909,0.1495199,0.495642066,-0.163408279,0.613474548,-0.834850967,0.1606075,-0.288826555,-0.0245955978,0.684466243,0.6160218,-0.010982208,-0.45601362],[0.5898623,-0.0904715,0.7884235,-0.474357277,0.970235348,0.940836,-0.7571552,0.1924778,-0.256598264,-0.9880413,-0.755634,0.8555014,0.9235444,0.516862452,-0.8602057,0.7823254,-0.758115351,-0.8635007,-0.394192934,0.227741137,-0.4675474,0.66469866,-0.998508155,-0.4456671,0.867531955,-0.0988101438,-0.282596678,0.280198634,-0.127049685,0.704190254,-0.586871147,-0.511216,0.5553918,0.860022664,-0.588950336,-0.9656237,0.7309885,0.860227466,0.06551775,0.965378642,0.145812064,-0.174233273,-0.622083664,0.100450665,0.265828341,-0.0263215844,0.654422,-0.3826321,0.03730088,-0.06011825,-0.2745337,0.5213139,0.0271328166,0.779057145,-0.9951084,0.9251063,-0.09192618,0.23420994,-0.341749638,0.06897095,0.223565117,-0.0371259265,-0.6802948,0.03915156,0.598995,0.755946457,-0.6999984,-0.9367508,0.105700381,-0.8944863,-0.9486789,-0.6185032,0.07099025,-0.3596141,-0.91823715,0.7068004,0.2867139,-0.0989448056,0.288205683,-0.106186353,0.2472466,-0.899958849,-0.7570954,0.933234751,-0.0212798733,-0.108257696,0.461523563,0.776428,0.8551009,-0.513829768,0.1265495,-0.5029908,0.202060476,0.9966688,-0.258139938,-0.816643,-0.493700325,0.338997275,0.5017185,0.5101262,-0.3263632,0.59132576,0.51181376,-0.06820037,-0.111240953,-0.656258166,-0.549865544,-0.6134434,0.697574854,-0.701598167,-0.361795574,-0.9932284,0.946113348,0.7643318,0.8222389,0.123336241,-0.2800205,-0.613285959,-0.9392812,-0.2923949,-0.7052918,-0.4764577,-0.7915898,-0.380196661,-0.0207894314,0.5542781,0.179543316,0.07461935,0.8985817,0.8986272,0.200587928,0.9479801,0.399670273,0.778352,-0.7796575,0.655817,-0.4116112,0.311232239,0.04440529,-0.365037739,-0.5584844,0.07503707,-0.9208672,0.556876063,0.8483456,0.12001811,-0.4485604,0.438073426,-0.8253879,0.6187026,0.463227421,-0.8800444,0.278852522,-0.205934569,0.215736359,-0.8496984,0.3832719,-0.107677214,0.9531412,0.3347197,0.164658368,0.3758107,-0.511869669,0.7988419,0.0979511,-0.309657484,-0.392719,-0.832122147,0.54412055,-0.8336936,-0.46503073,0.408879042,0.342334658,0.425653756,-0.733952463,0.219570458,-0.5555962,-0.348524034,-0.228276432,0.8591867,0.00338892918,0.7418703,-0.100025594,-0.7199144,-0.5642138,0.08089739,-0.3303062,-0.394418448,-0.437046081,-0.929726839,-0.7268942,0.696451,0.358519763,0.710183144,0.470716059,0.0658652,-0.412750542,-0.7193956,-0.540854931,0.157719374,-0.487298578,-0.61641264,0.8938142,-0.9915876,0.08376904,-0.94547987,-0.222517028,0.8528964,-0.471534848,0.9962363,0.705595,-0.268664867,-0.879536569,-0.906376839,-0.6689402,0.422486126,-0.524324,-0.791911,0.363177866,-0.9830866,-0.9794751,-0.9984344,0.604926169,0.4738412,0.893267334,-0.1612606,-0.9498411,0.632022,0.955054343,0.199972153,-0.367715657,-0.836053133,-0.8074985,0.6139448,0.3465554,-0.380230278,0.8482059,-0.108209521,0.196368173,-0.618955,-0.6961419,-0.1827221,-0.9222129,-0.4331063,-0.6348894,0.5419513,0.5760812,0.2653885,0.37943697,-0.9515519,-0.409727216,-0.620572448,-0.08221877,-0.55749613,0.1375449,-0.4885494],[-0.2363841,-0.5859453,-0.890430331,-0.7710275,-1.0035907,0.142549083,0.904018044,0.3103602,0.360095173,0.5524342,-0.471346,-0.5158489,-0.2798897,0.696968436,0.5688998,0.5659672,0.008157809,-0.031292446,0.705114663,0.194173113,0.9138997,0.03988812,0.09698415,-0.674121141,0.210960776,-0.226686075,-0.7592114,0.8844815,-0.427118242,-0.741771936,0.246102437,0.7387296,-0.5205391,-0.157415748,0.836861,0.4316367,-0.222247362,-0.0465465,-0.615873933,0.153803363,-0.08628477,-0.255626559,0.212593168,-0.169143051,-0.00552525651,0.06922526,-0.5004518,0.669356644,-0.5273678,-0.00425891252,0.365112543,0.9319697,-0.2841833,0.932628,-0.430725425,0.735478,0.29656896,0.7490199,-0.026010992,0.214971542,-0.116734825,0.9653889,-0.28016302,0.111110069,-0.7086917,-0.213410586,-0.9717178,0.9099678,0.8696808,-0.8595758,-0.196991086,-0.9397608,-0.3803399,-0.447867572,-0.7106337,0.171492323,0.8220222,-0.7008505,0.349195182,-0.8057439,-0.7411784,-0.421330571,0.428625047,0.601812,-0.1237899,0.3010363,0.02276129,-0.4681581,-0.7632117,-0.921207666,-0.8795547,0.00689925859,0.962322831,0.160948277,-0.743621647,-0.07285295,-0.9634517,-0.9181206,-0.4737115,-0.790890753,0.04757194,-0.398890585,0.7991184,-0.6839874,-0.8060207,0.306919247,0.335542351,-0.8305094,0.6348966,0.396359116,0.891383,0.02137858,-0.5876703,-0.211915448,-0.07321143,-0.702968,-0.449769467,0.12458764,-0.7876321,-0.0273140147,0.759515166,0.477601051,0.6639388,0.756762,-1.00077224,0.793846548,-0.9149167,0.4410629,-0.7138857,0.35739094,0.140335813,0.742397666,0.7578318,0.12664932,0.14735502,0.6574325,-0.212328017,0.0969875157,0.4048046,0.579152465,0.976804554,-0.159492984,-0.11039301,-0.171251446,-0.800294757,0.0978546441,-0.423528671,0.171110019,-0.80612123,0.951734543,-0.649312139,-0.102956071,0.83844763,0.5204904,-0.587674141,0.5272813,-0.08842993,-0.9767996,-0.7161737,-0.6083429,0.200592324,0.8741866,0.8647107,-0.7246857,-0.7429418,-0.856413245,0.255386949,0.2729673,0.620042562,0.2816923,0.526111364,0.442862451,0.678936243,-0.372300655,-0.0185100026,-0.09676599,-0.403007418,-0.184117138,0.5749992,-0.06529596,0.185619444,-0.09745807,0.237218618,-0.677563965,-0.02833486,-0.7751822,0.872706831,-0.799105644,-0.317176849,0.5723311,-0.285454661,-0.2479702,-0.1954709,-0.0017494947,-0.6300936,-0.9052851,-0.0347286,-0.392476737,-0.436116666,-0.964502156,0.8274406,0.3174936,0.5488782,-0.09223413,-0.565434337,-0.0861467347,0.204054549,0.221173644,-0.4621223,0.525665045,-0.0466214046,-0.890078068,-0.5413064,0.359027833,0.203013688,-0.6996472,-0.3619301,0.549096167,0.300619453,-0.9622088,-0.719417632,0.06555992,-0.409858078,-0.9648481,-0.4281904,-0.256010532,-0.353711545,-0.29183802,-0.734861255,-0.09964689,0.955040753,0.976090133,-0.749318957,0.528971136,0.10584189,0.8775905,0.376330465,-0.6828729,0.9007005,-0.929303467,0.0183727033,-0.3468953,0.653071344,0.143324539,-0.3667788,-0.403945357,-0.7027261,0.430378884,0.757461131,-0.948919237,0.431857467,0.382581949,0.26157704,-0.4971343,0.764270246,-0.250343829],[-0.258737981,0.5268913,-0.631115,0.6884984,-0.715979457,-0.48464644,-0.0331808552,0.6512595,0.5867265,-0.008128532,0.875173748,-0.06497561,-0.737054467,0.338934839,-0.05761347,-0.664801955,0.689200163,0.244943887,0.0499108769,0.6357442,0.402930349,0.447334349,0.438183039,0.992139935,-0.522850633,0.222412929,-0.0421756,-0.770586669,0.4728353,-0.432725579,-0.286000282,0.7332961,0.7844282,-0.6566333,0.155115768,0.8685062,0.986731,-0.768395,0.8243335,-0.464957267,0.723862231,-0.946076334,0.591341853,0.672866046,-0.250077546,0.384933263,0.2008796,-0.5229376,0.135472819,0.153100908,0.7773513,-0.9121242,0.518694937,-0.8616961,0.394515455,0.308048844,-0.8790744,-0.6154032,0.225776419,0.07879276,0.590244949,-0.2617776,-0.7895265,0.0519168936,-0.708752036,-0.8668339,0.139355749,0.9127531,-0.8122959,0.0735097751,-0.6579765,0.4410734,0.427431375,-0.509481,0.9199477,0.351487428,0.848593235,0.7200441,0.222918481,0.07515876,-0.981242657,-0.5414173,0.0972169638,-0.6795171,-0.2153467,-0.380454868,-0.7824254,0.6671765,-0.04500763,0.8697858,0.7511389,0.616162837,0.00223583682,-0.2418948,-0.0455480926,-0.0117874034,0.8386786,-0.431477875,0.394270271,-0.372955441,-0.757878661,0.3047875,-0.7056112,-0.9246845,-0.1891823,-0.674019754,-0.343795329,0.038911324,-0.773011863,-0.947159946,0.455290437,-0.586888731,0.182640851,-0.8464662,0.07145858,0.134220347,0.668084145,0.912653565,-0.7241583,0.667488,0.9414946,0.4958892,-0.02067834,-0.6831453,0.358256549,-0.247690231,-0.5480563,-0.3183916,0.5544921,-0.06843751,0.520101249,0.2980626,-0.6584435,-0.392223984,-0.157597736,-0.26977542,-0.8410772,0.0256515015,0.5021954,-0.533359647,0.9695936,0.192936882,0.451259673,-0.08489901,-0.5496941,0.364986777,-0.5312171,-0.139284953,0.6967191,0.8409273,0.358916849,0.9532754,-0.6716952,0.750088,-0.2812835,-0.21247673,-0.64448303,1.01061344,-0.258302569,-0.913779438,0.8943409,0.9844902,0.513831,0.2943804,-0.463832319,-0.82746917,-0.906190336,-0.431965053,0.331189722,-0.644286633,0.00417260453,-0.36585936,-0.574752033,0.8174726,0.733267844,-0.242354572,-0.956131041,-0.942393064,0.9061182,1.00105691,-0.7031291,0.604957461,-0.000850880751,0.7582637,0.5936258,0.5879143,0.00285763433,-0.370408177,0.9181171,-0.9172082,-0.5853177,-0.801569045,-0.691413343,0.428318381,-0.406245321,0.9943757,0.701770067,-0.8352331,-0.6001776,-0.7272022,0.291077971,0.890458465,0.539205968,0.3630364,-0.161054015,-0.27356568,0.540826142,-0.484642416,-0.9717415,0.9571126,-0.2769983,-0.7341921,-0.908190846,-0.274546027,0.7780652,-0.72172004,-0.0153397135,0.743730962,0.695119262,-0.05630095,0.15613085,0.4454911,-0.360545754,0.240908876,0.916816,-0.187683061,-0.6865315,-0.0122986371,0.193629533,0.721947,0.0380436257,0.8880567,0.67527777,0.635417938,-0.29100728,-0.592644155,-0.940303564,0.6316378,-0.09118321,-0.12552686,-0.9313356,-0.4863983,-0.365200728,0.9871973,0.380601883,-0.8286954,-0.8686352,0.6081792,0.673693061,-0.663716137,0.0507551655,0.9910547,-0.493704677,0.482137918,0.161462232,0.86417675],[0.257222831,-0.7013352,0.445838869,-0.9662423,-0.584198356,-0.440928131,0.321810484,-0.687899351,-0.0822952,-0.156506434,-0.4016836,-0.5388143,-0.9812935,0.3698651,-0.7759968,0.353074521,-0.153836608,-0.177481413,-0.1032445,-0.3399693,-0.147179738,-0.327626079,0.8879077,0.767812133,-0.2910601,-0.2747605,0.3249893,-0.127293617,-0.3011834,0.081215024,0.402625829,-0.782867134,-0.49849686,-0.130851582,0.14656958,0.7553532,-0.8166016,-0.132943124,-0.548521638,0.485186249,0.165692687,-0.719087958,0.0442756563,-0.491017669,0.5493634,0.629953146,0.563676238,-0.718217432,-0.906469643,0.656790555,0.10877227,0.651172,-0.448854774,-0.5372446,-0.0141095715,-0.4151511,-0.5892429,0.678026736,0.3248178,0.6905622,0.2340826,-0.5508959,0.613284051,0.8364898,0.440867752,-0.6188165,0.9596826,0.1495581,-0.7767045,-0.53135,0.169676125,0.979106545,-0.6289598,0.411569268,0.494338036,-0.4280918,0.628098249,0.378925383,-0.781551242,0.0789867342,0.161563262,0.0432067141,-0.220823959,0.0420260578,0.972442746,0.7514538,0.6659877,-0.9612523,0.883258,-0.4382793,0.3445961,-0.49462834,0.54223907,-0.239083827,-0.74889636,-0.2834114,-0.33237198,0.20778589,0.0681145638,0.16817987,0.6702706,-0.5858819,-0.941512942,0.6248803,-0.5128856,0.129665747,0.280131757,0.139575958,-0.0315826461,-0.5860178,-0.0432493649,0.0318317339,0.459577978,-0.7541689,-0.4710011,-0.8091241,0.6699281,-0.428742021,0.864047,0.6894139,-0.284804165,0.9209348,0.2663001,0.661574841,0.1240539,-0.335695535,-0.5631326,0.610124052,0.1604656,-0.222250566,0.9042802,-0.5796876,-0.6891892,0.0502688736,0.408716142,-0.252554834,-0.01528033,0.154295713,-0.445088357,-0.157223,-0.52867794,-0.4735883,0.0703304,0.469275773,0.604970038,-0.687235653,0.04579368,0.296408027,-0.768082738,-0.939772248,0.0466605425,-0.903629959,0.343738854,0.378700644,-0.547015965,0.749335766,0.147818,-0.6030878,-0.499173582,0.822809935,-0.307201684,0.6700077,0.97911036,-0.8093321,-0.490298,-0.463561743,-0.2789791,-0.5906909,-0.16288507,0.781553745,0.206156209,-0.484367669,-0.983653665,0.0212700125,0.21809186,-0.8112159,-0.149395585,0.797024369,-0.9433952,-0.188710451,0.6185108,0.140459418,0.378206819,0.100237817,0.7310889,0.807910144,0.07657352,-0.06788981,-0.402715147,0.6593804,0.599627137,-0.412192553,-0.3465307,-0.267898321,-0.8500213,-0.198685631,-0.452698648,-0.120337524,-0.0404262319,0.0685318038,0.591743469,-0.363515437,-0.540706933,-0.5496365,-0.145928428,-0.4689718,-0.9199763,-0.6775311,-0.839391232,-0.7358001,-0.101268634,0.35079366,-0.6596926,0.68953687,-0.795700848,0.5523389,-0.708199143,-0.121127456,-0.540420949,-0.298208177,0.459864736,0.788910747,0.8120243,0.177734584,-0.8180734,-0.381651253,0.862163067,0.284244657,-0.12870869,-0.5832225,0.6414828,0.970941961,-0.162549421,-0.0119270226,0.2195461,-0.0179737825,-0.318833679,-0.0721566752,-0.7538338,0.200060681,0.7278865,-0.245895326,-0.228498578,-0.666915059,-0.239351019,-0.7511665,-0.7525,-0.0360675938,-0.4721975,-0.402360171,-0.4904865,0.6684288,-0.579916537,-0.7422181,0.6086671,0.8028327],[-0.1717127,0.289532781,-0.7171541,-0.762154341,-0.327936649,-0.196445808,0.4611631,0.746216834,-0.3759018,-0.0637024641,-0.473618716,0.3555481,-0.5271885,0.23105064,-0.113986127,0.3682338,-0.368821383,0.286336929,-0.0103135845,-0.292173266,0.01599831,0.5124071,-0.571071565,0.9358638,-0.628553331,-0.07225218,-0.234073728,-0.722664356,0.911937833,0.999610841,0.5554341,-0.417996854,0.379190773,0.422912121,-0.840674,0.404202074,-0.339616567,-0.9873159,-0.468559116,-0.061040584,0.304146171,0.0271028914,0.7100051,0.839579046,0.740114,-0.103813283,-0.5064125,0.3125433,0.726322532,0.148624569,0.0427646749,0.169139132,0.283606827,-0.09728196,-0.20404698,0.353043169,-0.134078622,-0.6643542,0.8742388,0.7761038,-0.9613172,0.180976585,0.8475609,-0.349349529,0.3775453,0.940961,0.9760568,0.05311449,0.06473139,0.482366681,-0.2931699,-0.3777204,-0.270933479,-0.949148834,0.4028299,0.9901587,0.772534966,-0.408866018,-0.802395463,0.476561427,-0.595955431,0.452917367,-0.441708058,-0.237240657,-0.062669076,-0.606857061,0.304172933,-0.5189173,-0.369095922,-0.18396908,-0.4562528,-0.670377553,-0.8543418,-0.238809556,-0.1002349,-0.8706719,0.198412821,0.0657329,-0.537966549,0.805536,-0.06868274,0.44373408,-0.7535437,-0.744446039,-0.549305439,-0.5865066,-0.560849547,0.243246824,0.5111507,-0.20115228,0.5837114,-0.717636,-0.8604233,-0.6015034,0.378371239,-0.4115095,-0.364534825,0.0871192962,0.7219408,-0.0131887747,-0.355659068,0.51344043,-0.573954642,-0.746459246,-0.0548290722,-0.600761235,-0.519511163,0.968226969,0.149027377,0.278118879,-0.199678823,-0.2919643,-0.8717026,-0.6009644,-0.4455639,-0.0364975631,0.210121378,-0.701168537,-0.6792968,-0.47637704,0.95897305,-0.940921843,-0.0234787911,0.8358325,0.2420624,-0.723011136,-0.802000463,0.7541489,0.4054102,-0.668998837,0.499399841,-0.884681,0.3638059,0.4941399,0.17343919,0.426273,0.0396180525,1.013534,0.3288249,-0.93881166,0.937791348,-0.523445368,-0.8949149,-0.7776835,0.996379852,-0.116786443,-0.8389446,0.7412056,0.837946951,-0.5812529,0.383352041,-0.6611972,-0.2414415,0.201438561,0.03279317,-0.4140349,-0.480258733,-0.408707738,0.0269507729,-0.313447684,-0.805822849,-0.277665138,-0.409121931,-0.148143619,0.7834307,-0.3166894,0.37778157,-0.338367939,0.231583,0.126864791,0.962525845,0.225816488,-0.0247686952,-0.7395327,-0.41165188,0.4938239,0.961082458,-0.246105343,0.8390224,-0.632767439,-0.8971696,-0.555265665,0.922464967,-0.00607958576,-0.07237279,0.157153234,0.362795353,-0.8383441,-0.5594131,-0.4172344,-0.0940168351,-0.567552865,-0.0293958113,-0.360374779,0.866358459,0.216350645,0.8913594,0.251458645,-0.5597317,0.314809442,0.510817945,0.497251779,-0.489898562,-0.2907755,-0.5396251,-0.839818,0.370149463,-0.5037639,-0.392516047,0.53589493,-0.367348045,0.767271,-0.2454109,-0.3486494,-0.4153938,0.7504469,-0.196915761,0.581373334,0.9247621,-0.374631733,0.323283166,0.214730486,-0.7642058,-0.34374696,-0.774419844,0.532050848,-0.7281901,-0.6605673,-0.6028999,0.393446952,0.6257834,-0.286824048,-0.6845102,-0.45303598,-0.12158978,-0.386497885],[0.9220195,0.188806832,-0.4664696,-0.2544312,0.770264268,-0.139172316,0.5428218,-0.11326623,0.9503944,0.122817963,0.686516643,-0.6970992,-0.9620309,-0.9059656,-0.5823302,-0.702813864,0.2911647,0.8193684,0.977792144,-0.7175321,0.250694633,0.847547352,-0.5239994,-0.07934293,0.8616954,0.005184717,-0.9111951,0.209474161,0.9090422,0.894259453,0.448734045,-0.8055521,0.7910791,0.9706757,0.8018528,0.589994133,0.0575599931,0.147295579,-0.18366982,-0.5439398,0.6438668,0.313099533,-0.32032454,0.08244423,0.820002556,0.931689858,-0.74367857,-0.728752732,-0.05594176,0.2884467,0.360428542,-0.493409,-0.4657065,-0.4751969,0.336721241,-0.940802038,-0.289446324,0.571,-0.12718977,-0.252940983,-0.241626918,-0.6891017,-0.03579292,-0.9613022,0.6862593,0.45581606,-0.473374873,-0.92019403,-0.6986207,-0.154547364,0.2591339,-0.8255618,-0.01755412,0.540069461,-0.3366123,0.9620518,0.155555457,0.409016043,0.112852864,0.964768052,-0.2649357,0.809902,-0.7126544,-0.389290482,-0.4963106,-0.05007297,0.6757327,0.23714532,-0.381064773,0.723528266,-0.142862782,0.459075361,-0.713493943,-0.9407183,0.6735814,0.303613156,-0.6551313,-0.359908223,0.387714058,-0.6338172,0.415285945,-0.820304036,0.9715462,-0.872175336,-0.968147,0.206387833,0.5144275,-0.0201566629,0.8534174,0.353099644,-0.0955731,0.320110619,-0.5270814,-0.110537812,-0.9771805,-0.07499917,-0.9778625,-0.6523527,0.527708,-0.2948812,0.727653563,0.287197173,0.4410559,-0.435784429,0.9261373,0.790881455,0.892156661,-0.09182102,0.8563447,0.355953574,0.6264886,-0.4939642,-0.98456943,-0.252884537,-0.4378248,-0.445645273,0.846801162,-0.8485224,-0.395728528,0.324289948,0.424003571,-0.293165028,0.370582759,0.254952639,-0.184564337,0.5381924,-0.02699615,0.3619446,-0.971785665,-0.2678212,0.233738422,-1.01197016,0.0944956,-0.376358956,-0.424401343,-0.8884359,-0.2857939,0.4128669,-0.833202958,-0.7909944,0.283666074,-0.414523453,0.127840221,-0.5056792,0.7181264,-0.5996106,0.293067366,0.70565,-0.690965652,0.451237261,0.08047387,0.8972052,0.707069159,-0.826206863,0.2807827,0.0444284,0.890639365,-0.8040042,0.726094246,-0.588781953,-0.198077515,-0.50808537,-0.147912279,0.115281992,-0.916690469,0.5954542,0.380633473,0.33118692,-0.8644373,-0.586206853,0.8169951,-0.568240047,0.9821868,-0.6328889,-0.9837217,-0.166446134,0.57784307,-0.1585437,0.5045295,-0.582740843,-0.7508543,0.2599392,0.0657779351,-0.412324756,0.6439879,0.351925552,-0.7280508,-0.0551689938,0.3527191,0.5448116,-0.7704041,-0.466388822,0.670124531,0.753967166,0.417930067,-0.204879642,0.741485,-0.9909003,-0.5753606,-0.8683583,0.022844132,0.9459475,0.573996067,0.895867169,0.632646739,-0.351794,0.91470474,0.356403857,-0.830157459,-0.557163358,0.491732359,0.0438636169,-0.310787559,0.2930138,-0.843481362,0.5462473,0.4412372,-0.7301135,0.474333853,-0.2576655,0.325879842,-0.582095563,0.984120548,-0.4097737,-0.822812736,0.267360717,-0.244713217,-0.8106978,-0.09719282,0.182225078,0.08905416,0.537908,-0.6263677,0.350026041,0.399981141,-0.718869567],[0.6911753,0.169210315,-0.034798272,-0.0260345787,0.433509052,-0.08085192,-0.2242842,-0.095539555,-0.939381659,0.175136745,0.848619759,-0.635996759,0.599647045,0.872531831,0.364501417,0.466819882,-0.467891723,0.688701451,-0.210255161,-0.40674454,0.9561434,-0.0310682449,0.6942414,-0.6628621,0.912489235,0.701490343,-0.5972348,-0.04945276,0.360197932,0.9146052,-0.369047821,0.310373783,0.9171271,0.8551901,0.855898559,-0.731234848,0.30498302,-0.495552778,0.304385245,-0.576399446,0.6566839,0.08598888,-0.455031216,0.0267942362,0.44317764,-0.6099663,-0.377631724,0.0809129253,0.8538594,0.632495165,0.0349271037,-0.265518248,-0.412909925,-0.196381837,-0.652500331,-0.277756482,0.47496888,-0.371936142,0.06147616,0.7320187,-0.483617157,0.82516855,0.5442625,-0.853986859,-0.455815434,-0.461754054,-0.553123832,0.744456947,-0.983366668,0.09573628,-0.838163137,-0.972339,-0.6156838,-0.6338557,-0.06342847,-0.1298455,-0.576037049,-0.33255282,-0.10603977,0.5224555,0.07912205,0.3218523,0.09668781,0.727702737,-0.120321907,0.8964704,-0.276716262,0.113508917,0.5076904,0.133655012,-0.206203744,-0.323080838,0.442971081,0.572366536,0.9072177,0.8315154,0.541726351,-0.601044357,-0.5173903,-0.0950683057,0.943157554,-0.122088633,0.06427962,-0.241876841,0.470658332,0.00726605626,-0.649834454,-0.7790542,0.867046654,0.477345169,-0.701719463,-0.192478314,0.7341036,0.539020658,-0.347103328,0.194530547,-0.271519244,0.8165598,0.26633507,-0.352285862,0.8149622,0.333367258,-0.7632335,-0.11702171,-0.69806,0.4849177,-0.415310025,-0.188050345,-0.5410734,0.105056174,0.328428149,-0.974992633,-0.8151625,0.9890285,0.57929796,-0.7987893,-0.7424273,-0.661435366,-0.7429556,0.872412,0.5463049,-0.497662038,0.246462286,-0.969654739,-0.16462554,0.98627454,-0.0571844466,0.903950453,-0.08053014,-0.287312835,0.103034608,0.725166559,0.132620558,0.834895551,0.08996947,-0.3902097,-0.358855128,-0.818698645,-0.543816864,0.985740662,-0.57742393,0.538215935,0.762019157,-0.238009542,-0.851083,-0.7267268,-0.377315819,0.745075047,0.959722638,-0.548314035,-0.06304214,-0.6100839,0.5595154,0.393923,0.101409279,0.312624246,-0.913095,-0.793578744,-0.952396154,-0.6843345,-0.457897872,-0.319260478,0.8924798,0.7462395,-0.997978449,0.6032616,-0.1076132,-0.650058031,-0.100940928,-0.0304923039,0.5600658,-0.923728645,0.8823815,-0.7286962,0.449835956,-0.991911054,-0.2596812,-0.5155282,0.8814282,-0.437898755,0.3635904,0.19774048,0.9442278,-0.532216132,0.7757293,-0.286881477,-0.834348857,0.7386975,-0.266513735,0.77734524,-0.4771147,-0.565276444,-0.8663025,-0.859482348,0.4436385,0.741836548,0.6457361,-0.9842203,-0.240031108,-0.454344571,0.3808864,-0.7272578,-0.153984,-0.009785047,-0.108379848,-0.139313489,-0.492465436,0.288211644,0.9440871,0.09332033,-0.427694559,0.602433145,-0.6750069,0.4855026,-0.04792494,0.344361663,-0.263488263,0.4246959,0.9705102,0.288903058,0.437610447,0.153689265,0.6164557,0.121713854,-0.5533776,0.12534225,0.942573845,0.741863847,-0.172334746,0.7079994,-0.637647152,-0.2754609,0.7245029,0.335772783,0.181214839,0.09084819],[-0.6492433,-0.0626143143,0.5787321,-0.09520669,-0.811213255,-0.119363226,0.77703923,0.6346068,0.183148757,-0.105243,-0.897280335,-0.360583782,0.187149271,-0.9319216,0.004699898,-0.792213,-0.9779567,0.4744908,0.0942607448,-0.793898344,-0.360065043,0.7166841,-0.4560444,0.748479962,-0.082648,-0.264849573,-0.5544261,-0.773393,-0.279195875,0.8340169,0.8739635,-0.0116392905,-0.6971401,0.8568649,-0.0229735468,0.7799516,0.8459398,0.05835658,0.0736101642,-0.442481548,0.357307523,0.9750653,0.8997684,0.5318456,0.008053236,0.277337044,-0.445344657,-0.2807486,-0.314644843,-0.8538451,-0.324045151,-0.750347,-0.763837636,-0.056254115,-0.5719298,-0.3846373,-0.5974262,0.7872937,1.004826,0.4253578,-0.5835892,0.570059538,-0.105838887,0.3592143,0.0432604477,0.122449473,-0.66452837,0.319134057,0.108945832,0.232132316,-0.6313296,-0.010198405,-0.6169564,-0.4520923,-0.131894544,-0.3190524,0.812455356,0.010250262,-0.2490805,0.6237418,-0.7896396,0.727698147,0.540777862,-0.416349083,0.155802742,0.6313193,-0.237004623,0.3468756,0.424927235,-0.643655241,0.362644881,-0.9574932,0.06212124,0.643099248,-0.8513388,0.7993217,0.0671040043,-0.4438616,-0.519283831,0.896752357,-0.0458908267,0.224400967,0.623066,0.466126561,0.7592663,0.684989035,0.863606036,0.67509675,-0.919476867,0.747441351,-0.190433353,0.393215328,0.0575138666,-0.623251855,0.235608086,-0.328078151,-0.9965273,-0.6853761,-0.800653636,0.4057758,-0.654005766,-0.0137125952,0.9002123,-0.2629745,0.851659238,-0.6663617,0.9294245,-0.257572174,-0.5954038,0.0675865039,0.6185557,0.247259408,-0.464763939,-0.1375732,-0.329128,-0.014575853,-0.8883119,-0.945130467,-0.178437307,0.477825284,0.7519594,0.0814136937,0.266230136,0.664152145,0.532410264,0.9691918,-0.03644456,-0.342023283,-0.6171298,0.432261556,0.766895533,-0.266799778,-0.6358408,0.05782311,0.5222926,0.9531766,0.3167338,-0.13794066,0.6208746,0.428528279,0.7493316,0.125848457,0.2745598,0.005859725,-0.8679533,0.574444,-0.146457836,-0.8061297,0.698086,-0.775040269,-0.441204041,0.958709657,0.492652655,-0.303119719,0.645627141,0.273719579,0.7172761,-0.7721533,0.19529289,0.874511242,0.34960407,0.242093757,-0.6684914,-0.065742895,0.299665183,-0.146437868,-0.115178764,0.467632055,0.31379205,-0.283564031,0.6469003,0.22639665,-0.571940243,0.3816738,0.71689117,-0.358576357,0.8009436,-0.758510053,0.5300913,0.9675148,0.119839951,-0.224033758,-0.014367085,-0.833538353,-0.118566096,0.8043176,0.2436441,0.6638023,0.398689479,-0.7445085,-0.7704193,0.09449171,0.67709285,0.7518667,-0.918946266,-0.489724845,-0.206589863,-0.668252051,0.7253907,0.2751076,-0.302206576,0.381736875,-0.11608126,-0.0162728485,-0.4211512,0.3437941,0.5414905,-0.88215965,-0.007995296,0.0163321383,0.475432366,0.4866061,-0.296916485,0.224899665,-0.24073,-0.422803372,-0.75660187,-0.844056249,-0.9530399,0.487106621,0.6073725,0.208662182,-0.9323923,0.04794821,-0.5233453,-0.455632985,0.5389319,-0.3407775,0.2817917,0.194462463,0.8308186,0.465911776,-0.497879148,-0.760701656,0.259390622,0.721308768],[0.875103235,-0.9883353,0.590935349,0.5470415,-0.755521536,0.142941266,-0.318208963,-0.62637794,-0.234816089,-0.2508854,-0.6060707,-0.547150433,0.0252650324,0.5176331,-0.734443665,-0.37885353,-0.7503712,-0.7825945,0.6298239,0.432774782,0.311652422,0.828532934,-0.525011539,-1.01478934,0.827277541,-0.09806361,-0.217235565,0.7383931,0.198666677,0.9788806,-0.0537904873,-0.5602406,0.950389,0.00512107834,-0.307311982,-0.7335322,-0.446346521,-0.4802342,0.21648027,-0.51443243,-0.4523007,0.653123558,-0.7479796,0.7430745,-0.820109,0.0727689,0.6587304,0.8144445,-0.0669291243,0.203898549,0.207452849,-0.7306577,-0.412780523,0.805278242,-0.6055433,-0.9383272,0.501017332,0.5669134,0.7474755,0.370012015,-0.687812567,-0.0910321251,0.223970443,-0.221589729,0.772376,0.9463485,-0.481749147,0.982109368,-0.176112518,0.9921731,-0.9181245,0.7449993,0.0114299171,0.1915739,-0.06402218,0.6509083,0.57913816,-0.238792926,0.858577847,-0.285211831,0.19996348,0.007845384,-0.16658625,0.955691159,-0.240171716,-0.306188226,0.8859527,-0.859523058,-0.3857982,-0.369511783,-0.255690545,-0.0133427912,-0.22244212,0.853883445,-0.858138,0.660408854,-0.5449118,0.4738102,0.9734627,-0.797118366,-0.457120955,0.6641193,-0.0152803408,-0.03707929,0.13853097,0.450439334,0.278539,0.409533143,-0.126536712,-0.219532967,-0.476297945,-0.24585332,0.7119851,0.0195217524,-0.8636779,0.321534634,-0.931544244,0.24733305,-0.9908126,0.08748793,-0.8812965,-0.6106819,0.344252139,-0.824322641,0.266521126,0.123969033,-0.0341525637,0.160282418,0.029481886,0.280043185,0.185456082,-0.926712155,-0.2228747,0.6500758,-0.8434964,0.5392297,-0.9786394,0.8688558,-0.174106568,0.3133766,0.4138759,-0.563204,0.266465127,0.8752452,-0.9150792,0.989200056,0.245672375,0.7434708,0.6824947,-0.175178856,0.582466,0.224461809,0.518084347,-0.09878732,-0.9220537,-0.8223215,-0.6914333,-0.2120893,0.677589059,-0.9616799,-0.495423377,-0.863927364,-0.6124385,0.579611957,0.5534061,-0.5339887,0.961242735,-0.963973045,-0.1256046,-0.3804175,0.285328448,-0.8103937,-0.594092846,-0.284041077,0.6784308,0.6646971,0.107313722,0.498447776,-0.885966659,0.23233147,0.8062606,0.239156708,0.4539267,-0.8242624,0.6900029,0.9656336,-0.4090187,0.9225164,0.50297606,0.960920751,0.236662909,0.212293208,-0.8525794,-0.195079222,-0.172369838,0.283776045,-0.9475041,0.6851287,-0.684363246,0.6723563,-0.97087276,0.192605764,-0.118816532,0.07642163,0.503489256,0.391561955,-0.161603689,-0.226810247,0.173142627,-0.5713723,0.07115259,-0.159304574,-0.2981618,-0.5228144,-0.784617,0.284394234,-0.3358166,-0.811618567,0.898176551,0.6066317,0.8524337,-0.94254756,-0.484039158,-0.0937971845,0.399057865,-0.892212033,-0.9284643,0.603386343,0.8783126,-0.5901348,0.6168911,0.441609472,0.167326555,-0.5560916,0.2350061,-0.3795248,-0.7075849,-0.6262329,-0.3139451,-0.700728834,0.103921883,0.8189313,-0.2508416,0.0741145238,-0.122019306,-0.6092379,-0.499240726,0.6421937,-0.436454684,0.563161433,-0.389644623,0.829095,0.790563345,-0.277507335,0.792934835,0.9486903],[-0.3387884,0.9752354,0.6830968,0.429673731,0.3127473,0.2458488,-0.0866498,-0.234398261,-0.1875403,0.6441905,0.6724214,-0.731656969,0.2535565,0.5813683,-0.03840105,-0.701493263,0.511872768,0.5922775,-0.494818926,-0.974503756,0.30737257,0.4306592,-0.984818935,0.0286163446,0.5695643,-0.5919033,0.005238988,-0.6407844,0.801408,0.768182,0.660584152,-0.5083402,-0.3674839,0.247316152,0.9769183,-0.6364381,-0.29660517,0.253900319,0.013675807,0.8779534,-0.08945459,0.9910652,-0.6902025,0.2548929,-0.278923839,-0.7291921,-0.584582448,0.00146749441,-0.416541964,-0.6674335,-0.638722,-0.792659938,-0.800024152,0.7906403,-0.318224072,0.239093438,0.9601595,-0.3317752,0.8725097,-0.09378216,-0.766150653,-0.4257102,-0.0308032352,0.0437852852,0.9911716,0.190614223,0.6259961,-0.998414934,0.607254446,-0.4079508,0.5931728,-0.751278341,-0.4274132,-0.365476,0.10677164,0.3114828,0.120157316,-0.242595345,-0.7024333,0.298893481,0.9985375,-0.9881236,0.7651139,0.467897624,0.40830794,0.44947356,-0.7210773,-0.153931946,-0.429031044,-0.2591916,-0.6004943,-0.9608774,0.388429254,-0.8934977,0.641705453,-0.651895761,0.0211477969,0.261892736,0.270786464,0.5268001,-0.352541029,-0.585179031,0.401116043,0.984975636,-0.265790641,-0.8917972,0.6379105,0.565013647,-0.3214516,0.365012825,-0.879340649,0.200979322,-0.626809835,-0.426612854,-0.09311556,-0.7717519,-0.178785145,0.5055837,0.6393917,-0.456884742,-0.07689354,-0.216361,0.430605233,-0.125405863,-0.80017674,0.5619181,-0.134880424,-0.530746937,-0.006295671,-0.23069039,-0.712930739,0.859064341,0.4963032,-0.230778292,-0.345608979,0.579769135,-0.390622824,0.7734285,-0.2631696,0.300832957,0.8179585,-0.287667155,-0.83544606,0.206242159,-0.368719965,0.210209966,0.670467257,-0.179521143,0.206765935,0.417910129,0.5308628,0.527990043,0.6248264,-0.27331993,-0.380490154,0.868191838,-0.0138502317,-0.4660723,0.814874649,0.1856057,0.2517084,0.175853834,-0.424814761,0.9137472,0.0883448645,-0.735892355,0.712826967,0.6001886,0.9182996,0.328317165,0.617958963,0.0541335,-0.234729111,-0.655692935,-0.272982568,-0.7952212,-0.383648038,-0.766834259,-0.757953644,-0.0107845087,0.8998737,-0.9546689,0.260203123,0.583186448,0.24991034,-0.234774366,-0.764092,-0.232654467,-0.837931633,-0.202214539,-0.396546334,-0.9196958,0.974544466,0.5657548,-0.9476776,-0.3510118,-0.8602342,-0.743376434,-0.8786484,-0.6325822,0.492109179,-0.9318288,-0.09520215,0.87538296,0.797292531,-0.5131648,-0.2356759,0.2802726,-0.99783355,-0.5812159,0.243392751,-0.248311,-0.714694858,-0.188093156,0.272793978,0.205357462,0.90961,-0.003575568,-0.332256,-0.682404,-0.9796783,-0.0552835576,0.440505952,0.121799394,-0.272487849,0.533962846,0.0671301559,0.192497313,-0.7072497,-0.923949838,-0.94044584,-0.64173764,-0.8914429,0.8753866,0.495136082,0.8276957,0.140347749,0.38697505,0.781633,-0.244721845,-0.9890983,-0.0318818167,-0.228962868,0.739848256,0.567329764,0.8626025,0.8082559,0.169948921,-0.6966769,-0.143623069,-0.258263946,0.154771492,0.5954174,0.8085188,-0.6499954,-0.4331554],[-0.370132565,0.789987743,0.152297482,-0.7371979,0.420374,0.572883546,-0.006610644,0.9264538,-0.6344366,-0.112076804,-0.351037174,-0.5923152,0.322233081,0.4440868,-0.9258709,-0.4768497,0.219365448,0.912837565,-0.678719044,0.06254076,-0.8154942,0.7104303,0.5689936,-0.121857017,0.7432498,0.9069564,-0.09172952,0.44341886,0.347119778,-0.08176113,-0.218319029,-0.6951838,0.534089267,-0.0555302538,0.205606043,0.354263484,-0.7633271,0.5183784,0.338306963,-0.5663258,0.9668309,-0.154383257,0.373435557,-0.328382045,0.205800965,0.3905072,0.8453791,-0.148945138,-0.220563173,-0.7858728,0.9294664,0.682243,0.485275567,0.2877689,-0.628306031,-0.07525648,-0.7782612,-0.7224661,-0.476536751,0.516004264,-0.328212351,0.5467881,-0.41506815,0.458791971,-0.8844196,-0.6626305,-0.122777812,-0.6254619,-0.7557649,-0.289860517,-0.7111045,0.699413359,-0.424955517,0.885460258,0.0954851657,0.340332061,-0.6712127,-0.103332013,0.6738483,-0.642428041,-0.9399077,-0.950783968,-0.333535731,0.132304966,-0.0157429334,0.09158501,-0.176930934,-0.7507487,-0.424290627,-0.71904707,0.1369972,0.967630446,-0.002695279,0.821647465,0.763017058,-0.5798975,-0.7444951,0.923982263,-0.444238,-0.1325415,-0.494906,0.4713786,-0.3854564,-0.929658949,0.9219491,-0.770836234,0.110136859,0.6008498,-0.8108865,0.0311905816,-0.4082683,0.322309,-0.394938439,-0.8346152,0.458501726,-0.3784292,-0.111408159,0.4561007,-0.5254757,0.0245994981,0.518897355,-0.3656719,0.801900446,0.9590801,0.578595459,-0.6737255,-0.2934529,-0.251198679,-0.8758581,-0.324558973,0.08394575,-0.59387517,-0.6542122,-0.1945887,0.850333,-0.411187142,0.438860238,-0.407887846,0.210170433,-0.244311914,0.9829161,0.2210831,-0.9404111,0.546783745,0.694207549,0.8193599,0.370766521,-0.166987285,-0.632127941,0.148904562,0.5376962,-0.195428163,0.461206645,0.5345962,0.354499072,0.8762661,0.676890969,-0.339830756,-0.498229861,0.597279131,0.5310547,-0.638478458,0.480296,0.5134259,0.9481778,-0.810554862,-0.0188694838,0.7933519,-0.6843032,-0.12857917,0.190878764,-0.709255159,-0.7544616,0.716587842,0.0465455875,-0.702645659,-0.429897875,-0.742788553,-0.7265368,0.7624403,-0.04261219,0.871444643,-0.609266758,-0.0140718389,0.138882,-0.7183188,-0.0471843556,-0.182394832,0.454845518,0.9729649,-0.07936456,-0.205129236,-0.900599241,0.614175,0.231824949,0.6269184,0.7458282,-0.450651973,0.60553056,0.5027644,-0.163142264,0.5727028,-0.4777576,0.494445175,0.9582092,0.248293683,-0.43831715,0.745019257,-0.512153566,0.0558704771,0.3069994,0.419722378,-0.6217603,-0.267823964,-0.3597944,0.658598542,0.9703822,-0.5086832,-0.625442564,0.665231049,0.238481641,-0.8369246,-0.66200453,-0.660109043,0.9508426,-0.606287837,-0.806313038,-0.37019375,-0.5178253,0.418073118,-0.449648023,-0.9744115,-0.350283772,-0.227605984,-0.0708967447,