{"Descriptions":[{"width":28,"height":28,"channels":1,"filters":0,"kernelSize":0,"stride":0,"padding":0,"activation":0,"layers":0,"neurons":null,"fc_activations":null,"layerType":0},{"width":0,"height":0,"channels":0,"filters":6,"kernelSize":5,"stride":1,"padding":0,"activation":1,"layers":0,"neurons":null,"fc_activations":null,"layerType":1},{"width":0,"height":0,"channels":0,"filters":0,"kernelSize":2,"stride":2,"padding":0,"activation":0,"layers":0,"neurons":null,"fc_activations":null,"layerType":2},{"width":0,"height":0,"channels":0,"filters":16,"kernelSize":5,"stride":1,"padding":0,"activation":1,"layers":0,"neurons":null,"fc_activations":null,"layerType":1},{"width":0,"height":0,"channels":0,"filters":0,"kernelSize":2,"stride":2,"padding":0,"activation":0,"layers":0,"neurons":null,"fc_activations":null,"layerType":2},{"width":0,"height":0,"channels":0,"filters":0,"kernelSize":0,"stride":0,"padding":0,"activation":0,"layers":3,"neurons":[120,84,10],"fc_activations":[2,2,3],"layerType":3}],"Kernels":[[[{"rows":5,"cols":5,"data":[[0.36349741771631083,1.4425320630270697,1.058799000942934,0.77257040368683882,-0.95235148742398179],[-0.7421906305932009,-0.29401764860274454,1.8571734510441829,1.0354673122375335,1.0106932588583923],[-1.1611393248631372,0.15371087483381396,1.6555953171384825,0.979895387211088,2.7660379249527174],[-0.62231517415210169,-0.93742386659186872,0.17708301858667236,0.062228490333788126,1.0859982770698407],[-1.5647927893118938,-1.2230037222946648,-1.64527604186163,-0.11191826876394918,-0.41070846121856752]]}],[{"rows":5,"cols":5,"data":[[0.15881271717037282,-1.3154127823583151,0.33467494568623335,-0.57981223346280486,0.19698540654306435],[-0.60731032484468273,-0.42947269466254573,0.74519661075269439,0.046714186975873082,-0.49796070379239787],[0.29368983963261019,0.37359608927076382,1.5897945808980452,-0.6369758946961,-1.1534138225577186],[2.9249618094087673,1.7701336121391653,1.0703956792549247,0.14480063071109603,-0.498784189111503],[1.9871210171037903,1.0392847389154136,0.69714308035258543,-0.638756167319881,-1.5027747885841687]]}],[{"rows":5,"cols":5,"data":[[-1.077073684447422,-0.93723823933977435,-0.33234557141922338,-0.45736179410307692,0.16170975492079037],[-0.70653475568536583,0.092093276840651647,0.30113862498336635,0.60350942743945046,-0.053332758058950824],[-0.43738985924952983,-0.826025182188452,0.22199032062181431,-0.544824384143637,1.0121694225890165],[-0.790081801888006,-1.1054045332681193,0.046666431390742724,0.86556911092141642,-0.16527416497106157],[-0.25491823765841465,-0.5423115776945916,-0.58474405449793865,0.97914546683264481,-0.36903556668925586]]}],[{"rows":5,"cols":5,"data":[[-0.35710453322766544,-1.3456338263560046,-0.34658700693387484,-0.9085278816917175,0.10807125554942361],[-0.26212800228696842,0.058901897498672945,-0.4305764171882806,-1.5396317288734522,-0.51680357550909317],[-0.62504594679955094,0.6953512932519943,-0.091614528020810784,0.024437911020699778,0.7478197464496612],[1.2356636655710225,1.0292200054236511,0.20809111826131946,1.0612947881094259,1.0212949087711563],[1.4236202651985876,-0.19562061722610982,0.021445886454184208,-0.010161984506493194,0.14986102546761898]]}],[{"rows":5,"cols":5,"data":[[0.019991810008253483,0.34048166888523806,0.013753752907563066,0.50753697147031573,0.63184409382549656],[0.37275397640888913,1.1993934987458166,0.75201837942218175,1.624266704306611,1.8114640952898169],[-1.6546008152382743,-0.8495102830992316,0.82632010595704108,0.22616128410324612,0.379928775701656],[-0.7716039541721148,-0.68386609891128824,-0.79230022011077739,-0.51744503278970844,-0.82821315783868255],[-1.5730341061840485,-0.85051034265726111,-1.9309485656957104,-1.4501649607060132,-0.0067876773675119078]]}],[{"rows":5,"cols":5,"data":[[-0.97207137134924,-0.39490421929370184,-0.14078747529799993,-0.48975821551386234,0.60388523611098266],[0.39229718185659229,-0.10392181108197604,0.30807921213256156,0.099770856200273178,0.32267254955973967],[0.01970671220240024,-0.89189796160593571,0.046413755027146418,-0.49606083961768332,0.20503583093559286],[-0.34535573558468147,-0.037928612207363196,-0.3011224994606313,-0.22092549304694545,-0.1430029841160945],[-0.11215158596113001,0.24851967959587071,0.09841979774072819,-0.8226533489664174,-0.9120962244440064]]}]],[[{"rows":5,"cols":5,"data":[[-1.3024260337906723,-1.32997926493491,-0.56360208233445008,-0.75719326569194,0.16964210777885772],[0.28798409007750608,-0.35165915066704867,-0.5141907343040073,0.82935163358944819,0.4312493535629538],[-1.6256935809849291,-0.63861487785401638,-0.4407361155812472,-0.06221539327155471,-0.79930760485850938],[-0.31051653127970857,-1.0409348665885709,-1.6386869017969674,-1.0588761167968741,-2.337416329710639],[1.1750243443435158,2.0863835185606887,0.23721790069398024,-0.25275520306348309,-1.9462202211752522]]},{"rows":5,"cols":5,"data":[[0.2018437033130597,-1.6039623720266136,-0.98359312469237159,-0.59326298758092721,-0.80273254053217591],[-1.0414342614110521,-1.6538134844813464,-1.8333081725563107,-1.6294045378592812,-0.85675167035967459],[-0.26834123178667829,-0.67521760996540214,-0.46346762612174941,-1.4640097359958444,-2.1097465921267586],[0.025606296648067385,1.2943453401292402,1.6338247739621217,1.4789309799930506,-0.68811497881708628],[-0.088956074066519453,-0.339428330685299,0.27704970497756964,1.0951284293616483,2.5719276689429496]]},{"rows":5,"cols":5,"data":[[-0.89117757377340545,0.48763005004389692,1.4733634854275324,-0.055678569628462918,0.70868220763090184],[-0.87246416434817076,-0.25012868884016803,1.1251510007793066,1.0554485352329082,0.71979608517842986],[0.39097808036303344,-1.2508967093561056,0.30368479297122908,-0.30223425525276931,-0.96366151873938954],[-0.055918210956720282,0.65141537499608648,0.18077889329020686,-0.17451733448945106,0.37351075474624051],[0.90392365471842062,0.0090740772873568378,0.14839935067114007,1.1775709974519224,1.1542918872273669]]},{"rows":5,"cols":5,"data":[[0.049573188905259268,-0.7447390626442244,-1.4259014679430628,-0.98792677776988824,1.3899191395634851],[-1.0127666550168737,0.39297303066789907,-1.0381477102322207,0.08004408191361477,-0.50277713783662847],[0.013453433930586149,-1.2077963257092892,-2.207549057435108,-1.0573904599043975,-1.9109172661826253],[1.8154354328430931,1.3103187425194882,0.537995710502574,-0.083015303332043128,-1.4994105042592485],[1.60775447803877,2.2933084890312476,1.5534276260065933,2.8473545030660641,2.5937804390041515]]},{"rows":5,"cols":5,"data":[[-0.84885850059195822,-0.44396376011557759,0.026502662700394565,0.016037839637985007,-1.0726069190378949],[-0.6224094285505527,-1.0672438840982572,0.86739850735823654,-0.22705764050166086,1.9701554373582861],[-1.0279313433299044,0.23266114907457414,0.90279105063127962,0.34549715141060455,1.3789492759309985],[-0.11176563638280201,0.26818173005883034,-0.63646323205127231,-1.0649655626959877,-0.48304894516635033],[1.7125948952314731,0.83923802834153338,-0.72858497201003947,-0.8146608012518386,-1.7095572992221495]]},{"rows":5,"cols":5,"data":[[-0.89087892948525538,0.47365381617842917,1.0765149202261513,0.99729539635562714,1.1276340701283512],[0.30945506678969459,0.820148164374382,0.5406324774113942,0.51651132054727344,0.13804096444728903],[0.15638414340942472,0.19300829492401755,0.39883004066362276,0.049898894794638382,0.15528899529447404],[0.41284912372554666,0.57913895702645679,-1.0202898155825784,0.42705318064026315,-0.48616806325933443],[0.3193986119196669,-0.73386921070526989,0.15485504921486165,-0.7472150099064605,-0.12157898388907983]]}],[{"rows":5,"cols":5,"data":[[-0.578212095119179,0.51368253467829694,-0.40819229584108185,-0.29592139415520879,1.0411350836767288],[-1.1724787760416295,-1.6331905848266044,-2.1848876015624215,-1.4937224286241682,-0.19962413479395824],[-0.52562283759327855,-0.57889095342173191,-0.16868806888045965,-0.72728971389074648,-1.6507109471652082],[-0.857335517900789,-0.001999664190577643,1.1763415211903192,0.51157323393213494,1.0577949076240145],[0.081551023204715981,-1.1779913608947181,0.14407324387275045,0.54403663770982347,0.660931079913419]]},{"rows":5,"cols":5,"data":[[-0.8207398858989412,-1.0293851920995392,-2.3009915727944028,-3.2643465539369245,-2.3025234878177083],[-2.0202514206202071,-2.0568892337887807,-0.13737579479450529,0.60472787299754882,0.37302670804269866],[-1.5173696326174657,0.6750861983875206,0.46029467138231617,0.46041153877987262,-0.35623156944505963],[-0.6228070127818609,-0.32071380806281607,-0.89368491854563714,-0.47251738944918986,0.65954153336465615],[0.32302560487068244,-0.43779862504305272,-0.39104500833258582,0.39866867607554718,-0.77263168779831337]]},{"rows":5,"cols":5,"data":[[-1.6047316370518141,-1.608150176934823,-1.4264738900076974,-1.1584853372159107,-1.6175218703956187],[-0.49787890506543581,-0.57573496983068173,-0.89618685692073963,-1.3195233420899322,-0.39157007882784473],[1.198092086910457,0.67933280455408018,-1.5128980947433763,-1.4402493015181919,-0.238173493169332],[0.13873091766726689,-1.3997212316819274,-1.1448099949711745,-1.2287836923754008,-0.18206266669593207],[-0.13248652673297004,-0.98392012654348493,-0.7293705345445749,-0.12297753121157654,-0.043005710138473784]]},{"rows":5,"cols":5,"data":[[-1.8186351258266165,-1.7246103948441964,-2.3395708134974922,-1.9007887903601621,-2.5238091378798089],[-1.4834692797751825,-0.72687987835359535,0.25518799865359693,0.79293717233518457,-0.98527053578038615],[1.7756945338359482,1.5324922006966191,2.6200372002945231,1.2229594012123966,-0.721310432216747],[0.69229317615251651,-0.26260606409017462,-1.6892736353527811,0.18291302962794467,0.794948095245086],[-0.8861378550455149,-1.0893924301172087,0.24956721516260133,0.33455489743983213,-0.022080512120026135]]},{"rows":5,"cols":5,"data":[[0.48438883873315947,0.51187855691240935,0.82177192273077393,1.1256382646140608,0.62456749973685],[0.16690617840314578,0.33340208069159177,-0.14784229966705917,-0.64822590952346337,-1.3102246191654878],[-0.71898882095517069,-0.27891201338311344,0.53853985422692252,0.87061703165907278,-0.62921103682962043],[-0.24331945474556882,-0.03464585332001769,0.6252881046598151,1.07887568794962,0.57432892040038219],[0.60421722768709807,0.29726754815104661,0.664710819806582,-0.50964584204098873,0.19254882880235111]]},{"rows":5,"cols":5,"data":[[-0.74773146047709971,-0.45870314644692844,-0.087505318617581832,0.38722714622679011,0.030126671265002788],[0.62798070258419625,0.0722162146538541,-0.56451572238771264,-0.13519019632566345,-0.87575013854547556],[-0.42003140906874986,-0.36054205646472937,-0.76452511321542183,-0.45581182799072212,0.41904043765097243],[1.0116874360457058,0.1540668075484897,-0.19583887127973954,0.0819799726727374,0.45147156086358137],[-0.77577434991777627,0.39978161276011032,-0.71618731341510022,0.23587424298092058,0.39403075998082082]]}],[{"rows":5,"cols":5,"data":[[-0.88587339779216023,0.45151360162294979,0.84172884540758608,1.3448878297072362,0.79159793481932],[0.25122930346440381,-0.85878482201809458,-0.75236877963486393,0.20771737696590278,0.089955038966872111],[-1.1730916947049235,-1.5677422825904612,-0.27906995808840634,0.39036283131865318,-0.76167533795743236],[-0.17661525255145866,-0.496084532617945,-0.93903714213598177,-0.32798758422275159,-0.15344854351351464],[1.2177179958049345,2.4912323346420737,1.7667352558537746,-0.84805997015724965,0.69089412011695561]]},{"rows":5,"cols":5,"data":[[-1.3893179761447032,-1.2690706340614579,-0.60917711079407544,0.31060616063306962,-0.11272925192767713],[-0.86466185411411045,-1.9036196638581797,-1.2060484993878879,-2.2834354900880882,0.39895436761987035],[0.44100565657188345,-0.82484533017950989,-1.7385531806699515,-0.17752095474961782,0.2092054657529123],[-0.58435448909792909,-0.756289987081485,1.194530936990805,0.81917361226919516,0.12659204487841644],[0.49149746941126582,0.020046043409098151,0.59266659715717906,-0.63373825378953919,0.28232882734763204]]},{"rows":5,"cols":5,"data":[[0.423936315136137,0.13170583850173764,-0.034988776694814532,0.62814010973632051,0.526538364168161],[-1.2751388491490827,-1.4419847372379719,0.72298091024142552,-0.88741912030319,0.47555970066600639],[-0.096565506481769314,0.59130224394404551,-0.26883860578099084,0.60994532398365053,-0.89233854241914723],[-0.005524237306261965,0.468768160343645,-0.13929238187696991,-1.1017114771353438,-0.90505288669718853],[-0.46410683250145912,0.90969442347280238,-0.24732366649227874,-0.4559790158939116,0.12411615166154716]]},{"rows":5,"cols":5,"data":[[-0.27223090645170545,-1.4001319233361302,-0.994840447200823,-0.19913834307226808,-0.8024077079458598],[-1.2200763258912188,-1.2198014121334413,-1.2245278595036078,0.28179594167100974,0.43866291491505177],[0.32253174608318563,-0.0090715109781216337,-1.651193070910161,-1.241864717999938,-1.1127140100769357],[2.0578469407362721,1.8732295357459803,0.537751015302206,0.11418970600371348,-0.43000834293522572],[0.60245809232835756,0.44613940432372617,0.4796852675964543,-0.81098890853052685,-0.22366885029797448]]},{"rows":5,"cols":5,"data":[[-0.43800996554493077,1.0524400144523605,-0.066788590208209611,-1.0018077949923991,-0.25941844661201374],[-0.57512307184561828,1.0103298643532226,0.711957713181164,-1.3094721573464807,-1.807039200690465],[-0.89827715715647383,0.38325849625824321,-1.2659982671580985,0.21706194219908431,-0.14034841187449293],[-1.1011705730447596,-0.34942730882218737,-0.37063473370446492,-0.75970538729009518,-0.99478149349892575],[0.903159247555294,0.75928712599662163,1.2933227540771886,0.84346903322345934,-0.30194524107990922]]},{"rows":5,"cols":5,"data":[[0.057459055284774622,0.320376790099552,0.691193150463815,0.46991385379364325,-0.42536452722691004],[-0.71739552110664573,-0.46739983481657388,0.58091132559339309,0.77880534413316826,-0.85017589599758958],[-0.14566004409661132,-0.43904205359752385,-0.565097182774305,-0.80877933862686713,-0.652752494712676],[1.1342343092791973,-0.93118297413592555,-0.82441782918148088,1.0071489891060867,-0.35581458759265966],[-0.81515256045056739,0.41596188377776266,0.1157251378498089,-0.54007091268932506,0.33328004679231032]]}],[{"rows":5,"cols":5,"data":[[0.81394554117127071,1.3774242230978857,-0.07277212820208899,-1.3026739505008138,-0.85511998247931675],[-0.11449983037545687,-0.09936619155146359,-0.40883968268124948,-0.67972326093362356,-1.3258005681217848],[-0.5675336665103945,-0.43260742255478307,0.33062763352271124,-0.52889506200525283,-1.237894434953067],[-0.074225441445182783,-0.96740373925111711,-1.3910571105171956,-0.66603163110529773,-1.1819250404804949],[0.065794120250658436,-0.80964456037821941,-0.34894560334545688,-0.79485979602647594,-0.5987036397923281]]},{"rows":5,"cols":5,"data":[[-1.1941753447599857,0.056331005318437009,-0.16772618445703516,-0.77201221618276339,-0.78296279137123559],[-0.29981407852422476,1.7738951777187235,0.3420377165163806,-1.3210261859196597,-1.0904001552616784],[0.37834873635854849,0.6071499221293124,-0.65906470022519992,-0.18188287591633079,-0.79507674109971471],[-0.96472698744975516,-0.69056630612086523,-0.5127472183508,0.14441522597519527,0.41897767720196116],[0.46174831682891332,-1.3723804838580072,-1.0644307814661649,0.37421284999380222,0.1684534325721318]]},{"rows":5,"cols":5,"data":[[1.128478250717794,0.02041323319031085,-1.0203414801180026,-0.68461898680109934,0.833831785035037],[1.0597725180251212,-0.43881305174389346,-0.69776234856786568,0.62392113015542794,0.49206165824079307],[0.58548783542558214,0.24614477297999146,0.24403120424262215,-0.72744552533589435,-0.288739556020514],[-0.051345078424987034,-0.30451160439936825,0.50736254587394647,-0.5463598784002367,0.51472658941210336],[-0.75964703447804649,-0.2559029830299957,0.026477160476890752,-0.53882399797352321,-1.0122010073823096]]},{"rows":5,"cols":5,"data":[[-0.098097019835500829,-0.59389712137218709,0.24379135168931504,-0.65107142842259147,-0.8714744907831925],[-0.83989861623213491,1.1477409525299458,0.81461719108314912,-1.6098845651513656,-1.0343672516133107],[-0.55903417024267588,0.77720688936792093,-0.665603929599124,-1.3245034841508065,-0.2162489904463184],[0.23111828447767069,-1.0307018172364029,-0.015012207807799176,0.11616401004638084,0.14987957553965664],[-1.3985818649390351,-1.3420750553891037,-0.5357261440615082,-0.13096023474421745,-0.71484755168926339]]},{"rows":5,"cols":5,"data":[[0.654378905111237,-1.0518148172263309,-1.3895812517949109,0.32640922771851855,-0.62617004105248819],[-0.512151589190677,-1.5264417655666,-0.19547043729773922,-1.262017397852226,-1.290011560606207],[0.1671064841051409,-0.2107651547832077,0.3091688912723799,-0.32844839979157581,-0.69137404174826345],[0.023083289003394795,-1.0582945937778536,0.055225309541951047,0.10572847419514403,-0.82605240979411743],[-0.147786814623348,-1.1958292390402718,0.0696233584198889,-0.1706954379360493,0.8580893708365207]]},{"rows":5,"cols":5,"data":[[0.18805401693466353,0.47705104113843644,0.1383405189606175,-0.18394048644449743,0.5208728388076157],[0.49203745276891159,-0.64815181658591992,-0.95140956318147107,-0.43728751923669046,0.73059957143851872],[-0.324701028044429,0.49171340858493445,0.49914101002107181,0.3858649428724561,0.7905469506503352],[-0.93352425540976025,-0.6680561423092084,-0.34425311502874845,-0.72688111743833028,0.65230353680308739],[-0.32498663198245203,0.50458931851759747,-0.48476646056476341,0.086966898954122726,-0.72989523448047233]]}],[{"rows":5,"cols":5,"data":[[-1.0737916779297925,-1.2625791408584515,-0.33576718162548569,-0.39466631496477966,0.35015164009446875],[-0.5057745675065255,-1.3727432284203671,-1.3652379263860681,-0.12154501368212511,0.480085862349234],[-0.56059678327425155,-1.6102320872230309,-0.66367920812340786,-0.23507835090911566,-0.22811137813047286],[-1.0249456980706209,-2.030933702532538,-1.0226830292537381,-0.045579016337405596,-0.089159068796351409],[-0.63589161295594976,-1.3756883235119717,0.760097212724854,0.81929796292912216,-1.2037961829108412]]},{"rows":5,"cols":5,"data":[[0.81637748746204186,-0.58306078154660246,-1.4438578003940368,-0.75781983662044006,-0.3555446491389323],[1.538291279587612,-0.31243492455669414,-2.2219788035829207,-1.0471913069659582,1.1600442743863662],[1.205562434451773,-0.10569143406133345,-0.36622887700315776,1.6462609659729202,0.68805457364934475],[1.984474948647555,-0.8360697670713908,0.92087657522942912,1.746770237418908,-2.0216175856069265],[1.0304356529653822,0.12491483086794127,-0.17695250130291559,0.50674805571367132,-0.82466612299236508]]},{"rows":5,"cols":5,"data":[[0.33443322988873625,-0.93040780839009751,0.034787739287366344,0.8820028827904417,0.37022754348104125],[-0.89280717553499422,0.25987195345432718,1.7159664133515402,0.40885292620555469,-0.86929408435887434],[0.692736051340331,1.4752323110523866,2.3080565499809667,0.33453359204844407,-1.3781228629013429],[0.089748467647624022,0.88567222224792963,2.2083592864680819,0.5868933086981466,0.50089553744607318],[-0.05473343358179681,0.98664307511640581,0.49344076606081527,-0.58177353684066113,-1.4541871086997393]]},{"rows":5,"cols":5,"data":[[0.35694175221683055,-1.1037190198535118,-2.4249803099321241,-0.30149163088443592,0.33825886784154563],[0.14404365128294264,-0.29985059962566635,-0.18847621025904446,0.308932816124135,0.62841916445932522],[-0.24857121177197805,0.66846651665191559,0.14511577875112217,-0.58519857262304686,0.31288000573611197],[0.88294983541598071,0.44550393035274871,-0.656383042433968,-0.25358751774285215,-0.3216060476090114],[1.6299494277735331,0.481119881797556,-0.81675613498759181,1.2408362079398447,1.3969818811596688]]},{"rows":5,"cols":5,"data":[[-1.5897198318766797,0.13791871070842049,-0.98004951797096629,0.12822176158168031,-0.24418307837988432],[-1.0558172747920629,-0.39294053912572841,-0.98000738156747269,-0.89534249695985224,-0.59273518912780232],[-0.99673989566418364,-1.5970284548614908,-1.5875959053157314,-0.864724992085096,-0.38277327498457936],[-2.01185937158107,-2.2127414865276926,-1.7329095441718203,-0.40345308096948873,-0.0661895213777049],[-1.1973157072285676,-0.4089056760542078,-0.55438957490334839,-1.229739658494498,-1.0381219057316549]]},{"rows":5,"cols":5,"data":[[0.24342452739996637,-0.93580341138868406,0.64696910950325759,-0.0040690530774810541,-0.74387023695875842],[-0.81866088820558647,0.77039166864131714,-0.84323760116733149,0.8631295023946628,0.23666747825323342],[0.3800207569304177,-0.53592870635436485,0.43801660906623108,0.77040050580238617,0.35474097188163978],[0.44683243068400197,-0.69772814123440807,-1.0017753265177887,-0.22847383825678228,0.65635588476174223],[-0.74524853511025657,0.30613368437842142,-0.19161358581351676,-0.45013784280326058,-0.2972434553758399]]}],[{"rows":5,"cols":5,"data":[[0.46698206470883352,-0.584153295167872,1.1519773170291221,0.66822587390010613,1.3247491557265769],[-0.877800109257759,0.44112226134705879,-1.0590964230215141,0.25704345728814576,0.47816853825990924],[-1.2235140572109189,-0.40633082328000669,0.030321513468292927,-0.78615359460074308,0.83098779523688993],[-0.92297296230782733,-1.2541507114289259,-1.5249155983437879,-0.46538114029739647,-0.13092417344711113],[-0.630548986832294,-1.1983397040349195,-0.92943375597878242,0.14465985946625676,-0.17368292033669924]]},{"rows":5,"cols":5,"data":[[-0.82908825380257,0.36042780856408174,-0.35687445272916324,-0.77769292657295408,0.52734167087989081],[0.53662273005606509,-0.23648111964019333,-0.24625405763869362,-1.3140667535152448,-1.1323563771434824],[-0.33422010344934383,-0.18864006475988726,-0.21481746028974202,0.062276598715166415,-0.23963736469866198],[-0.13264476801198138,-1.2828534480028035,-1.6059734020380967,0.60073549948622906,1.2129410477014539],[-1.0071549029226121,-0.84486268331495107,-0.80644989953377955,0.97936038478685128,0.013157896560018529]]},{"rows":5,"cols":5,"data":[[0.666505359540274,0.45013095506511441,0.21621470573721574,-0.3730654946608577,0.041731432352609],[0.11646470466274846,-0.32977110125328374,-0.861813625400803,0.55074433504445508,0.1214489609884543],[-0.69004464546982125,-0.22523668253133536,0.48276041183852758,1.2154525048292619,0.22182177485133789],[-0.85856982598301745,-0.5495745436495344,1.6296781733644543,0.25150489061680986,0.62641337669941455],[-0.12931651544975353,0.38405882008881986,0.82494658535256216,0.13318543974159666,0.27307365739468986]]},{"rows":5,"cols":5,"data":[[-0.70877215749382028,0.30718574633160084,-1.0888055065390363,-1.4534956288819434,-0.23884519588476277],[0.1063339330348783,-0.95439456545987444,-0.4088684972833504,0.23373973801720116,-1.8602595167526741],[-0.62303022033268785,-1.1459839139876389,-1.3395294376914457,-0.40279831652272624,-1.5646211925897955],[-0.65322047857695809,0.2772544188181188,-0.155439904121849,-0.29567719857642111,-1.9339182891872049],[-0.49431221755674243,-0.23371078478351051,-0.17850701998017773,-0.91048345204832759,-0.97157869867664215]]},{"rows":5,"cols":5,"data":[[-0.974524069866721,0.012295296913970404,-0.12268080390426657,1.0752414819086169,-0.41022741382515931],[-0.10294667862334613,-0.9416409844653395,-0.94450268355666722,0.00997987080451834,-1.3879660724493987],[0.4205489981920133,-1.0638949812314553,0.26785253622101035,-0.92872567449090226,-0.53402421668295341],[-0.94876749759684886,0.256544691985009,-0.34597384826218686,-0.8000438881948434,-0.15725675377977669],[-1.1440438907950226,0.59520641367855065,0.32116528526295546,-0.15276838958441946,-0.29419653015547925]]},{"rows":5,"cols":5,"data":[[0.55560459817680519,-0.404591711952369,-1.0329564334231032,-0.71229349449037416,0.32055449169480416],[0.60984976720560058,-0.29370622385473849,0.59776215359535723,-1.2324648416004351,-0.18084487078202405],[-0.83949580050046191,0.49543329649889661,0.27909821824465597,-0.77188505271794572,0.031387077794771796],[-0.431751488100919,-0.81806623865878014,-0.38459458915576378,1.0076894056929358,0.95141410981669028],[-0.45399303456359191,0.79283635094470339,0.74266120198775321,0.9643757600488797,-0.56341049098343532]]}],[{"rows":5,"cols":5,"data":[[-1.8464819293452506,-0.78314524871214253,0.33248222815752482,-0.52170086839720109,-0.626558270189806],[-1.4219328033109591,-0.073523232788452186,-0.32763750571054179,-1.2423517564339586,0.616032079830385],[-0.88955113264334962,0.29905666838601186,1.846679503832686,0.59091902064163337,-1.0181754433894159],[-1.3554165885451648,0.054556486203389064,2.0509010954893734,2.3566499991549823,0.44426024804669167],[-1.1671466313133931,-0.781928972071217,0.29962793004791538,0.37296930817596213,1.799758628626567]]},{"rows":5,"cols":5,"data":[[0.3667459173561462,-0.507652714450647,0.14978978580793662,0.14350660400098933,-0.30501010207178775],[-0.50997503167685965,-0.89281469222980114,-0.10829712228607707,0.17981352954945104,0.79327838618187363],[-0.65260606021326661,-0.84002577395726186,-0.031829500982475452,1.86703613873847,0.17514929615714622],[-1.5970839995260182,0.65349970045686756,-0.898713968034272,-1.3966911321295699,-1.35196228010733],[-0.717061707557646,-0.68484169468448941,-0.17869915115275367,-1.0692330784640738,-0.70561700296595442]]},{"rows":5,"cols":5,"data":[[-0.68374058299338536,0.685285977469999,-0.57383407947297982,0.67251451280083707,1.0352936525844743],[-0.23801844552090931,-0.32783464548397467,1.2046855272802073,1.5872081645812528,-1.056687351505851],[0.52980993692101319,-0.37992505827805451,-0.58045981714705652,-0.4866444880946128,-1.506771133239255],[1.2878285252376351,0.70111261243233414,0.56138179714743386,-0.65411845625960063,-0.91500287719528639],[1.0427437463488081,0.013302719987776223,-0.98476012951330083,-0.77407032943512122,-1.327336227092081]]},{"rows":5,"cols":5,"data":[[-1.1374382725704733,-0.46852492550057084,-0.76564663683433321,1.6644553097571193,1.0440729221649581],[0.15284648894571662,0.85038332958134066,0.45352643809617982,-0.55391517681955293,-2.0194963517404134],[0.035120588646748677,-1.0252015123373666,0.35858359564511672,-0.996506650808301,0.68988870664242574],[0.19653280803682915,0.01349004757230148,-0.63165183191304641,0.143624040589559,2.8753874029387325],[-0.37477181250676544,0.16095344192181565,-1.2454269613418374,-1.3832751743596612,-0.13085388739906836]]},{"rows":5,"cols":5,"data":[[-1.1669383274796579,-1.6341043585226773,-1.66484366013519,-1.121765017698132,-1.2922458503528578],[-0.63857176538801963,-0.60040281402998141,-0.82532505526083344,-2.1910684629214368,-0.77349942549475137],[0.12443169693357049,-1.5520317164499937,0.29196126989866134,-1.1872807369909124,-1.575740478713143],[0.15350417847153261,-0.58190218141563421,1.1987904983266797,1.5541080821628071,-0.13922721757564052],[0.19221970231404223,-0.90802502144274377,0.718447056814383,1.1577729016778895,2.1627538819242376]]},{"rows":5,"cols":5,"data":[[-0.26812542948460411,0.76100401678781182,-0.65510606500351631,-0.50604713249183619,-0.15001194114509925],[-0.1129553879047035,-0.50805498844589769,-1.1723380932985259,-0.13721884636011483,-0.51037343808933666],[0.20822938909267905,0.34034221298373041,-0.54269025681435512,0.38004761026889705,0.35373686387911851],[0.8584068424695307,-0.6179952540223822,0.261792455667153,0.36835340561208879,-0.26344564060647813],[0.19609527102634194,-0.07854299859619121,-0.14730890560424584,-0.1674970937878025,-0.99853812402511655]]}],[{"rows":5,"cols":5,"data":[[0.25288729367315727,0.88886608336091411,-0.10613215131420885,-1.1395403934305264,-0.46567386249656878],[-0.95738713574779455,-0.18550797456848236,0.023404468499894925,-1.1858819133410454,-1.3052656890225642],[0.29693469485781288,-0.072305880292400135,-0.5009849949886277,-0.02911261850387007,-1.3103478185440771],[-0.68106101955881171,-1.4097014189584785,-0.94350663244831845,-1.1552614129825385,0.21817687426634552],[-0.88796758627531114,-1.1891489271097195,-0.68353424278351382,-0.62351866209265294,-0.259331267064543]]},{"rows":5,"cols":5,"data":[[0.50594750819025436,0.081981520409364891,-0.9519684851119844,-0.75437667771593009,-0.87572626219186989],[1.5155415320656553,0.046980012000008828,0.47678834808135723,-0.50553064321653529,-1.2591217304844535],[0.37963339234603882,0.33530722440174882,-1.2410900247253387,-1.4534196863317326,-0.94498837979529393],[-0.983993946680119,-0.7929653635762608,-1.2844202212377684,-0.53309716929340889,-0.90325182087129463],[0.3190104659969078,0.78202132032184424,0.34241470558232845,-0.31251053541070967,-0.98822188090857332]]},{"rows":5,"cols":5,"data":[[0.069885818007417361,-0.83245548222291776,-0.25784071739508069,0.54431289759815349,0.62250261368750448],[-0.28992406443997659,-0.24513920828872016,-0.82053740991213819,0.36256496647980607,0.694768405408631],[-0.099040488237867652,-0.41357278633491429,-0.17894684179573028,0.37123639060046221,-0.90992054180116433],[0.95784549645072181,0.5553421452343944,-0.88310830499046444,0.18878044415085446,-0.4498698806658642],[-0.17569192336879888,0.921499492035767,-0.46792791128840017,0.72449743288956692,-0.1441540654163791]]},{"rows":5,"cols":5,"data":[[-1.0580008051242225,0.70457705758976907,0.23073314500256251,-0.99520695288578753,-1.1509774659528089],[1.699865749268773,0.7934586627351079,-0.010671154289944078,-1.1563393994651585,0.11240312295140045],[0.71039978986119989,-1.0041299127184125,-1.1406913283311573,-0.48434996763475729,-0.068517495919394877],[-0.76888537343749563,0.41065391883323055,-0.70168780192693425,-1.1606140625304835,0.098979628060622368],[0.57276214972927086,0.060274233450868082,-0.26346949941519748,-0.41800145275653883,-0.72056047740439044]]},{"rows":5,"cols":5,"data":[[-0.10706043443011265,0.41074612585744263,-0.22454851788576413,-0.59497929801910709,0.1150247480531566],[0.37774331397279021,1.0657186558102516,-0.0068180251991294145,-0.53624163979265016,0.252941198215415],[0.65759693074061221,0.67244930225546551,0.84523762847705808,0.08933145881050783,-1.2973676321108782],[0.905254064099235,0.2682025577925074,-0.58460307748056528,-1.1559316067479131,-0.46441586877926583],[0.42040564930833352,0.19583587210269002,0.087043431020399284,-0.95773710220370079,-0.94605582092554086]]},{"rows":5,"cols":5,"data":[[-0.1172049922915914,0.30029065279662981,-0.64964881006066044,-0.52692031261368211,0.20951496210506612],[0.054319924328617639,-0.26661809412810744,-0.27319124315352333,0.85185036890334509,0.31492249319386828],[-0.391035638134583,-0.16239071200081676,-0.45872865344231856,-0.23899986337616058,-0.80638379712149133],[0.73835294268545393,0.29556535312969451,0.2737510030414706,0.33957525818627016,-0.93932789552960616],[0.23733918905209464,0.70576850568295257,0.31580260236379665,-0.78502807162586463,0.71539650031877466]]}],[{"rows":5,"cols":5,"data":[[-1.3121163068215065,-1.1524838140118314,-0.40316118823969183,-0.88016982062311711,-0.19054396474008606],[-0.31696164015632772,0.095295370007364183,-1.3445575664669764,-1.8044695274622822,-1.4449364369482194],[-0.050482090830962383,-0.68160284788839209,-1.2002919219882466,-0.053501152620330866,-1.0660800659585588],[-1.6649316870673885,-0.60239153674045642,-1.1076948700444893,1.0866015683693366,0.79722260570977843],[-0.90056254047333928,0.30124904830126159,0.78033384738538814,0.29934995914638712,-0.13331584117812445]]},{"rows":5,"cols":5,"data":[[-0.00068707657458959856,-0.56090633161174963,0.37419820998992626,-1.1688099248132662,-1.3672587205372149],[0.038056416255449407,0.40363272685252982,-1.4852579622841626,-0.65737502870886255,0.19860614537574689],[-1.1126740961800812,-0.17447511674311184,-0.55030670551502137,0.96414514354645342,-0.21250030665883682],[-0.5706433184437335,-0.99618734924273156,-0.098256829999404341,-0.19566275881803044,-1.4713872092254969],[-0.64492997621054049,0.14060734032826172,1.2172828365627655,-0.18827280402148824,0.84782930639245946]]},{"rows":5,"cols":5,"data":[[-0.504063350783634,0.27641682909196091,0.52881322293620114,-0.68920215755963832,-0.756704557584602],[-0.13742996125376789,-0.35925787568519163,0.45128243335701651,0.12784019079479414,-1.1447177329635008],[-0.47653493007059922,1.2979796755735396,0.13898495270513772,0.36078499564739058,-0.53686024069236593],[1.1512126032195407,1.441340656379895,0.71110755169725637,-1.9225644085789515,-0.0650449596092086],[0.25181375822205931,1.8536840548114411,-0.19924672789680833,-0.20117615607754918,-0.79722564220992242]]},{"rows":5,"cols":5,"data":[[-0.64641541836139438,-0.41146042170089314,-0.24352686415211122,-0.73631173143788375,-1.2723328482303302],[0.16574390361828317,-0.86726246150361508,-0.77165009703249077,-0.66016953690876012,-0.6305524124809706],[-0.19946850169976538,-0.63587073344645162,1.2939112092832645,2.5001000785957763,1.2978025713930144],[1.0642450021704077,0.37713444774613025,1.0055529539579069,0.24311035631770794,1.1193555982187255],[0.59916321109989645,0.76307009037474272,-0.46001851064427346,-0.067211104216993292,-0.70183531476077288]]},{"rows":5,"cols":5,"data":[[-0.12549574077894479,0.1444559239074151,1.1540109533466973,0.41277981311754797,0.189215804730511],[-0.38855813417714113,-0.79317817672348923,0.94791050613088812,-0.63504620252627042,-0.418715258302655],[-1.3118241862159279,-0.42514954030582741,0.30204068529477779,0.03413754816940287,0.20580470647443391],[-1.2657393470473339,-0.684161472279424,-1.1437492767931388,0.89619567407943157,1.1074300875081027],[-0.11119408194117469,-1.005513501832829,-1.1731693423832412,-0.79490531967024947,1.1093426204012127]]},{"rows":5,"cols":5,"data":[[-0.96119582904753542,-0.25213303348776367,-0.66835509613040467,-0.90100637936336869,0.69210411114591464],[-0.8190263337730781,-0.7030510165431707,-0.36244477762025706,-0.048781037174506534,0.51861071655577273],[-0.71487550836074887,-0.323279300307469,0.86925583848243049,0.20005760336121953,0.3736208021144985],[-0.12565187143101417,-0.49014287135056994,-0.16608075683041296,0.25844323635318972,1.0654487105458594],[-0.2191746263348551,-0.067320856318314276,-0.5099683384846998,0.76998488543914756,0.31406487306369546]]}],[{"rows":5,"cols":5,"data":[[1.4572976093738086,1.2288066083679432,-0.28547447817487337,0.081884097219418653,-0.11346695246519917],[-0.030828422027822558,-0.27821101267294668,-0.24886386296297894,-0.28275517597516775,-0.1936965279620608],[-1.5944383920140315,-1.3526737040087258,-1.3565210654720317,-1.4478175899741428,-0.29142887814925517],[0.25742252423696893,-0.29775724332595382,-1.1344775994415166,-0.74869143865494547,0.079716195862824885],[-0.73506884753147539,-0.17993262719098541,0.035125436118399057,-0.61717580077749434,1.3499181618784497]]},{"rows":5,"cols":5,"data":[[-0.097042088812834645,0.30537612376384121,-0.09160131994027218,-1.6911823650219351,0.32190891676749567],[-0.4218397968441544,-1.3693540940870068,-0.66771368505283,-1.198692001481614,0.12009145688859592],[-1.1724424079105837,0.19730859071631002,0.38125801306358065,-1.1238220436210542,-0.42510528662959091],[-0.35827374912393822,-0.78691751763959661,-1.1721641882833946,-1.5936351478845983,-0.18970688685239054],[-0.75499252712558,-0.9021491938032502,-1.1888629048205264,-0.63655863647983757,-2.04140701311003]]},{"rows":5,"cols":5,"data":[[-0.29965776796707488,-1.0813764884871366,-0.5413450778657104,-0.070326303569168622,0.3457160181290117],[-0.62185464399625268,-0.65363194514110279,-1.5248336673472691,-0.50925546285765855,0.983503140116007],[0.15131984455663144,-1.0392978649058293,0.10683552275531073,1.4853243121748365,1.2371306031988587],[0.92679917428397729,1.0456632689761003,0.096049521257716416,0.55440310902116308,1.2057372886268269],[-0.56955698863160709,0.040224876785118387,-0.982980396297809,-1.0602276366941157,-0.31351301678271476]]},{"rows":5,"cols":5,"data":[[-0.34126200475983776,-0.45641373527872625,0.36519180071196949,0.76480643926103853,1.3990026007707777],[-1.3733761157368498,-0.49813483688509541,-0.96277775833535628,-1.5221690358157958,-0.784152441901725],[-0.31706610353033654,-0.26478771284548452,0.45654458825127664,-0.26210858749967314,-0.62679646306266712],[-0.11599144510713869,-0.887035770077248,-0.70255695182588684,-0.97260761241384974,-0.32696666633143495],[-0.37391959189980728,-0.033971353939760758,-1.1130621464809809,-1.7795389002811812,-0.90977642907974743]]},{"rows":5,"cols":5,"data":[[0.79869476643797577,0.70166739481556506,0.27182970000597867,0.14224784153451062,-0.033062043496908174],[1.1960034549003633,1.465520304807755,0.83326752846461849,-0.12585256795950148,-0.39657673344241745],[-0.48173473241467063,0.69277773590566127,-0.21007813393527411,-0.69433877043528325,-0.37966051740460594],[0.74579315973148586,0.55880961636777893,-0.34927197385020625,0.27959529673573336,-0.21347633541815414],[-0.77088830823744681,-1.3011676984680767,-1.355654775048774,1.3911403625132037,1.6441488692897015]]},{"rows":5,"cols":5,"data":[[0.16785943410430632,0.69031786320699662,0.83642959103391268,-0.23036945095440436,0.59629135801790356],[-0.62796725165236578,0.44763717728537405,-0.31461774849783891,0.6904850688603138,-0.23099808223080592],[-0.439748889549321,-0.89588817953722577,0.056368015747093006,-0.51853454913679753,0.4734688513344209],[0.21776113333892233,0.46675521525911962,0.155690047464971,0.91920032034623189,0.12831585350729857],[-0.91616722478346779,0.77877338577836774,-0.32134962681528711,0.0900941991704686,0.52265293003332847]]}],[{"rows":5,"cols":5,"data":[[-0.65652498399956571,-1.375411445714565,-0.30335471080194754,-0.26036081872329891,-0.63316483193509154],[-1.1662346593852009,-1.9737501755908526,-1.2221788391337225,-0.759988026614438,-0.79324457161267137],[2.2534572026313917,1.253643243970537,-1.6217629752899978,-1.3785957305523917,-1.0626695047165133],[0.67146435045245523,1.7159120532068966,1.3392892262190654,0.10573827297764316,-0.68782445591128616],[0.20481125723486207,-0.18276906535549586,0.12976702320239114,1.2110089268841371,-0.05635331826483575]]},{"rows":5,"cols":5,"data":[[2.2605061742701427,-0.712239605461734,-2.5685605236566258,-2.8106601370909812,-1.6640644885952169],[0.57568835367468552,0.54669870251672192,0.68415170929534785,-0.96164868780780743,-3.1468008232132743],[-1.0259073868318076,0.75289960207384121,2.1018390471906385,1.0760251504179594,-0.83141806475790858],[-1.0746457267173832,-0.62750629454910822,-0.15767540234610589,-0.12821749163806234,0.17668254647472334],[-1.91290326550994,-0.60956479364191174,0.44940343609447359,0.373052903553763,-1.0232130101845207]]},{"rows":5,"cols":5,"data":[[-1.0830326222795568,-0.93098716268410275,-0.26615573704501372,0.48423026343223086,0.45755926566031652],[-1.25056964390925,-1.2725741504175012,-1.4831953422067905,-0.40044948207847425,-1.2807338076135884],[-0.17935128379794013,-0.761320305897908,-0.85770431783194312,-0.746696091355715,-0.5555854800220309],[-0.86262463475739548,-0.44309791579647778,-0.32568503189313058,-1.05376154102888,0.079192184895375786],[-0.2369755116035904,0.589145170030663,0.43540675786698263,0.681640038782826,0.602620984375226]]},{"rows":5,"cols":5,"data":[[-0.17769285008417302,-2.110897910505606,-2.2811722266437746,-1.9582300857421442,-1.506075411578349],[0.24095623103540448,-0.62817935169729744,-1.7140356422304826,-1.6955600750057089,-1.7826715338869776],[0.34866224546790175,1.9605704337320151,1.5492188278588619,0.60468033768451124,-0.71310875130558837],[-0.60296422267998862,0.051738581758375674,-0.73395553170980288,1.1167273122242711,1.1898144796765484],[-1.6824212408731625,-1.1476418830416364,0.043979565130249525,0.45111942873462796,-0.48335589817267183]]},{"rows":5,"cols":5,"data":[[-0.92230514030000355,-0.33632625769606633,-0.19619874032665213,1.3182153955766267,1.6207476719274057],[-0.072877392870825272,-0.087920932256512735,0.32916477209368811,-0.23622891242885213,0.87876037821004738],[0.85618565761223575,0.42682898459716223,0.14357139561514598,-0.577406816406879,0.52482197130616692],[1.2818870436100325,0.081321868223672364,-1.3113162558794289,-1.6157999064579454,-1.5802263420674469],[0.10956562823084205,0.29996413815459438,-0.26100364388896907,-0.4315084155386017,0.30872508681411687]]},{"rows":5,"cols":5,"data":[[-0.11941640918672972,0.27911382614908858,0.85103278463810983,-0.9020334777303407,0.33350721999019883],[1.0881339534074721,0.042211461266870573,0.80160687525163121,0.47910683721901703,-0.68694896009182382],[1.148291234439959,-0.70400164563976864,-0.20798001924911411,-0.061136129501991987,-0.0063863890926536722],[0.49867018376142874,-0.44997471475501166,-0.080160532971095266,-0.671442872180247,0.82388601708376419],[0.87172527705790315,0.949235506317038,0.13644536175555325,0.72862626308795586,-0.611497974530026]]}],[{"rows":5,"cols":5,"data":[[1.2373810840091746,0.26518500793529376,0.82367811040081773,-0.11540684245647839,0.75202007236166524],[-0.40688032569637034,0.27590653336125381,0.029567011118568708,0.73119896602686207,-0.39325748956627193],[-0.55227760466288778,0.27487451884749964,0.36260080742663026,0.18703608628240048,0.18004408432308916],[-0.96523378573032925,-1.1448108866213096,-0.62017622055926946,-0.079911285720467684,-0.64609137586390486],[0.13331546782103018,0.66805551644826777,-0.15722402459065413,0.30667115979208714,0.11515799369442546]]},{"rows":5,"cols":5,"data":[[-0.714770027569534,-0.53896064912055019,-0.13293787099353654,0.67787888341524793,0.6976899945027446],[-0.25210640010402635,-1.0286150177181146,-0.89339866444075566,0.48936816836097591,0.54808715086029913],[0.11396016305429742,0.60443068888237328,-0.74957775873734456,0.071443912016608074,0.64995394157203235],[-0.40568393547727383,0.39029289014195256,-0.28197398786691463,-1.1633363581703273,-0.072228200207877249],[-1.1079526112456888,-0.14201533489395229,-1.2766769723353386,-0.13444571570288996,1.8583815582390748]]},{"rows":5,"cols":5,"data":[[0.94416442114503207,0.59715793850016052,-0.59690443128541448,0.33902372974246525,-0.39567828762372609],[-0.96854145959215732,0.38281998565648706,0.65537035881148031,-0.88286534206079326,0.18484220491716022],[-0.99306005553292442,-1.0132361401889547,-0.40854056848182263,-1.0713908660765938,1.0801731168985298],[-0.69096506827319193,-0.029542815454555012,0.36277768921003939,1.0059268436439572,1.3281340737859619],[-0.74448144291564344,0.42772621319481496,0.15790149929087796,0.59776354248954311,0.27618849376743448]]},{"rows":5,"cols":5,"data":[[0.62983534834467636,0.033571466107261576,-0.12677367675634763,-0.60957067315511548,-1.2516248941361858],[0.19333800713737662,-0.55010788028015989,-1.4114641543320659,0.52864328239168168,0.29799793454479084],[0.20852659614479141,0.58251064816056952,-0.51193237450369855,-0.78757184335465835,0.41638052393212366],[0.61947975962786983,-1.2764630088478486,-0.89670519620639577,0.9629217418156385,0.90399390530694934],[-0.56327219134400786,-0.40798471538437281,-0.12428089686281572,-0.27671483970415778,-0.57235151685755059]]},{"rows":5,"cols":5,"data":[[-0.023905326494583094,1.1634375509928194,-0.21677828539800245,0.0801385009949997,0.066005488687710209],[-0.59645632413961081,-0.59161685574908818,0.32443511057125629,-0.83841743879408726,-0.19636311963289463],[0.02539087288980392,-0.78550313069666877,0.21352217100399087,0.4546915481503509,-1.4458169549096427],[0.27775936552192448,-1.0460969836769796,-0.21705883970271331,-0.60699823320109092,-1.0082943174232892],[-0.70942799782823984,-0.746443515503715,-0.41283574002875645,-0.66743160325673268,0.56059596238421217]]},{"rows":5,"cols":5,"data":[[-0.744904917932486,0.26575897038390461,0.25734310885632755,0.693159195526165,-0.48288468727704675],[-0.09747388639024486,-0.917597082729615,-0.18210692970916342,-0.6063937340719614,0.71881157588886024],[0.74986531040884319,-0.66433862635128993,-0.032391900567853883,-0.46417387240290792,0.44753700105065319],[0.24071620554430681,-0.29770254209444774,-0.59137726775915056,0.52652313097946324,-0.92102445985211368],[0.61077683683022888,-0.20703197305965837,-0.29085291501985988,0.84276315538509294,-0.95068743680830281]]}],[{"rows":5,"cols":5,"data":[[-2.25749594138832,0.654028682224858,0.75655558107105647,0.9981583433001614,0.026689293143760843],[-1.9602457491096563,-0.98590462819637381,1.0439115019388363,0.893909435091729,0.23919818806237644],[-1.7411419751115898,0.042878025969407096,0.56951096976804727,0.55453178754605781,-1.3949600387812489],[-1.9857614256634295,1.4520953027899899,-0.11747973088375423,-0.3108215797526066,-2.7081295267025305],[-0.26807152390636185,1.4214555285156678,-0.040636693550776905,-1.1669481982975072,-2.7020917806287441]]},{"rows":5,"cols":5,"data":[[1.372514608304501,-2.1969299187576334,0.42641508552966506,2.0013137340220974,0.22000397962384241],[-0.31805411820222396,-2.7726522659783073,1.33266512587251,3.0918352745957516,-0.045200580729100763],[-2.3764562463622156,-1.5827016163116356,1.8493181579169731,2.1903155045361316,0.027492831041695424],[-2.6601133455034836,-0.022218162009974056,2.4251562418108343,1.4994020552021181,-1.636149385317085],[-0.63371410702825437,1.0728332340361739,1.1684932945962903,1.1675841047372602,0.25435874763825667]]},{"rows":5,"cols":5,"data":[[-0.97962534399001433,-0.068931879627418716,1.2053779335877464,1.2153242956055148,0.047255851165058371],[0.71839899517355,2.7829972414931388,2.4624029704472132,0.18178386818896911,0.400233721318683],[0.79042834333782364,3.41412909940453,1.8729916181514077,-0.49427868419632315,-0.31685344087690415],[1.8141385590560806,3.2429949989341709,1.6687703760255168,0.1884864176557973,-0.44387491995908623],[1.9576093097467173,1.3808278645637062,-0.4029581510542235,-1.1342988378753676,-0.40183048173742475]]},{"rows":5,"cols":5,"data":[[-1.1639290449557223,-0.95431731992028745,-0.29182243829735627,-0.096226169460728969,-0.45310673078377756],[-1.457254882736462,-0.11733952912067923,-0.26666347419463521,0.05733173847689476,-1.8891202923655577],[-1.3790727927287827,-0.27293497703680308,0.65521188310718015,-1.1371880128183867,-1.7846099218119831],[-0.31390176386488328,-0.5117938752397041,-1.3392937434216239,-1.2723086217351336,-1.6226757933756111],[0.60626455510521937,-1.1630560565353076,-0.32997932423017751,0.00997472856751082,0.43562061813428388]]},{"rows":5,"cols":5,"data":[[-0.99489211071692807,0.56488529244955565,0.054899638419991438,0.057793335521326025,-0.64682957973213862],[0.28358341209927895,-0.27555414608230855,-1.5929350760235121,-1.6783341666605554,-0.89150463893919329],[-1.4112990964937138,-1.741597178444021,-1.7134676148058381,-0.684301557795057,0.34031052283188129],[-1.6005062695442938,-1.4301256023932532,-2.7530095898124221,-2.0595949754627831,-1.6771966301634018],[-0.76109401724415193,0.15816249402435756,-0.85383804903139637,-1.9500707924010354,-2.6517414016063681]]},{"rows":5,"cols":5,"data":[[0.62573614045430115,0.84589137816432436,0.2819554965202925,0.51334974497652808,1.0611720327692038],[-0.063927915949769182,-1.2025887704964953,0.32269124164368551,0.087523195075445467,-0.78500076948661679],[-0.37110639033744119,-0.40169728273217248,-0.57461474483498376,0.71963699958179017,-0.73302996397058862],[0.094434738562451284,0.26609248288345688,0.64257543597115674,0.6845628977115652,-0.82333798965298255],[-0.29844002358172472,-0.049076315850396082,-0.27805570086535175,0.11389411273861323,-0.73681734804210519]]}],[{"rows":5,"cols":5,"data":[[-1.3467179895154069,-0.42990546002287094,0.28037802032844977,1.1628493973432708,0.080487088241933416],[-0.49016567128229666,-0.76819533609327872,1.2305429802731329,1.5512813001245618,1.4412847289203441],[1.1291765047388558,-1.1222487710915341,-1.5456155108559748,-2.3181761738332161,-0.59518865455104286],[0.3346747088582801,0.073341175749452439,-0.6535759669179666,0.57576786501734922,-1.0748840870771792],[-0.12975458469162879,-0.36908746757077221,0.444234892284884,-0.20862812203476286,-1.158523492489042]]},{"rows":5,"cols":5,"data":[[0.1263743842948635,-1.2157744640356367,0.13481083471162775,-0.32934134029262019,-0.1325596749211955],[-0.29098340594080191,0.24246072350995318,-1.9870598432894071,-2.0443439381019135,-1.6185056502356416],[-0.69407332869404637,0.37760163183339435,-1.2131694321565183,-1.0366118695419389,-0.037331888508784626],[-0.32630752681252057,-0.25795437332175664,-0.63550493079542347,1.3036495450740773,1.5329946585222782],[1.1989023747617065,0.1736444275172126,1.5476082807324645,-0.46979580215014183,-0.75053147792581731]]},{"rows":5,"cols":5,"data":[[0.039386039081788358,-0.72804596808469391,-0.13356408241113293,-0.81442998666570054,-0.95239941863459565],[-0.40739869186985561,-0.92122290745590629,-0.72714418680117843,-1.1702598698598443,-0.47654107568480458],[-0.56829007977111179,-0.69908823404520659,-0.6893465532636408,-1.2841209710616703,-0.32642367174779729],[-0.81177324815313678,-0.576110537278893,0.10448988769466407,-1.2836159560014,-0.34692566495816818],[-0.67616443654831393,0.11838826236276467,0.494804603033156,-0.87208371825254627,0.44596340241009347]]},{"rows":5,"cols":5,"data":[[-0.29276318290806791,-0.81258377740654586,-1.0994008721420909,0.5743566159711081,-0.5017195090444988],[-0.66827991446559043,-1.7392939456524483,-1.7023958339972332,-2.5935828456157228,0.17736051273153308],[-0.84982822853568463,-0.4659836041611865,0.6512948324239648,-0.33194630633720867,-0.39229606410196233],[0.3400155141162598,0.26393366250082417,2.3060088267038261,2.2268630057893448,0.032746383149554088],[1.0042945026890495,0.21896757939747344,0.908556598662498,0.6601253746252721,-0.49336009821966154]]},{"rows":5,"cols":5,"data":[[-1.9835904196617034,-0.56113028034635148,0.5901047939528854,0.8000972880706626,-0.0065760337535488945],[-0.17406125863372973,0.95450686239819993,1.0248806414337741,0.84504292462967689,1.7829472450263997],[-0.069453783657574278,-0.81013781869719081,-0.13612456292527222,-1.2351951758568647,0.78252083397766092],[-0.25811790996505812,0.39477308963513275,-0.4083207692586921,-0.54071291478695038,-0.15674300187590262],[-0.3315452345893567,-0.72519090972211853,0.3729471861226844,1.4651214672450288,0.62250690342374237]]},{"rows":5,"cols":5,"data":[[0.35992836001645795,0.041740055595021856,-0.88515060291141268,-0.9335195500094382,0.30853856933406376],[-0.88413335815296823,0.70007329091991266,0.38636816925632905,-0.035877922471989308,0.67475570537899432],[0.934602734823704,-0.12920838213587349,0.68455051293176883,0.874861021103685,-0.038250108702015569],[-0.032881325418885013,0.99884166474391511,0.024122498103233588,-0.33900433201206376,-0.98716364387895372],[0.67086782930455,0.90371960201168355,0.75440856760348041,0.44401712570038826,0.80427418949893736]]}],[{"rows":5,"cols":5,"data":[[-1.021577801648762,-0.29397926644854405,-0.699001555998961,-2.3145831483332797,-1.2123015686556462],[0.44749272456009626,0.23390527963382934,0.48429930497713813,-0.4019714979728401,0.33039416110421133],[0.62848480991631417,0.52724142191737411,0.761431709119862,0.43239474237199055,-0.51460937094924541],[-0.45387303551762687,-1.5988306092349445,-2.3731655843732415,-2.1635577365725207,-3.0372951618491828],[0.029758557388858006,-0.61558148921879108,-1.6903530700612188,0.097669729229082222,0.39665781138071643]]},{"rows":5,"cols":5,"data":[[-0.944581906649004,0.21003676760508186,0.43247835493826048,0.74133807024749754,0.66947710369043278],[0.37888842338493489,-0.66353327231401271,0.59862677802981512,-0.23046589941944454,-0.70773108359438619],[-1.4001102198665694,-0.92789439555073072,-2.7895890182931096,-2.8867506089119357,-3.4192025276524856],[0.97254042414110708,-0.31017735177038264,-0.14263013766769755,-1.1458143169077142,-0.6946229578374461],[0.531940454096973,0.49673853068353463,-0.25532739528626613,-1.0523510694150138,-0.29061855095005279]]},{"rows":5,"cols":5,"data":[[-0.68515191493321259,0.20185170829957885,-0.18002964319811182,0.89527489034621555,-0.34258961482870526],[-0.29977743145193525,-0.30544076280300281,-0.66279640228798542,-0.2892955388507007,-0.56852839798320842],[-0.511276387014596,0.47634831287294532,-0.32173622989393236,-1.0637691569022014,0.13152012678276306],[-1.6290684264021149,-1.2665601624664233,-1.8229016800780427,-0.34473835187030671,0.40929202764826111],[-0.62815555482478425,0.32747081333404454,0.96241522701940463,0.456658718861608,-0.42580642149120324]]},{"rows":5,"cols":5,"data":[[-0.33356145761004447,1.2302242143957778,0.74243381619116078,0.032846713906701859,1.6097155965776773],[1.0325696376116955,0.532093590517855,2.4682881062616406,1.2124888511708722,1.0583537589546319],[0.41493277888968316,-2.180616304322013,-1.252975688994594,-0.31142232451919427,-2.6241649243142628],[1.3337337640531857,0.334871586110377,-1.4809570761015345,-0.72219385008950132,-1.0690935947186631],[-1.4857710887020781,0.13292407456815555,0.16412039993967753,-1.0562496368516841,-0.54860789960338441]]},{"rows":5,"cols":5,"data":[[-0.077691409268365264,0.2493677033743322,-1.1710681009857402,0.32599382245398911,0.17093606310967441],[0.29213127888455537,1.144537901022509,0.70547564127555917,2.0739764308518147,1.7690902540269693],[1.8377389299692497,2.9162257802590021,4.2847570889317481,2.82477771304308,2.4778045099179997],[0.80617015018219651,-0.065589695861293651,-0.6181413344568506,-1.7406375532792995,-0.61068318829023538],[0.11075203841596604,0.33214479338330877,-0.92502315593843853,-0.53170611545015067,-0.41557018963073222]]},{"rows":5,"cols":5,"data":[[0.98397862368305866,0.29852261539020225,0.090551236973193922,-0.64310862183194428,-0.64506243467322355],[0.55530647866178839,0.059288836454109567,0.92689982138724025,1.29999413883238,-0.070473757227961772],[0.22168627323601045,0.82472292540835612,0.59762858169641164,0.30865603886827,0.25872459750976018],[0.50473168863729012,0.36890080745921966,0.571196894346324,-0.36981296074443148,-0.665997929062144],[-0.3918554294626303,0.45922897120852851,0.31932080297526272,-0.78772077621569492,-0.48497634559674241]]}],[{"rows":5,"cols":5,"data":[[0.83367199102817013,-0.35019963356872114,-1.4320695318477141,-1.3540278743939922,-1.399717618661914],[0.9898068492366523,-0.63903568267045,0.17993298330197166,-0.35310271600753979,0.42921100164326509],[2.3235950573110022,1.6475292593661997,0.017505311253149542,0.462276132707183,0.80259288455215183],[1.009598598538431,1.9135201843879384,-0.29257071673133428,-1.1045732934529682,-1.6905062283435461],[-2.9124958165095274,-1.1846546296815683,-0.9250815038960708,-0.881916806765678,-2.5201916136330955]]},{"rows":5,"cols":5,"data":[[0.376068783072978,2.005473009289759,0.7336909453541518,-1.3100434500006739,0.43206825120137593],[-1.0741395057274967,-0.19312293381541992,-0.37684203520143689,1.1132389208226492,1.2633016229277931],[-1.7848178321251345,-0.52059299507034473,1.2146863445614222,2.0070264432059886,-0.08203081763747],[-2.1388659378268851,-2.2456341981992165,-1.3486905682319068,-0.89828831066947734,-1.0566084040220449],[-1.2316801517511846,-1.1178035052291029,-1.7889215496960107,-0.60292856194195055,0.10696700183560089]]},{"rows":5,"cols":5,"data":[[0.21275309038582693,0.21143843406139656,-0.30384100071915215,0.58318809194227894,-0.78036742662108671],[0.990221658920994,0.040185937536992428,0.36825915709765816,-0.12934408524681648,-0.12059698086010952],[-0.76235502937537,0.58390729370510552,-0.074911583811210575,0.4821002406174188,-0.13548032900855214],[0.59379608691686458,-0.642185609261513,-0.55235840003685666,-1.0859635148666187,0.17270547609256659],[-0.8201246940998258,-0.86626505457221825,-0.84345198606658045,0.4533143136899706,-0.49322761460197739]]},{"rows":5,"cols":5,"data":[[1.0858222086932279,-0.45904821541404084,1.1208729926361,-0.66095738711433538,0.9895615532212344],[-1.5313052367001476,-0.23616042181201621,-0.75411774494215178,0.22900686765138478,1.6885849476492127],[-0.92117148789287073,0.86281582010920566,1.44487495055913,0.29984939349680956,-0.38075691199814965],[-1.3224365528604809,-0.64731108667806969,-1.3784763687315909,-1.6790258483814076,-1.6811552813130151],[-0.99783254409651,-0.20456891803355384,-0.051855340846719854,-0.6680557474186618,0.45507656790545131]]},{"rows":5,"cols":5,"data":[[-0.10422698617600791,-0.35768205344887238,-1.6469249837167077,0.54483289912210731,-0.20772288435330671],[-1.0201748434616265,-0.672576466440738,-0.24113142182418576,-0.36897084596193724,0.015542474515125868],[0.51836514327522876,0.39938907782755112,-0.21670255070832434,0.0061600193046664623,-0.13343547108736387],[1.3116940805269837,2.2345970615387412,2.7345480942642877,1.2353902125035561,-1.4109672618652034],[-0.84053191779555025,-0.050156371881282615,-1.5206236390440779,-0.45041007908254671,-1.5128113492718442]]},{"rows":5,"cols":5,"data":[[0.61198038214558081,-0.86397462767865241,0.38500896783678845,0.37233890878098153,-0.66061569997839],[-0.0025396256738678194,0.55911960829898566,-0.00053112156443078321,-0.10530835694359379,0.9562674241961715],[-0.41961837901286775,0.095159390103236263,-0.18002800919963108,-0.28392854510763088,0.501143617331934],[0.99129872852263523,0.66173043469548143,-0.79295139690743766,-0.55777277678797688,0.57587007664476086],[-0.049729127449282949,0.57339890528353388,0.41230639120536527,-0.55897951984388272,0.27188870931642817]]}]]],"Weights":[{"rows":120,"cols":256,"data":[[0.29181527879097896,0.50286476776772127,0.98608463065261875,-0.51144474499444359,-1.2294909610305047,-1.1266757913685419,0.78435251316071086,-0.48683577799098465,0.4073200844865697,0.48631814816202373,-0.575495419038019,0.61605922763066856,0.58368284766373968,-0.777896465667692,0.60942873246209128,0.70415821143667656,-0.43259771682548886,-1.5848229922650017,-0.82226407164645288,0.76553289555160009,0.79720114373113948,-0.3634872801443404,0.81179256478843675,-0.6935963556297281,-0.7120186865984216,-0.010387251146343427,-0.21025297225047862,0.43881453948933796,0.98842585814048656,0.82257340366015141,1.2248797473315969,-0.372497560323132,-0.37573898741686917,-0.8749825896733463,0.62426608158064922,1.4194752269889497,-0.56147957196685772,-0.59584150033382333,-0.57848443222600754,0.74821789568678287,-0.24284568113475946,-0.57666711802777559,0.90225890010690935,0.96827131171183933,0.22089606362365405,-0.98806394907202855,1.1524647239631969,0.75427529288349171,-0.16217971458111677,0.830269946253514,-0.78156996012093549,0.49564475916500861,-0.21168983059440813,-0.21809556768247893,0.85194570536645475,-0.23584204546451015,0.93464644838684252,0.11628641309845608,-0.61398012324161655,-0.36922561379475644,0.40454551237561759,-0.72524020850267978,-0.49226922638156612,0.76871537887605,-0.524909594433986,0.5461838272156927,-0.10412234957499517,-0.025598498344384074,0.46681456319399628,0.94335461220382211,-0.045529223610298111,-1.4910879515046247,0.49914391350857118,-0.42094884682985084,-0.098714929094022491,-0.62514274774834655,-1.1092960280647433,-0.2318585805214691,0.45800343771615809,0.43644875188631094,0.36372324030500786,0.38365891784099548,-0.1885231676607837,1.0262452174103833,0.7165597758476776,-0.94589053596139983,0.7639237274263706,1.0902513411638677,-0.93994363580916029,-1.3142135349813702,-0.45960974242460728,0.22033842283811339,-1.5867794082463669,0.61183751762528249,-0.27054958836140947,-0.34620058678630422,0.34564975792716912,-0.7588050281279729,0.36152962934017663,0.99720294001281085,0.21962078432382803,-0.5294918560678249,-0.66319348198840233,0.14806756348722258,-1.0981956831952422,-1.282922710109726,0.64569534189197,0.33511243180706729,0.77722981000349378,-1.2475002656896685,-0.29710362498112125,-0.40360203399508776,1.0001163038797489,-0.55879375218254,0.61674696856071132,-1.2003484334878012,0.33032773207238142,-0.12484573358300233,-0.49272001676274507,-0.54209388405683023,0.62595980189995393,-0.14977751759552915,0.61536020526839808,0.051542054695863371,0.55037735253567865,-0.52204834510394782,-0.59852421017074442,0.93204022640343553,-0.091628579127623941,-0.68063205522429659,0.82445909245747706,0.975175766874002,-0.20540982921625728,0.74610326657684256,-0.81298252229098422,-0.13339183905877086,-0.74667568031074538,0.12195114156250447,0.70297544143627544,-0.092558627319988734,-1.1135837711893166,-0.71984431918567726,1.1025375574882155,0.45149089804584808,0.18046105178955521,0.51106906147954556,0.32429738831518273,0.5810830966479551,1.2555744249863372,-0.784516236457011,0.62438663479357881,0.16344958253270714,-1.3298158414829155,-0.33702285194591697,-0.5507949662117313,0.023401071317259898,-0.060193858411020651,0.7522187823384493,0.72439017720773979,0.78806241060420346,1.3820651549321164,-0.36380446950347095,-1.7253104531436,0.014895006381797469,0.3394653634340481,-0.12171216896061023,-0.41473775008241431,-0.031380279654679516,1.2216596206582757,-0.52020432112918147,0.26940965281526297,1.176042477398102,0.39358488464292618,1.2698337095194769,-0.663710912407171,-0.63615494797083982,-0.11773284817451685,-0.83443319218226608,-0.88752309017692355,-0.86840201703127839,0.27600359658191836,-0.36772664031874558,-1.0477864589037693,0.27730308360493672,-0.3681249817741174,-0.55756780290020314,0.71769205751027032,0.5714138224362767,-0.19602432696871139,0.8547021169890805,-0.70453537112694287,0.56878119569144114,0.5810171024217089,-1.0797208509736513,0.3794333572793791,-0.34446234133161618,-0.12605879513019441,-0.053547818577242626,-1.0929086918949025,0.99971524574271953,0.8784630970094236,-1.028309169783215,-0.61896016037647938,0.91745699986183193,-0.21316585803984064,-0.17988878455971252,0.80297757894420829,0.093877013185668,-0.49745689110840197,0.41262169663420162,1.6225553073453067,-0.20837539708547992,0.00051329355605026861,-0.10112813791362302,-1.1895808636052598,0.24170870233904046,-0.96503332572507683,-0.13647642505479055,0.2452998061197266,0.16933965623169361,0.20030479970809467,0.21035449416397128,1.1558362934216686,-1.1890994757721496,-0.881542643687836,0.073744035913790168,0.39775650282744052,0.990279501940148,-1.359690715810836,0.031326975127020172,0.20658251838294414,1.186253878915686,-0.62468718582755567,0.1096286362605524,1.1282858575383341,-0.090933139156883336,0.17524588845671693,-0.49432402193337904,-0.65930424620591765,0.13174014641013335,-0.92039365363510572,-0.34089302352181688,-0.21488747956843921,1.0321365638938131,0.58559779260128242,0.92603725276090232,-0.208190050361913,-0.55539687098788593,0.59093083166329718,0.6671721848283465,-0.54750985100386584,0.83948084658859745,0.72153953943577287,0.59833329030242333,-1.2561671148018854,-1.4390086390302539],[-0.47964490966561468,0.646284036998596,0.2414002256095979,0.501603317064601,0.942213526859427,-0.357276783351147,1.17511332653014,0.010209274332746342,-0.20267011096622312,0.63808915005328437,-0.385877559194484,0.12211504980682759,-0.43968926718296764,0.58573516477468668,-0.72156760864083336,0.51042785999106688,-0.42142042264017637,1.2578205733845116,-0.26997325078133538,-0.30704449063230527,-1.0561256568380735,-0.82801580411535824,-0.98741019156225762,-0.45317645039078408,0.18193394957778417,0.54726842103063134,0.58634883993360321,-0.29735285558758912,0.64685525269187694,0.26628858648725723,0.50536523275235878,-0.080644263411617956,1.0161644970189567,0.25640277593823907,-0.10684790802034938,0.82266852521902312,0.72508748788946631,0.55857148722208694,0.76938521270280436,-0.82369988505464209,0.32710880932885128,-0.53449967812005561,0.4990220927920721,-0.15723003993724957,0.79117332718097522,1.045136128118652,1.3803449997907769,1.0156687165508038,0.5875279541129188,0.043311209156697124,0.075655129178370792,0.37371105131796117,0.023017567548999952,0.82923206630754209,-0.95103652302576114,-0.64974092038135145,0.45962462294858558,-0.40076580485911,1.0688627163331161,-0.60941598155241061,0.14199783831194046,0.3021365762867006,0.34969318528779814,0.590955602182453,1.011230294340103,0.77052607134318418,-0.094990531883819312,0.44218950297831983,-0.014435347754390373,0.017233544388337272,0.59564723146520993,0.31175862169008467,-0.5595605525399715,-0.88948255643654128,0.098181953675079522,1.2160936310735671,-0.079831859364178054,0.23130862504989655,0.27309352532985809,1.2787062237709024,0.65354140902441016,0.57633083940763574,0.047903358789968271,-0.55991438478677014,1.0246556219985163,0.9035291283346425,0.81303718433833472,-0.97260256676141232,0.22494553081324442,-0.54834828079584,-0.78538649526827065,0.06470023536545351,0.31315059698060188,0.21037016515514989,-0.01551305500048368,0.86649885669634152,-0.042677845612539692,1.0288600985331837,-0.043559814684643754,0.60431624236100678,-0.555440602702751,-0.54534615611922266,-0.11601059680822669,-0.19491953011869095,0.753280176879547,0.62302639585050279,0.20513271732890112,-0.0924512857270281,0.073249858287021324,-0.75890085349900338,0.17689713858815306,-0.8332170883286526,0.42861009737071432,-0.8555015673741253,-0.410923532911132,0.558325463286778,-0.8238807776026964,-0.11580319453836761,0.43750540196403975,0.90275784535635162,0.75825466441252976,0.055627412149817056,-0.693325593357172,-0.30265141208208113,-0.31061913610985592,-0.43605767134191031,-0.77654146218738862,0.17913792855088595,0.54264329804129807,0.56475197019340706,0.24174599029911292,0.1685583746701681,-0.20140234427891335,0.54317359481576777,0.51528577759370942,0.24706473960539321,-0.25849332414903031,-0.74504046439926142,0.25093595395709922,-0.68040221048998828,0.26039189273359287,-0.023035715287114622,0.40258881101534644,-0.0046713480868518023,0.27172816633751884,0.87254844286024458,0.68132185698742453,0.097922518973052736,-0.040224130513736071,0.40087278544265859,0.73764967458716812,0.914508029296331,-0.56360024953050991,-0.09398279918596901,1.091103632599457,0.47829692213152786,-0.47437131913188235,-0.81799874078529522,-1.0051706272450351,-0.33464276195981418,0.27606719141255376,-0.76804020813916607,0.99889428640523,1.1806334591930685,-0.19717065870773032,-0.81860473233109521,0.80993208834458308,1.4376011023662692,-0.41446693585664612,0.30979798745507342,-0.2124932360363411,0.99722776566981863,0.88985899419243231,0.51442288385510915,0.19278250332381822,0.00689479192409459,0.71390466520964269,0.2967516521724361,0.29260644274496267,-0.24286428313023251,-0.084629565935829223,0.082650606642639929,-0.666188061816934,0.80741347408175346,0.61289751325739372,0.34700922082792879,-0.17289689927851482,0.43577107068033433,0.46503589455067595,-0.84118300812067126,0.058983363230836167,-0.72079986032610166,-0.65361636874530815,-0.33161294216678983,-0.094492003416933312,-0.35256628332543855,0.7813032558291062,-0.939634372330061,-0.32533504739979419,0.29470317078783131,-0.38080292039970037,0.97174706034021263,0.041757985674552668,0.64141273380021657,-0.5303243802146399,0.63885113225567847,-0.37262198220327325,0.39816446527304794,-0.99174770671965273,0.35979679719350277,0.94971796935322139,0.29823062970599634,0.31718890114373488,0.73119295552467556,1.3123349489917351,-0.32938653536443113,0.94345118114104742,1.2768413442355502,0.82333277198271326,0.81756456028057178,0.47651793983542245,-0.58857114613232087,-0.30297482018760824,-0.41045194432199716,-0.52477780143249031,0.05589097446311022,1.0925483710049047,0.52840140709843042,-0.46189802251022022,-0.49461702782000283,0.79972668096643928,0.87441484116712731,0.27497157178511988,-0.98776878814140912,-0.34503118188499166,0.29352716591027522,0.23253216323939352,0.37285727570200794,0.20751755828039284,0.69981635805004561,0.33806668034111564,0.90492648935715125,0.48505343821430907,-0.56853774994397865,-0.49767008967158277,-0.79046644380849251,0.24354211554739697,-0.23725136676235514,-0.10831163237683673,-0.3188873306149973,0.12653249821018528,0.2982045799157263,-0.19586692301749559,0.025782157986646646,-0.71808972331789367,-0.99017407290061943],[0.40225783464884968,1.16235553896398,-0.11027813594185063,-1.7388428854982221,1.1575306334568734,-0.014276162188666279,-0.25666111757425575,0.62015033548171838,0.0695820171460102,-0.95925868674539994,0.13539752975906796,0.088675257338385577,-0.14163216690773206,-0.20856513401463367,0.91282803756972708,-0.42158392938697337,-0.0442641608967309,0.34366563175949172,-0.88283669259073716,0.46098222978603209,0.31636178501487972,-0.779346938408339,0.721581837599204,0.40963629018411196,0.85228718843038431,0.48297556175931539,-0.84455406526959231,0.71089038809824523,0.19690421695256538,-1.1205175321832523,0.14664019182610286,-0.40302664531278087,-0.86305111817369429,-0.576388433423035,-1.2671609915887834,-0.47578620479602329,0.6298777707313733,-0.079891474895839254,0.44508164666875294,0.262996940549536,-0.041383473332602339,0.4474933325777759,-0.73865660309857539,-0.714420965565822,-0.22443838005520081,-0.70057226424130137,0.57369543872814321,-1.296891178593504,-0.39108097618988674,-0.75620764340469782,-0.43482581704986972,-0.061118606326594174,0.8839610010964094,-0.40788076299112636,0.23577607595778241,0.22645382380882609,0.87576738794199716,-0.0029833200924615989,-0.24064042575554956,-0.19177104519041452,-0.44364569259041775,-0.2359123649372091,0.079954400684812243,0.90027827716651287,-0.63557803925037759,-0.026262404532755471,0.78772203296874577,0.18441688931710312,-0.75188438932671053,-0.12321694054273374,0.22686596808842266,0.50306653047714178,-0.41699964324545147,-0.64219335015943457,-0.75818359071060915,0.68406809478797848,0.508587780654888,0.53352311273286857,0.30063485473911056,1.1512849546047799,0.66420984129188942,-0.81059890493579145,0.38606541942408168,-0.21510476861447619,1.1374145956470179,-0.48127892229642943,-0.26768011168024725,0.42137833360670784,0.75282792319411385,-0.37693588312201726,-0.88181076294229588,-0.81449343366021609,-0.24673520753445996,0.90410250009763182,0.013819907675573553,-1.0051854922702317,0.32574074722603774,0.41616374909185105,0.79253272893102167,0.90358627578731376,0.587935901094683,0.47310551080877328,0.99574604768086572,0.53413854076379064,0.41695682975648862,0.988956351250191,-0.57298025210106707,0.15629763909726302,2.0149260161427094,-0.67456221285590989,0.840091509532261,-0.58784873353583311,0.91644000184572272,0.56619799762213352,0.15440740461478211,-0.7470890351825562,0.45696667870609214,0.83106160765371906,0.90149579360355381,-0.36643639211041817,0.84765882198728282,0.4308202471398821,0.7155802967210505,0.949565482867857,-0.633515029408073,-0.318614785482632,-0.0079486444829562561,0.43408716311270651,-0.28395730414097109,-0.89738265389636163,-0.64421182259050092,0.85110318937394169,-0.04569635250672776,1.0649682252291897,-1.1847499420776577,-0.60972099143591385,-0.18092627910959511,0.77065509531086562,0.28401646926413632,-1.1384982881645449,-0.041939527729791377,0.79878698229221845,0.44781623701151535,-0.29203341061571658,0.68882842851207593,-0.7783641738248892,-0.57936769122006571,-0.17901407495531685,1.1664754837054825,0.10970193520977963,-0.71358628900767951,-0.17193521230824022,0.93201760531399391,0.16649997977479741,-1.5327721863127151,0.43070050666813908,0.51032546807029411,-0.33305184819855516,0.1261638674189082,-0.45850242333173363,-0.57878513423293609,0.30423952823597322,-0.94656274742592161,0.39107576086666151,0.88287372540917752,1.1719242690051606,-1.1269046053729137,-1.5230242915956447,0.37873861765108574,-0.39370095781237363,1.7422955810214835,1.8776102101989158,-1.1901951514889406,0.45358174931821305,0.99379423349668661,0.56251447212929162,0.97690798012752555,-0.14428586079999389,-0.8013970744397847,-0.98131412327471368,-0.78087964075342975,-0.84838740130919577,0.060949510397750706,-0.84324867045119711,-0.86721627556373215,0.344607435301619,-0.8905102112724852,-0.2983293587528586,0.56655056695167083,-0.5081380785515428,0.197085874814898,-0.66843629666479987,-0.53626486983610655,1.1478725847652809,2.5566776763780785,1.6086429532263362,-0.53648608789491881,0.5584239784753372,0.6282268553047573,0.61386983686704977,0.054645117947237934,0.3578557900156939,0.18888716735875355,-0.63773561883745677,0.73876056013428082,0.38977424766911617,0.20341069746250878,0.68153202187230033,0.30125306638559196,0.84181648902352657,0.43124921503803121,-0.85465265921924294,-0.657913865102127,-0.254333138341696,-1.1291707430109883,-1.1602106581358977,-0.27387470844719547,0.611964029120301,-0.43083471334264273,-0.39010575365671391,0.31291405784679988,1.0156023078915413,0.2087817734538989,-0.14732028456162624,0.893892359528387,0.059850234000463694,-0.99315618240512349,-0.34508430772281817,0.99668533961655847,-0.99644118406406657,-0.65659923456256708,1.6389366676025186,1.6805474235299072,0.44548874572371783,1.1309900848208836,-0.035604782835126,-0.42095044039011004,0.019616201363064575,-1.2855481602726815,-0.40050070192537734,-0.51895182044880384,-0.67853339188285067,-0.17407241593628117,0.5170437945002474,-0.21701387118557461,-0.14656667330752204,-0.438228949939532,0.68431427197949313,0.10934537670299761,-0.43925982136477354,0.0395115063706866,0.73548861182911685,-0.023388887638359557,-0.75428472827269188,0.022483438262250521,-0.54990096205354122],[-0.12693616729051008,-0.85611755075551954,1.01276078706766,1.1708754215902253,-0.41753003335659117,-0.52185796439896048,1.3534434296093418,0.41986670944366239,0.1219675493819076,-0.771823355516364,-0.52402144388550675,0.54094295182934737,-0.24213646569246713,-1.2306739623330056,0.71146942834588145,-0.14470161349994104,0.87548358389618963,-0.3732335864745881,-0.932118135024525,0.82983674939341856,-0.33930927189448079,0.3297487363866119,-0.398858714772028,-0.13244643032264544,0.72776013076872625,0.89018704198572873,0.84179414970346733,-0.40416462539468617,1.0125490742940704,0.084298133161816821,-0.72917915398025834,0.76505845270052719,0.451866868338268,0.55025970761373022,0.63008970253750551,-0.2014664185686261,1.2961934596177587,0.15600563314959556,0.024945534398547228,-0.63872938013795233,-0.09486938861793949,-0.39446020560543388,-0.059121263885911435,-0.52710227609820526,-0.64187603349585542,0.21287593858256182,-0.58316423154319663,0.18693720736998226,0.96457552920938749,-0.68745063403393192,-0.557709847748394,0.10773988253048565,-0.69110147654879273,-0.79317614962388916,-0.719909500391265,0.47837885900859617,0.940471663205366,0.16056774160296977,-0.11412859556622321,-0.28025728781788317,-0.43673820024852544,0.54150430557389129,-0.42394986625381054,0.85042273474222985,-0.9649122604971252,-0.14001181199247206,0.88249500259470082,0.96063847933842983,-0.52564546430151271,0.4287872648510791,-0.7477712446319521,1.0782658963678102,0.51234854546020547,-1.0077934170110543,0.63746803193870283,-0.74596995639026553,-0.63925396099544674,-0.74255014718325074,-0.45323516184417956,-0.948393264341771,-0.44004612349322453,0.075622642289130168,-0.39450940550257335,0.90121666136807033,-0.11311154556273609,0.6239334765334118,0.42921639691561309,0.32038620239167576,0.43085627179015057,0.44218835745241308,-0.099239190888793558,-0.08854494929450156,-1.1019788517204929,-1.0306514861777942,0.65280084707983366,-0.20643079075927534,0.60380677031932517,0.087340121462898532,0.85504612278034764,0.37844766785451472,-0.11080878766855495,-0.6048411985445401,0.703836075570361,-0.44633790579901195,0.21249336607292527,-0.7478683271183052,0.66028398176814584,-0.605525263743713,0.518733380404974,0.975274641106399,0.16988241042238308,0.46865234802954553,-0.055489001554270369,-0.38577200726082622,-0.98874076531190636,1.0154252929696535,0.2489441151983087,0.20227217415861204,0.1449018536952624,-0.19248552623155149,0.87778620597112622,-0.39614622031896013,-0.72660879037283932,0.62023557366747872,-0.066494712920295462,0.77330550907674223,0.33157556230420226,-0.10617062673028109,0.097529735182165955,-0.72817842075698724,0.1296228179861319,0.88475014742464608,-0.71704692096338107,0.082104233970055548,-0.0951352445562047,-0.51555946042115,-0.34187674237581972,0.89808486547296729,-0.78783945572789538,-0.76922565761126693,0.30729910266233151,-0.35861689216074571,-0.33019845504694567,0.88943210799405248,-1.0235524256311503,0.0798259340321283,0.78897793999328336,0.74614894294235257,-0.90217214765165143,0.61619429143782445,0.082296690434462735,-0.92411117935886411,0.65607480935325335,-0.032800413338810674,0.6297281449800215,-0.32649590848539667,-1.0479990189805413,-2.1757012036807519,0.0769937522970939,0.77556748840020151,0.49600961930304488,0.42077606485806351,1.4602225221721263,-0.579662460889083,-0.44156824129963229,0.34262510446482253,0.2807417763736238,1.1803654689358274,0.99454965611024726,1.0847610497923124,0.65042529123716564,0.87930409186881664,0.29087294550867587,0.26634602850635913,0.90654649481626626,0.37355345295172704,-1.0907050289840141,-0.48375266852000742,0.6261700625303348,0.97372837474121576,1.0729592926747367,0.63864885370068858,0.15186025453026258,-0.18594928906253605,0.095601752421886954,0.058137477617155132,-0.90256241084232092,0.77834134574903091,0.41561732154651804,-0.82914851094102826,0.68298764934617973,-0.42002040352752223,-0.99169616307734654,-1.4871441469165685,-0.23762842181284016,-0.18883944310302211,-0.34454087013942625,-1.1414051271787864,0.86045343676161645,-0.4657248588955763,-0.78523879225282278,0.955142016225543,-0.43640530848892467,-0.53792754803701837,-0.93501281778335377,0.1747388074539141,-0.14297969064131363,-0.31226890689739545,0.16369940662535865,-0.85353789697812732,-0.91571456725085409,0.89188713961580879,-0.32227647379721586,0.79434187045118976,0.89987398089907122,0.58549757797770008,0.65157300360078785,-0.43235542195000365,0.12509008352022394,0.77309492913642608,-0.32803392664228193,-0.20000250300157774,-0.14859648761415928,0.87699737785056464,-0.079965506875679,0.79442243964427284,1.295212728564056,0.83819966444435168,1.2279919267876454,1.2623506886531388,1.8835088709419927,1.4252461514627612,-0.039461810511556394,-0.17608071443258053,0.20924845597434752,-0.83634910723015,-0.38397332364001152,-0.28287603297728553,0.34707852430290626,1.1888301699471617,-0.15251505981693925,1.1469374250839075,-0.27185887159169675,0.097617226522342726,1.3301463417799277,1.1744094419528397,-1.2365737239177836,-0.79804194061253331,-1.0949524621973588,-0.60832460678806421,0.43006551400455884,-0.66896837566878309,0.44498448914212752,1.6132393294784215,0.90880996703986661,0.78824642850432036],[0.953422432224607,-0.23179192208881194,0.73600681573397675,1.0863649878090451,0.40358490408361797,1.1427438192786803,-0.50964015751501979,0.13145255376022905,0.31225216644768405,-0.13162583783512524,-0.17345102054607312,1.3918266114507802,0.795438342087319,0.57557374048175247,0.70357984336045865,-0.61372614818553362,-0.64074951578811579,1.997649407557319,0.91235922910278333,1.1239327691332051,-0.41637142074996686,0.5961914014080294,1.1233544521937906,-0.34726012272893014,0.03623353582222022,0.58324885754567168,0.21243180576232174,-0.12557651763177927,-0.051872802133498562,0.74215548476664739,0.224133949094765,0.70881651670675794,0.71650492358938733,0.028644245550314609,-0.053064482437996122,0.53680407124689145,0.34255627035745567,-0.85188617335122718,-0.17939773678842341,-0.36236752399272304,0.54695544622999026,1.1414810316131192,-0.56807034009046431,0.68180359710687855,0.48511688193243818,-0.44661161956472439,-0.36373307117415682,-0.31017716467274536,0.7737185595247501,0.48959735085126427,0.43611562343649529,0.13894025500874632,-0.39020999035547843,0.652780791112179,-0.91230480541466519,0.50253869427205233,-0.28416776150255146,0.71947110433287143,-0.14964886635005234,0.043733875317252618,-0.012516150713723048,0.51961528842492344,-1.7550552572606826,0.19975051217649159,1.2001848942254614,-0.10085781262424916,-1.5310164922157237,0.024536732711186626,0.651525312149162,-0.20889090705165683,0.11274567775120546,-0.51481772485042931,0.68563018149159438,0.25498516438839752,0.12852996117678525,0.36038846347868353,0.6003906843053749,-0.35506633177493779,0.16235634673012836,-0.69986831969990493,-0.35860962827936138,-0.87576146611208994,-0.24806159244187193,0.286711513298163,0.33737326275359258,0.96192777894527,0.020373806338015707,0.49058133055481579,-0.51270731679462789,-0.30280496368854587,-0.306148184027189,0.50597516790200392,0.23901302045458481,-0.719169476629871,0.38970507181509262,0.54503385620839651,0.50868226231825531,0.33692865087210144,0.46237712122826374,-0.27385856516346008,-1.2725584113449076,0.18785253161034665,0.49758220518153962,0.23130613216756524,-0.66010187209373994,0.78782357939908609,1.3875220311552026,0.96606854598074177,1.4544804613781162,0.13483164342721379,-0.50007133062797837,1.1309431011938227,-0.15760118679239821,0.22824305541467371,-0.01807808949918133,-0.7863884946378078,-0.36025102964470185,-0.22347012655585846,0.45912950807212471,0.742247904054118,0.93513987430852363,-0.26056397324226355,-0.628098402059835,0.14591213224220315,0.92681541513510213,0.48187336105601886,-0.3584785286447541,-0.99289997126839169,1.2510189577666906,0.0957046427513312,0.422396021563651,-0.58924355682729768,0.65842059989848745,-0.30040759683734597,-0.6871435346703626,0.052021758248667956,0.069815801600060137,1.1787726811365911,0.476380360656256,1.0262681893560386,1.898355233605548,-0.079360738981071141,-0.73049763959664216,0.2587929859376672,-0.29498914088368611,-0.334237245859572,-0.26787344324027662,0.99803942095413323,-1.1639453506505493,0.137978231258751,0.13764096174815146,-0.11981020244652312,-0.099770746034832158,0.10518210163121222,-0.19884704301389133,0.35642607906792584,0.66129405362846727,-0.18312541017808684,0.075594403562541393,-0.14508922528850629,-0.24924978838733575,0.53420225741140925,0.59632366265555115,0.38603958601739119,1.044303817194175,1.025151633701116,0.024462515137685742,0.032094194955843612,0.42120022113979577,-0.35880467488836548,0.992246500818901,0.88793233526568149,0.88227463003671758,1.2125649577937327,0.85474714039899458,0.25383779094243125,-0.43182649756309344,0.29731085895355835,-0.01713120068542073,0.39009206009096292,-0.12933677866818835,0.073633506704831056,-0.93926528633403228,-0.81549912836936678,0.82949197925304108,-0.45245140867714273,0.2535314010006614,0.33707199957881617,0.35176936283410282,-0.49006579951116053,0.57682488870791981,0.088812791399393826,-0.18276485537107459,-0.7996106881947308,-1.44849869154038,-1.3792229630308897,-0.064200985598193552,0.40506226359331188,-0.034887886767014806,0.0754043670169892,1.3003383511815772,-0.749619954220517,-0.21828318251847151,0.92961850547524483,0.18359485441275231,-1.8864369333647513,-0.77426274997737166,0.73541059737241332,1.1064599591717967,1.0401825367014457,0.10888634558359688,1.2071833871394326,0.17412389113116428,1.3125059436459081,0.961972954525403,1.12002893363066,0.540916026866101,-0.52700069635034852,-0.178225750549139,0.71664783968959211,-0.04867056949883624,0.42557347655203215,0.79496138934816962,-0.19433553549928517,0.025265195689213114,1.4187247289322074,0.843649470874241,0.56045289773848372,0.21937887162511044,1.2590678179766379,0.42256176966134368,0.27398803221077445,-1.2557852996557155,-1.8000783695230025,0.76238765386261143,0.068511368992901736,-0.12774469445381728,-0.30165090601907635,0.81145756441118755,1.7550460050410566,1.080632936456484,1.0300025122805658,0.8208230483912351,0.9987196344642727,0.99933929209543526,0.4374072080214203,-0.53851395440099215,-0.23621294268911991,-1.0008287490875871,-0.53847991931541983,-1.1063621551936926,0.45760474299091441,0.425664174589863,1.7060581420954626,-0.49761380125947419,-0.3500072396634622],[-0.29474144074130892,-1.049380448948587,0.078067035460739648,-0.14562462250229097,0.1151080306141507,-0.39983207190307707,-0.49240813646795439,-0.22639140414254272,-0.5472165048953691,0.530781820272825,1.05599794515522,-0.09778092844605088,-0.54979226428382633,0.39000887555244368,0.86221087561459286,0.51367228986960867,0.24682021181523373,-0.20662283394049907,0.08553130833611218,-0.14736792104099047,-1.4311175299673524,-0.12427627060788093,-0.69359291874625217,0.22844608063466909,-0.94535942425507813,-1.2636862321432394,0.29380362301042351,0.47382465510972926,-0.575750421061884,-0.15216955383494468,0.70926164292739624,-1.0868998596338022,-1.1926078489276488,0.13061215141365185,0.93202799930074354,-0.8829845272285356,0.18323442435458415,-0.75897571454932578,-0.79704178059346731,-0.52853478466888182,0.17626689433640985,0.19501605490562066,-0.20221507937339484,0.89994943204699585,0.85261448008223351,0.45246747136765958,1.3664835392393646,0.026181310353652551,0.50843603846238716,0.073807901760464381,0.63835179565354094,-0.95173868129616579,-0.61340623863470689,0.13300641806239005,-0.79280321100217155,0.075270232059975961,0.55500545477508223,-0.94219146985068247,-0.68961852434388826,-0.28502529227910989,0.51970443343621242,0.045856992035032282,0.2027030626321448,0.20535614584807219,0.95540615121075789,0.97624121120268992,-0.5736629376934671,-0.131417908911809,0.40931927544091246,0.89553774989408774,-1.0011524540990888,0.6103956407232165,-0.13289758510771366,0.25316700453603092,0.80176469218199109,0.53287158398197476,-0.61270825844523147,-0.54265905029421335,0.025842334878350026,0.19729585778462147,-1.0518164328877588,-0.349177893755459,-0.88882644368093022,0.89945574867576583,0.65194730801892253,0.59905389512593754,0.35401066273812515,-0.085127242905958786,0.26413453161280537,-0.84334673897429213,-0.79072998260698146,0.16264086091745936,0.80179626365409429,-0.44480357860903724,-0.51498252525418564,-1.0490801773240603,0.26728221660647716,0.47075816422090733,-0.88326751701656359,-0.73235857150669115,-0.21941993337626142,-0.1252659349348054,0.55635718424976632,0.87657156617893128,-0.17253252317103318,0.85750455511027412,0.35678641171521291,0.03798955690192906,1.0366953862368167,0.27664753085643395,0.307419417684909,-0.17339180366180082,0.10771975797386689,0.35704026466106992,0.35982719840526112,0.2009140970016163,-0.023368078016191084,0.488793258675816,0.662127720506239,-0.66935262432286846,0.9674565245090323,0.65936307120061244,-0.868577829153364,-0.36118199327753409,0.10934388010782871,-0.0083028544072938186,0.86929793362212926,0.67117559867691345,-1.1940762432031009,0.37044596149109921,0.85899518847162437,-0.1673144837124681,-0.64556636429044822,-0.39504833604521417,0.87248043570596623,0.29858550884328744,-0.37556458701236545,-0.91290708436533485,-0.11039329597648344,-1.0366197148120639,-0.018687159727126663,-0.56150403598757859,0.39408576534134859,-0.84752724804145718,-0.10801298618289325,0.29420905853500368,-0.97159485896287878,-0.49732450849095738,0.1506693097739191,0.51764184378132794,0.0855955856656417,0.96973247868842194,0.70082851759293929,0.72412207440522547,-0.95595929944375235,0.26453441043146425,-0.24405048941502663,-0.6828762172203392,-0.818957996834607,0.53366049277659378,0.290192624723958,-0.038467058491587852,-0.28356629808414996,-0.400612268740823,-0.16615556613135871,-1.184060207578381,-1.0478219614651543,-0.839941463226854,0.10774652461664915,-1.2847835151861269,0.61210640437835351,-0.2638344503857456,-0.93184421457780453,0.47423137714666208,0.72989094607423144,0.647147066783424,-0.77176643518075461,1.0104097182914735,0.5402680750125044,0.54871076468970237,0.11103776776662971,0.4326700468247886,-0.66685665070306865,-0.41314443436198922,-0.33549376146272686,0.64323938064254971,0.14493480997809818,-0.28917915769026209,-0.817546949612015,-0.35022253423899063,-0.45021255926812936,0.90222225419469371,0.4993692213015668,0.76188772493605927,-0.38447834645419121,-0.72006495251166325,0.68291571964973841,1.2326688055332686,-0.318307297256163,-1.3468079745319186,0.24691984911517373,1.2487730079578092,-0.72927454254865753,0.12587932589700537,0.68010999271932759,-1.8656439146620991,-0.2609701436028376,-1.121175810124633,-0.95141217262420119,-0.40446940377537854,-0.12631728579289578,-0.60394245625829013,0.21764136317548896,0.20876295926673924,-0.127722412900699,-0.42226667311839389,-0.16891462983593306,-1.3139823208055699,-0.39002553177175892,0.80494800444223635,-0.23088306302833517,0.30763290999537152,1.1719459443240834,-0.32081355637648207,-0.31385269897685036,-1.608575039643797,-0.1544981113648157,0.50822381971908215,-0.314631959960822,-1.1060053866907,0.5508227222153852,0.072084111382157617,-0.67050319906417344,-1.6490772338966222,-1.2497736004110085,0.041051603447005078,-1.2784049011666556,-0.81941065843255134,-1.3444158912715476,-1.5111612543474764,-1.424728718416763,-0.7413749016240585,-0.91629028504868637,0.567883279020964,0.32776346461957806,0.623503308379363,-0.6234603341348216,-0.9046972376897402,-1.3374739389704784,0.0877346450641069,0.1669762181615812,0.35654136377105083,-0.41143754986130837,0.23168159842411892,0.36749690742365515,-0.11293724604549807],[1.4041565711403468,-0.23932716877997121,-1.0787532241423385,0.593552463054037,0.62231415509822918,1.735445080367986,-0.73848320940996981,-0.35103537654880618,0.607995560872204,0.25706601229295323,1.0277837739882882,-0.053854375832121187,-0.20621932746645913,0.10205730765479819,-0.94429926183848156,-0.44280843585326435,0.8555274167889596,-0.35805337071611187,0.52519562395393959,0.08676886161728968,0.10136711068315416,-0.58730246180693335,0.018374886298089831,-0.14963336241412267,0.973567753392898,0.97578357150749662,0.49296768095796473,-0.97934142214682207,0.33380135881280809,0.88806129249077814,-0.19581581733488468,0.62145447449503033,-0.14411185012563266,-0.32664057378564532,0.37195608585367307,-1.1479984723986887,-0.0384377134080478,-0.20369827794620604,0.63747834737041065,-1.1835015753224134,0.010873105347906151,0.29724576359570903,-0.74095490083064952,-0.41395536560075713,-0.61308716059522539,-0.023369748684167704,-0.51031842370783309,-0.5300424869879331,0.40516100227188168,0.12058176618266349,-0.97799674615893462,-0.24226867134652397,-0.845491918020578,0.81705435187157138,-0.4730576927316737,0.93248447938613555,0.15444391490234574,-0.27348850713955231,-0.36628802861583742,1.1171519304356863,-0.28188165691127309,-0.4725101085758997,-0.37466498569092005,-0.095664347279209708,0.92453493795267239,-1.1090123359451214,0.59051544210251627,0.250499786421119,1.0768653797704446,-1.1460950191663755,0.61210111613704565,0.68324075578371668,0.32044573105714036,0.19744660780250359,0.24926606967669382,1.1660086963066645,-0.6425869247824505,-0.29411076450549695,-0.22109766227470698,1.0671886742635133,1.0952605684673011,-0.6208262763898329,-0.30104818021015273,0.8939064554907763,0.98323328693243517,-0.25425100489154628,0.76270556075101292,-0.13737874000267811,0.69536376839266112,-0.58831876184264176,-0.32700127010203678,-0.93786019285724409,-0.62111259133873553,0.8476121780542536,0.36918559189434785,-0.7561858459320181,0.26874759126421688,-0.32329670069679484,-0.045308035846571143,-0.57546882351148121,0.96889637739703571,-0.69864969728674664,-0.41842031003210195,0.32174622541225034,1.0346935260911805,0.516201310933112,-0.98671836676996016,0.24616521942629493,-0.47038974579658011,-0.71856199611563243,0.32819906435915663,-0.16410351553177996,0.44008308394273227,-0.4465865341456694,0.534475387825167,-1.6527986837501165,0.80608988804371429,-0.83575165320701206,0.41091966401759628,0.38805731929296194,-0.39216648201111842,0.1292020894894258,-0.62144739799744508,0.867811750013732,0.18286163395082714,0.53296593097819744,-0.44489734466683739,-0.27819433425709023,0.64215629645631844,-0.11571000414673698,-0.5848245090473454,-0.232906891959991,0.21160081353110227,-0.066539284328969009,-0.97348733795591613,0.21717437105797424,1.1172407685548214,0.63569520787063061,-0.82089498670245031,-0.29361729121837654,-1.055966250402441,-0.93007660104161316,-1.1615584276886815,0.21265781264939809,0.38051464136721835,-0.952795836451216,-0.36232870710963389,0.68393199514423375,-0.88230307066555125,0.72728367240697012,-0.65386382082134664,-0.339097435154264,0.38970012582299024,0.67447199882148745,0.42113170205405021,-0.65074414117977875,0.013341214635059223,0.069111906292332215,-0.54320046085157936,-0.36009906722616492,-0.313686902363349,0.26195948010458969,0.891110375282577,1.141725347223471,1.1074861871722677,-0.24142615504257731,0.048520337955437115,-1.575341864543224,-0.42516975578889282,-0.30910562671549924,-1.5466906606792676,-1.2868681424896546,-1.1380461254862042,-0.34739927053704156,0.1380034702456279,-0.081900041747029612,0.239371878907612,0.12653734763588342,-0.42326485878601761,0.0099925615823937466,-0.033647072087499869,-0.0096114668006271071,-0.37306707849273613,0.80083909311235446,-0.23984885063070446,-0.72539848153873931,0.6954834432038004,0.55748915651342068,0.46549043013698038,0.46481083146778845,-0.24435977326424999,-0.22016406536611038,0.38194018450101835,-0.30260334111088505,0.87333918754224282,0.49916836510158025,0.01938287317041271,-0.41754096449811684,1.4371346451535432,1.1487011042677873,0.0807512683044339,0.097384225336571081,1.4682464161680231,1.6641991335463506,0.9138234557456868,2.3207121869418597,-0.053754417465094226,-0.76712610011797133,-0.070147627649125868,0.628290499596363,0.37443029124411453,0.4018371547751316,0.21297532597272578,0.80218812524590222,0.607328091408649,0.89052729054117274,-0.26940662418155059,-0.46382497308639226,0.43400316233601038,0.94494966553465121,-0.66483693069607053,0.436751757008667,-0.61905032272621852,-0.063700120792913831,1.6227100068284166,0.62377702097215737,-0.46816674630763849,-2.0428942453840362,0.4679673753250625,1.2328789009526373,-1.9871390585389019,-1.1746539496801853,0.48848509997385164,-0.66154221457043072,-1.0389162909341105,0.48670197510058932,0.628317812356581,-0.74122306724554721,0.034869500143747963,0.597873112409711,1.0254849651821016,0.75173809322687957,0.20635739143917425,-0.7977971473418749,-0.50905728921990712,0.73730919748310209,-0.48893087851585937,-0.61921470995796124,0.31802642120894359,-0.42213757445019068,-0.47865554886590167,-0.47927582382728784,0.040377049215992826,1.3593502310790131,-0.48339206514254157,0.2544230750003087],[0.33549293472827935,-0.11350842652736524,1.4646347109042428,1.7778508492360248,-0.64772075556864372,-0.43055674683980405,0.42752548806428892,-0.68110559863661568,-1.2814238637743982,-1.4986273360788038,0.93472491220558618,-0.6126847931228252,-0.67315347932025,-1.0285218906679348,1.2894925406410545,0.79132420892162125,0.6702686674584809,-0.53599091335138327,1.0565673016289665,0.32503425487257276,0.12177228541277181,-0.23269449278071389,-0.4964807689168188,-0.16544458445855007,0.028251299191406197,0.163282556701273,0.3409883654507978,-0.33026630846703636,-0.40214900768337691,0.36107259871038633,-0.74425430988459385,0.980282130274925,0.0070133393810954776,0.77482102125727492,1.5341345156235662,1.3065617271850873,-0.056621473493320043,-0.72188906589043911,-0.58814953899822386,0.54021497269185514,-0.31881449340686413,-1.10082536570897,-0.033646957424239961,0.60911034844904244,0.2546245522573905,-0.7834514609132669,0.017982703211609948,-0.38072970780208026,-0.55733158484054091,-0.14296227423362315,-0.21849877790657638,-1.2028465966136912,-0.7790313165971845,0.40397283129359474,0.53233699101287058,0.052682877639111066,0.612266906352763,0.58791908311145746,-0.47952218420441239,-0.18184476627382623,0.26649579686726349,0.031373734352086867,0.33919688169292372,-0.74300812097346225,-0.51755947279639458,1.778746860860748,0.79049078193789057,-0.7577330168373414,0.008325218929336799,-0.41728095684632321,0.10585315945583564,0.28838559996138946,-0.3305067303025418,0.16585853071035875,1.2087773477417136,-0.4002940849530105,-0.81649957959852026,-0.27127655301142389,-0.74500238278876518,0.97709586362700329,0.71421660796921893,-0.13380815638638591,-0.891728485144685,-0.53809478079725048,0.086680837775881966,-0.66635770096248326,1.0872389244441623,0.84468024212431236,-0.91815970120119306,0.91679442722201743,-0.87653156057635917,0.68335478757147061,1.3350411747109907,-0.55540331148811428,0.75034886298012515,-0.11135149298958116,-0.42759791849343753,0.71547183516267732,1.1451361190191853,-0.89088001035095887,0.97765248515015979,-0.76747525001493933,0.79743363754170993,-0.672677062213007,1.7497164727925441,0.50596703983440938,0.79575994400379113,0.60396068722646212,0.78977437275332263,0.318430607281374,1.0584248879396869,-0.27279542656466038,0.015330892240698751,-0.021718267024761352,0.78410852276154241,-0.66961538961427236,-0.28137825097932062,-0.12791003386943661,-0.86886268432559155,0.53064043090767288,-0.778010830196759,-0.7360739759208742,-0.32184641717331025,0.0044022629230146861,-0.836634785930062,0.41444075739649805,0.54182842310304469,0.59640938148833533,0.047668767058537134,0.073875668634106231,1.1309474529541361,-0.40131763971542217,-0.46430457074595438,-0.86584527887264218,-0.40349034041630477,0.36825542740759937,-0.17164520606510939,-1.2344922651391892,-0.48643539040031419,0.730941656302516,-0.60973555019641135,-1.0078923720674315,0.87708588347690275,0.61744288442377737,0.61573343893498034,0.47449808462925142,-0.62427765093955634,-0.13258949352793062,-0.64296303288221623,0.22568068754368081,-0.63022062662121592,-0.86088802441055812,0.42714567011299343,0.58153697389735937,0.8730261907723913,0.4577823732663856,0.5826309444043497,0.93348168638496776,-0.88937199814288237,-0.092652439059782946,-0.25475265760260085,1.3353348564137284,0.76271803463196264,1.0035294845812091,0.13013945542814651,1.2485433507382868,1.0263208129754724,-0.57225692839346987,-1.0075220552058386,-0.25985561094733245,0.066647883712397465,-1.2018276370126542,-1.3721104388660277,-0.369391871020735,0.98790510025460787,-0.825608931715165,-0.49911301273436048,0.12676036619083972,-0.21013645041567106,-0.30654560404393316,0.1333815587119449,-0.51976451901326681,-0.40538306248942341,0.081476123226054478,-0.11258134455461798,0.84292977246062284,-0.11619624256852316,0.15094759482528822,-0.51801004370603543,-0.076853175432449086,-0.00899953574276763,-0.85613620746814423,0.30602044779820242,2.1017771882598657,0.2467690539593593,-0.76584310447124149,1.4076928508569955,0.37917648228755207,-0.43580544643547892,-0.31954326906985447,1.2849004171714489,1.6239741637271146,-0.13179211348625067,-0.24787832376391145,-0.64439066103019615,0.90482375445039853,0.58027477776741421,0.42662132185255114,-0.57741649494923408,0.87599431509468073,0.021461248790778643,0.066142728616987279,-0.86696934327998743,0.57161577284797238,1.3321600916018768,-0.66012275368731632,-0.48258483328526913,0.21132637096557963,-1.0266819503701492,-0.044385797820859052,-0.18673661712037898,-1.0955985152822423,-1.1456723019994624,0.81594068492657867,0.3000219104234832,0.80614890033011577,0.18532647613528019,-0.60772339749967441,-0.36562689716065183,0.31024536535948405,0.10185353616962434,0.4304480166253753,0.028286349731048446,-1.3397428860751326,0.150109194150537,0.99119428141175658,0.025170085354690657,1.2471203626407488,-0.021486703490662028,0.66769222098626724,-1.3295252929750059,0.2234597259747,0.15069864994817672,0.10222200671444257,-1.1239848002485766,-0.947861232820343,0.71223292689243256,-0.067657015443907245,-0.24939593551614356,1.18824199760891,0.43796561080667673,0.80359654323755247,-1.0100236736997268,0.71780083957021434,-0.32358708224412364,0.70947236872346009],[0.3603529244582373,-0.42816005824041237,0.58828205606222428,1.0228443245572858,-0.55923435033280866,0.30299673358870016,0.9047350151220066,0.64029424242839461,0.058510974468252867,0.476193945751052,-0.23257285450489257,0.8893006291636476,-0.15356941935404961,-0.64919452487830132,0.9175846448943985,0.54959562367960291,0.066760440556017861,-0.39435727842648949,-0.85912414910679746,-1.1419267229220598,0.73625471613109139,0.412408215708083,0.99288199317890713,0.62019667850865523,-0.24641843970541993,0.55032180059822011,0.42566783401827374,-0.99465055847729855,1.2052769891151174,0.762049098355916,0.66513169700281483,0.051054425769721141,-0.97391682100979116,0.61411618300392978,0.80767076467619325,0.90628717403042236,-0.5188610630860766,0.47380121611237536,-0.028839000962735738,0.0061255581955709732,1.2569080720057795,0.931213092151976,1.1624379709049943,-0.0070104889660741673,1.0587385962307485,1.2442953971509254,-0.39057676460387236,-0.89764677118571545,0.34466909734938617,0.64246172869925977,-0.56272118086139022,0.17735851441495912,-0.59648644575348753,0.52246503819482448,0.68682740661314023,-1.3078355389733136,-0.076898454412924935,1.0017667243802662,-0.5579860014777035,-0.64517668489940239,0.49849021358893619,0.95244919520043292,0.44416242709281556,0.23392046697791982,0.74508607183726017,0.25776896726023529,1.5197132574020273,0.059440671446007079,-0.26762565396189797,-0.39427679978293617,0.25673457552023166,-0.41845936453850552,-0.41389070213657042,-0.36678760793333492,0.10091254197200227,-1.0078535590308888,0.85974137341528223,-0.20036790233060287,0.66253404391657067,-0.25332654464664461,0.99404144052387688,1.0756513935886272,-0.23700888107319862,-0.75166316752120976,0.7142310302166448,-0.14227332323730121,-0.08721846463948979,-0.30583541107844647,-0.399112153458369,0.53229277934124708,0.074650791261854546,-0.337371206068121,0.12890234589387875,1.1320675498065349,0.35732537878538262,-0.86544797052045985,0.60212828495827542,-0.92758560205005358,0.14371793728007445,-0.26924866918328832,-1.0822299933735669,0.974355082862646,0.59832024223236069,0.280187505351053,0.063163137052533028,-0.51657912313206522,-0.44411429125477447,-0.83173313736839,0.13391594537492019,